7.495084285736083984e+00 1.005489635467529297e+01 -4.265319442749023438e+01 7.489911556243896484e+00 1.066706466674804688e+01 -4.390243148803710938e+01 6.309731960296630859e+00 1.112901782989501953e+01 -4.283247756958007812e+01 8.080500602722167969e+00 9.829515457153320312e+00 -4.341176223754882812e+01 6.742040634155273438e+00 1.133328914642333984e+01 -4.406741714477539062e+01 6.680412292480468750e+00 1.177003479003906250e+01 -4.500104904174804688e+01 7.602005481719970703e+00 1.106826782226562500e+01 -4.514946746826171875e+01 7.027862548828125000e+00 1.175852203369140625e+01 -4.582065582275390625e+01 6.231898307800292969e+00 1.179481887817382812e+01 -4.429756546020507812e+01 6.750333786010742188e+00 1.033848094940185547e+01 -4.199055480957031250e+01 8.176458358764648438e+00 1.035472583770751953e+01 -4.476052474975585938e+01 5.946812152862548828e+00 1.054225158691406250e+01 -4.141286087036132812e+01 6.553589344024658203e+00 1.203716278076171875e+01 -4.568560409545898438e+01 5.183101177215576172e+00 1.190382099151611328e+01 -4.324874877929687500e+01 7.276065349578857422e+00 9.659848213195800781e+00 -4.166570663452148438e+01 8.797236442565917969e+00 9.604826927185058594e+00 -4.478578186035156250e+01 7.943948268890380859e+00 1.105879688262939453e+01 -4.613376235961914062e+01 5.265718460083007812e+00 1.135787391662597656e+01 -4.219008255004882812e+01 5.337767124176025391e+00 1.253177452087402344e+01 -4.495858764648437500e+01 5.632470130920410156e+00 1.223758029937744141e+01 -4.456630325317382812e+01 5.126085281372070312e+00 1.229033660888671875e+01 -4.403784179687500000e+01 8.301067352294921875e+00 8.778416633605957031e+00 -4.213146591186523438e+01 8.510245323181152344e+00 1.049635219573974609e+01 -4.612049865722656250e+01 5.491221427917480469e+00 1.269583606719970703e+01 -4.578522491455078125e+01 7.488365173339843750e+00 8.880504608154296875e+00 -4.090613555908203125e+01 9.074884414672851562e+00 8.807410240173339844e+00 -4.399186706542968750e+01 6.494722843170166016e+00 9.752676963806152344e+00 -4.080895614624023438e+01 6.943763732910156250e+00 1.198070240020751953e+01 -4.695129394531250000e+01 6.543218135833740234e+00 1.227055168151855469e+01 -4.690627288818359375e+01 5.975533008575439453e+00 1.261598396301269531e+01 -4.675524520874023438e+01 5.357450485229492188e+00 1.050570869445800781e+01 -4.080685424804687500e+01 7.925969600677490234e+00 1.121854305267333984e+01 -4.704586029052734375e+01 8.893833160400390625e+00 8.080682754516601562e+00 -4.243355941772460938e+01 9.057888031005859375e+00 9.870075225830078125e+00 -4.612367248535156250e+01 4.542365550994873047e+00 1.186870288848876953e+01 -4.266997528076171875e+01 4.689734935760498047e+00 1.119187641143798828e+01 -4.144924926757812500e+01 7.319824695587158203e+00 1.168605041503906250e+01 -4.737918472290039062e+01 4.922341346740722656e+00 1.289401054382324219e+01 -4.559484863281250000e+01 6.548280715942382812e+00 8.951292991638183594e+00 -3.966219329833984375e+01 4.535322666168212891e+00 1.270177650451660156e+01 -4.445749664306640625e+01 4.035976886749267578e+00 1.272388458251953125e+01 -4.408234405517578125e+01 9.365971565246582031e+00 8.775488853454589844e+00 -4.488966751098632812e+01 8.298819541931152344e+00 1.096489715576171875e+01 -4.775165939331054688e+01 8.928299903869628906e+00 1.030579948425292969e+01 -4.716650009155273438e+01 5.599227428436279297e+00 9.455090522766113281e+00 -3.943329620361328125e+01 4.531287670135498047e+00 1.295579242706298828e+01 -4.520869445800781250e+01 7.651201725006103516e+00 1.151451778411865234e+01 -4.776877975463867188e+01 6.391986846923828125e+00 1.229231357574462891e+01 -4.736250305175781250e+01 8.073885917663574219e+00 7.802098751068115234e+00 -4.020907211303710938e+01 7.297539234161376953e+00 8.143392562866210938e+00 -3.940022277832031250e+01 5.261343479156494141e+00 1.288056564331054688e+01 -4.636961746215820312e+01 9.127369880676269531e+00 7.904130458831787109e+00 -4.294238662719726562e+01 4.156547546386718750e+00 1.076233959197998047e+01 -4.048517990112304688e+01 9.485397338867187500e+00 9.005058288574218750e+00 -4.568552780151367188e+01 9.364457130432128906e+00 9.590700149536132812e+00 -4.671666336059570312e+01 6.518757820129394531e+00 8.393918037414550781e+00 -3.867595672607421875e+01 3.897963047027587891e+00 1.223045063018798828e+01 -4.300912094116210938e+01 8.777681350708007812e+00 7.509760856628417969e+00 -4.134953689575195312e+01 4.884790897369384766e+00 1.024693012237548828e+01 -4.011293411254882812e+01 6.906863689422607422e+00 1.206424331665039062e+01 -4.762068939208984375e+01 3.838678598403930664e+00 1.156746768951416016e+01 -4.167138290405273438e+01 5.095429897308349609e+00 1.307272815704345703e+01 -4.731357574462890625e+01 4.896123409271240234e+00 1.311790466308593750e+01 -4.636584854125976562e+01 5.579971313476562500e+00 8.796307563781738281e+00 -3.829063796997070312e+01 8.858730316162109375e+00 1.052812290191650391e+01 -4.826309585571289062e+01 9.576666831970214844e+00 9.604576110839843750e+00 -4.744274902343750000e+01 6.206881523132324219e+00 1.245794391632080078e+01 -4.759688568115234375e+01 4.686744213104248047e+00 9.516758918762207031e+00 -3.880220413208007812e+01 8.933173179626464844e+00 6.717279434204101562e+00 -4.036279678344726562e+01 8.054165840148925781e+00 7.118557453155517578e+00 -3.902803802490234375e+01 6.947244167327880859e+00 7.470080852508544922e+00 -3.777118682861328125e+01 5.971597194671630859e+00 8.069633483886718750e+00 -3.753389739990234375e+01 4.086942672729492188e+00 1.330808258056640625e+01 -4.579299545288085938e+01 3.713061809539794922e+00 1.317315387725830078e+01 -4.510477828979492188e+01 3.463493824005126953e+00 1.190448570251464844e+01 -4.214757919311523438e+01 9.252768516540527344e+00 1.028878307342529297e+01 -4.878584671020507812e+01 4.821273326873779297e+00 1.317939376831054688e+01 -4.689941024780273438e+01 7.556066989898681641e+00 6.684373378753662109e+00 -3.749510574340820312e+01 7.988261699676513672e+00 1.121298694610595703e+01 -4.859167480468750000e+01 4.080873489379882812e+00 1.012104320526123047e+01 -3.949110794067382812e+01 7.092473030090332031e+00 1.180051517486572266e+01 -4.835441970825195312e+01 6.659562110900878906e+00 1.206284236907958984e+01 -4.844174194335937500e+01 9.825797080993652344e+00 8.692486763000488281e+00 -4.646588516235351562e+01 6.029669761657714844e+00 1.237609291076660156e+01 -4.842227935791015625e+01 3.339015007019042969e+00 1.360982608795166016e+01 -4.579866409301757812e+01 3.839805603027343750e+00 1.368523502349853516e+01 -4.662116622924804688e+01 8.468733787536621094e+00 6.293739795684814453e+00 -3.858544921875000000e+01 9.425346374511718750e+00 7.877389907836914062e+00 -4.368124008178710938e+01 9.852444648742675781e+00 9.221103668212890625e+00 -4.788195800781250000e+01 5.751965045928955078e+00 7.269540786743164062e+00 -3.620678329467773438e+01 3.086663961410522461e+00 1.106613349914550781e+01 -4.067974853515625000e+01 3.009359598159790039e+00 1.333840370178222656e+01 -4.498951721191406250e+01 3.321861982345581055e+00 1.279171943664550781e+01 -4.385593795776367188e+01 4.150409221649169922e+00 1.352512550354003906e+01 -4.711739349365234375e+01 9.370374679565429688e+00 7.032126426696777344e+00 -4.223091125488281250e+01 5.262892246246337891e+00 1.297779560089111328e+01 -4.767586135864257812e+01 4.782729148864746094e+00 8.572367668151855469e+00 -3.730199432373046875e+01 7.390501022338867188e+00 6.144915103912353516e+00 -3.652287292480468750e+01 9.461334228515625000e+00 6.260521888732910156e+00 -4.170236587524414062e+01 9.136250495910644531e+00 5.877270221710205078e+00 -3.961146926879882812e+01 9.788420677185058594e+00 7.638107299804687500e+00 -4.488623046875000000e+01 6.456780910491943359e+00 6.818753242492675781e+00 -3.625290679931640625e+01 9.648136138916015625e+00 9.920052528381347656e+00 -4.914870071411132812e+01 1.005938339233398438e+01 8.243478775024414062e+00 -4.713599395751953125e+01 8.647363662719726562e+00 1.064710712432861328e+01 -4.940563583374023438e+01 3.347739219665527344e+00 1.380323410034179688e+01 -4.634962081909179688e+01 8.221150398254394531e+00 5.818140029907226562e+00 -3.744194793701171875e+01 5.092535972595214844e+00 7.723308086395263672e+00 -3.634272003173828125e+01 9.945065498352050781e+00 7.858184814453125000e+00 -4.598225021362304688e+01 9.077169418334960938e+00 1.022135448455810547e+01 -4.923565673828125000e+01 7.713387489318847656e+00 1.116883182525634766e+01 -4.926468276977539062e+01 2.600420713424682617e+00 1.222689533233642578e+01 -4.268794631958007812e+01 4.042313098907470703e+00 9.392069816589355469e+00 -3.822109603881835938e+01 9.974398612976074219e+00 9.235703468322753906e+00 -4.875683212280273438e+01 6.919286727905273438e+00 1.160661411285400391e+01 -4.914244079589843750e+01 3.301841259002685547e+00 1.026783180236816406e+01 -3.959159088134765625e+01 2.812353134155273438e+00 1.144908142089843750e+01 -4.135562515258789062e+01 5.912554264068603516e+00 6.367259979248046875e+00 -3.512591934204101562e+01 9.657316207885742188e+00 7.089068412780761719e+00 -4.370137405395507812e+01 7.133386135101318359e+00 5.441865444183349609e+00 -3.527532196044921875e+01 4.253359317779541016e+00 1.345281314849853516e+01 -4.770374298095703125e+01 3.484600305557250977e+00 1.379373836517333984e+01 -4.688621520996093750e+01 2.971272706985473633e+00 1.402494525909423828e+01 -4.693100357055664062e+01 9.490387916564941406e+00 5.704013347625732422e+00 -4.078787231445312500e+01 6.015390396118164062e+00 1.208381271362304688e+01 -4.903134155273437500e+01 4.459172725677490234e+00 1.312917232513427734e+01 -4.814895248413085938e+01 2.443205118179321289e+00 1.322375202178955078e+01 -4.457778549194335938e+01 2.497309207916259766e+00 1.262790966033935547e+01 -4.345972442626953125e+01 9.114904403686523438e+00 5.274689197540283203e+00 -3.878184127807617188e+01 8.094022750854492188e+00 4.854834079742431641e+00 -3.604969787597656250e+01 9.799009323120117188e+00 6.868812084197998047e+00 -4.420497131347656250e+01 9.671535491943359375e+00 6.331744670867919922e+00 -4.325592041015625000e+01 5.122163295745849609e+00 1.267444610595703125e+01 -4.850717163085937500e+01 3.369214296340942383e+00 1.390293121337890625e+01 -4.757445526123046875e+01 2.323727607727050781e+00 1.395284557342529297e+01 -4.602682495117187500e+01 4.131223678588867188e+00 8.109884262084960938e+00 -3.629417419433593750e+01 4.091408729553222656e+00 8.644073486328125000e+00 -3.704431533813476562e+01 9.306924819946289062e+00 9.951711654663085938e+00 -4.974742126464843750e+01 3.326166152954101562e+00 9.703413009643554688e+00 -3.866060638427734375e+01 8.698308944702148438e+00 5.022660255432128906e+00 -3.743354415893554688e+01 6.651037216186523438e+00 5.228238105773925781e+00 -3.445042037963867188e+01 9.838078498840332031e+00 9.628131866455078125e+00 -4.961783218383789062e+01 8.298650741577148438e+00 1.064120578765869141e+01 -4.982974243164062500e+01 3.140014648437500000e+00 9.288033485412597656e+00 -3.785405349731445312e+01 2.356961488723754883e+00 1.185091495513916016e+01 -4.206694793701171875e+01 9.582898139953613281e+00 6.528491497039794922e+00 -4.257430267333984375e+01 1.026302814483642578e+01 7.896297454833984375e+00 -4.799363327026367188e+01 2.408313274383544922e+00 1.422680473327636719e+01 -4.680055618286132812e+01 4.826375961303710938e+00 7.053925037384033203e+00 -3.522787094116210938e+01 3.803936481475830078e+00 1.338868045806884766e+01 -4.842778015136718750e+01 2.524480819702148438e+00 1.429006576538085938e+01 -4.738692474365234375e+01 2.122039318084716797e+00 1.365542697906494141e+01 -4.541719818115234375e+01 1.027777576446533203e+01 9.010778427124023438e+00 -4.992377471923828125e+01 8.723999977111816406e+00 4.248939990997314453e+00 -3.665516662597656250e+01 7.692633152008056641e+00 4.458904743194580078e+00 -3.492401123046875000e+01 9.883759498596191406e+00 7.011734008789062500e+00 -4.481183624267578125e+01 2.576007604598999023e+00 1.052901840209960938e+01 -3.988641738891601562e+01 3.040503740310668945e+00 8.712303161621093750e+00 -3.689506912231445312e+01 7.285834789276123047e+00 1.118516445159912109e+01 -4.961821365356445312e+01 9.489594459533691406e+00 5.017188072204589844e+00 -3.974980926513671875e+01 1.775224208831787109e+00 1.246806335449218750e+01 -4.335687637329101562e+01 5.027817249298095703e+00 1.230743694305419922e+01 -4.916150283813476562e+01 2.110274076461791992e+00 1.225761985778808594e+01 -4.290201568603515625e+01 1.031653881072998047e+01 8.440224647521972656e+00 -4.898336410522460938e+01 9.951899528503417969e+00 6.909276008605957031e+00 -4.534674072265625000e+01 9.433751106262207031e+00 4.069378376007080078e+00 -3.839087295532226562e+01 8.562615394592285156e+00 1.031308555603027344e+01 -5.016483306884765625e+01 9.742542266845703125e+00 9.324953079223632812e+00 -5.080274581909179688e+01 1.040222454071044922e+01 8.492450714111328125e+00 -4.962313842773437500e+01 9.293143272399902344e+00 9.892866134643554688e+00 -5.015856552124023438e+01 3.066128969192504883e+00 1.389291191101074219e+01 -4.823957443237304688e+01 5.228144168853759766e+00 5.611520290374755859e+00 -3.360740280151367188e+01 3.820696115493774414e+00 7.561275959014892578e+00 -3.539256668090820312e+01 7.590018749237060547e+00 4.073652744293212891e+00 -3.425760269165039062e+01 9.687814712524414062e+00 5.671875476837158203e+00 -4.249465560913085938e+01 4.216366291046142578e+00 1.288555335998535156e+01 -4.883665466308593750e+01 4.093552589416503906e+00 6.317104816436767578e+00 -3.375270080566406250e+01 1.580217123031616211e+00 1.419206428527832031e+01 -4.652281188964843750e+01 1.978832721710205078e+00 1.446448802947998047e+01 -4.718513488769531250e+01 1.556694746017456055e+00 1.313287639617919922e+01 -4.447290802001953125e+01 1.719566822052001953e+00 1.278609371185302734e+01 -4.393305969238281250e+01 9.325381278991699219e+00 3.904943943023681641e+00 -3.783414840698242188e+01 9.093483924865722656e+00 3.757800340652465820e+00 -3.705557250976562500e+01 1.017008399963378906e+01 9.113812446594238281e+00 -5.067757797241210938e+01 6.687504291534423828e+00 1.115667438507080078e+01 -4.980072402954101562e+01 6.194179058074951172e+00 1.159417152404785156e+01 -4.958029937744140625e+01 1.007718563079833984e+01 7.229654312133789062e+00 -4.611647415161132812e+01 1.712946534156799316e+00 1.391236782073974609e+01 -4.599995040893554688e+01 8.904946327209472656e+00 9.855346679687500000e+00 -5.063550567626953125e+01 7.481171607971191406e+00 1.075954246520996094e+01 -5.011722183227539062e+01 8.689318656921386719e+00 3.389679908752441406e+00 -3.548104858398437500e+01 6.387021064758300781e+00 4.293204784393310547e+00 -3.320439529418945312e+01 3.251115322113037109e+00 8.130469322204589844e+00 -3.601320266723632812e+01 1.007415866851806641e+01 7.422269344329833984e+00 -4.739133453369140625e+01 9.374488830566406250e+00 9.485385894775390625e+00 -5.077538681030273438e+01 1.525938868522644043e+00 1.468508338928222656e+01 -4.804661560058593750e+01 3.053366899490356445e+00 7.794209003448486328e+00 -3.547025299072265625e+01 9.628665924072265625e+00 4.799486637115478516e+00 -4.046255874633789062e+01 9.608147621154785156e+00 4.257262706756591797e+00 -3.957571411132812500e+01 4.407453060150146484e+00 1.234770488739013672e+01 -4.912330627441406250e+01 3.162889242172241211e+00 6.933630943298339844e+00 -3.418812179565429688e+01 2.213831424713134766e+00 1.421747970581054688e+01 -4.845458984375000000e+01 1.012833023071289062e+01 7.096602916717529297e+00 -4.686887741088867188e+01 2.712867021560668945e+00 9.597766876220703125e+00 -3.853939056396484375e+01 7.640779495239257812e+00 3.049043655395507812e+00 -3.329024887084960938e+01 9.698228836059570312e+00 5.174475669860839844e+00 -4.176550292968750000e+01 2.123268604278564453e+00 9.858385086059570312e+00 -3.913525009155273438e+01 1.061576652526855469e+01 8.439941406250000000e+00 -5.020499038696289062e+01 9.855380058288574219e+00 6.223427295684814453e+00 -4.419409179687500000e+01 3.270702838897705078e+00 1.329674243927001953e+01 -4.900791168212890625e+01 1.647030591964721680e+00 1.455854415893554688e+01 -4.757187652587890625e+01 1.115965127944946289e+00 1.462262821197509766e+01 -4.730983734130859375e+01 1.570744872093200684e+00 1.445882511138916016e+01 -4.682096099853515625e+01 1.342907190322875977e+00 1.136891651153564453e+01 -4.180237197875976562e+01 1.061132526397705078e+01 8.477834701538085938e+00 -5.086665725708007812e+01 8.373008728027343750e+00 3.029074192047119141e+00 -3.429745101928710938e+01 7.793573856353759766e+00 1.032052612304687500e+01 -5.054691314697265625e+01 1.240270972251892090e+00 1.347040271759033203e+01 -4.531463241577148438e+01 1.797497868537902832e+00 1.117440795898437500e+01 -4.125420761108398438e+01 1.745130538940429688e+00 1.051113319396972656e+01 -4.011100769042968750e+01 2.434222698211669922e+00 8.970311164855957031e+00 -3.740682983398437500e+01 5.449990272521972656e+00 1.178316497802734375e+01 -4.960554504394531250e+01 4.085817337036132812e+00 5.685348033905029297e+00 -3.293413925170898438e+01 1.014645576477050781e+01 8.842170715332031250e+00 -5.135406875610351562e+01 1.041757965087890625e+01 7.600860118865966797e+00 -4.876449584960937500e+01 9.350957870483398438e+00 2.719737768173217773e+00 -3.651783370971679688e+01 1.005430221557617188e+01 6.537856101989746094e+00 -4.596067810058593750e+01 1.082554221153259277e+00 1.377619934082031250e+01 -4.580265426635742188e+01 4.646309852600097656e+00 4.784510612487792969e+00 -3.236380767822265625e+01 9.704565048217773438e+00 4.377283573150634766e+00 -4.078959655761718750e+01 9.646875381469726562e+00 3.483324527740478516e+00 -3.886970901489257812e+01 2.388777732849121094e+00 8.089378356933593750e+00 -3.593461227416992188e+01 1.215326070785522461e+00 1.178724670410156250e+01 -4.259795379638671875e+01 8.336416244506835938e+00 9.698662757873535156e+00 -5.109094238281250000e+01 2.535995721817016602e+00 7.415768623352050781e+00 -3.475622177124023438e+01 1.043493461608886719e+01 7.668135166168212891e+00 -4.969543838500976562e+01 6.953438758850097656e+00 1.079526329040527344e+01 -5.018067550659179688e+01 7.469291687011718750e-01 1.410573863983154297e+01 -4.655762481689453125e+01 1.165558934211730957e+00 1.237545967102050781e+01 -4.366529846191406250e+01 5.957672119140625000e+00 3.881254196166992188e+00 -3.256996536254882812e+01 9.783401489257812500e+00 5.566504001617431641e+00 -4.384386444091796875e+01 9.653587341308593750e+00 3.443179845809936523e+00 -3.975509262084960938e+01 1.021612834930419922e+01 7.224887371063232422e+00 -4.801495361328125000e+01 8.756007194519042969e+00 2.115466117858886719e+00 -3.381672286987304688e+01 2.040937423706054688e+00 9.305001258850097656e+00 -3.816757202148437500e+01 9.665410995483398438e+00 5.152542114257812500e+00 -4.283226013183593750e+01 9.548120498657226562e+00 2.838848114013671875e+00 -3.762656402587890625e+01 1.080700969696044922e+01 7.990617752075195312e+00 -5.070886611938476562e+01 6.678292155265808105e-01 1.489027690887451172e+01 -4.791083908081054688e+01 1.873217701911926270e+00 8.209012031555175781e+00 -3.629898834228515625e+01 9.140947341918945312e+00 2.232388257980346680e+00 -3.522040176391601562e+01 9.625988960266113281e+00 9.007304191589355469e+00 -5.128506469726562500e+01 6.920876026153564453e+00 2.613207340240478516e+00 -3.249716186523437500e+01 1.366486072540283203e+00 1.441056442260742188e+01 -4.889326095581054688e+01 9.265336036682128906e+00 1.520281314849853516e+00 -3.464878463745117188e+01 9.878115653991699219e+00 5.978734970092773438e+00 -4.483114624023437500e+01 2.909217596054077148e+00 6.468467712402343750e+00 -3.339468765258789062e+01 1.971274495124816895e+00 8.456340789794921875e+00 -3.677818679809570312e+01 2.293598413467407227e+00 1.379023838043212891e+01 -4.910171127319335938e+01 4.757492065429687500e+00 1.196685314178466797e+01 -4.952558898925781250e+01 7.555404901504516602e-01 1.251478004455566406e+01 -4.416210937500000000e+01 1.216854691505432129e+00 1.059137344360351562e+01 -4.063614654541015625e+01 4.052261829376220703e+00 1.243244743347167969e+01 -4.927583694458007812e+01 1.009465312957763672e+01 6.659967899322509766e+00 -4.702973175048828125e+01 8.256107330322265625e+00 1.635452508926391602e+00 -3.284944534301757812e+01 3.505784034729003906e+00 5.203270912170410156e+00 -3.205538558959960938e+01 5.364551544189453125e+00 3.437656402587890625e+00 -3.198531723022460938e+01 4.676627814769744873e-01 1.310507106781005859e+01 -4.518183517456054688e+01 2.538645029067993164e+00 6.049013137817382812e+00 -3.262748336791992188e+01 9.618189811706542969e+00 3.045702695846557617e+00 -3.816216659545898438e+01 1.022014808654785156e+01 6.705136775970458984e+00 -4.855983352661132812e+01 5.077903270721435547e-01 1.454278755187988281e+01 -4.755848312377929688e+01 9.713539123535156250e+00 4.516738891601562500e+00 -4.229779815673828125e+01 9.928047180175781250e+00 6.757773876190185547e+00 -4.776134490966796875e+01 1.070418208837509155e-01 1.422899246215820312e+01 -4.716226577758789062e+01 8.249019384384155273e-01 1.197111034393310547e+01 -4.330600357055664062e+01 9.703541755676269531e+00 4.095063209533691406e+00 -4.136575317382812500e+01 1.852663874626159668e+00 7.564082622528076172e+00 -3.503989028930664062e+01 2.284988313913345337e-01 1.366433620452880859e+01 -4.624750137329101562e+01 2.649022936820983887e-01 1.493240261077880859e+01 -4.805559539794921875e+01 4.837997257709503174e-01 1.266267681121826172e+01 -4.480865097045898438e+01 4.177775859832763672e+00 1.184910202026367188e+01 -4.961276245117187500e+01 3.554949998855590820e+00 1.251305103302001953e+01 -4.952026748657226562e+01 7.662946701049804688e+00 1.009104251861572266e+01 -5.088294982910156250e+01 5.335591316223144531e+00 1.133445262908935547e+01 -5.001240921020507812e+01 1.340565919876098633e+00 9.757964134216308594e+00 -3.928946685791015625e+01 1.079159545898437500e+01 7.891016960144042969e+00 -5.181626510620117188e+01 7.827311754226684570e-01 1.473230075836181641e+01 -4.890876770019531250e+01 1.043429088592529297e+01 7.220483779907226562e+00 -4.932245635986328125e+01 9.162948608398437500e+00 1.147365808486938477e+00 -3.363146591186523438e+01 8.842459678649902344e+00 9.935711622238159180e-01 -3.299995040893554688e+01 1.018925380706787109e+01 8.802673339843750000e+00 -5.167674255371093750e+01 1.045932006835937500e+01 6.958181858062744141e+00 -5.000496673583984375e+01 4.539234161376953125e+00 4.038938522338867188e+00 -3.177623367309570312e+01 9.720772743225097656e+00 3.432364702224731445e+00 -4.023329544067382812e+01 9.436146736145019531e+00 1.837946653366088867e+00 -3.593578720092773438e+01 9.952585220336914062e+00 5.935701370239257812e+00 -4.603992843627929688e+01 6.560200452804565430e-01 1.064023876190185547e+01 -4.130342864990234375e+01 7.318749427795410156e+00 1.785572052001953125e+00 -3.242507553100585938e+01 1.059100627899169922e+01 8.333291053771972656e+00 -5.195103836059570312e+01 9.998017311096191406e+00 8.516049385070800781e+00 -5.213544845581054688e+01 4.796914100646972656e+00 1.154765033721923828e+01 -4.990687942504882812e+01 6.939598083496093750e+00 1.023078536987304688e+01 -5.077408599853515625e+01 2.635325193405151367e+00 1.321710872650146484e+01 -4.939464187622070312e+01 3.191775083541870117e-01 1.499358463287353516e+01 -4.888816452026367188e+01 1.154083251953125000e+00 9.154520034790039062e+00 -3.856403732299804688e+01 1.517542481422424316e+00 8.784949302673339844e+00 -3.756661605834960938e+01 1.425460100173950195e+00 6.824301242828369141e+00 -3.372315597534179688e+01 8.870617866516113281e+00 9.073343276977539062e+00 -5.152947616577148438e+01 1.067308235168457031e+01 7.334597587585449219e+00 -5.084029388427734375e+01 1.838628888130187988e+00 6.544217109680175781e+00 -3.323432922363281250e+01 1.070511054992675781e+01 7.620858669281005859e+00 -5.096078491210937500e+01 1.352133154869079590e+00 1.396380233764648438e+01 -4.943039321899414062e+01 9.978986740112304688e+00 6.395733833312988281e+00 -4.692570114135742188e+01 9.701296806335449219e+00 4.829575061798095703e+00 -4.388792800903320312e+01 6.473100662231445312e+00 1.059621238708496094e+01 -5.053978729248046875e+01 5.664857864379882812e+00 2.541013956069946289e+00 -3.183700752258300781e+01 5.519938468933105469e+00 1.100934410095214844e+01 -5.016109085083007812e+01 2.057830572128295898e+00 1.338620471954345703e+01 -4.951000595092773438e+01 9.711779594421386719e+00 2.511955976486206055e+00 -3.857080841064453125e+01 9.470048904418945312e+00 9.547003507614135742e-01 -3.486444091796875000e+01 2.974146366119384766e+00 1.283686351776123047e+01 -4.949058914184570312e+01 9.677064895629882812e+00 2.621034383773803711e+00 -3.931022262573242188e+01 9.581839561462402344e+00 2.123136043548583984e+00 -3.716174316406250000e+01 6.080768585205078125e+00 1.053312206268310547e+01 -5.041616821289062500e+01 9.745820999145507812e+00 5.417601585388183594e+00 -4.499927902221679688e+01 9.729480743408203125e+00 4.789876937866210938e+00 -4.441010665893554688e+01 3.347342014312744141e+00 4.273568153381347656e+00 -3.127523803710937500e+01 9.432634353637695312e+00 8.654170989990234375e+00 -5.168833160400390625e+01 9.576539993286132812e+00 4.555983543395996094e+00 -4.319179916381835938e+01 5.252170562744140625e-01 1.096860122680664062e+01 -4.199966430664062500e+01 1.088904571533203125e+01 7.682610511779785156e+00 -5.248347473144531250e+01 9.651296615600585938e+00 3.152352333068847656e+00 -4.070011520385742188e+01 8.012327194213867188e+00 9.454065322875976562e+00 -5.129832077026367188e+01 9.351283073425292969e+00 3.044310808181762695e-01 -3.320837783813476562e+01 1.098862361907958984e+01 7.358854770660400391e+00 -5.179705047607421875e+01 1.037909984588623047e+01 6.798479080200195312e+00 -4.945072555541992188e+01 1.021809935569763184e+00 7.100066661834716797e+00 -3.451404953002929688e+01 1.003191661834716797e+01 5.939852714538574219e+00 -4.702899169921875000e+01 2.569200992584228516e-01 1.229323673248291016e+01 -4.444516754150390625e+01 8.106463551521301270e-01 9.904907226562500000e+00 -3.980628967285156250e+01 2.692671775817871094e+00 5.206304550170898438e+00 -3.167917060852050781e+01 9.257667064666748047e-01 1.421240997314453125e+01 -4.929805374145507812e+01 9.670707702636718750e+00 3.407145977020263672e+00 -4.104041671752929688e+01 1.248369097709655762e+00 7.669013500213623047e+00 -3.553731155395507812e+01 7.474873065948486328e+00 9.658224105834960938e+00 -5.109274291992187500e+01 9.804158210754394531e+00 6.154051303863525391e+00 -4.794129943847656250e+01 -4.002388715744018555e-01 1.485222244262695312e+01 -4.813866043090820312e+01 9.617776870727539062e+00 3.773198366165161133e+00 -4.171102142333984375e+01 -5.151283740997314453e-01 1.405765914916992188e+01 -4.796413040161132812e+01 1.711138010025024414e+00 5.424388408660888672e+00 -3.154346656799316406e+01 1.555012226104736328e+00 5.980694293975830078e+00 -3.238043975830078125e+01 6.139765739440917969e+00 1.667899131774902344e+00 -3.183458328247070312e+01 9.615374565124511719e+00 4.135830402374267578e+00 -4.261436080932617188e+01 3.836277246475219727e+00 1.202256011962890625e+01 -4.964904785156250000e+01 3.988898038864135742e+00 1.168501853942871094e+01 -4.957870864868164062e+01 9.448078870773315430e-01 7.943933010101318359e+00 -3.630842590332031250e+01 8.073337554931640625e+00 7.878235578536987305e-01 -3.240646362304687500e+01 4.449446678161621094e+00 3.232705116271972656e+00 -3.146926689147949219e+01 6.636265754699707031e+00 1.233848810195922852e+00 -3.205721664428710938e+01 -1.083773449063301086e-01 1.275307369232177734e+01 -4.542676162719726562e+01 3.309158086776733398e-01 1.148492908477783203e+01 -4.327370071411132812e+01 9.645348548889160156e+00 1.718643188476562500e+00 -3.807443618774414062e+01 7.134672641754150391e+00 9.971508026123046875e+00 -5.087348556518554688e+01 -4.171603545546531677e-02 1.482340049743652344e+01 -4.940721893310546875e+01 1.484943628311157227e+00 1.361003780364990234e+01 -4.944753646850585938e+01 9.509906768798828125e+00 3.372751921415328979e-02 -3.400121688842773438e+01 -6.072399616241455078e-01 1.524410629272460938e+01 -4.889324569702148438e+01 8.860186576843261719e+00 8.514965057373046875e+00 -5.181439971923828125e+01 5.097615718841552734e+00 2.987487554550170898e+00 -3.180216789245605469e+01 1.045830535888671875e+01 7.631612777709960938e+00 -5.194494628906250000e+01 -4.627965688705444336e-01 1.377250003814697266e+01 -4.717409133911132812e+01 2.575947523117065430e+00 4.418074607849121094e+00 -3.115427589416503906e+01 9.743526458740234375e+00 5.243930816650390625e+00 -4.591776657104492188e+01 9.627770423889160156e+00 1.267612576484680176e+00 -3.739194488525390625e+01 9.566050529479980469e+00 1.223097085952758789e+00 -3.646908569335937500e+01 5.925927162170410156e-01 9.981305122375488281e+00 -4.034396362304687500e+01 1.046930313110351562e+01 7.201153755187988281e+00 -5.172276306152343750e+01 9.549782752990722656e+00 2.638921499252319336e+00 -4.006035614013671875e+01 9.650574684143066406e+00 7.898690700531005859e+00 -5.212324905395507812e+01 8.324133157730102539e-01 8.045926094055175781e+00 -3.689134216308593750e+01 8.461909294128417969e+00 8.938277244567871094e+00 -5.159393310546875000e+01 9.124106407165527344e+00 -2.224995046854019165e-01 -3.261772537231445312e+01 2.867326974868774414e+00 1.257913875579833984e+01 -4.954678344726562500e+01 3.834574222564697266e-01 1.016696166992187500e+01 -4.091787338256835938e+01 4.326351165771484375e+00 1.143518733978271484e+01 -4.985340499877929688e+01 5.266107320785522461e-01 1.442172145843505859e+01 -4.935855484008789062e+01 3.474172592163085938e+00 1.209222698211669922e+01 -4.958894348144531250e+01 9.657104492187500000e+00 -6.842893958091735840e-01 -3.316221237182617188e+01 5.496558189392089844e+00 1.063282585144042969e+01 -5.032723999023437500e+01 -1.846970766782760620e-01 1.198795890808105469e+01 -4.478961181640625000e+01 1.859154820442199707e+00 4.923635482788085938e+00 -3.116440963745117188e+01 4.821340084075927734e+00 1.106108856201171875e+01 -5.014821243286132812e+01 8.187833428382873535e-01 8.327704429626464844e+00 -3.737473297119140625e+01 6.317777156829833984e+00 9.940484046936035156e+00 -5.076356124877929688e+01 9.585377693176269531e+00 7.238607406616210938e-01 -3.565335845947265625e+01 8.631254196166992188e+00 -3.131255879998207092e-02 -3.237912368774414062e+01 6.964409947395324707e-01 9.350447654724121094e+00 -3.920044708251953125e+01 9.289647936820983887e-01 8.700725555419921875e+00 -3.818126296997070312e+01 1.760900974273681641e+00 1.327367305755615234e+01 -4.940339660644531250e+01 3.742067098617553711e+00 2.993985176086425781e+00 -3.119573783874511719e+01 8.949456214904785156e-01 6.266707420349121094e+00 -3.299999618530273438e+01 1.021026706695556641e+01 6.586784839630126953e+00 -5.035095214843750000e+01 -8.831316232681274414e-01 1.521310520172119141e+01 -4.929116058349609375e+01 -4.422521293163299561e-01 1.286390209197998047e+01 -4.598161697387695312e+01 -4.354247748851776123e-01 1.333113765716552734e+01 -4.654948043823242188e+01 1.003722763061523438e+01 7.524193286895751953e+00 -5.201514816284179688e+01 -9.153016805648803711e-01 1.486295986175537109e+01 -4.852938079833984375e+01 9.508904457092285156e+00 4.749409675598144531e+00 -4.516061401367187500e+01 9.455422401428222656e+00 3.982579708099365234e+00 -4.340198898315429688e+01 9.987593889236450195e-01 5.590714931488037109e+00 -3.181425285339355469e+01 9.519489288330078125e+00 3.133471250534057617e+00 -4.156575393676757812e+01 1.005011081695556641e+01 6.398546695709228516e+00 -4.961357116699218750e+01 7.481932640075683594e+00 9.289785385131835938e+00 -5.139057922363281250e+01 9.542442321777343750e+00 -1.013298034667968750e+00 -3.268142700195312500e+01 9.242854118347167969e+00 7.988778591156005859e+00 -5.203879547119140625e+01 6.845366954803466797e+00 9.555480003356933594e+00 -5.109817504882812500e+01 5.847693443298339844e+00 1.018415260314941406e+01 -5.057925796508789062e+01 9.649502754211425781e+00 5.726820945739746094e+00 -4.783488464355468750e+01 9.491278648376464844e+00 3.574379444122314453e+00 -4.217805099487304688e+01 3.048410654067993164e+00 1.207831478118896484e+01 -4.972531509399414062e+01 3.538035154342651367e+00 1.179528141021728516e+01 -4.976622772216796875e+01 4.578919112682342529e-01 1.377606487274169922e+01 -4.941666030883789062e+01 2.231686830520629883e+00 1.286045265197753906e+01 -4.965533447265625000e+01 4.857473373413085938e+00 1.965142011642456055e+00 -3.158576011657714844e+01 9.542816162109375000e+00 7.247283458709716797e-01 -3.683792495727539062e+01 2.603285387158393860e-02 1.078672122955322266e+01 -4.287119674682617188e+01 7.054256916046142578e+00 2.884758412837982178e-01 -3.197669601440429688e+01 3.031458616256713867e+00 3.852826118469238281e+00 -3.104796028137207031e+01 1.934088021516799927e-01 7.086678028106689453e+00 -3.531397247314453125e+01 2.323851346969604492e+00 1.243557262420654297e+01 -4.973311614990234375e+01 8.127292394638061523e-01 1.365190792083740234e+01 -4.961133956909179688e+01 9.604543685913085938e+00 5.284914016723632812e+00 -4.694373321533203125e+01 4.384684562683105469e+00 1.096891880035400391e+01 -5.012899780273437500e+01 9.494188308715820312e+00 2.632812023162841797e+00 -4.093718719482421875e+01 1.439308285713195801e+00 1.303078556060791016e+01 -4.965603256225585938e+01 1.839365124702453613e+00 1.279784011840820312e+01 -4.966781616210937500e+01 1.018947124481201172e+01 7.090191841125488281e+00 -5.170126342773437500e+01 -8.921611905097961426e-01 1.430776882171630859e+01 -4.847176361083984375e+01 2.234271168708801270e-01 8.123858451843261719e+00 -3.810234451293945312e+01 3.672692537307739258e+00 1.113138198852539062e+01 -4.992004394531250000e+01 3.370079994201660156e-01 8.815189361572265625e+00 -3.878456497192382812e+01 9.588356018066406250e+00 1.983235478401184082e+00 -3.934876251220703125e+01 9.536143302917480469e+00 -2.266614884138107300e-01 -3.467954254150390625e+01 2.482301235198974609e+00 1.203250980377197266e+01 -4.978358459472656250e+01 7.868487834930419922e+00 8.680865287780761719e+00 -5.161018371582031250e+01 -1.393730193376541138e-01 1.153848171234130859e+01 -4.415986633300781250e+01 9.464742660522460938e+00 3.290101766586303711e+00 -4.228255081176757812e+01 9.515726089477539062e+00 8.932917118072509766e-01 -3.785770416259765625e+01 5.443511009216308594e+00 1.007185077667236328e+01 -5.057762908935546875e+01 9.369662284851074219e+00 3.543754577636718750e+00 -4.308134078979492188e+01 5.388611793518066406e+00 1.654419541358947754e+00 -3.164024925231933594e+01 -6.020655035972595215e-01 1.439498138427734375e+01 -4.877639007568359375e+01 -1.861112713813781738e-01 1.225286102294921875e+01 -4.541302871704101562e+01 -1.012233793735504150e-01 1.003113269805908203e+01 -4.171966934204101562e+01 1.003718018531799316e+00 1.330148220062255859e+01 -4.953333663940429688e+01 9.575219154357910156e+00 6.660319119691848755e-02 -3.610651397705078125e+01 -1.759112328290939331e-01 1.429356098175048828e+01 -4.919406890869140625e+01 9.556953430175781250e+00 -2.711870670318603516e-01 -3.531111907958984375e+01 5.322530269622802734e+00 1.049526023864746094e+01 -5.016674804687500000e+01 9.409528732299804688e+00 4.552118778228759766e+00 -4.551096343994140625e+01 5.934270620346069336e-01 5.902661800384521484e+00 -3.244606018066406250e+01 1.887419819831848145e+00 4.175130844116210938e+00 -3.083584785461425781e+01 8.117218971252441406e+00 8.050316810607910156e+00 -5.160380172729492188e+01 3.309913873672485352e-01 6.293853282928466797e+00 -3.342342376708984375e+01 8.642859458923339844e-01 4.878849506378173828e+00 -3.075107765197753906e+01 9.545190811157226562e+00 5.836971282958984375e+00 -4.894084548950195312e+01 5.071638584136962891e+00 1.027213191986083984e+01 -5.047636413574218750e+01 9.457463264465332031e+00 1.397441744804382324e+00 -3.900411224365234375e+01 8.189290046691894531e+00 -6.190893054008483887e-01 -3.201997375488281250e+01 -2.057736665010452271e-01 1.406713867187500000e+01 -4.931224441528320312e+01 9.609332084655761719e+00 -1.251168489456176758e+00 -3.345769119262695312e+01 5.868750810623168945e-01 5.203855514526367188e+00 -3.119614791870117188e+01 1.193217515945434570e+00 4.547238826751708984e+00 -3.066753005981445312e+01 8.546939849853515625e+00 7.978782653808593750e+00 -5.179819869995117188e+01 9.430034637451171875e+00 4.098404407501220703e+00 -4.456527709960937500e+01 1.410072147846221924e-01 9.531307220458984375e+00 -4.030300140380859375e+01 9.844617843627929688e+00 6.799453258514404297e+00 -5.130549240112304688e+01 9.183890342712402344e+00 4.606846332550048828e+00 -4.639321136474609375e+01 -3.295036032795906067e-02 1.111674880981445312e+01 -4.330688858032226562e+01 4.446823596954345703e+00 1.060711860656738281e+01 -5.032725143432617188e+01 5.960676819086074829e-02 8.987652778625488281e+00 -3.940166091918945312e+01 9.354138374328613281e+00 7.372584342956542969e+00 -5.187952423095703125e+01 9.325048446655273438e+00 3.701653003692626953e+00 -4.379944229125976562e+01 5.623179435729980469e+00 1.047151684761047363e+00 -3.171185493469238281e+01 9.361841201782226562e+00 2.049642086029052734e+00 -4.019941329956054688e+01 7.442471981048583984e+00 -7.247931361198425293e-01 -3.196840095520019531e+01 2.005639951676130295e-03 7.396972656250000000e+00 -3.648678970336914062e+01 3.260631561279296875e+00 1.144955539703369141e+01 -4.979376602172851562e+01 9.639170646667480469e+00 6.290685176849365234e+00 -5.023585510253906250e+01 9.521354675292968750e+00 -8.405234813690185547e-01 -3.451428604125976562e+01 -8.618119955062866211e-01 1.333168125152587891e+01 -4.774777603149414062e+01 8.532478332519531250e+00 -8.745923042297363281e-01 -3.218931198120117188e+01 7.027462482452392578e+00 8.861037254333496094e+00 -5.144628143310546875e+01 6.210621833801269531e+00 9.217045783996582031e+00 -5.083164978027343750e+01 5.817127227783203125e+00 9.342284202575683594e+00 -5.080943679809570312e+01 9.811692237854003906e+00 -2.058691501617431641e+00 -3.265870285034179688e+01 -1.380995362997055054e-01 1.033118724822998047e+01 -4.232557678222656250e+01 3.421402931213378906e+00 2.541856765747070312e+00 -3.109954643249511719e+01 3.776965856552124023e+00 1.930299162864685059e+00 -3.134736442565917969e+01 2.926652431488037109e+00 2.843044042587280273e+00 -3.112601280212402344e+01 9.448342323303222656e+00 1.110379993915557861e-01 -3.688723754882812500e+01 2.492696046829223633e+00 3.040887594223022461e+00 -3.082975769042968750e+01 -7.473737001419067383e-01 1.282662868499755859e+01 -4.681448364257812500e+01 8.928281784057617188e+00 5.043933868408203125e+00 -4.768759536743164062e+01 9.454111099243164062e+00 4.632962644100189209e-01 -3.744505310058593750e+01 4.595259577035903931e-02 1.330116176605224609e+01 -4.938591003417968750e+01 2.542579412460327148e+00 1.158071136474609375e+01 -4.983872222900390625e+01 6.331824511289596558e-02 7.240246295928955078e+00 -3.594200897216796875e+01 1.651981286704540253e-02 6.385311603546142578e+00 -3.414812088012695312e+01 9.233910560607910156e+00 2.952445745468139648e+00 -4.240584564208984375e+01 8.846528053283691406e+00 -1.312211036682128906e+00 -3.248256683349609375e+01 3.348949193954467773e+00 1.055598354339599609e+01 -5.010144424438476562e+01 -7.057203054428100586e-01 1.370111942291259766e+01 -4.888245773315429688e+01 9.093338966369628906e+00 5.435228824615478516e+00 -4.825688552856445312e+01 9.175912857055664062e+00 2.096429824829101562e+00 -4.113325119018554688e+01 8.815434455871582031e+00 7.292304992675781250e+00 -5.168082427978515625e+01 7.409534931182861328e+00 7.958220958709716797e+00 -5.137630081176757812e+01 2.984263420104980469e+00 1.075776386260986328e+01 -4.981120300292968750e+01 1.364243268966674805e+00 3.279614210128784180e+00 -3.044690513610839844e+01 6.143970489501953125e+00 2.650227844715118408e-01 -3.187768363952636719e+01 9.037487030029296875e+00 6.695236206054687500e+00 -5.128784179687500000e+01 -7.938470691442489624e-02 4.406894683837890625e+00 -3.018341064453125000e+01 9.176781654357910156e+00 6.284820437431335449e-01 -3.866563796997070312e+01 9.027153015136718750e+00 3.290304422378540039e+00 -4.390998840332031250e+01 9.867886304855346680e-01 1.223974514007568359e+01 -4.952898406982421875e+01 -1.471261978149414062e-01 7.507509708404541016e+00 -3.734605789184570312e+01 5.649548172950744629e-01 3.481674671173095703e+00 -3.022967338562011719e+01 4.740383148193359375e+00 8.643631935119628906e-01 -3.167000007629394531e+01 8.935317039489746094e+00 3.889636278152465820e+00 -4.546221160888671875e+01 -9.653652310371398926e-01 1.344125652313232422e+01 -4.848629760742187500e+01 5.132165908813476562e+00 9.551091194152832031e+00 -5.064794921875000000e+01 3.992814064025878906e+00 1.008664989471435547e+01 -5.024827957153320312e+01 8.768090248107910156e+00 4.749658584594726562e+00 -4.711996078491210938e+01 -4.305139482021331787e-01 5.152529239654541016e+00 -3.176882934570312500e+01 -7.116397470235824585e-02 4.792369842529296875e+00 -3.070819091796875000e+01 2.685401439666748047e+00 1.102301406860351562e+01 -4.986253356933593750e+01 -4.869691729545593262e-01 1.175037670135498047e+01 -4.561836242675781250e+01 -3.038972318172454834e-01 5.719849586486816406e+00 -3.282929229736328125e+01 9.043116569519042969e+00 2.882909059524536133e+00 -4.300883102416992188e+01 9.322503089904785156e+00 -5.400758981704711914e-01 -3.623255157470703125e+01 9.018731117248535156e+00 -1.947020292282104492e+00 -3.257204818725585938e+01 5.431906223297119141e+00 4.673439264297485352e-01 -3.194874954223632812e+01 5.688616752624511719e+00 8.544894218444824219e+00 -5.069848632812500000e+01 9.433746337890625000e+00 -9.413241744041442871e-01 -3.515211105346679688e+01 -3.979447185993194580e-01 1.086313056945800781e+01 -4.391459274291992188e+01 8.697295188903808594e+00 4.230955123901367188e+00 -4.632453536987304688e+01 -2.238011807203292847e-01 9.566397666931152344e+00 -4.137719345092773438e+01 9.022891998291015625e+00 2.482504844665527344e+00 -4.220694732666015625e+01 9.063201904296875000e+00 2.146668583154678345e-01 -3.818012237548828125e+01 8.733561515808105469e+00 5.774008274078369141e+00 -4.969027328491210938e+01 -4.613406360149383545e-01 1.117762660980224609e+01 -4.463770294189453125e+01 4.450311183929443359e+00 1.471810102462768555e+00 -3.144573211669921875e+01 6.436538696289062500e+00 8.453479766845703125e+00 -5.113391876220703125e+01 3.240829467773437500e+00 1.650824189186096191e+00 -3.126549339294433594e+01 9.106977462768554688e+00 1.352784633636474609e+00 -3.994640350341796875e+01 -2.637452781200408936e-01 6.021944522857666016e+00 -3.359035110473632812e+01 9.461614608764648438e+00 -1.591953992843627930e+00 -3.409540557861328125e+01 6.763461589813232422e+00 -3.393726646900177002e-01 -3.191031074523925781e+01 1.897977828979492188e+00 1.117061138153076172e+01 -4.970699310302734375e+01 -8.131365180015563965e-01 1.209340381622314453e+01 -4.708428573608398438e+01 -7.178089022636413574e-01 1.144851303100585938e+01 -4.607027435302734375e+01 8.881700515747070312e+00 5.403969764709472656e+00 -4.878212356567382812e+01 2.966124296188354492e+00 2.177284479141235352e+00 -3.125184059143066406e+01 9.514907836914062500e+00 -2.065719366073608398e+00 -3.318932342529296875e+01 1.006440544128417969e+01 -2.659141302108764648e+00 -3.158466911315917969e+01 1.002988719940185547e+01 -2.751989841461181641e+00 -3.196790313720703125e+01 9.586592674255371094e+00 -2.623970508575439453e+00 -3.252777099609375000e+01 1.945951431989669800e-01 3.410772323608398438e+00 -3.005180358886718750e+01 8.528383255004882812e+00 -1.663287043571472168e+00 -3.196245002746582031e+01 -4.078656435012817383e-01 8.165343284606933594e+00 -3.934178543090820312e+01 9.509960174560546875e+00 -2.287745237350463867e+00 -3.227908706665039062e+01 -1.920718401670455933e-01 4.955930233001708984e+00 -3.132305335998535156e+01 8.989262580871582031e+00 -2.445966958999633789e+00 -3.199541282653808594e+01 9.380364418029785156e+00 -2.646374464035034180e+00 -3.168699455261230469e+01 8.225625038146972656e+00 6.863849163055419922e+00 -5.119878005981445312e+01 -7.497891783714294434e-01 1.304171180725097656e+01 -4.871679687500000000e+01 -4.005632400512695312e-01 1.013785266876220703e+01 -4.308475875854492188e+01 8.235729217529296875e+00 6.380040168762207031e+00 -5.074656677246093750e+01 8.433605194091796875e+00 6.002014160156250000e+00 -5.021937561035156250e+01 -2.520332336425781250e-01 9.026381492614746094e+00 -4.072678375244140625e+01 5.707185745239257812e+00 -3.487202525138854980e-01 -3.191924476623535156e+01 -3.990651369094848633e-01 6.298157215118408203e+00 -3.478665542602539062e+01 2.033489704132080078e+00 2.637887239456176758e+00 -3.071223831176757812e+01 4.965195804834365845e-02 1.236975002288818359e+01 -4.914278793334960938e+01 7.678035736083984375e+00 -1.680991768836975098e+00 -3.210127639770507812e+01 -5.819145441055297852e-01 6.619955539703369141e+00 -3.617013931274414062e+01 9.097490310668945312e+00 -1.013813495635986328e+00 -3.612135314941406250e+01 9.207611083984375000e+00 -1.594971656799316406e+00 -3.495830154418945312e+01 8.693955421447753906e+00 9.473956823348999023e-01 -4.011475372314453125e+01 2.529477357864379883e+00 2.324901342391967773e+00 -3.097455787658691406e+01 8.232769012451171875e+00 5.154040813446044922e+00 -4.876571273803710938e+01 -6.688084602355957031e-01 1.059933662414550781e+01 -4.497046661376953125e+01 -4.520921409130096436e-01 9.515524864196777344e+00 -4.233430862426757812e+01 -4.040586650371551514e-01 7.458703041076660156e+00 -3.831152343750000000e+01 3.526409864425659180e+00 1.259791970252990723e+00 -3.142080879211425781e+01 1.147355794906616211e+00 2.797510147094726562e+00 -3.041768836975097656e+01 -4.720595777034759521e-01 8.540566444396972656e+00 -4.029991149902343750e+01 6.689123630523681641e+00 6.950419902801513672e+00 -5.074266433715820312e+01 4.966584682464599609e+00 8.459579467773437500e+00 -5.052168273925781250e+01 4.027079105377197266e+00 9.366100311279296875e+00 -5.026586532592773438e+01 -6.228496432304382324e-01 4.417321205139160156e+00 -3.077298545837402344e+01 8.627063751220703125e+00 1.846903920173645020e+00 -4.193629455566406250e+01 8.980980873107910156e+00 -4.383329451084136963e-01 -3.732891464233398438e+01 8.353633880615234375e+00 -2.025676250457763672e+00 -3.192084121704101562e+01 9.371608734130859375e+00 -2.776059865951538086e+00 -3.220665359497070312e+01 -6.728385090827941895e-01 1.213261699676513672e+01 -4.797092056274414062e+01 9.136328697204589844e+00 -1.995303988456726074e+00 -3.467650604248046875e+01 6.301049709320068359e+00 -8.108134865760803223e-01 -3.199106407165527344e+01 3.214943408966064453e+00 9.606708526611328125e+00 -5.007942962646484375e+01 -7.824112176895141602e-01 3.988883495330810547e+00 -2.993690872192382812e+01 8.366902351379394531e+00 2.717905044555664062e+00 -4.409585189819335938e+01 8.413451194763183594e+00 3.542862415313720703e+00 -4.553544998168945312e+01 8.617381095886230469e+00 2.337563991546630859e+00 -4.284369659423828125e+01 -6.336226463317871094e-01 1.042572975158691406e+01 -4.433087158203125000e+01 -3.959127962589263916e-01 1.192930603027343750e+01 -4.858037948608398438e+01 8.929894447326660156e+00 -1.530435085296630859e+00 -3.562680053710937500e+01 9.242433547973632812e+00 -2.226396322250366211e+00 -3.405092239379882812e+01 6.901213169097900391e+00 -1.176646351814270020e+00 -3.199984931945800781e+01 6.374361515045166016e+00 7.498497962951660156e+00 -5.071059799194335938e+01 -5.373606681823730469e-01 8.711396217346191406e+00 -4.127201461791992188e+01 9.016291618347167969e+00 -2.353294610977172852e+00 -3.371168899536132812e+01 1.774843573570251465e+00 2.538394689559936523e+00 -3.080554771423339844e+01 1.214420676231384277e+00 1.092774772644042969e+01 -4.937300872802734375e+01 4.131350040435791016e+00 5.300612449645996094e-01 -3.170140647888183594e+01 -8.709121346473693848e-01 5.235947608947753906e+00 -3.284546279907226562e+01 7.932053565979003906e+00 4.499840259552001953e+00 -4.745999145507812500e+01 7.646210670471191406e+00 6.573145389556884766e+00 -5.076411819458007812e+01 2.830489635467529297e+00 9.860820770263671875e+00 -4.987428283691406250e+01 -5.848363637924194336e-01 9.939465522766113281e+00 -4.353491210937500000e+01 -8.043416142463684082e-01 5.723938941955566406e+00 -3.463887786865234375e+01 -1.156105041503906250e+00 4.354436397552490234e+00 -3.092785263061523438e+01 -6.594981551170349121e-01 1.072479152679443359e+01 -4.561281967163085938e+01 -5.532316565513610840e-01 6.795166015625000000e+00 -3.685468292236328125e+01 7.210568904876708984e+00 6.903859138488769531e+00 -5.079753494262695312e+01 8.224351882934570312e+00 1.292725205421447754e+00 -4.140881729125976562e+01 8.539836883544921875e+00 2.842234261333942413e-02 -3.882265853881835938e+01 9.021038055419921875e+00 -2.766933679580688477e+00 -3.263495635986328125e+01 2.268941640853881836e+00 1.864962697029113770e+00 -3.104601287841796875e+01 1.795214295387268066e+00 2.165228128433227539e+00 -3.082638549804687500e+01 6.912915706634521484e-01 1.077621078491210938e+01 -4.896951293945312500e+01 -5.889006257057189941e-01 8.205744743347167969e+00 -4.083741760253906250e+01 2.325733184814453125e+00 9.957201004028320312e+00 -4.973864746093750000e+01 -7.275584936141967773e-01 6.755143642425537109e+00 -3.751738357543945312e+01 8.586307525634765625e+00 -2.713939666748046875e+00 -3.259103775024414062e+01 8.788007736206054688e+00 -1.853526949882507324e+00 -3.528428649902343750e+01 7.901488304138183594e+00 -2.258093118667602539e+00 -3.241964340209960938e+01 5.126966476440429688e+00 -1.148281171917915344e-01 -3.209374237060546875e+01 -7.774955630302429199e-01 3.434211969375610352e+00 -3.004111480712890625e+01 8.494884490966796875e+00 -1.260986447334289551e+00 -3.665865325927734375e+01 8.600540161132812500e+00 -8.748294711112976074e-01 -3.718397521972656250e+01 -7.706731557846069336e-01 1.096168804168701172e+01 -4.627267837524414062e+01 4.810605049133300781e-01 2.522489070892333984e+00 -3.041456031799316406e+01 -6.891099214553833008e-01 1.117343139648437500e+01 -4.720277404785156250e+01 -5.892713665962219238e-01 9.093358039855957031e+00 -4.301274871826171875e+01 7.500958442687988281e+00 5.943600654602050781e+00 -5.004519271850585938e+01 4.103524144738912582e-03 1.096470642089843750e+01 -4.850009918212890625e+01 5.417328834533691406e+00 7.385614395141601562e+00 -5.030529785156250000e+01 -1.093987703323364258e+00 4.620903491973876953e+00 -3.163719367980957031e+01 -1.070512533187866211e+00 5.189720630645751953e+00 -3.407408142089843750e+01 3.308812379837036133e+00 8.595002293586730957e-01 -3.160822677612304688e+01 1.879449605941772461e+00 1.586910843849182129e+00 -3.110335540771484375e+01 8.888208389282226562e+00 -2.954255580902099609e+00 -3.298988342285156250e+01 1.164645314216613770e+00 2.224111557006835938e+00 -3.067708587646484375e+01 6.683259963989257812e+00 -1.485658526420593262e+00 -3.232792663574218750e+01 -5.833185911178588867e-01 8.476493835449218750e+00 -4.172275924682617188e+01 -7.292530536651611328e-01 7.083812713623046875e+00 -3.898614883422851562e+01 7.766645431518554688e+00 3.881116390228271484e+00 -4.658023452758789062e+01 -5.432007908821105957e-01 3.151745319366455078e+00 -2.987639617919921875e+01 8.098948478698730469e+00 2.626004517078399658e-01 -3.975700759887695312e+01 8.087011337280273438e+00 8.961378931999206543e-01 -4.086049652099609375e+01 8.859630584716796875e+00 -2.632012367248535156e+00 -3.332215118408203125e+01 -8.708388805389404297e-01 5.673994064331054688e+00 -3.555002975463867188e+01 1.423393845558166504e+00 1.855965018272399902e+00 -3.078292846679687500e+01 -1.281537532806396484e+00 4.502275466918945312e+00 -3.204627227783203125e+01 -1.152622699737548828e+00 3.627856731414794922e+00 -2.988266754150390625e+01 6.926653861999511719e+00 6.300933361053466797e+00 -5.031739044189453125e+01 3.610795021057128906e+00 8.489173889160156250e+00 -4.992952728271484375e+01 -6.940008997917175293e-01 9.862794876098632812e+00 -4.512937164306640625e+01 5.543702125549316406e+00 -1.078099966049194336e+00 -3.246257781982421875e+01 -6.986741423606872559e-01 9.503059387207031250e+00 -4.401437377929687500e+01 -1.481750845909118652e+00 3.691684961318969727e+00 -3.018042182922363281e+01 -8.382326364517211914e-01 6.041174411773681641e+00 -3.656975936889648438e+01 7.344803810119628906e+00 5.424866199493408203e+00 -4.930665206909179688e+01 7.851176261901855469e+00 1.715455770492553711e+00 -4.273226928710937500e+01 -6.705546975135803223e-01 7.827744007110595703e+00 -4.029181289672851562e+01 8.378511428833007812e+00 -2.612435102462768555e+00 -3.400241851806640625e+01 2.615450620651245117e+00 1.331690311431884766e+00 -3.151389122009277344e+01 5.035770416259765625e+00 -5.906348228454589844e-01 -3.236034393310546875e+01 -4.075241833925247192e-02 2.463620424270629883e+00 -3.014236068725585938e+01 7.912371635437011719e+00 2.379503011703491211e+00 -4.403805160522460938e+01 -1.235618472099304199e+00 4.802639007568359375e+00 -3.390420532226562500e+01 4.129251003265380859e+00 -7.158842682838439941e-02 -3.229185485839843750e+01 -7.616218328475952148e-01 6.730749607086181641e+00 -3.817876815795898438e+01 8.007155418395996094e+00 -7.877905368804931641e-01 -3.804303359985351562e+01 7.397167205810546875e+00 4.829060554504394531e+00 -4.824824523925781250e+01 -6.887317299842834473e-01 8.227382659912109375e+00 -4.229036712646484375e+01 -8.576541543006896973e-01 6.154095172882080078e+00 -3.707954406738281250e+01 -6.114472746849060059e-01 8.264717102050781250e+00 -4.301072692871093750e+01 -1.208652138710021973e+00 4.833648204803466797e+00 -3.318759536743164062e+01 6.794084548950195312e+00 -1.935891389846801758e+00 -3.260129928588867188e+01 7.713665962219238281e+00 3.246929645538330078e+00 -4.555321121215820312e+01 1.709649443626403809e+00 9.068584442138671875e+00 -4.900752258300781250e+01 6.718773841857910156e+00 4.229221343994140625e+00 -4.744462203979492188e+01 -1.464819550514221191e+00 4.013063907623291016e+00 -3.108289718627929688e+01 7.276337146759033203e+00 -2.308569908142089844e+00 -3.279179763793945312e+01 5.788849353790283203e+00 6.278983116149902344e+00 -4.971670913696289062e+01 -1.131793260574340820e+00 4.991639137268066406e+00 -3.483917617797851562e+01 2.552953243255615234e+00 9.831600785255432129e-01 -3.195770835876464844e+01 -7.719552516937255859e-01 7.210968971252441406e+00 -3.986915206909179688e+01 6.779028892517089844e+00 5.642945766448974609e+00 -4.960141754150390625e+01 4.141260981559753418e-01 2.242267847061157227e+00 -3.044642257690429688e+01 7.428813934326171875e+00 -2.489579200744628906e+00 -3.327103424072265625e+01 2.470813751220703125e+00 8.640279769897460938e+00 -4.937587738037109375e+01 8.093687057495117188e+00 -2.913595438003540039e+00 -3.329328536987304688e+01 -1.107820749282836914e+00 2.914575338363647461e+00 -2.967243957519531250e+01 -1.651765942573547363e+00 3.397312879562377930e+00 -2.968753051757812500e+01 -2.512648999691009521e-01 1.031799888610839844e+01 -4.768513488769531250e+01 6.218097686767578125e+00 5.876871109008789062e+00 -4.973513412475585938e+01 -5.208297967910766602e-01 9.756972312927246094e+00 -4.610910415649414062e+01 5.873298645019531250e+00 -1.534292221069335938e+00 -3.267940139770507812e+01 -1.159123182296752930e+00 4.948560237884521484e+00 -3.527692413330078125e+01 3.115195035934448242e+00 6.847965121269226074e-01 -3.182838058471679688e+01 8.109556198120117188e+00 -1.820393800735473633e+00 -3.596524810791015625e+01 -3.090708553791046143e-01 9.750308036804199219e+00 -4.708608627319335938e+01 -7.071686387062072754e-01 7.875459194183349609e+00 -4.159259414672851562e+01 7.670642375946044922e+00 -2.158055007457733154e-01 -3.930540466308593750e+01 4.904792785644531250e+00 7.065203666687011719e+00 -4.989881896972656250e+01 -7.689050436019897461e-01 7.200541496276855469e+00 -4.074938583374023438e+01 7.310122489929199219e+00 1.064285039901733398e+00 -4.195641708374023438e+01 1.893556714057922363e+00 1.033993363380432129e+00 -3.154323959350585938e+01 7.279784083366394043e-01 1.945162057876586914e+00 -3.076060104370117188e+01 6.780612945556640625e+00 4.968153953552246094e+00 -4.845381927490234375e+01 7.314516067504882812e+00 2.509146690368652344e+00 -4.460469055175781250e+01 -1.695086479187011719e+00 3.431490182876586914e+00 -2.935696029663085938e+01 1.145154356956481934e+00 1.433508872985839844e+00 -3.123246192932128906e+01 -1.409229278564453125e+00 4.241930007934570312e+00 -3.267201614379882812e+01 3.204392194747924805e+00 2.084034085273742676e-01 -3.211439895629882812e+01 3.804774880409240723e-01 9.817854881286621094e+00 -4.822166061401367188e+01 3.498917341232299805e+00 7.763971328735351562e+00 -4.952207946777343750e+01 -6.186279654502868652e-01 8.787576675415039062e+00 -4.428332901000976562e+01 7.722140789031982422e+00 -2.442128658294677734e+00 -3.494343948364257812e+01 6.671154022216796875e+00 3.590433835983276367e+00 -4.644498062133789062e+01 6.675993800163269043e-01 9.108618736267089844e+00 -4.810981750488281250e+01 -1.018541455268859863e+00 5.640296936035156250e+00 -3.746692657470703125e+01 -1.058099150657653809e+00 5.067700386047363281e+00 -3.600806427001953125e+01 -1.519696354866027832e+00 3.669876575469970703e+00 -3.115308570861816406e+01 -6.372080445289611816e-01 2.455569505691528320e+00 -3.016428947448730469e+01 6.546083927154541016e+00 5.001347541809082031e+00 -4.880364990234375000e+01 7.196892738342285156e+00 1.764824628829956055e+00 -4.334878540039062500e+01 4.628073692321777344e+00 -6.258140206336975098e-01 -3.255199432373046875e+01 7.451361656188964844e+00 -6.313216686248779297e-01 -3.875777435302734375e+01 2.515286922454833984e+00 5.528407096862792969e-01 -3.224155426025390625e+01 6.453099727630615234e+00 -2.044437170028686523e+00 -3.304140472412109375e+01 7.469664573669433594e+00 4.749524295330047607e-01 -4.063257980346679688e+01 5.641640186309814453e+00 5.758504867553710938e+00 -4.913626098632812500e+01 -1.509601593017578125e+00 3.806952953338623047e+00 -3.210069274902343750e+01 -1.616297841072082520e+00 2.994782447814941406e+00 -2.988775444030761719e+01 -3.256574571132659912e-01 9.220376968383789062e+00 -4.634601211547851562e+01 -1.344331860542297363e+00 4.225857257843017578e+00 -3.347693634033203125e+01 3.759134769439697266e+00 -3.617623150348663330e-01 -3.275378036499023438e+01 -9.696692824363708496e-01 5.882184028625488281e+00 -3.816623687744140625e+01 -1.915878057479858398e-01 2.070857048034667969e+00 -3.054316329956054688e+01 -1.626555323600769043e+00 2.903327703475952148e+00 -2.949607849121093750e+01 7.410429954528808594e+00 -2.765753984451293945e+00 -3.397519302368164062e+01 -9.319630265235900879e-01 6.182213783264160156e+00 -3.913529205322265625e+01 -9.504878520965576172e-01 5.215836048126220703e+00 -3.670074844360351562e+01 1.514278650283813477e+00 1.111577510833740234e+00 -3.161405944824218750e+01 -2.253063201904296875e+00 3.177237749099731445e+00 -2.934003448486328125e+01 4.412050247192382812e+00 6.433808803558349609e+00 -4.911397933959960938e+01 -8.700541257858276367e-01 6.467926979064941406e+00 -4.013813781738281250e+01 -1.231933116912841797e+00 2.617557287216186523e+00 -3.057132720947265625e+01 7.108911037445068359e+00 -1.611118078231811523e+00 -3.704505538940429688e+01 4.236591339111328125e+00 -7.785353064537048340e-01 -3.271907424926757812e+01 -1.459739804267883301e+00 3.065546989440917969e+00 -3.068058013916015625e+01 5.803753376007080078e+00 -1.985668778419494629e+00 -3.334849166870117188e+01 7.424691200256347656e+00 -2.689870834350585938e+00 -3.431349945068359375e+01 4.804617881774902344e+00 -1.196202754974365234e+00 -3.295841598510742188e+01 -2.111115694046020508e+00 2.813855409622192383e+00 -2.933656692504882812e+01 2.099928855895996094e+00 6.296038627624511719e-01 -3.204605484008789062e+01 -9.309738874435424805e-01 2.301987171173095703e+00 -3.053734207153320312e+01 -1.408836483955383301e+00 2.646665096282958984e+00 -3.009590721130371094e+01 6.403501510620117188e+00 3.965348482131958008e+00 -4.735745620727539062e+01 7.152918815612792969e+00 -2.093897581100463867e+00 -3.600934219360351562e+01 5.695450305938720703e+00 5.179926395416259766e+00 -4.837860107421875000e+01 -1.274982392787933350e-01 1.743997812271118164e+00 -3.107842445373535156e+01 6.469172000885009766e+00 -2.296741485595703125e+00 -3.388886642456054688e+01 2.951212644577026367e+00 7.462594509124755859e+00 -4.895476913452148438e+01 6.102294445037841797e+00 4.624212741851806641e+00 -4.812754058837890625e+01 -1.675702333450317383e-01 8.428933143615722656e+00 -4.595629119873046875e+01 -4.024463295936584473e-01 8.012504577636718750e+00 -4.463573074340820312e+01 -5.372967123985290527e-01 7.907925128936767578e+00 -4.371402740478515625e+01 1.618981122970581055e+00 8.247838020324707031e+00 -4.843670272827148438e+01 -1.251218914985656738e+00 4.309934616088867188e+00 -3.444978713989257812e+01 2.625961542129516602e+00 -2.600576356053352356e-02 -3.284821319580078125e+01 7.065671682357788086e-02 8.738376617431640625e+00 -4.693578338623046875e+01 -1.542988538742065430e+00 3.371666431427001953e+00 -3.259755325317382812e+01 -1.463627934455871582e+00 2.900431871414184570e+00 -3.178122901916503906e+01 6.489208698272705078e+00 2.643093824386596680e+00 -4.489157485961914062e+01 -6.608241796493530273e-01 6.868531227111816406e+00 -4.204289627075195312e+01 6.873840808868408203e+00 -1.233415365219116211e+00 -3.783491134643554688e+01 6.001871824264526367e-01 1.425083994865417480e+00 -3.134393882751464844e+01 1.648847460746765137e+00 7.315900921821594238e-01 -3.203622436523437500e+01 4.970009326934814453e+00 5.675273418426513672e+00 -4.867882156372070312e+01 6.852803707122802734e+00 4.306579828262329102e-01 -4.077933120727539062e+01 -1.595965862274169922e+00 2.537723779678344727e+00 -3.057881546020507812e+01 6.310155868530273438e+00 2.784967899322509766e+00 -4.551244354248046875e+01 6.345382213592529297e+00 1.279216885566711426e+00 -4.285117721557617188e+01 4.092594623565673828e+00 5.927913665771484375e+00 -4.843560791015625000e+01 8.969246745109558105e-01 1.126008868217468262e+00 -3.175985336303710938e+01 6.600389957427978516e+00 -2.273744344711303711e+00 -3.440293884277343750e+01 5.886716365814208984e+00 4.075820446014404297e+00 -4.744031524658203125e+01 -4.718902111053466797e-01 7.305073738098144531e+00 -4.332039260864257812e+01 6.193058490753173828e+00 -2.657158672809600830e-01 -3.983684539794921875e+01 6.925788879394531250e+00 -2.465637207031250000e+00 -3.524798965454101562e+01 -1.410114169120788574e+00 3.240972518920898438e+00 -3.351695251464843750e+01 5.087811946868896484e+00 -1.665364742279052734e+00 -3.377614593505859375e+01 1.249546647071838379e+00 7.795159339904785156e+00 -4.778064346313476562e+01 3.270242214202880859e+00 6.582580089569091797e+00 -4.845871734619140625e+01 -1.197151899337768555e+00 3.994267940521240234e+00 -3.541828155517578125e+01 -1.250107407569885254e+00 4.112641811370849609e+00 -3.486435699462890625e+01 2.078080654144287109e+00 1.945922821760177612e-01 -3.263209533691406250e+01 5.343644142150878906e+00 4.395123958587646484e+00 -4.737210083007812500e+01 4.665960311889648438e+00 4.745223522186279297e+00 -4.749923324584960938e+01 3.888255119323730469e+00 -9.557644724845886230e-01 -3.331289672851562500e+01 -1.120392560958862305e+00 4.434195518493652344e+00 -3.631988143920898438e+01 4.536079406738281250e+00 5.261020660400390625e+00 -4.800105667114257812e+01 2.541194677352905273e+00 6.899235248565673828e+00 -4.820564270019531250e+01 5.930418014526367188e+00 3.281100034713745117e+00 -4.622142410278320312e+01 6.489118576049804688e+00 -2.302400350570678711e+00 -3.516343688964843750e+01 -9.823802113533020020e-01 5.375918865203857422e+00 -3.871872329711914062e+01 -9.749388098716735840e-01 4.924705028533935547e+00 -3.809590911865234375e+01 6.213614463806152344e+00 -8.244102001190185547e-01 -3.887803649902343750e+01 2.924162864685058594e+00 -3.929859995841979980e-01 -3.346007919311523438e+01 6.222588539123535156e+00 4.313829839229583740e-01 -4.082910919189453125e+01 5.556116580963134766e+00 -1.881167411804199219e+00 -3.465014266967773438e+01 -7.058101892471313477e-01 1.792326450347900391e+00 -3.117136955261230469e+01 6.431011557579040527e-01 7.649429798126220703e+00 -4.675672912597656250e+01 -5.852241516113281250e-01 5.981386184692382812e+00 -4.140372467041015625e+01 -8.526235222816467285e-01 4.457272052764892578e+00 -3.743399429321289062e+01 -1.320563673973083496e+00 3.359437465667724609e+00 -3.422111511230468750e+01 6.408181041479110718e-02 7.439866542816162109e+00 -4.541122817993164062e+01 6.282151222229003906e+00 2.073223829269409180e+00 -4.449060440063476562e+01 6.230279922485351562e+00 -1.810154676437377930e+00 -3.683821868896484375e+01 -5.260179638862609863e-01 1.509948492050170898e+00 -3.160878562927246094e+01 -9.360526204109191895e-01 2.116252422332763672e+00 -3.144357872009277344e+01 -1.425098180770874023e+00 2.291509151458740234e+00 -3.135682106018066406e+01 2.923980474472045898e+00 5.866376876831054688e+00 -4.750507736206054688e+01 1.287300467491149902e+00 5.810944437980651855e-01 -3.244497299194335938e+01 4.850836277008056641e+00 4.134503364562988281e+00 -4.682240295410156250e+01 1.841597080230712891e+00 6.808551788330078125e+00 -4.745746612548828125e+01 5.567758083343505859e+00 3.135007143020629883e+00 -4.561989212036132812e+01 3.781769275665283203e+00 5.395517349243164062e+00 -4.762271118164062500e+01 2.206338196992874146e-01 1.159566760063171387e+00 -3.202345657348632812e+01 -8.550418615341186523e-01 5.292486667633056641e+00 -3.978017807006835938e+01 -1.862087100744247437e-01 6.872232913970947266e+00 -4.401582336425781250e+01 -1.872821748256683350e-01 6.371098041534423828e+00 -4.319985198974609375e+01 -1.478483676910400391e+00 2.686696767807006836e+00 -3.245760345458984375e+01 -1.620323538780212402e+00 2.598468303680419922e+00 -3.181190490722656250e+01 3.001277446746826172e-01 7.217011451721191406e+00 -4.568575286865234375e+01 6.110298633575439453e+00 1.003456592559814453e+00 -4.277572250366210938e+01 5.721628189086914062e+00 -2.179361104965209961e+00 -3.575224685668945312e+01 5.684329986572265625e+00 1.807258367538452148e+00 -4.388901519775390625e+01 6.066674232482910156e+00 -2.113985300064086914e+00 -3.628329086303710938e+01 4.417934417724609375e+00 -1.439121246337890625e+00 -3.405785751342773438e+01 4.722268104553222656e+00 -1.627056717872619629e+00 -3.460334014892578125e+01 2.583840787410736084e-01 9.159010052680969238e-01 -3.265179824829101562e+01 3.504752635955810547e+00 -9.855495095252990723e-01 -3.399610137939453125e+01 5.415978431701660156e+00 2.752028465270996094e+00 -4.479998397827148438e+01 -1.664186716079711914e-01 5.543396472930908203e+00 -4.233620071411132812e+01 3.475936651229858398e+00 5.045088768005371094e+00 -4.698458099365234375e+01 1.005509614944458008e+00 6.626576423645019531e+00 -4.616289901733398438e+01 4.650560379028320312e+00 3.569565057754516602e+00 -4.585773468017578125e+01 4.843608856201171875e+00 2.877784729003906250e+00 -4.485657501220703125e+01 -7.509214878082275391e-01 3.642884254455566406e+00 -3.741992187500000000e+01 4.126981735229492188e+00 4.301224231719970703e+00 -4.656778717041015625e+01 -1.127268552780151367e+00 2.512119770050048828e+00 -3.428213882446289062e+01 -8.481656908988952637e-01 1.907003045082092285e+00 -3.211110687255859375e+01 6.112805843353271484e+00 2.444695979356765747e-01 -4.108179473876953125e+01 2.241529464721679688e+00 -3.053386807441711426e-01 -3.366550827026367188e+01 5.178142070770263672e+00 -1.827290534973144531e+00 -3.562027359008789062e+01 -9.743174910545349121e-01 3.497837543487548828e+00 -3.621495056152343750e+01 -1.337700963020324707e+00 2.338361263275146484e+00 -3.327032470703125000e+01 2.114196300506591797e+00 5.945288181304931641e+00 -4.681404876708984375e+01 6.118204593658447266e-01 6.356009006500244141e+00 -4.519541168212890625e+01 -1.468072175979614258e+00 2.178889751434326172e+00 -3.224362945556640625e+01 -6.835960149765014648e-01 4.031119346618652344e+00 -3.802058029174804688e+01 1.521136283874511719e+00 5.996237754821777344e+00 -4.616767883300781250e+01 6.013643264770507812e+00 -8.213137984275817871e-01 -3.929586410522460938e+01 3.780995368957519531e+00 3.845412969589233398e+00 -4.568022155761718750e+01 2.712460041046142578e+00 5.318910598754882812e+00 -4.668125915527343750e+01 8.682540655136108398e-01 4.328440725803375244e-01 -3.346311950683593750e+01 5.716243982315063477e-01 5.577208518981933594e+00 -4.403929901123046875e+01 -1.003155350685119629e+00 3.026347160339355469e+00 -3.550518417358398438e+01 1.411106944084167480e+00 9.644463658332824707e-02 -3.373988342285156250e+01 5.658475399017333984e+00 5.966040492057800293e-01 -4.167467498779296875e+01 5.730447769165039062e+00 -3.652957454323768616e-02 -4.047791671752929688e+01 6.050921916961669922e+00 -1.563614368438720703e+00 -3.771351242065429688e+01 4.520404338836669922e+00 -1.569853901863098145e+00 -3.555412673950195312e+01 5.497845649719238281e+00 1.218350887298583984e+00 -4.295588684082031250e+01 3.291409254074096680e+00 -9.741249680519104004e-01 -3.458049774169921875e+01 3.861030340194702148e+00 3.384198665618896484e+00 -4.502147674560546875e+01 -4.787715077400207520e-01 5.004682540893554688e+00 -4.094835281372070312e+01 3.111137151718139648e+00 4.664680480957031250e+00 -4.626855087280273438e+01 2.976856231689453125e-01 5.314967155456542969e+00 -4.310081481933593750e+01 -5.910518765449523926e-01 4.263387680053710938e+00 -3.946340560913085938e+01 4.276628017425537109e+00 2.825445413589477539e+00 -4.449160385131835938e+01 -4.098173081874847412e-01 1.224189400672912598e+00 -3.289323043823242188e+01 2.815418958663940430e+00 -6.009518504142761230e-01 -3.468593597412109375e+01 1.740213274955749512e+00 5.365081787109375000e+00 -4.567816162109375000e+01 1.264621019363403320e+00 5.496740341186523438e+00 -4.512481689453125000e+01 4.448513984680175781e+00 2.309713125228881836e+00 -4.381813049316406250e+01 -6.542757749557495117e-01 1.645585536956787109e+00 -3.307894134521484375e+01 5.125101089477539062e+00 1.059404969215393066e+00 -4.216049575805664062e+01 5.263384342193603516e+00 4.084086120128631592e-01 -4.064262008666992188e+01 2.310681343078613281e+00 4.999372482299804688e+00 -4.588533020019531250e+01 4.391273975372314453e+00 8.122434616088867188e-01 -4.115608978271484375e+01 5.466238021850585938e+00 -8.693688511848449707e-01 -3.908671569824218750e+01 4.710533618927001953e+00 1.668168425559997559e+00 -4.301370239257812500e+01 -1.075215339660644531e+00 1.950105428695678711e+00 -3.353437423706054688e+01 2.937752246856689453e+00 4.134814739227294922e+00 -4.541365814208984375e+01 5.464544296264648438e+00 -1.794043421745300293e+00 -3.685571670532226562e+01 1.758946776390075684e+00 -1.963179260492324829e-01 -3.433227157592773438e+01 4.012777328491210938e+00 2.369994878768920898e+00 -4.362095642089843750e+01 4.606199264526367188e+00 2.290222793817520142e-01 -4.023336029052734375e+01 3.905173063278198242e+00 -1.242976188659667969e+00 -3.566553878784179688e+01 1.318825006484985352e+00 4.833184242248535156e+00 -4.433176040649414062e+01 2.400035142898559570e+00 4.276145935058593750e+00 -4.496448135375976562e+01 3.290116310119628906e+00 3.411936044692993164e+00 -4.457220077514648438e+01 -8.613839745521545410e-01 2.127022504806518555e+00 -3.475176620483398438e+01 1.744793057441711426e-01 8.051709532737731934e-01 -3.345450592041015625e+01 5.222069263458251953e+00 -1.197049617767333984e+00 -3.772845458984375000e+01 4.802716732025146484e+00 -4.173366427421569824e-01 -3.929451751708984375e+01 1.884279489517211914e+00 4.684088230133056641e+00 -4.489661788940429688e+01 -1.342838853597640991e-01 4.459256172180175781e+00 -4.119148635864257812e+01 -3.135171234607696533e-01 3.297463655471801758e+00 -3.855534744262695312e+01 3.106872797012329102e+00 2.936476469039916992e+00 -4.365819168090820312e+01 1.328060269355773926e+00 4.158791065216064453e+00 -4.340184402465820312e+01 5.577309131622314453e-01 4.589923381805419922e+00 -4.267733764648437500e+01 4.693897247314453125e+00 -1.491983175277709961e+00 -3.656803131103515625e+01 -7.519860863685607910e-01 2.912227869033813477e+00 -3.643994903564453125e+01 2.302292823791503906e+00 -4.334242939949035645e-01 -3.507785415649414062e+01 4.032581329345703125e+00 1.441340804100036621e+00 -4.213087081909179688e+01 3.228535890579223633e+00 -9.252048730850219727e-01 -3.542509078979492188e+01 1.856301069259643555e+00 4.105518341064453125e+00 -4.405851745605468750e+01 2.735651969909667969e+00 3.262675762176513672e+00 -4.385713577270507812e+01 -4.774790704250335693e-01 1.524839639663696289e+00 -3.428051757812500000e+01 5.009238243103027344e+00 -6.771114468574523926e-01 -3.888877105712890625e+01 -1.443198770284652710e-01 1.050046205520629883e+00 -3.378815841674804688e+01 3.881464719772338867e+00 5.560607910156250000e-01 -4.035904693603515625e+01 3.462053298950195312e+00 2.209371328353881836e+00 -4.290309143066406250e+01 2.420147895812988281e+00 3.750133991241455078e+00 -4.421151351928710938e+01 4.627627849578857422e+00 -1.009118318557739258e+00 -3.781831741333007812e+01 -4.881344437599182129e-01 2.126105070114135742e+00 -3.593378448486328125e+01 4.197223663330078125e+00 -3.998220339417457581e-02 -3.958123016357421875e+01 -4.061818420886993408e-01 2.792980909347534180e+00 -3.749063873291015625e+01 1.662270426750183105e+00 -9.445788711309432983e-02 -3.482141876220703125e+01 9.026871323585510254e-01 3.458621203899383545e-01 -3.438927841186523438e+01 4.441969692707061768e-01 4.043841361999511719e+00 -4.182257843017578125e+01 1.125262156128883362e-01 2.918259620666503906e+00 -3.923088455200195312e+01 2.593242168426513672e+00 2.605647563934326172e+00 -4.263879776000976562e+01 3.330280303955078125e+00 -8.889309167861938477e-01 -3.649116516113281250e+01 1.075544118881225586e+00 3.775141954421997070e+00 -4.244146728515625000e+01 3.539805412292480469e+00 -7.626437544822692871e-01 -3.730865859985351562e+01 9.781863540410995483e-02 3.922103166580200195e+00 -4.097991180419921875e+01 9.386489540338516235e-02 3.451497554779052734e+00 -4.018704986572265625e+01 -2.161152958869934082e-01 2.223095655441284180e+00 -3.711079406738281250e+01 1.344569921493530273e-01 8.594421148300170898e-01 -3.439530944824218750e+01 3.018841981887817383e+00 2.108740091323852539e+00 -4.228899002075195312e+01 1.952271223068237305e+00 3.301658391952514648e+00 -4.297605895996093750e+01 4.044024467468261719e+00 -7.519152760505676270e-01 -3.795368957519531250e+01 2.619760036468505859e+00 -5.590983629226684570e-01 -3.604416656494140625e+01 -2.207114398479461670e-01 1.409810066223144531e+00 -3.517852020263671875e+01 3.381753206253051758e+00 1.388071060180664062e+00 -4.144591140747070312e+01 3.763481378555297852e+00 -2.810093760490417480e-01 -3.875438690185546875e+01 3.081485509872436523e+00 1.087091326713562012e+00 -4.059459304809570312e+01 1.563085079193115234e+00 3.023061037063598633e+00 -4.205378341674804688e+01 8.570040464401245117e-01 3.386265754699707031e+00 -4.158613204956054688e+01 1.526437044143676758e+00 4.027371853590011597e-02 -3.568542480468750000e+01 9.067890644073486328e-01 3.985388278961181641e-01 -3.527914428710937500e+01 2.507344484329223633e+00 2.213511466979980469e+00 -4.192590332031250000e+01 4.931735992431640625e-02 1.559926986694335938e+00 -3.637525177001953125e+01 1.270899921655654907e-01 2.337051153182983398e+00 -3.831827545166015625e+01 7.137685418128967285e-01 2.849864006042480469e+00 -4.042975616455078125e+01 3.173551261425018311e-01 9.186267256736755371e-01 -3.553086090087890625e+01 3.218319654464721680e+00 2.752888202667236328e-01 -3.930916595458984375e+01 3.013198852539062500e+00 6.762478500604629517e-02 -3.871502685546875000e+01 2.332168340682983398e+00 -3.293046355247497559e-01 -3.649617385864257812e+01 3.039471864700317383e+00 -2.300268262624740601e-01 -3.808725738525390625e+01 2.201145410537719727e+00 1.848237395286560059e+00 -4.089520263671875000e+01 1.411119461059570312e+00 2.553047180175781250e+00 -4.100965118408203125e+01 7.051761746406555176e-01 1.291476488113403320e+00 -3.748056411743164062e+01 2.782332181930541992e+00 9.057874679565429688e-01 -3.999012756347656250e+01 1.662357926368713379e+00 1.819852590560913086e+00 -4.014784622192382812e+01 6.724093556404113770e-01 2.118892908096313477e+00 -3.913130950927734375e+01 8.787070512771606445e-01 7.555855512619018555e-01 -3.658934402465820312e+01 9.419569373130798340e-01 1.562817454338073730e+00 -3.857686233520507812e+01 2.413803339004516602e+00 -9.526737034320831299e-02 -3.752073669433593750e+01 1.214242458343505859e+00 1.842135310173034668e+00 -3.954343414306640625e+01 2.191101551055908203e+00 9.490500688552856445e-01 -3.942193984985351562e+01 1.686622619628906250e+00 2.764452099800109863e-01 -3.714817428588867188e+01 1.988018512725830078e+00 5.269587635993957520e-01 -3.831461334228515625e+01
-2.068021059036254883e+00 -5.869565606117248535e-01 -3.590887451171875000e+01 -2.655649423599243164e+00 -1.764583706855773926e+00 -3.545803451538085938e+01 -1.368886590003967285e+00 -1.183698177337646484e+00 -3.458749389648437500e+01 -2.783618450164794922e+00 -1.088364481925964355e+00 -3.636213302612304688e+01 -2.228640794754028320e+00 -2.189506769180297852e+00 -3.464103317260742188e+01 -2.610012054443359375e+00 -3.089732885360717773e+00 -3.430881881713867188e+01 -3.287841796875000000e+00 -2.896581411361694336e+00 -3.523999023437500000e+01 -3.193132162094116211e+00 -3.734363555908203125e+00 -3.450125122070312500e+01 -1.978738307952880859e+00 -2.589505195617675781e+00 -3.408987808227539062e+01 -1.257954359054565430e+00 -2.320516407489776611e-01 -3.536850357055664062e+01 -3.470650196075439453e+00 -2.322592496871948242e+00 -3.603216171264648438e+01 -4.008012712001800537e-01 2.352243475615978241e-02 -3.489853668212890625e+01 -2.801188945770263672e+00 -3.777959108352661133e+00 -3.409468841552734375e+01 -7.166177034378051758e-01 -1.978327989578247070e+00 -3.359451293945312500e+01 -1.428380489349365234e+00 2.644143998622894287e-01 -3.612145614624023438e+01 -3.823334455490112305e+00 -2.119557857513427734e+00 -3.691688919067382812e+01 -3.921705722808837891e+00 -3.697305440902709961e+00 -3.544712066650390625e+01 -2.811786830425262451e-01 -9.525085687637329102e-01 -3.402317428588867188e+01 -1.606460809707641602e+00 -3.530933856964111328e+00 -3.322117233276367188e+01 -1.656197547912597656e+00 -3.056851625442504883e+00 -3.353749465942382812e+01 -1.039466500282287598e+00 -2.741107940673828125e+00 -3.329577255249023438e+01 -2.254163980484008789e+00 1.989147961139678955e-01 -3.728690338134765625e+01 -4.265910625457763672e+00 -3.479431629180908203e+00 -3.613360977172851562e+01 -2.067631959915161133e+00 -4.252345085144042969e+00 -3.319510269165039062e+01 -1.143100023269653320e+00 1.058490514755249023e+00 -3.684079742431640625e+01 -3.580121755599975586e+00 -1.270140290260314941e+00 -3.766695404052734375e+01 -4.661920368671417236e-01 7.901741862297058105e-01 -3.573298263549804688e+01 -3.559172153472900391e+00 -4.824554443359375000e+00 -3.439046859741210938e+01 -3.266778469085693359e+00 -4.926574230194091797e+00 -3.400242996215820312e+01 -2.804584503173828125e+00 -4.988831043243408203e+00 -3.350553894042968750e+01 3.418353497982025146e-01 3.835930824279785156e-01 -3.471208572387695312e+01 -4.256242275238037109e+00 -4.559009552001953125e+00 -3.538953781127929688e+01 -2.689169406890869141e+00 1.324287801980972290e-01 -3.814469909667968750e+01 -4.580687522888183594e+00 -3.282814264297485352e+00 -3.687819290161132812e+01 6.265320628881454468e-02 -1.661845445632934570e+00 -3.339619445800781250e+01 5.314044952392578125e-01 -4.601390361785888672e-01 -3.394951248168945312e+01 -3.956325531005859375e+00 -5.089438438415527344e+00 -3.481876754760742188e+01 -1.549284577369689941e+00 -4.276599407196044922e+00 -3.283473205566406250e+01 9.753358364105224609e-02 1.890977144241333008e+00 -3.638918304443359375e+01 -7.662990093231201172e-01 -3.346310853958129883e+00 -3.279228210449218750e+01 -1.984705626964569092e-01 -3.171240568161010742e+00 -3.259864044189453125e+01 -4.132965564727783203e+00 -2.007576227188110352e+00 -3.787273406982421875e+01 -4.755181312561035156e+00 -5.085562705993652344e+00 -3.580823516845703125e+01 -4.937258243560791016e+00 -4.309154033660888672e+00 -3.654110336303710938e+01 8.833085298538208008e-01 1.765620470046997070e+00 -3.563171768188476562e+01 -1.086349248886108398e+00 -4.053535461425781250e+00 -3.263030624389648438e+01 -4.335563659667968750e+00 -5.335540294647216797e+00 -3.511309432983398438e+01 -3.289787054061889648e+00 -5.407045364379882812e+00 -3.399198532104492188e+01 -1.128896474838256836e+00 1.928698301315307617e+00 -3.795175933837890625e+01 -2.579436302185058594e-01 2.408692598342895508e+00 -3.733169174194335938e+01 -2.109261035919189453e+00 -4.882218360900878906e+00 -3.302186584472656250e+01 -3.018985271453857422e+00 -2.596587836742401123e-01 -3.843124008178710938e+01 1.455252647399902344e+00 2.590787708759307861e-01 -3.411517715454101562e+01 -4.571915149688720703e+00 -2.712872743606567383e+00 -3.777154541015625000e+01 -4.975011348724365234e+00 -3.726847171783447266e+00 -3.729173660278320312e+01 6.127254962921142578e-01 2.809649229049682617e+00 -3.680729293823242188e+01 4.250932931900024414e-01 -2.210042476654052734e+00 -3.291739273071289062e+01 -2.059576988220214844e+00 1.112266302108764648e+00 -3.854228591918945312e+01 1.072309017181396484e+00 8.694403767585754395e-01 -3.475966644287109375e+01 -3.773804903030395508e+00 -5.464949131011962891e+00 -3.437428283691406250e+01 1.114704608917236328e+00 -9.717297554016113281e-01 -3.339027786254882812e+01 -2.330790996551513672e+00 -5.826173782348632812e+00 -3.289783859252929688e+01 -1.847461342811584473e+00 -5.009842872619628906e+00 -3.269797897338867188e+01 1.470485210418701172e+00 2.835404157638549805e+00 -3.613254165649414062e+01 -5.304999351501464844e+00 -5.362369537353515625e+00 -3.643025970458984375e+01 -5.412570476531982422e+00 -4.331839561462402344e+00 -3.741401290893554688e+01 -3.249074459075927734e+00 -5.693370342254638672e+00 -3.381034469604492188e+01 1.896660804748535156e+00 2.034350872039794922e+00 -3.526346588134765625e+01 -1.643505930900573730e+00 2.099093675613403320e+00 -3.923432540893554688e+01 -5.214133858680725098e-01 3.034499883651733398e+00 -3.847197341918945312e+01 7.935116887092590332e-01 3.817291736602783203e+00 -3.770598983764648438e+01 1.578731179237365723e+00 3.689393043518066406e+00 -3.684882736206054688e+01 -9.829764366149902344e-01 -4.760645389556884766e+00 -3.224008560180664062e+01 -3.783989548683166504e-01 -4.246702194213867188e+00 -3.219552993774414062e+01 1.196472167968750000e+00 -1.553146719932556152e+00 -3.302098464965820312e+01 -5.765789985656738281e+00 -5.710302352905273438e+00 -3.682069015502929688e+01 -1.976270556449890137e+00 -5.536228656768798828e+00 -3.267802429199218750e+01 5.625988245010375977e-01 4.298532962799072266e+00 -3.858877563476562500e+01 -4.827906608581542969e+00 -5.983770370483398438e+00 -3.558116531372070312e+01 2.038412570953369141e+00 1.169747471809387207e+00 -3.460074615478515625e+01 -4.111013889312744141e+00 -6.083454132080078125e+00 -3.475651550292968750e+01 -3.825998783111572266e+00 -6.320431709289550781e+00 -3.440090179443359375e+01 -5.049880981445312500e+00 -3.319995164871215820e+00 -3.824639892578125000e+01 -3.342789173126220703e+00 -6.527373313903808594e+00 -3.393297958374023438e+01 -3.988623619079589844e-01 -5.032532691955566406e+00 -3.175494194030761719e+01 -1.145443558692932129e+00 -5.626830101013183594e+00 -3.190466117858886719e+01 -5.109704136848449707e-01 3.603610515594482422e+00 -3.932290267944335938e+01 -3.526305198669433594e+00 -8.459669947624206543e-01 -3.861639022827148438e+01 -5.698143482208251953e+00 -4.641658306121826172e+00 -3.790234756469726562e+01 2.447858572006225586e+00 4.862795829772949219e+00 -3.741217803955078125e+01 2.264793634414672852e+00 -3.029760122299194336e-01 -3.356423568725585938e+01 2.452998608350753784e-01 -4.388365745544433594e+00 -3.183955192565917969e+01 4.995025992393493652e-01 -3.211490869522094727e+00 -3.232109069824218750e+01 -1.544955492019653320e+00 -5.980170726776123047e+00 -3.219430160522460938e+01 -2.751009702682495117e+00 5.012133717536926270e-01 -3.925276184082031250e+01 -2.575442314147949219e+00 -6.105257034301757812e+00 -3.307266616821289062e+01 2.581251621246337891e+00 3.482435464859008789e+00 -3.602904129028320312e+01 1.190218210220336914e+00 5.156010627746582031e+00 -3.895550537109375000e+01 -2.436237335205078125e+00 1.036265969276428223e+00 -3.995820236206054688e+01 -1.335431098937988281e+00 2.882863998413085938e+00 -4.001030731201171875e+01 -4.187596321105957031e+00 -1.843315720558166504e+00 -3.907362747192382812e+01 1.927566051483154297e+00 5.072650432586669922e+00 -3.803456115722656250e+01 -6.137436866760253906e+00 -5.906714916229248047e+00 -3.731792068481445312e+01 -5.356164455413818359e+00 -3.860059261322021484e+00 -3.881184768676757812e+01 -5.531320571899414062e+00 -6.507391452789306641e+00 -3.638626861572265625e+01 -6.461187601089477539e-01 -5.547205924987792969e+00 -3.163240432739257812e+01 2.294667512178421021e-01 4.591815471649169922e+00 -3.958803939819335938e+01 2.865608215332031250e+00 4.498497962951660156e+00 -3.681887817382812500e+01 -4.757721900939941406e+00 -2.816332101821899414e+00 -3.902431488037109375e+01 -5.739372730255126953e+00 -6.192380905151367188e+00 -3.688863372802734375e+01 -4.793622970581054688e+00 -6.709943294525146484e+00 -3.562524795532226562e+01 1.699212431907653809e+00 -2.366230964660644531e+00 -3.254455566406250000e+01 2.705525398254394531e+00 2.352684974670410156e+00 -3.514978027343750000e+01 -6.104619503021240234e+00 -5.417687416076660156e+00 -3.801657485961914062e+01 -4.163947105407714844e+00 -6.879848003387451172e+00 -3.498350524902343750e+01 2.662842273712158203e+00 7.998458743095397949e-01 -3.426638793945312500e+01 2.176049232482910156e+00 -1.036259412765502930e+00 -3.319937133789062500e+01 2.922098636627197266e+00 5.940695762634277344e+00 -3.820046234130859375e+01 -3.517056465148925781e+00 -7.746068239212036133e-01 -3.943522644042968750e+01 2.038771390914916992e+00 6.240699291229248047e+00 -3.942473220825195312e+01 -1.813071608543395996e+00 -6.491915702819824219e+00 -3.235512924194335938e+01 -9.459267854690551758e-01 -6.001124858856201172e+00 -3.173645782470703125e+01 -5.655792951583862305e-01 -6.226269245147705078e+00 -3.138487052917480469e+01 -1.997921347618103027e+00 1.908404707908630371e+00 -4.039876174926757812e+01 -3.450585126876831055e+00 -7.099263668060302734e+00 -3.427635574340820312e+01 -2.054830312728881836e+00 -6.832630634307861328e+00 -3.276838684082031250e+01 9.243104457855224609e-01 -4.201100826263427734e+00 -3.175543022155761719e+01 1.419439435005187988e+00 -3.129192829132080078e+00 -3.221789932250976562e+01 -8.671256303787231445e-01 3.658331394195556641e+00 -4.049111557006835938e+01 1.083742856979370117e+00 5.860512256622314453e+00 -4.032498931884765625e+01 -3.750177383422851562e+00 -1.193659305572509766e+00 -3.973894882202148438e+01 -3.165215730667114258e+00 -3.444951772689819336e-01 -4.011594772338867188e+01 -2.640867233276367188e+00 -6.929553508758544922e+00 -3.341786193847656250e+01 -1.103660821914672852e+00 -6.687064170837402344e+00 -3.167712783813476562e+01 3.392266333103179932e-01 -5.607231616973876953e+00 -3.118443870544433594e+01 3.635408639907836914e+00 4.201303482055664062e+00 -3.619038772583007812e+01 3.268110275268554688e+00 3.479435443878173828e+00 -3.575032806396484375e+01 -6.040278911590576172e+00 -6.587535381317138672e+00 -3.726373672485351562e+01 3.113176345825195312e+00 1.685842275619506836e+00 -3.471147537231445312e+01 3.003839962184429169e-02 4.776283264160156250e+00 -4.047502517700195312e+01 2.808929204940795898e+00 6.845232486724853516e+00 -3.941208648681640625e+01 -6.381972789764404297e+00 -6.275750637054443359e+00 -3.769923019409179688e+01 -5.358301162719726562e+00 -7.027025699615478516e+00 -3.634692001342773438e+01 3.668529748916625977e+00 2.379664659500122070e+00 -3.497207260131835938e+01 2.232741594314575195e+00 -1.866672277450561523e+00 -3.277272415161132812e+01 -2.913493156433105469e+00 2.601056396961212158e-01 -3.982912826538085938e+01 -5.727287769317626953e+00 -4.587278842926025391e+00 -3.929243850708007812e+01 -7.365310192108154297e-02 -6.304565429687500000e+00 -3.102911186218261719e+01 3.668298006057739258e+00 5.455441951751708984e+00 -3.726804351806640625e+01 -1.633372664451599121e+00 -7.327082157135009766e+00 -3.237811279296875000e+01 -3.922367095947265625e-01 -6.813143253326416016e+00 -3.106345367431640625e+01 8.090646862983703613e-01 -5.104460716247558594e+00 -3.134952545166015625e+01 -6.703636169433593750e+00 -6.400598049163818359e+00 -3.844017791748046875e+01 4.876497089862823486e-01 5.522198200225830078e+00 -4.113787841796875000e+01 1.933711051940917969e+00 6.777029991149902344e+00 -4.047530364990234375e+01 -4.070068359375000000e+00 -1.733342885971069336e+00 -3.969092941284179688e+01 3.141886711120605469e+00 2.655456066131591797e-01 -3.385771179199218750e+01 4.242699623107910156e+00 3.248389720916748047e+00 -3.539238357543945312e+01 -4.532488822937011719e+00 -7.191518783569335938e+00 -3.553611373901367188e+01 -1.454351544380187988e+00 2.887100458145141602e+00 -4.094281387329101562e+01 2.148027658462524414e+00 -3.285424947738647461e+00 -3.217008590698242188e+01 -2.670617580413818359e+00 -7.571193695068359375e+00 -3.381681060791015625e+01 2.059148788452148438e+00 -2.739477157592773438e+00 -3.240984725952148438e+01 -6.261371612548828125e+00 -5.500631809234619141e+00 -3.889390563964843750e+01 -4.281117916107177734e+00 -2.208869695663452148e+00 -3.986585235595703125e+01 -6.796685457229614258e-01 4.149549484252929688e+00 -4.168730163574218750e+01 -5.614173889160156250e+00 -7.244155406951904297e+00 -3.676764297485351562e+01 -6.606370449066162109e+00 -7.415077209472656250e+00 -3.809500885009765625e+01 -6.567303180694580078e+00 -6.069803714752197266e+00 -3.893668746948242188e+01 -6.148733139038085938e+00 -6.976548194885253906e+00 -3.736172103881835938e+01 -1.051107645034790039e+00 -7.416153430938720703e+00 -3.168021202087402344e+01 4.260179519653320312e+00 7.129123210906982422e+00 -3.857813262939453125e+01 4.372222900390625000e+00 4.941744804382324219e+00 -3.653556442260742188e+01 2.358549118041992188e+00 7.368776321411132812e+00 -4.074437332153320312e+01 -2.737280368804931641e+00 3.808584213256835938e-01 -4.066907119750976562e+01 -1.997499108314514160e+00 -7.559105873107910156e+00 -3.301371383666992188e+01 5.029980182647705078e+00 6.586050987243652344e+00 -3.761962127685546875e+01 7.730876803398132324e-01 -6.335785865783691406e+00 -3.081428909301757812e+01 1.158222034573554993e-01 -6.818274497985839844e+00 -3.073069953918457031e+01 1.781656742095947266e+00 -4.414068222045898438e+00 -3.159807586669921875e+01 1.914697885513305664e+00 -3.847718238830566406e+00 -3.191394424438476562e+01 -3.492148518562316895e-01 4.634222507476806641e+00 -4.175524902343750000e+01 1.615278422832489014e-01 5.282854080200195312e+00 -4.174977493286132812e+01 -6.888468742370605469e+00 -7.145125865936279297e+00 -3.839598464965820312e+01 -4.047951221466064453e+00 -7.572673320770263672e+00 -3.542627334594726562e+01 -3.655536651611328125e+00 -7.544792652130126953e+00 -3.485303878784179688e+01 -4.742433071136474609e+00 -2.888630867004394531e+00 -3.967628097534179688e+01 9.084267616271972656e-01 -5.796677112579345703e+00 -3.105979728698730469e+01 -5.948925018310546875e+00 -7.559187412261962891e+00 -3.734811401367187500e+01 -4.753810405731201172e+00 -7.585165500640869141e+00 -3.605028915405273438e+01 1.156270384788513184e+00 6.618163585662841797e+00 -4.182336044311523438e+01 3.729197978973388672e+00 7.928576946258544922e+00 -4.010203933715820312e+01 4.514206409454345703e+00 4.154191493988037109e+00 -3.590851211547851562e+01 -5.221151828765869141e+00 -4.084943771362304688e+00 -3.963099670410156250e+01 -6.312243461608886719e+00 -7.520788669586181641e+00 -3.784150314331054688e+01 1.716039180755615234e-01 -7.786384105682373047e+00 -3.049494361877441406e+01 4.969247817993164062e+00 4.596364974975585938e+00 -3.611919784545898438e+01 -1.755833625793457031e+00 2.271346569061279297e+00 -4.126639556884765625e+01 -1.286302447319030762e+00 3.100004434585571289e+00 -4.168327713012695312e+01 -2.112000226974487305e+00 -7.754289150238037109e+00 -3.361100769042968750e+01 5.544844627380371094e+00 5.844203472137451172e+00 -3.683196258544921875e+01 -4.497870206832885742e-01 -7.920964717864990234e+00 -3.116877555847167969e+01 -5.002290248870849609e+00 -3.573368549346923828e+00 -3.989997100830078125e+01 3.734758138656616211e+00 1.584512948989868164e+00 -3.463827133178710938e+01 2.928285121917724609e+00 8.303098678588867188e+00 -4.163354110717773438e+01 -2.361064195632934570e+00 1.072336554527282715e+00 -4.106845092773437500e+01 3.990842580795288086e+00 8.164414763450622559e-01 -3.429903030395507812e+01 -6.938898563385009766e+00 -6.538618564605712891e+00 -3.910709762573242188e+01 -3.613486051559448242e+00 -1.156644463539123535e+00 -4.037121963500976562e+01 -1.322315335273742676e+00 -8.056773185729980469e+00 -3.238990402221679688e+01 2.577046453952789307e-01 -7.298064708709716797e+00 -3.059587097167968750e+01 8.042278885841369629e-01 -7.240481376647949219e+00 -3.036609268188476562e+01 6.058990955352783203e-01 -6.621053695678710938e+00 -3.058886528015136719e+01 3.369427442550659180e+00 -1.970844388008117676e+00 -3.293922042846679688e+01 -7.167112827301025391e+00 -7.159857273101806641e+00 -3.914234542846679688e+01 1.939133882522583008e+00 7.618451595306396484e+00 -4.195580291748046875e+01 -5.053291320800781250e+00 -7.872583389282226562e+00 -3.660044479370117188e+01 1.688174128532409668e+00 -5.316904067993164062e+00 -3.128391838073730469e+01 3.199848413467407227e+00 -1.295658946037292480e+00 -3.318486022949218750e+01 3.818229675292968750e+00 -2.369772642850875854e-01 -3.368122863769531250e+01 4.542657375335693359e+00 2.553185701370239258e+00 -3.504201889038085938e+01 -3.049245357513427734e+00 -7.832470417022705078e+00 -3.447911071777343750e+01 5.490658760070800781e+00 7.356268405914306641e+00 -3.813319396972656250e+01 -7.016304016113281250e+00 -7.783638477325439453e+00 -3.872453308105468750e+01 -6.039998531341552734e+00 -5.251131057739257812e+00 -3.970099258422851562e+01 4.056295156478881836e-01 5.888017654418945312e+00 -4.275337982177734375e+01 -4.472842216491699219e+00 -2.743387222290039062e+00 -4.031628417968750000e+01 1.579510331153869629e+00 -5.832489490509033203e+00 -3.100299644470214844e+01 5.434399127960205078e+00 8.097135543823242188e+00 -3.908129501342773438e+01 -1.813285946846008301e+00 1.996561765670776367e+00 -4.172700500488281250e+01 -8.645587563514709473e-01 3.782777547836303711e+00 -4.235771942138671875e+01 5.326870918273925781e+00 3.924591541290283203e+00 -3.571267700195312500e+01 3.098741769790649414e+00 -2.764888525009155273e+00 -3.259215545654296875e+01 -5.546001911163330078e+00 -8.183898925781250000e+00 -3.739899063110351562e+01 5.780674457550048828e+00 5.086587905883789062e+00 -3.626752471923828125e+01 -6.386263847351074219e+00 -6.117028713226318359e+00 -3.974340057373046875e+01 -4.311130523681640625e+00 -7.830734729766845703e+00 -3.588435745239257812e+01 1.534582018852233887e+00 -6.660802841186523438e+00 -3.068191528320312500e+01 2.618860960006713867e+00 -3.787717580795288086e+00 -3.213256454467773438e+01 4.444450855255126953e+00 8.375648498535156250e+00 -4.031436920166015625e+01 -3.244652271270751953e+00 -8.470883369445800781e-01 -4.094351577758789062e+01 -1.155443906784057617e+00 2.956933021545410156e+00 -4.249529647827148438e+01 -5.501194000244140625e+00 -4.616476535797119141e+00 -3.992605972290039062e+01 2.015973091125488281e+00 8.213106155395507812e+00 -4.287935638427734375e+01 4.546128749847412109e+00 1.699111461639404297e+00 -3.470148086547851562e+01 -2.682316541671752930e+00 6.262511014938354492e-02 -4.119812393188476562e+01 -1.764111816883087158e-01 4.918465137481689453e+00 -4.281289291381835938e+01 -7.151428222656250000e+00 -6.938008785247802734e+00 -3.964345169067382812e+01 9.295096397399902344e-01 -7.963639736175537109e+00 -3.005784988403320312e+01 5.634034633636474609e+00 3.400763511657714844e+00 -3.550259017944335938e+01 1.167167067527770996e+00 7.033640384674072266e+00 -4.302273178100585938e+01 -6.572659969329833984e+00 -7.904082775115966797e+00 -3.842189788818359375e+01 3.964443922042846680e+00 8.796625137329101562e+00 -4.177497863769531250e+01 1.096636056900024414e-01 -8.631934165954589844e+00 -3.080926895141601562e+01 1.449388504028320312e+00 7.620128154754638672e+00 -4.367518997192382812e+01 -3.777447462081909180e+00 -1.742217540740966797e+00 -4.068178176879882812e+01 6.170634746551513672e+00 6.502517223358154297e+00 -3.712398147583007812e+01 5.315194129943847656e+00 2.984117746353149414e+00 -3.534394836425781250e+01 -6.163944005966186523e-01 -8.493906974792480469e+00 -3.167041969299316406e+01 -2.452672958374023438e+00 -8.003430366516113281e+00 -3.411228179931640625e+01 2.781291007995605469e+00 -4.398552894592285156e+00 -3.194589424133300781e+01 4.094230175018310547e+00 -9.153202772140502930e-01 -3.352323150634765625e+01 -1.868080854415893555e+00 -8.023013114929199219e+00 -3.345321273803710938e+01 -4.901588916778564453e+00 -3.731044054031372070e+00 -4.032735443115234375e+01 2.925359725952148438e+00 8.947593688964843750e+00 -4.310180282592773438e+01 6.442996978759765625e+00 7.979718685150146484e+00 -3.834629058837890625e+01 5.299174308776855469e+00 8.718815803527832031e+00 -4.051947402954101562e+01 2.530656814575195312e+00 -5.460668563842773438e+00 -3.141651153564453125e+01 6.879652976989746094e+00 7.094630718231201172e+00 -3.734435272216796875e+01 -4.774635136127471924e-01 4.439618110656738281e+00 -4.269189834594726562e+01 -5.539210319519042969e+00 -5.119392395019531250e+00 -4.048523712158203125e+01 1.290092229843139648e+00 -7.686446666717529297e+00 -3.031015968322753906e+01 -2.365739107131958008e+00 5.866641998291015625e-01 -4.176148223876953125e+01 -5.024582862854003906e+00 -4.475485324859619141e+00 -4.027025222778320312e+01 1.872000575065612793e+00 -7.453310966491699219e+00 -3.046209907531738281e+01 3.160204410552978516e+00 -3.567005157470703125e+00 -3.239115524291992188e+01 -1.924844980239868164e+00 1.460024356842041016e+00 -4.206060409545898438e+01 6.257397174835205078e+00 4.578914165496826172e+00 -3.597698974609375000e+01 2.229717731475830078e+00 -6.548295497894287109e+00 -3.093471908569335938e+01 1.231042265892028809e+00 -8.241433143615722656e+00 -2.992751121520996094e+01 2.766955614089965820e+00 -5.100929737091064453e+00 -3.180379867553710938e+01 -1.927549839019775391e+00 -8.287839889526367188e+00 -3.408241271972656250e+01 -1.526063084602355957e+00 -8.427735328674316406e+00 -3.327214813232421875e+01 -4.983077049255371094e+00 -8.230585098266601562e+00 -3.682304000854492188e+01 -2.954912662506103516e+00 -8.248674392700195312e+00 -3.492390441894531250e+01 4.670949459075927734e+00 3.976359367370605469e-01 -3.420658493041992188e+01 -7.479805946350097656e+00 -7.978784561157226562e+00 -3.985661315917968750e+01 5.373092889785766602e-01 -8.855450630187988281e+00 -3.034917640686035156e+01 -6.133460998535156250e+00 -5.763329505920410156e+00 -4.013134002685546875e+01 1.987938046455383301e+00 8.540241241455078125e+00 -4.389391708374023438e+01 2.530945777893066406e+00 9.020117759704589844e+00 -4.388771057128906250e+01 -7.151488780975341797e+00 -8.070139884948730469e+00 -3.880911254882812500e+01 -6.309682369232177734e+00 -6.390448093414306641e+00 -4.046438217163085938e+01 5.939416885375976562e+00 8.617426872253417969e+00 -3.970325469970703125e+01 -1.372744798660278320e+00 2.533146381378173828e+00 -4.257588577270507812e+01 7.748513221740722656e-01 6.472299575805664062e+00 -4.355704498291015625e+01 -4.236600875854492188e+00 -2.846850395202636719e+00 -4.087548446655273438e+01 4.360844135284423828e+00 -1.737816452980041504e+00 -3.340238189697265625e+01 3.866704463958740234e+00 9.013129234313964844e+00 -4.266495132446289062e+01 -7.470590591430664062e+00 -8.180329322814941406e+00 -3.939476776123046875e+01 -7.051613330841064453e+00 -8.563671112060546875e+00 -3.908403778076171875e+01 -2.496366024017333984e+00 -8.341866493225097656e+00 -3.456639480590820312e+01 -4.336610794067382812e+00 -8.384879112243652344e+00 -3.648705291748046875e+01 -8.582804799079895020e-01 -8.641551017761230469e+00 -3.234180068969726562e+01 8.862655162811279297e-01 -9.002195358276367188e+00 