-5.929033756256103516e+00 -1.043701097369194031e-01 -3.982832717895507812e+01 -7.024811267852783203e+00 -9.232652187347412109e-01 -3.957524490356445312e+01 -7.295376300811767578e+00 7.130550146102905273e-01 -3.959197235107421875e+01 -5.907962322235107422e+00 -1.081558346748352051e+00 -3.971174621582031250e+01 -7.902765750885009766e+00 -4.469865262508392334e-01 -3.939429855346679688e+01 -8.725539207458496094e+00 -1.023324370384216309e+00 -3.915534973144531250e+01 -7.909102439880371094e+00 -1.849426627159118652e+00 -3.927711105346679688e+01 -8.989459991455078125e+00 -1.854920268058776855e+00 -3.897814178466796875e+01 -8.564158439636230469e+00 -2.068034261465072632e-01 -3.921796035766601562e+01 -6.099490642547607422e+00 9.179371595382690430e-01 -3.982818603515625000e+01 -6.946418285369873047e+00 -2.053205013275146484e+00 -3.942587280273437500e+01 -6.267921924591064453e+00 1.906177163124084473e+00 -3.970204544067382812e+01 -9.315203666687011719e+00 -1.398905515670776367e+00 -3.889594650268554688e+01 -8.515844345092773438e+00 1.275346040725708008e+00 -3.910495758056640625e+01 -5.212992191314697266e+00 7.050783634185791016e-01 -3.993434906005859375e+01 -6.138434886932373047e+00 -2.595118284225463867e+00 -3.938289260864257812e+01 -8.256213188171386719e+00 -2.797072887420654297e+00 -3.901763534545898438e+01 -7.537774085998535156e+00 1.913042426109313965e+00 -3.935472869873046875e+01 -9.790299415588378906e+00 1.602750830352306366e-02 -3.874209976196289062e+01 -9.260794639587402344e+00 6.231769174337387085e-02 -3.895367813110351562e+01 -9.226902008056640625e+00 7.940372824668884277e-01 -3.890989303588867188e+01 -4.369491577148437500e+00 -4.474039077758789062e-01 -3.986526870727539062e+01 -7.598980903625488281e+00 -3.247451782226562500e+00 -3.906678390502929688e+01 -1.026688098907470703e+01 -6.655578613281250000e-01 -3.853690338134765625e+01 -4.146717071533203125e+00 1.004368424415588379e+00 -3.998803329467773438e+01 -5.017951488494873047e+00 -2.317142486572265625e+00 -3.948539733886718750e+01 -5.149858951568603516e+00 1.865889906883239746e+00 -3.989348220825195312e+01 -9.743634223937988281e+00 -2.590696096420288086e+00 -3.850419235229492188e+01 -1.009576129913330078e+01 -2.248035669326782227e+00 -3.843300628662109375e+01 -1.050033283233642578e+01 -1.708235502243041992e+00 -3.833639526367187500e+01 -6.154438018798828125e+00 2.737097978591918945e+00 -3.958972549438476562e+01 -8.831353187561035156e+00 -3.426816701889038086e+00 -3.865652465820312500e+01 -3.747005224227905273e+00 -1.164824962615966797e+00 -3.970009613037109375e+01 -6.905191421508789062e+00 -3.706512928009033203e+00 -3.905865097045898438e+01 -8.434855461120605469e+00 2.121013402938842773e+00 -3.894670867919921875e+01 -7.250740051269531250e+00 2.814638137817382812e+00 -3.924123382568359375e+01 -9.581398963928222656e+00 -3.196712255477905273e+00 -3.837092971801757812e+01 -1.053496170043945312e+01 -1.174807101488113403e-01 -3.837294006347656250e+01 -3.934994220733642578e+00 2.550464868545532227e+00 -4.001842117309570312e+01 -9.968342781066894531e+00 9.428508877754211426e-01 -3.855987167358398438e+01 -9.981525421142578125e+00 1.553708314895629883e+00 -3.842851638793945312e+01 -5.323289394378662109e+00 -3.170939445495605469e+00 -3.922159194946289062e+01 -8.837417602539062500e+00 -4.227330207824707031e+00 -3.841025924682617188e+01 -7.803994178771972656e+00 -4.317095279693603516e+00 -3.872177124023437500e+01 -4.563759326934814453e+00 3.425098180770874023e+00 -3.980260467529296875e+01 -1.053624153137207031e+01 4.346206784248352051e-01 -3.834072113037109375e+01 -9.515044212341308594e+00 -3.727176189422607422e+00 -3.829867172241210938e+01 -1.038726329803466797e+01 -2.476195573806762695e+00 -3.812566375732421875e+01 -2.739067554473876953e+00 9.652155041694641113e-01 -4.008121490478515625e+01 -2.896243333816528320e+00 2.123545169830322266e+00 -4.016489791870117188e+01 -1.077865505218505859e+01 -9.110198020935058594e-01 -3.821083450317382812e+01 -3.768912076950073242e+00 -1.717425107955932617e+00 -3.950319671630859375e+01 -6.629655361175537109e+00 3.812344074249267578e+00 -3.911064910888671875e+01 -5.849488258361816406e+00 -3.797885417938232422e+00 -3.904719543457031250e+01 -6.859601497650146484e+00 -4.384146213531494141e+00 -3.880883407592773438e+01 -3.022496700286865234e+00 3.208785772323608398e+00 -4.015318298339843750e+01 -9.116588592529296875e+00 2.357258081436157227e+00 -3.857179260253906250e+01 -2.807070970535278320e+00 -3.791979551315307617e-01 -3.981781387329101562e+01 -5.779208660125732422e+00 3.521982669830322266e+00 -3.946699905395507812e+01 -1.014715003967285156e+01 -3.041855096817016602e+00 -3.820408248901367188e+01 -7.960175037384033203e+00 3.276484966278076172e+00 -3.879613876342773438e+01 -1.144753170013427734e+01 -1.460294365882873535e+00 -3.775650787353515625e+01 -1.109617328643798828e+01 -6.296342015266418457e-01 -3.811217498779296875e+01 -3.490828514099121094e+00 4.175953865051269531e+00 -3.996093750000000000e+01 -8.536681175231933594e+00 -5.037763595581054688e+00 -3.827389907836914062e+01 -7.146533012390136719e+00 -5.053399085998535156e+00 -3.860341644287109375e+01 -1.069870758056640625e+01 -2.499273300170898438e+00 -3.798744964599609375e+01 -4.631194114685058594e+00 4.504733562469482422e+00 -3.954854202270507812e+01 -1.640587687492370605e+00 1.217956468462944031e-01 -3.993690872192382812e+01 -1.627931475639343262e+00 1.740786433219909668e+00 -4.024345016479492188e+01 -1.693804383277893066e+00 3.448388814926147461e+00 -4.033442687988281250e+01 -2.404589891433715820e+00 4.360728263854980469e+00 -4.016100311279296875e+01 -1.125806713104248047e+01 3.569077551364898682e-01 -3.797208404541015625e+01 -1.094977092742919922e+01 1.089348316192626953e+00 -3.798314285278320312e+01 -8.593026161193847656e+00 3.229072809219360352e+00 -3.851620864868164062e+01 -8.458216667175292969e+00 -5.716988086700439453e+00 -3.813855743408203125e+01 -1.142981338500976562e+01 -9.595632553100585938e-01 -3.784032440185546875e+01 -7.157278656959533691e-01 3.128952503204345703e+00 -4.040893173217773438e+01 -9.552047729492187500e+00 -4.595974922180175781e+00 -3.794439697265625000e+01 -5.662524223327636719e+00 4.495186328887939453e+00 -3.917025756835937500e+01 -1.022494411468505859e+01 -3.738844871520996094e+00 -3.781612014770507812e+01 -1.063046932220458984e+01 -3.474940538406372070e+00 -3.764361953735351562e+01 -5.855907917022705078e+00 -4.639505386352539062e+00 -3.870930862426757812e+01 -1.109489917755126953e+01 -2.994025707244873047e+00 -3.742386245727539062e+01 -1.176722621917724609e+01 8.968634605407714844e-01 -3.765636062622070312e+01 -1.204783821105957031e+01 -2.696831710636615753e-02 -3.762845611572265625e+01 -6.068459749221801758e-01 1.667104005813598633e+00 -4.024908447265625000e+01 -3.999128341674804688e+00 -2.459242343902587891e+00 -3.932397842407226562e+01 -6.954171657562255859e+00 -5.613327026367187500e+00 -3.834751129150390625e+01 -1.200320363044738770e+00 5.359802246093750000e+00 -4.019572448730468750e+01 -7.345772743225097656e+00 4.430420398712158203e+00 -3.849424362182617188e+01 -1.127554130554199219e+01 1.668183565139770508e+00 -3.767554855346679688e+01 -1.017926692962646484e+01 2.206496953964233398e+00 -3.811135864257812500e+01 -1.204953002929687500e+01 -6.196033954620361328e-01 -3.749756240844726562e+01 -2.640829801559448242e+00 -1.487086057662963867e+00 -3.949971389770507812e+01 -1.148734664916992188e+01 -1.850106835365295410e+00 -3.763498687744140625e+01 -3.115968227386474609e+00 5.397926807403564453e+00 -3.978939819335937500e+01 1.274839341640472412e-01 3.870710849761962891e+00 -4.045847320556640625e+01 -1.735389113426208496e+00 -1.273843169212341309e+00 -3.936662292480468750e+01 -5.329947471618652344e-01 4.125165343284606934e-01 -3.994528579711914062e+01 -4.261447906494140625e+00 -3.614976406097412109e+00 -3.883761978149414062e+01 -6.121338009834289551e-01 4.789499282836914062e+00 -4.037148666381835938e+01 -8.198402404785156250e+00 -6.299188613891601562e+00 -3.800635528564453125e+01 -5.737628459930419922e+00 -5.348916530609130859e+00 -3.827576446533203125e+01 -9.259056091308593750e+00 -5.711885452270507812e+00 -3.765103149414062500e+01 -1.218529510498046875e+01 5.173078775405883789e-01 -3.750738906860351562e+01 2.389849871397018433e-01 2.597787141799926758e+00 -4.036524963378906250e+01 -1.862821936607360840e+00 5.767462730407714844e+00 -3.996305465698242188e+01 -4.911957263946533203e+00 -4.486971855163574219e+00 -3.853646087646484375e+01 -8.683840751647949219e+00 -5.936998844146728516e+00 -3.776652908325195312e+01 -9.939344406127929688e+00 -4.908862113952636719e+00 -3.741284179687500000e+01 -9.417962074279785156e+00 3.459362983703613281e+00 -3.787802124023437500e+01 -4.478674888610839844e+00 5.341677188873291016e+00 -3.933691406250000000e+01 -7.345562934875488281e+00 -6.330505847930908203e+00 -3.801141738891601562e+01 -1.051194000244140625e+01 -4.225185871124267578e+00 -3.720811080932617188e+01 -6.104472160339355469e+00 4.964543819427490234e+00 -3.869811248779296875e+01 -8.076194763183593750e+00 4.176564216613769531e+00 -3.821008682250976562e+01 1.013688147068023682e-01 5.910174846649169922e+00 -4.029992294311523438e+01 -3.295587301254272461e+00 -2.742696762084960938e+00 -3.900719833374023438e+01 1.202328443527221680e+00 4.850856304168701172e+00 -4.048657608032226562e+01 -1.223860549926757812e+01 -1.126285195350646973e+00 -3.723841857910156250e+01 -1.238860416412353516e+01 3.323592618107795715e-02 -3.733105087280273438e+01 -1.277712917327880859e+01 3.774875402450561523e-01 -3.710855102539062500e+01 -8.375215530395507812e-01 -7.068972587585449219e-01 -3.950535583496093750e+01 -1.116035842895507812e+01 -3.470462560653686523e+00 -3.694919586181640625e+01 -1.212182044982910156e+01 -1.635140419006347656e+00 -3.696870803833007812e+01 -1.118521022796630859e+01 2.330729961395263672e+00 -3.743875122070312500e+01 -1.014858245849609375e+01 3.023615360260009766e+00 -3.766968154907226562e+01 3.428901433944702148e-01 9.447107911109924316e-01 -3.998315429687500000e+01 1.638162970542907715e+00 3.558912515640258789e+00 -4.039703750610351562e+01 -3.312498331069946289e+00 -3.236300468444824219e+00 -3.872743225097656250e+01 -2.468918800354003906e+00 -2.536592483520507812e+00 -3.879199981689453125e+01 -1.169614887237548828e+01 -2.405484437942504883e+00 -3.696352767944335938e+01 -1.284955883026123047e+01 -3.754285275936126709e-01 -3.698546600341796875e+01 -1.251165199279785156e+01 1.459558606147766113e+00 -3.708213806152343750e+01 -2.489255428314208984e+00 6.501977443695068359e+00 -3.958359527587890625e+01 -3.293621540069580078e+00 6.058806896209716797e+00 -3.950454711914062500e+01 -8.633974075317382812e+00 -6.502610206604003906e+00 -3.751159667968750000e+01 -5.193974018096923828e+00 5.545536994934082031e+00 -3.883715438842773438e+01 1.048873305320739746e+00 2.169977903366088867e+00 -4.021828079223632812e+01 1.601289629936218262e+00 5.744193077087402344e+00 -4.044729614257812500e+01 -8.124194145202636719e+00 -6.810288906097412109e+00 -3.773313140869140625e+01 -9.582813262939453125e+00 -5.788428306579589844e+00 -3.721419525146484375e+01 -4.537475585937500000e+00 6.198182582855224609e+00 -3.886507797241210938e+01 -8.902990341186523438e+00 4.020802497863769531e+00 -3.780145645141601562e+01 -2.328347444534301758e+00 -1.952136874198913574e+00 -3.917906951904296875e+01 -5.802117824554443359e+00 -6.160304546356201172e+00 -3.779095840454101562e+01 -1.307503128051757812e+01 8.784540295600891113e-01 -3.692153930664062500e+01 -8.822767734527587891e-01 6.661791801452636719e+00 -3.994048309326171875e+01 -1.269638061523437500e+01 -1.362402439117431641e+00 -3.655649948120117188e+01 -1.336797714233398438e+01 3.824307024478912354e-01 -3.674986648559570312e+01 -1.205028247833251953e+01 1.996061563491821289e+00 -3.707303619384765625e+01 -7.622123241424560547e+00 -7.416481971740722656e+00 -3.751287460327148438e+01 2.053655862808227539e+00 2.608693122863769531e+00 -4.016247558593750000e+01 2.357133626937866211e+00 4.591032981872558594e+00 -4.045045471191406250e+01 -3.690252065658569336e+00 -3.714761257171630859e+00 -3.857163619995117188e+01 -6.713110923767089844e+00 5.273116111755371094e+00 -3.823301315307617188e+01 -3.648238658905029297e+00 6.880846023559570312e+00 -3.893024063110351562e+01 -1.027470493316650391e+01 -4.877989768981933594e+00 -3.697167205810546875e+01 2.138397395610809326e-01 -4.867146909236907959e-02 -3.960871887207031250e+01 -1.022659015655517578e+01 3.558899402618408203e+00 -3.715497589111328125e+01 -1.175201320648193359e+01 -2.872084379196166992e+00 -3.637114715576171875e+01 -9.719600677490234375e+00 3.635850667953491211e+00 -3.747196578979492188e+01 -6.697045326232910156e+00 -6.839166641235351562e+00 -3.766234588623046875e+01 -3.842653036117553711e+00 -4.164988994598388672e+00 -3.829716491699218750e+01 1.609751939773559570e+00 8.426932692527770996e-01 -3.967992401123046875e+01 -9.388620376586914062e+00 -6.256591320037841797e+00 -3.703326034545898438e+01 -8.488048553466796875e+00 -7.653612136840820312e+00 -3.691981887817382812e+01 -7.017763137817382812e+00 -7.355299472808837891e+00 -3.743845367431640625e+01 -8.790479660034179688e+00 -6.801520824432373047e+00 -3.726899719238281250e+01 -1.327035808563232422e+01 -6.587638258934020996e-01 -3.645916748046875000e+01 1.198067545890808105e+00 7.366244792938232422e+00 -4.014970016479492188e+01 -1.724187970161437988e+00 7.287974834442138672e+00 -3.949888992309570312e+01 2.951353311538696289e+00 5.089959144592285156e+00 -4.048250579833984375e+01 -1.566890120506286621e+00 -2.087656736373901367e+00 -3.878796768188476562e+01 -1.234517192840576172e+01 -2.008920907974243164e+00 -3.633495330810546875e+01 1.611790806055068970e-01 8.121399879455566406e+00 -3.974862289428710938e+01 -1.320619773864746094e+01 1.630185961723327637e+00 -3.649517059326171875e+01 -1.360329532623291016e+01 9.198594093322753906e-01 -3.659280014038085938e+01 -1.137567901611328125e+01 2.987484931945800781e+00 -3.685776138305664062e+01 -1.077942276000976562e+01 3.221999645233154297e+00 -3.702420806884765625e+01 1.972128033638000488e+00 1.297321796417236328e+00 -3.978346633911132812e+01 2.384155988693237305e+00 1.998822927474975586e+00 -3.992396545410156250e+01 -8.107114791870117188e+00 -7.878970146179199219e+00 -3.713694000244140625e+01 -1.055198574066162109e+01 -4.614610195159912109e+00 -3.647582244873046875e+01 -1.097038936614990234e+01 -4.060744762420654297e+00 -3.651497650146484375e+01 -4.426848888397216797e+00 -4.763735294342041016e+00 -3.819208526611328125e+01 -1.268253898620605469e+01 1.882152557373046875e+00 -3.667271804809570312e+01 -9.128442764282226562e+00 -6.894694328308105469e+00 -3.676236724853515625e+01 -1.010598468780517578e+01 -5.433722972869873047e+00 -3.660971450805664062e+01 3.296832799911499023e+00 3.363936185836791992e+00 -4.020938491821289062e+01 2.858680009841918945e+00 6.694442749023437500e+00 -4.033522033691406250e+01 -2.681573629379272461e+00 7.298840522766113281e+00 -3.915700149536132812e+01 -5.198358535766601562e+00 -5.663155555725097656e+00 -3.768394851684570312e+01 -8.733598709106445312e+00 -7.364210128784179688e+00 -3.678601837158203125e+01 -1.435669231414794922e+01 6.268860101699829102e-01 -3.600757598876953125e+01 -2.219942092895507812e+00 7.778514862060546875e+00 -3.909554672241210938e+01 9.285562485456466675e-02 -6.925922632217407227e-01 -3.922730636596679688e+01 9.483695030212402344e-01 -1.105569899082183838e-01 -3.932856750488281250e+01 -1.198546314239501953e+01 -2.423196315765380859e+00 -3.600792312622070312e+01 -8.724368810653686523e-01 8.515768051147460938e+00 -3.928824996948242188e+01 -1.393594169616699219e+01 -1.982432305812835693e-01 -3.598704147338867188e+01 -4.665904998779296875e+00 -5.365513324737548828e+00 -3.778325653076171875e+01 -5.267973899841308594e+00 6.029194355010986328e+00 -3.843392944335937500e+01 4.257220268249511719e+00 5.613502502441406250e+00 -4.038878250122070312e+01 -8.125315308570861816e-01 -1.634804725646972656e+00 -3.885903930664062500e+01 -5.973426818847656250e+00 6.027087688446044922e+00 -3.791150283813476562e+01 -7.181357860565185547e+00 -7.929878711700439453e+00 -3.726523208618164062e+01 -2.770583152770996094e+00 -3.359030246734619141e+00 -3.839414215087890625e+01 -1.309201431274414062e+01 -1.441539645195007324e+00 -3.587344741821289062e+01 -1.398302936553955078e+01 8.736250400543212891e-01 -3.624326705932617188e+01 -1.409572792053222656e+01 1.429315209388732910e+00 -3.606076049804687500e+01 -1.356723880767822266e+01 1.457629561424255371e+00 -3.649956512451171875e+01 -8.748295783996582031e+00 4.823010921478271484e+00 -3.698711013793945312e+01 -7.533097743988037109e+00 -8.403704643249511719e+00 -3.696352386474609375e+01 4.045642852783203125e+00 4.386401653289794922e+00 -4.036699295043945312e+01 -9.851585388183593750e+00 -6.019227981567382812e+00 -3.635004043579101562e+01 -1.216481399536132812e+01 2.634400844573974609e+00 -3.643925857543945312e+01 -8.166632652282714844e+00 4.890244007110595703e+00 -3.743668746948242188e+01 -7.101568698883056641e+00 5.663011074066162109e+00 -3.757104873657226562e+01 -4.316854953765869141e+00 6.950827121734619141e+00 -3.843618011474609375e+01 -1.139742279052734375e+01 -3.553799867630004883e+00 -3.612661743164062500e+01 1.059892416000366211e+00 8.632214546203613281e+00 -3.977304458618164062e+01 -8.224998474121093750e+00 -8.395321846008300781e+00 -3.663547134399414062e+01 -5.883476257324218750e+00 -6.868136405944824219e+00 -3.734626007080078125e+01 3.566330909729003906e+00 2.068939447402954102e+00 -3.974909973144531250e+01 -3.805790424346923828e+00 -4.734478950500488281e+00 -3.785031127929687500e+01 -1.270137977600097656e+01 2.428307771682739258e+00 -3.627746582031250000e+01 2.255259752273559570e+00 8.543017387390136719e+00 -3.989170837402343750e+01 2.996685504913330078e-01 -1.042546749114990234e+00 -3.887272262573242188e+01 1.922960400581359863e+00 2.666521668434143066e-01 -3.924605560302734375e+01 -2.916046619415283203e+00 7.927423000335693359e+00 -3.860800552368164062e+01 -9.512949943542480469e+00 4.388784408569335938e+00 -3.676131820678710938e+01 -9.424465179443359375e+00 -6.868641853332519531e+00 -3.607907104492187500e+01 -1.755023717880249023e+00 8.590755462646484375e+00 -3.888376998901367188e+01 -6.381179332733154297e+00 -7.548579216003417969e+00 -3.694530487060546875e+01 -1.035212802886962891e+01 -5.121582031250000000e+00 -3.625505447387695312e+01 -1.344898319244384766e+01 2.150157928466796875e+00 -3.588384628295898438e+01 -1.051741790771484375e+01 3.728864431381225586e+00 -3.655337905883789062e+01 3.343117237091064453e+00 7.384919643402099609e+00 -4.012283706665039062e+01 -2.100847005844116211e+00 -3.150175809860229492e+00 -3.813486862182617188e+01 1.529509663581848145e+00 -3.889296054840087891e-01 -3.879775619506835938e+01 -5.291499614715576172e+00 -6.241126060485839844e+00 -3.735947036743164062e+01 5.145071983337402344e+00 4.348866462707519531e+00 -4.031885528564453125e+01 -5.091793537139892578e+00 6.707806110382080078e+00 -3.800509643554687500e+01 -1.322231888771057129e+00 -2.393500328063964844e+00 -3.830756378173828125e+01 3.004859447479248047e+00 1.146021604537963867e+00 -3.940951538085937500e+01 -6.997467041015625000e+00 -8.489834785461425781e+00 -3.688445663452148438e+01 -1.475920104980468750e+01 1.329780578613281250e+00 -3.563231658935546875e+01 -3.370514631271362305e+00 8.024174690246582031e+00 -3.816418075561523438e+01 4.509276390075683594e+00 3.084969043731689453e+00 -3.995761489868164062e+01 -8.508150100708007812e+00 -7.972870826721191406e+00 -3.642505645751953125e+01 4.734584331512451172e+00 6.610664367675781250e+00 -4.004967498779296875e+01 -1.460261535644531250e+01 7.701817154884338379e-02 -3.533321762084960938e+01 5.399739742279052734e+00 3.315795421600341797e+00 -3.990184783935546875e+01 -2.874563455581665039e+00 -3.873795747756958008e+00 -3.795775604248046875e+01 -2.063300460577011108e-01 9.196881294250488281e+00 -3.923675918579101562e+01 -3.765435934066772461e+00 7.644887447357177734e+00 -3.813970947265625000e+01 -1.387844657897949219e+01 -7.848072648048400879e-01 -3.547684097290039062e+01 -1.175105285644531250e+01 -3.005539655685424805e+00 -3.581995010375976562e+01 -1.101429271697998047e+01 3.661277294158935547e+00 -3.612571334838867188e+01 -7.606712341308593750e+00 5.645427227020263672e+00 -3.701804733276367188e+01 -1.225281333923339844e+01 -2.284413576126098633e+00 -3.575127029418945312e+01 -4.406012535095214844e+00 -5.523079395294189453e+00 -3.742929458618164062e+01 5.819906711578369141e+00 5.319362640380859375e+00 -4.018220901489257812e+01 1.665214419364929199e+00 9.591535568237304688e+00 -3.953993606567382812e+01 3.770836114883422852e+00 8.144181251525878906e+00 -3.976094818115234375e+01 -1.208172321319580078e+01 3.195745706558227539e+00 -3.578656005859375000e+01 3.691073954105377197e-01 9.943707466125488281e+00 -3.912278747558593750e+01 2.605169773101806641e+00 7.385329604148864746e-01 -3.931587600708007812e+01 -5.137341022491455078e+00 -6.715787410736083984e+00 -3.679557037353515625e+01 -1.436735343933105469e+01 1.643684387207031250e+00 -3.549654006958007812e+01 -5.378209352493286133e-01 -2.127722263336181641e+00 -3.822835540771484375e+01 -4.896951675415039062e+00 -5.930710792541503906e+00 -3.702260589599609375e+01 -1.406651401519775391e+01 2.155532598495483398e+00 -3.524441909790039062e+01 -1.014065170288085938e+01 4.160537242889404297e+00 -3.626992797851562500e+01 2.467562109231948853e-01 -1.502428531646728516e+00 -3.842852020263671875e+01 -2.252853393554687500e+00 8.862758636474609375e+00 -3.838618850708007812e+01 -1.312927246093750000e+01 2.659652948379516602e+00 -3.543889999389648438e+01 -1.500557708740234375e+01 1.500045776367187500e+00 -3.532346725463867188e+01 -1.154144191741943359e+01 3.393238067626953125e+00 -3.572074508666992188e+01 -1.190419960021972656e+01 -2.697988510131835938e+00 -3.533056640625000000e+01 -1.261159420013427734e+01 -2.118074417114257812e+00 -3.535482406616210938e+01 -9.876543998718261719e+00 -6.209751129150390625e+00 -3.596830368041992188e+01 -1.127535629272460938e+01 -3.838371992111206055e+00 -3.559362030029296875e+01 -6.244730472564697266e+00 6.424143314361572266e+00 -3.726712036132812500e+01 -7.458467483520507812e+00 -9.300980567932128906e+00 -3.627947235107421875e+01 -1.507440567016601562e+01 5.027874708175659180e-01 -3.513157272338867188e+01 -5.842728614807128906e+00 -7.340757846832275391e+00 -3.686537170410156250e+01 6.153780937194824219e+00 4.072103977203369141e+00 -4.011138153076171875e+01 6.468678474426269531e+00 4.724761486053466797e+00 -4.011883926391601562e+01 -8.334192276000976562e+00 -8.664837837219238281e+00 -3.648398208618164062e+01 -5.953771114349365234e+00 -7.892725944519042969e+00 -3.639820098876953125e+01 3.098265171051025391e+00 8.935587882995605469e+00 -3.967303848266601562e+01 1.330809950828552246e+00 -7.839948534965515137e-01 -3.860346221923828125e+01 4.583802223205566406e+00 2.309172391891479492e+00 -3.957409286499023438e+01 -3.398029565811157227e+00 -4.810857772827148438e+00 -3.739521026611328125e+01 -8.166972160339355469e+00 5.541521549224853516e+00 -3.635660934448242188e+01 5.572923183441162109e+00 6.277711868286132812e+00 -3.986310195922851562e+01 -7.948727130889892578e+00 -9.201260566711425781e+00 -3.634035491943359375e+01 -8.394163131713867188e+00 -8.912425041198730469e+00 -3.596994400024414062e+01 -1.158578205108642578e+01 -3.370187997817993164e+00 -3.541698074340820312e+01 -1.019194412231445312e+01 -5.626100540161132812e+00 -3.562994003295898438e+01 -1.344018459320068359e+01 -1.309572577476501465e+00 -3.522462844848632812e+01 -1.543777656555175781e+01 8.657137155532836914e-01 -3.499078369140625000e+01 -5.476996898651123047e+00 6.990806102752685547e+00 -3.714610671997070312e+01 -4.570292472839355469e+00 7.421270370483398438e+00 -3.765218734741210938e+01 -1.175387978553771973e+00 1.000189304351806641e+01 -3.831538772583007812e+01 -8.946643829345703125e+00 -7.635880470275878906e+00 -3.585160827636718750e+01 -6.583207607269287109e+00 -8.590436935424804688e+00 -3.635169219970703125e+01 -5.685635805130004883e-01 1.004128170013427734e+01 -3.865936279296875000e+01 -6.859290122985839844e+00 -8.658477783203125000e+00 -3.648068237304687500e+01 -1.450965404510498047e+01 -3.691887557506561279e-01 -3.480352783203125000e+01 -4.185137748718261719e+00 -5.407880783081054688e+00 -3.725050735473632812e+01 -1.561233878135681152e+00 -3.233442544937133789e+00 -3.763124847412109375e+01 -1.053644275665283203e+01 -5.090457916259765625e+00 -3.565142440795898438e+01 4.666718959808349609e+00 7.922156810760498047e+00 -3.950748062133789062e+01 -1.102166461944580078e+01 -4.116944789886474609e+00 -3.545283126831054688e+01 -1.383582019805908203e+01 -9.827508926391601562e-01 -3.488986968994140625e+01 2.868103504180908203e+00 3.011980652809143066e-01 -3.886839675903320312e+01 5.820793628692626953e+00 2.940150260925292969e+00 -3.960201263427734375e+01 -1.306215953826904297e+01 -1.661049604415893555e+00 -3.517822265625000000e+01 2.411071300506591797e+00 -1.987797766923904419e-01 -3.855062103271484375e+01 3.814480543136596680e+00 1.359181284904479980e+00 -3.924064636230468750e+01 -1.056510448455810547e+01 -4.746829032897949219e+00 -3.541843414306640625e+01 -2.553436040878295898e+00 -3.988581418991088867e+00 -3.746344375610351562e+01 -1.771877527236938477e+00 -3.638612270355224609e+00 -3.737335586547851562e+01 2.730531215667724609e+00 1.013233280181884766e+01 -3.927400588989257812e+01 -8.488826751708984375e+00 -8.188212394714355469e+00 -3.589783096313476562e+01 -1.049885392189025879e+00 -2.681957721710205078e+00 -3.772819519042968750e+01 -8.812717437744140625e+00 5.168907165527343750e+00 -3.612455749511718750e+01 -7.579617977142333984e+00 -9.882512092590332031e+00 -3.589836502075195312e+01 1.304741263389587402e+00 -1.118045568466186523e+00 -3.816885375976562500e+01 -9.443642616271972656e+00 -6.838073253631591797e+00 -3.562457656860351562e+01 7.099833965301513672e+00 4.133032321929931641e+00 -3.994926071166992188e+01 -6.953360080718994141e+00 -9.495483398437500000e+00 -3.610794448852539062e+01 -5.586416721343994141e+00 -7.458068370819091797e+00 -3.652167129516601562e+01 -1.921394228935241699e+00 9.735349655151367188e+00 -3.782863998413085938e+01 -3.851344823837280273e+00 -5.584233760833740234e+00 -3.696983337402343750e+01 -1.115031051635742188e+01 3.756831884384155273e+00 -3.553394317626953125e+01 -6.799839019775390625e+00 6.423326015472412109e+00 -3.675587844848632812e+01 1.556709051132202148e+00 1.041044425964355469e+01 -3.919307708740234375e+01 -1.479569911956787109e+01 4.845739901065826416e-02 -3.473383331298828125e+01 9.431351423263549805e-01 -1.342379808425903320e+00 -3.816471481323242188e+01 -2.791282653808593750e+00 8.919819831848144531e+00 -3.781134414672851562e+01 -9.698036193847656250e+00 -6.299089431762695312e+00 -3.549199295043945312e+01 -4.544466495513916016e+00 -6.065871715545654297e+00 -3.650328063964843750e+01 -1.521706581115722656e+01 1.873182535171508789e+00 -3.480213928222656250e+01 3.071788847446441650e-01 -1.743013024330139160e+00 -3.801787185668945312e+01 -1.453725719451904297e+01 1.962885379791259766e+00 -3.434958648681640625e+01 1.100140690803527832e+00 1.119775962829589844e+01 -3.874467468261718750e+01 1.949077695608139038e-01 1.077233886718750000e+01 -3.856041717529296875e+01 5.535075664520263672e+00 7.480320453643798828e+00 -3.931098556518554688e+01 -4.206416308879852295e-01 -2.347582817077636719e+00 -3.778918838500976562e+01 -1.218153285980224609e+01 -2.470869302749633789e+00 -3.519082641601562500e+01 -1.182325553894042969e+01 -2.570366382598876953e+00 -3.512828445434570312e+01 -3.491609096527099609e+00 8.600574493408203125e+00 -3.739906692504882812e+01 6.647923469543457031e+00 5.642519950866699219e+00 -3.978463363647460938e+01 3.860321283340454102e+00 9.103334426879882812e+00 -3.929431152343750000e+01 5.950776576995849609e+00 6.923218250274658203e+00 -3.927484130859375000e+01 -1.212228298187255859e+01 3.352129459381103516e+00 -3.508683776855468750e+01 -9.910723686218261719e+00 4.444735050201416016e+00 -3.568017959594726562e+01 3.719639301300048828e+00 5.932170748710632324e-01 -3.860428619384765625e+01 -9.963335990905761719e+00 -5.866456031799316406e+00 -3.555834197998046875e+01 -1.568021869659423828e+01 7.044669985771179199e-01 -3.440439605712890625e+01 -1.418768692016601562e+01 -5.215200185775756836e-01 -3.467619323730468750e+01 6.989494800567626953e+00 3.410018920898437500e+00 -3.951095199584960938e+01 -1.596885108947753906e+01 1.518191933631896973e+00 -3.452897262573242188e+01 -8.641021728515625000e+00 -7.916961669921875000e+00 -3.538185882568359375e+01 4.125247955322265625e+00 8.391529083251953125e+00 -3.941358566284179688e+01 -7.431008815765380859e+00 -9.209028244018554688e+00 -3.584851455688476562e+01 -1.390854549407958984e+01 2.462615489959716797e+00 -3.460100173950195312e+01 2.400153875350952148e+00 1.075764751434326172e+01 -3.891290283203125000e+01 -2.859176635742187500e+00 -4.681487083435058594e+00 -3.691554641723632812e+01 4.404404640197753906e+00 1.037470102310180664e+00 -3.866141128540039062e+01 4.864271640777587891e+00 1.744995951652526855e+00 -3.904271316528320312e+01 -7.198112487792968750e+00 6.188404083251953125e+00 -3.639717864990234375e+01 -6.975090980529785156e+00 -9.116431236267089844e+00 -3.571306610107421875e+01 1.989087939262390137e+00 -6.577385663986206055e-01 -3.811414718627929688e+01 -8.017039299011230469e+00 -8.759858131408691406e+00 -3.538985824584960938e+01 -3.894829511642456055e+00 8.265635490417480469e+00 -3.710232162475585938e+01 -9.014390945434570312e+00 -7.428731441497802734e+00 -3.547485733032226562e+01 7.726754188537597656e+00 4.639720916748046875e+00 -3.978081512451171875e+01 -1.292081165313720703e+01 -1.667612791061401367e+00 -3.493130874633789062e+01 -7.698214054107666016e+00 5.936831951141357422e+00 -3.609027862548828125e+01 -1.163652610778808594e+01 -3.032429218292236328e+00 -3.507016754150390625e+01 -1.513386249542236328e+01 3.016799986362457275e-01 -3.456554412841796875e+01 -1.233648109436035156e+01 -2.174652338027954102e+00 -3.502399826049804688e+01 8.022013664245605469e+00 3.819612026214599609e+00 -3.959630203247070312e+01 -1.080881500244140625e+01 -4.276608467102050781e+00 -3.513799285888671875e+01 -1.122877693176269531e+01 3.757431745529174805e+00 -3.490092849731445312e+01 1.736682176589965820e+00 1.130285358428955078e+01 -3.873389434814453125e+01 -1.130424499511718750e+01 -3.632491588592529297e+00 -3.503290557861328125e+01 -4.358903884887695312e+00 7.963013172149658203e+00 -3.702291107177734375e+01 -1.017463111877441406e+01 -5.244003772735595703e+00 -3.506007385253906250e+01 5.665102481842041016e+00 2.254714488983154297e+00 -3.916051483154296875e+01 7.514500617980957031e+00 5.171051979064941406e+00 -3.968582916259765625e+01 -6.103531837463378906e+00 6.861503124237060547e+00 -3.665257263183593750e+01 -5.008383750915527344e+00 7.355134963989257812e+00 -3.692074203491210938e+01 -1.379934120178222656e+01 -7.224994897842407227e-01 -3.468218231201171875e+01 3.933169603347778320e+00 9.741816520690917969e+00 -3.882609939575195312e+01 -5.672827959060668945e-01 1.080378627777099609e+01 -3.799524688720703125e+01 -5.911859035491943359e+00 -8.031662940979003906e+00 -3.585174942016601562e+01 -1.623406791687011719e+01 1.408383607864379883e+00 -3.413780212402343750e+01 -1.259743976593017578e+01 3.187167406082153320e+00 -3.466418457031250000e+01 -1.324357891082763672e+01 2.835989236831665039e+00 -3.466504669189453125e+01 -7.528047561645507812e+00 -8.993807792663574219e+00 -3.547698211669921875e+01 -1.559690952301025391e+01 1.934721946716308594e+00 -3.428252792358398438e+01 -2.180357933044433594e+00 -4.043795585632324219e+00 -3.684183120727539062e+01 -7.353037595748901367e-01 -2.836642503738403320e+00 -3.721365737915039062e+01 5.838324427604675293e-01 1.150118923187255859e+01 -3.824484634399414062e+01 8.547601103782653809e-01 -1.663454294204711914e+00 -3.765203094482421875e+01 -5.461440563201904297e+00 -7.414127826690673828e+00 -3.599522399902343750e+01 -9.544528961181640625e+00 -6.573940753936767578e+00 -3.513788223266601562e+01 8.477212905883789062e+00 4.199408531188964844e+00 -3.956319046020507812e+01 -8.192717552185058594e+00 -8.412420272827148438e+00 -3.521692276000976562e+01 -9.841317176818847656e+00 -5.896472454071044922e+00 -3.501845932006835938e+01 -1.044708633422851562e+01 -4.759931564331054688e+00 -3.498415374755859375e+01 -4.205750465393066406e+00 -5.946305751800537109e+00 -3.620537948608398438e+01 1.958119571208953857e-01 -2.027359247207641602e+00 -3.759314727783203125e+01 -1.254202556610107422e+01 -1.991059541702270508e+00 -3.467170333862304688e+01 -1.216182518005371094e+01 -2.389367580413818359e+00 -3.480702590942382812e+01 -1.466936969757080078e+01 2.123619019985198975e-01 -3.411694717407226562e+01 -1.342358493804931641e+01 -1.280749201774597168e+00 -3.462714767456054688e+01 4.963309288024902344e+00 8.562796592712402344e+00 -3.876704788208007812e+01 5.076752662658691406e+00 1.419962286949157715e+00 -3.855881500244140625e+01 -9.265138626098632812e+00 4.841642379760742188e+00 -3.527013015747070312e+01 6.894576072692871094e+00 6.565992832183837891e+00 -3.903701400756835938e+01 3.065380573272705078e+00 1.044884300231933594e+01 -3.893318557739257812e+01 -2.590676069259643555e+00 9.704904556274414062e+00 -3.689192199707031250e+01 -1.308838844299316406e+01 -1.460309505462646484e+00 -3.440249633789062500e+01 -1.453842067718505859e+01 -1.849217712879180908e-01 -3.418208312988281250e+01 -3.437123537063598633e+00 -5.330327987670898438e+00 -3.635111236572265625e+01 -1.137578773498535156e+01 -3.339476823806762695e+00 -3.470342636108398438e+01 1.550460100173950195e+00 -1.260479092597961426e+00 -3.764910125732421875e+01 -1.384087753295898438e+01 -7.263411879539489746e-01 -3.420836639404296875e+01 -1.351841545104980469e+01 -1.036253333091735840e+00 -3.432844543457031250e+01 -6.974952220916748047e+00 -8.929429054260253906e+00 -3.547618865966796875e+01 -1.511637878417968750e+01 1.881286025047302246e+00 -3.400265884399414062e+01 -4.758230686187744141e+00 7.801856517791748047e+00 -3.616268539428710938e+01 -1.165697479248046875e+01 -2.687206268310546875e+00 -3.443423080444335938e+01 -5.601255416870117188e+00 7.328139305114746094e+00 -3.630815887451171875e+01 2.871652841567993164e+00 -2.593254148960113525e-01 -3.810302734375000000e+01 6.879372119903564453e+00 2.860571146011352539e+00 -3.904771041870117188e+01 -1.273398303985595703e+01 -1.661189675331115723e+00 -3.424707412719726562e+01 -9.026295661926269531e+00 -7.080422878265380859e+00 -3.492968750000000000e+01 -1.054847335815429688e+01 4.121363639831542969e+00 -3.497446823120117188e+01 3.634971976280212402e-01 -2.126692295074462891e+00 -3.735979843139648438e+01 4.439277172088623047e+00 7.191036939620971680e-01 -3.814466476440429688e+01 -1.049951076507568359e+01 -4.504368305206298828e+00 -3.465564727783203125e+01 -2.593573927879333496e-01 -2.608721256256103516e+00 -3.705789184570312500e+01 5.373815536499023438e+00 8.122816085815429688e+00 -3.890679168701171875e+01 -1.523072242736816406e+01 1.477637171745300293e+00 -3.409513473510742188e+01 -1.174269962310791016e+01 3.342147350311279297e+00 -3.475178527832031250e+01 -8.148663520812988281e+00 5.657316684722900391e+00 -3.530592346191406250e+01 -1.415253639221191406e+01 -3.063683807849884033e-01 -3.414081954956054688e+01 5.968664646148681641e+00 1.836597919464111328e+00 -3.855185317993164062e+01 -1.520051574707031250e+01 8.733570575714111328e-01 -3.411193466186523438e+01 6.617102622985839844e+00 2.379907369613647461e+00 -3.872914505004882812e+01 -1.068272781372070312e+01 -4.062952518463134766e+00 -3.502214431762695312e+01 -2.226944923400878906e+00 -4.261037349700927734e+00 -3.649228668212890625e+01 -1.148395165801048279e-01 1.135693073272705078e+01 -3.785518646240234375e+01 2.504761934280395508e+00 1.141563034057617188e+01 -3.847631835937500000e+01 -8.430315017700195312e+00 -7.333055019378662109e+00 -3.472847747802734375e+01 -9.933866262435913086e-01 1.087657356262207031e+01 -3.743738555908203125e+01 1.620041847229003906e+00 1.226359081268310547e+01 -3.825851058959960938e+01 -4.865463256835937500e+00 -6.666698455810546875e+00 -3.566502761840820312e+01 -1.074258995056152344e+01 -4.152805328369140625e+00 -3.457836532592773438e+01 3.460884094238281250e+00 -4.860638640820980072e-03 -3.784394073486328125e+01 8.002178192138671875e+00 5.644021987915039062e+00 -3.922945785522460938e+01 -1.508693790435791016e+01 7.746131420135498047e-01 -3.390343093872070312e+01 8.316115379333496094e+00 3.554605484008789062e+00 -3.909210205078125000e+01 1.046474695205688477e+00 1.217168998718261719e+01 -3.805054855346679688e+01 2.042390346527099609e+00 1.205656147003173828e+01 -3.832097625732421875e+01 -8.314846038818359375e+00 -7.772681236267089844e+00 -3.487326049804687500e+01 -1.399322867393493652e+00 -3.650831222534179688e+00 -3.670035171508789062e+01 -6.977952003479003906e+00 6.455741405487060547e+00 -3.586036682128906250e+01 -6.672998428344726562e+00 -8.452004432678222656e+00 -3.527376556396484375e+01 -2.777110576629638672e+00 -4.745142459869384766e+00 -3.594894409179687500e+01 -9.760847091674804688e+00 4.611093044281005859e+00 -3.521229553222656250e+01 -1.115995693206787109e+01 -3.577661752700805664e+00 -3.443743896484375000e+01 -6.135845661163330078e+00 7.088884353637695312e+00 -3.592805862426757812e+01 -7.582997798919677734e+00 -8.459548950195312500e+00 -3.500843048095703125e+01 -7.486781477928161621e-01 -3.079508781433105469e+00 -3.677238082885742188e+01 5.908443927764892578e+00 7.826176643371582031e+00 -3.867205810546875000e+01 2.327099323272705078e+00 -7.181357741355895996e-01 -3.758122253417968750e+01 7.847281455993652344e+00 6.166284084320068359e+00 -3.870522689819335938e+01 -3.473780155181884766e+00 9.022897720336914062e+00 -3.637868499755859375e+01 -1.199657917022705078e+01 -2.273535013198852539e+00 -3.441140747070312500e+01 -5.821394920349121094e+00 -7.608137607574462891e+00 -3.536234664916992188e+01 7.445473670959472656e+00 2.902527809143066406e+00 -3.876113891601562500e+01 -1.397421932220458984e+01 2.248102903366088867e+00 -3.380581665039062500e+01 8.246404647827148438e+00 5.254090309143066406e+00 -3.922287368774414062e+01 -9.389126777648925781e+00 -6.372067451477050781e+00 -3.456467056274414062e+01 -9.666300773620605469e+00 -5.326070308685302734e+00 -3.453628921508789062e+01 -9.895168304443359375e+00 -5.028452873229980469e+00 -3.436291122436523438e+01 9.420483589172363281e+00 3.885218858718872070e+00 -3.914201736450195312e+01 -8.694821357727050781e+00 5.283590793609619141e+00 -3.516255187988281250e+01 4.228091239929199219e+00 9.961466789245605469e+00 -3.840033721923828125e+01 4.723823547363281250e+00 9.454787254333496094e+00 -3.815668487548828125e+01 3.798974037170410156e+00 1.031671333312988281e+01 -3.823955917358398438e+01 5.510785102844238281e+00 1.358896493911743164e+00 -3.811625289916992188e+01 3.630114078521728516e+00 1.085160160064697266e+01 -3.821486663818359375e+01 -1.307822608947753906e+01 2.779006242752075195e+00 -3.403936004638671875e+01 -3.843221664428710938e+00 -5.454519271850585938e+00 -3.540856933593750000e+01 4.961178302764892578e+00 9.991938471794128418e-01 -3.805442047119140625e+01 -1.442016696929931641e+01 4.421342611312866211e-01 -3.358659362792968750e+01 -1.237757873535156250e+01 -1.806777238845825195e+00 -3.399692153930664062e+01 -3.063263654708862305e+00 9.356349945068359375e+00 -3.659173965454101562e+01 -1.528261303901672363e+00 1.057204627990722656e+01 -3.693378448486328125e+01 4.924904406070709229e-01 -2.110660791397094727e+00 -3.695285797119140625e+01 8.566220283508300781e+00 4.767128944396972656e+00 -3.903125000000000000e+01 -1.139863300323486328e+01 -2.685565233230590820e+00 -3.380015563964843750e+01 -1.476319122314453125e+01 1.369804024696350098e+00 -3.357242584228515625e+01 -4.373223304748535156e+00 -5.923586368560791016e+00 -3.546790695190429688e+01 1.772413134574890137e+00 -1.267569184303283691e+00 -3.703417587280273438e+01 -7.613437175750732422e+00 -7.965695858001708984e+00 -3.470625686645507812e+01 -8.497211456298828125e+00 -6.706800937652587891e+00 -3.432303237915039062e+01 -1.154902076721191406e+01 -2.200861454010009766e+00 -3.382007598876953125e+01 3.224458217620849609e+00 1.192036342620849609e+01 -3.780236053466796875e+01 6.638876438140869141e+00 7.244097232818603516e+00 -3.847686386108398438e+01 -6.866838455200195312e+00 -7.913877964019775391e+00 -3.469456100463867188e+01 1.938123703002929688e+00 1.324103927612304688e+01 -3.764294815063476562e+01 4.140731811523437500e+00 3.189936578273773193e-01 -3.737749481201171875e+01 -5.782723426818847656e-01 -3.019905805587768555e+00 -3.628495788574218750e+01 -1.330639553070068359e+01 -4.447384178638458252e-01 -3.351432800292968750e+01 -4.030429363250732422e+00 8.512364387512207031e+00 -3.592890930175781250e+01 2.884657144546508789e+00 1.264280033111572266e+01 -3.750319671630859375e+01 5.762413978576660156e+00 8.421276092529296875e+00 -3.800946807861328125e+01 -1.840915441513061523e+00 -4.003470897674560547e+00 -3.582088851928710938e+01 -1.445559406280517578e+01 1.794926404953002930e+00 -3.344380187988281250e+01 -1.022683143615722656e+01 -4.422200679779052734e+00 -3.411530685424804688e+01 -1.086586284637451172e+01 -3.291145324707031250e+00 -3.387648773193359375e+01 -3.389971971511840820e+00 -4.975947380065917969e+00 -3.540803527832031250e+01 4.504875838756561279e-01 1.242790794372558594e+01 -3.707852554321289062e+01 1.378759264945983887e+00 1.290855503082275391e+01 -3.761804962158203125e+01 -1.189202117919921875e+01 -2.000034332275390625e+00 -3.375427627563476562e+01 -1.154619789123535156e+01 3.321522712707519531e+00 -3.416345596313476562e+01 -4.714699387550354004e-01 1.165192890167236328e+01 -3.697696685791015625e+01 1.891346871852874756e-01 -2.432446718215942383e+00 -3.649540710449218750e+01 6.303963184356689453e+00 1.826542377471923828e+00 -3.797281646728515625e+01 9.092174530029296875e+00 4.495238304138183594e+00 -3.873109436035156250e+01 6.190401554107666016e+00 7.698064327239990234e+00 -3.809502029418945312e+01 -9.248654365539550781e+00 -4.976382732391357422e+00 -3.386898422241210938e+01 7.186846256256103516e+00 2.481778621673583984e+00 -3.833600234985351562e+01 -9.980792045593261719e+00 4.375966072082519531e+00 -3.453171539306640625e+01 -2.615281820297241211e+00 -4.423502922058105469e+00 -3.544580841064453125e+01 -7.654457092285156250e+00 5.922062873840332031e+00 -3.512162780761718750e+01 8.901427984237670898e-01 -1.892113208770751953e+00 -3.663814544677734375e+01 4.666497230529785156e+00 6.893029212951660156e-01 -3.729805374145507812e+01 -5.464705467224121094e+00 -6.678702831268310547e+00 -3.473491668701171875e+01 -1.060455703735351562e+01 3.936648845672607422e+00 -3.432258987426757812e+01 5.281778335571289062e+00 8.866361618041992188e+00 -3.828208160400390625e+01 -9.121098518371582031e+00 -5.807539939880371094e+00 -3.409314727783203125e+01 4.797297477722167969e+00 9.833090782165527344e+00 -3.768367385864257812e+01 2.917052507400512695e+00 -4.634712934494018555e-01 -3.713213348388671875e+01 -1.066982030868530273e+00 1.111385631561279297e+01 -3.680985641479492188e+01 8.228390693664550781e+00 3.139619350433349609e+00 -3.848817825317382812e+01 7.326350212097167969e+00 6.718625068664550781e+00 -3.851409912109375000e+01 -1.221383285522460938e+01 -1.338339686393737793e+00 -3.340126800537109375e+01 -1.264490699768066406e+01 2.520806789398193359e+00 -3.343910980224609375e+01 -1.160470771789550781e+01 3.103199958801269531e+00 -3.361797714233398438e+01 -4.677025794982910156e+00 -6.169241428375244141e+00 -3.505680847167968750e+01 4.285136699676513672e+00 1.010272216796875000e+01 -3.781708908081054688e+01 9.064531326293945312e+00 3.696124315261840820e+00 -3.868679428100585938e+01 1.050984764099121094e+01 4.412410259246826172e+00 -3.947863006591796875e+01 1.038671493530273438e+01 4.142828941345214844e+00 -3.921624755859375000e+01 9.856626510620117188e+00 4.049930572509765625e+00 -3.872970199584960938e+01 2.896253585815429688e+00 1.301013851165771484e+01 -3.730632019042968750e+01 8.986042976379394531e+00 5.308618545532226562e+00 -3.887147140502929688e+01 -5.614095687866210938e+00 7.327033996582031250e+00 -3.517349243164062500e+01 9.680513381958007812e+00 4.330889225006103516e+00 -3.899580383300781250e+01 9.077933430671691895e-01 1.256489753723144531e+01 -3.733606719970703125e+01 9.759924888610839844e+00 4.863399505615234375e+00 -3.870125579833984375e+01 1.020794200897216797e+01 4.797543525695800781e+00 -3.898968124389648438e+01 -7.246265888214111328e+00 -7.281255722045898438e+00 -3.430558013916015625e+01 -1.417079925537109375e+01 1.425099253654479980e+00 -3.324043655395507812e+01 -8.999943733215332031e+00 4.878110885620117188e+00 -3.451054763793945312e+01 -6.636762142181396484e+00 -7.028085708618164062e+00 -3.425006103515625000e+01 -6.009216308593750000e+00 -6.830726623535156250e+00 -3.441506195068359375e+01 -6.917728424072265625e+00 6.337253570556640625e+00 -3.510448455810546875e+01 6.955482482910156250e+00 7.417802333831787109e+00 -3.781446456909179688e+01 -1.914293766021728516e+00 1.037228202819824219e+01 -3.630203628540039062e+01 3.846955299377441406e+00 1.118660545349121094e+01 -3.773753738403320312e+01 -1.355565071105957031e+01 4.827439486980438232e-01 -3.316515731811523438e+01 8.632000923156738281e+00 5.774080276489257812e+00 -3.823848342895507812e+01 -2.905408382415771484e+00 9.532664299011230469e+00 -3.569892120361328125e+01 6.657309532165527344e+00 1.989991426467895508e+00 -3.760423278808593750e+01 7.723762989044189453e+00 2.680286645889282227e+00 -3.790210342407226562e+01 3.013978481292724609e+00 -3.680831193923950195e-01 -3.654495620727539062e+01 4.146367073059082031e+00 1.061835193634033203e+01 -3.775222778320312500e+01 -4.698788642883300781e+00 -5.758896827697753906e+00 -3.449557113647460938e+01 -1.037589073181152344e+01 3.749721050262451172e+00 -3.368937301635742188e+01 -8.157209396362304688e+00 5.369957923889160156e+00 -3.447882461547851562e+01 -4.549012184143066406e+00 7.973641872406005859e+00 -3.526455307006835938e+01 5.136409759521484375e+00 9.472427368164062500e+00 -3.756743621826171875e+01 3.547752141952514648e+00 1.201741790771484375e+01 -3.739446258544921875e+01 -6.400359153747558594e+00 6.725706100463867188e+00 -3.488520812988281250e+01 -7.639183521270751953e+00 -5.907867908477783203e+00 -3.357360076904296875e+01 -9.350564002990722656e+00 -4.376500606536865234e+00 -3.343352508544921875e+01 -1.028535461425781250e+01 -3.430646657943725586e+00 -3.347124099731445312e+01 1.452349781990051270e+00 1.317660808563232422e+01 -3.700817489624023438e+01 1.389667630195617676e+00 -1.521411538124084473e+00 -3.614117813110351562e+01 5.571624279022216797e+00 1.270714879035949707e+00 -3.727730560302734375e+01 9.234406471252441406e+00 5.403736114501953125e+00 -3.856673812866210938e+01 1.005748271942138672e+01 4.405981063842773438e+00 -3.865654754638671875e+01 -1.305519104003906250e+01 1.786322474479675293e+00 -3.312361145019531250e+01 8.155241012573242188e+00 2.875744819641113281e+00 -3.775934600830078125e+01 7.501009941101074219e+00 6.901409626007080078e+00 -3.789872741699218750e+01 -1.067545127868652344e+01 -2.716503143310546875e+00 -3.317117309570312500e+01 2.142990350723266602e+00 1.383109474182128906e+01 -3.706018829345703125e+01 -4.436478912830352783e-01 -2.795841932296752930e+00 -3.543068313598632812e+01 -1.783485174179077148e+00 -3.757461547851562500e+00 -3.524283599853515625e+01 5.548043251037597656e-01 -2.105638980865478516e+00 -3.598023223876953125e+01 -9.915279388427734375e+00 4.167338848114013672e+00 -3.392152404785156250e+01 -1.308895587921142578e+01 1.127481102943420410e+00 -3.289068984985351562e+01 7.250622749328613281e+00 2.388241767883300781e+00 -3.743409729003906250e+01 8.680213928222656250e+00 3.227401494979858398e+00 -3.799758148193359375e+01 8.002170562744140625e+00 6.440602302551269531e+00 -3.807365798950195312e+01 -8.173933982849121094e+00 -5.594889640808105469e+00 -3.370235824584960938e+01 -7.030135154724121094e+00 6.085499763488769531e+00 -3.447053909301757812e+01 8.865706443786621094e+00 3.607752323150634766e+00 -3.794057464599609375e+01 3.789918422698974609e+00 1.127740001678466797e+01 -3.746549606323242188e+01 -1.210000991821289062e+01 -6.723359823226928711e-01 -3.297552108764648438e+01 5.799214363098144531e+00 8.757917404174804688e+00 -3.740202713012695312e+01 -2.926563620567321777e-01 1.195000934600830078e+01 -3.631734466552734375e+01 -3.650372982025146484e+00 -4.700131416320800781e+00 -3.455181884765625000e+01 -7.008597850799560547e+00 -6.618469238281250000e+00 -3.396884536743164062e+01 -1.091586971282958984e+01 -2.273052930831909180e+00 -3.316735839843750000e+01 -9.123957633972167969e+00 4.644799709320068359e+00 -3.405652236938476562e+01 -1.526653289794921875e+00 1.066858768463134766e+01 -3.577501296997070312e+01 1.239009618759155273e+00 1.341162300109863281e+01 -3.654822540283203125e+01 -1.078352642059326172e+01 3.293377161026000977e+00 -3.345693969726562500e+01 -3.366412639617919922e+00 9.039765357971191406e+00 -3.548762130737304688e+01 -7.443783283233642578e+00 -6.303602695465087891e+00 -3.386047363281250000e+01 1.945707678794860840e+00 -9.471959471702575684e-01 -3.581160736083984375e+01 4.319696426391601562e+00 5.444992780685424805e-01 -3.653633880615234375e+01 9.719007492065429688e+00 4.329788684844970703e+00 -3.822520446777343750e+01 4.387796878814697266e+00 1.067443847656250000e+01 -3.727989959716796875e+01 4.085815429687500000e+00 1.119484519958496094e+01 -3.725164794921875000e+01 -1.196889400482177734e+01 -4.990393668413162231e-02 -3.274137878417968750e+01 -6.433488845825195312e+00 6.363945484161376953e+00 -3.435350799560546875e+01 -1.110620594024658203e+01 -1.822453498840332031e+00 -3.295952606201171875e+01 -3.716430425643920898e+00 8.667684555053710938e+00 -3.502913665771484375e+01 9.543869018554687500e+00 4.660423278808593750e+00 -3.799339294433593750e+01 7.624608516693115234e+00 2.686333894729614258e+00 -3.731959533691406250e+01 9.019267082214355469e+00 5.309373378753662109e+00 -3.789437866210937500e+01 6.478421688079833984e+00 7.712676525115966797e+00 -3.748693847656250000e+01 2.538432836532592773e+00 1.367199039459228516e+01 -3.669025039672851562e+01 6.382094860076904297e+00 1.966156959533691406e+00 -3.680635452270507812e+01 5.856426715850830078e+00 1.568158268928527832e+00 -3.684523010253906250e+01 -1.133150863647460938e+01 2.920969724655151367e+00 -3.320214843750000000e+01 3.533506870269775391e+00 1.242609405517578125e+01 -3.680084991455078125e+01 -1.192173099517822266e+01 2.218963146209716797e+00 -3.292756271362304688e+01 -8.195734024047851562e+00 4.906516551971435547e+00 -3.381470108032226562e+01 -6.208512783050537109e+00 -6.087905406951904297e+00 -3.385642242431640625e+01 -1.213624095916748047e+01 7.793461084365844727e-01 -3.262982177734375000e+01 -8.226541519165039062e+00 -4.675137996673583984e+00 -3.320817947387695312e+01 7.047977447509765625e-01 1.289141082763671875e+01 -3.639981842041015625e+01 -9.202046990394592285e-01 1.118148231506347656e+01 -3.556432723999023438e+01 5.289239406585693359e+00 9.423844337463378906e+00 -3.710161590576171875e+01 4.444767951965332031e+00 1.085332298278808594e+01 -3.683598327636718750e+01 9.650381088256835938e+00 4.133039474487304688e+00 -3.785738754272460938e+01 3.887553453445434570e+00 1.173422241210937500e+01 -3.694645690917968750e+01 8.013804435729980469e+00 6.302878856658935547e+00 -3.759248733520507812e+01 -7.076221942901611328e+00 5.753914833068847656e+00 -3.408532333374023438e+01 -4.690120220184326172e+00 7.645638942718505859e+00 -3.450698089599609375e+01 -2.788346290588378906e+00 -4.037295341491699219e+00 -3.451051712036132812e+01 2.927160978317260742e+00 1.359454345703125000e+01 -3.675885009765625000e+01 3.524455785751342773e+00 1.923356950283050537e-01 -3.593152236938476562e+01 2.479624271392822266e+00 -5.127260684967041016e-01 -3.575712203979492188e+01 9.221665382385253906e+00 3.956395387649536133e+00 -3.786503219604492188e+01 -1.950638175010681152e+00 1.004181766510009766e+01 -3.526070785522460938e+01 4.222755432128906250e+00 1.143087291717529297e+01 -3.684999847412109375e+01 5.356220006942749023e-01 1.270171356201171875e+01 -3.600996017456054688e+01 2.327152490615844727e+00 1.406645202636718750e+01 -3.663471221923828125e+01 -6.829529762268066406e+00 -5.850424289703369141e+00 -3.355718231201171875e+01 -9.568120956420898438e+00 -3.033129215240478516e+00 -3.285239410400390625e+01 -9.871944427490234375e+00 3.544716119766235352e+00 -3.316746520996093750e+01 7.218903064727783203e+00 7.026204586029052734e+00 -3.701998519897460938e+01 -9.046637535095214844e+00 4.308707714080810547e+00 -3.349584579467773438e+01 2.015582084655761719e+00 1.407893371582031250e+01 -3.631249618530273438e+01 -2.725962638854980469e+00 9.329635620117187500e+00 -3.500109481811523438e+01 -5.491518497467041016e+00 -5.519786357879638672e+00 -3.381084442138671875e+01 8.354090452194213867e-01 -1.601128339767456055e+00 -3.517200469970703125e+01 -5.896046638488769531e+00 6.761835098266601562e+00 -3.434488677978515625e+01 8.706804275512695312e+00 3.785450458526611328e+00 -3.723232650756835938e+01 4.711278438568115234e+00 1.002470207214355469e+01 -3.696915817260742188e+01 6.698194026947021484e+00 7.510898590087890625e+00 -3.702135086059570312e+01 3.527434349060058594e+00 1.296529388427734375e+01 -3.655779647827148438e+01 -3.057348728179931641e-01 -2.498191356658935547e+00 -3.496502304077148438e+01 -5.866581201553344727e-01 1.136007881164550781e+01 -3.531372451782226562e+01 5.994745731353759766e+00 8.242345809936523438e+00 -3.676439666748046875e+01 -4.028655052185058594e+00 8.204925537109375000e+00 -3.467198944091796875e+01 5.161380290985107422e+00 1.351760506629943848e+00 -3.609174346923828125e+01 -4.484372615814208984e+00 -4.869211196899414062e+00 -3.401173019409179688e+01 -7.188474655151367188e+00 5.374908924102783203e+00 -3.359634399414062500e+01 -3.069659948348999023e+00 8.987340927124023438e+00 -3.480688858032226562e+01 -7.539197921752929688e+00 4.803520679473876953e+00 -3.331922531127929688e+01 -2.555471658706665039e-01 1.186879253387451172e+01 -3.569686508178710938e+01 8.281366348266601562e+00 5.964624881744384766e+00 -3.727043533325195312e+01 -1.802942395210266113e+00 -3.344603061676025391e+00 -3.460506057739257812e+01 -1.025953483581542969e+01 -1.005139231681823730e+00 -3.239482879638671875e+01 -3.855914831161499023e+00 -3.915767908096313477e+00 -3.360945892333984375e+01 1.328050851821899414e+00 1.345610904693603516e+01 -3.607286071777343750e+01 8.658419609069824219e+00 5.449314594268798828e+00 -3.727626037597656250e+01 -6.924506664276123047e+00 -4.654170513153076172e+00 -3.309257888793945312e+01 -1.153144478797912598e+00 1.063634395599365234e+01 -3.503808975219726562e+01 4.753654479980468750e+00 9.692877769470214844e+00 -3.651041030883789062e+01 -5.233860015869140625e+00 7.048956871032714844e+00 -3.412487411499023438e+01 -6.008937835693359375e+00 -5.324513912200927734e+00 -3.342523956298828125e+01 3.718750476837158203e+00 1.240732765197753906e+01 -3.657869720458984375e+01 8.625680923461914062e+00 4.971899032592773438e+00 -3.703817749023437500e+01 -9.825151443481445312e+00 -1.844779729843139648e+00 -3.246421813964843750e+01 9.189827919006347656e+00 4.449586868286132812e+00 -3.721500396728515625e+01 3.015690088272094727e+00 1.408698272705078125e+01 -3.635103988647460938e+01 2.429301738739013672e+00 1.450959205627441406e+01 -3.626924514770507812e+01 -1.131498527526855469e+01 1.451146841049194336e+00 -3.248207092285156250e+01 -6.459482192993164062e+00 -5.012822628021240234e+00 -3.313010787963867188e+01 -1.019947528839111328e+01 2.699489355087280273e+00 -3.274393463134765625e+01 7.596038341522216797e+00 6.581869125366210938e+00 -3.686476898193359375e+01 -1.339925527572631836e+00 1.032938575744628906e+01 -3.478291702270507812e+01 5.254130840301513672e+00 9.367833137512207031e+00 -3.676679229736328125e+01 7.028682708740234375e+00 2.648921012878417969e+00 -3.656555557250976562e+01 -1.059139823913574219e+01 1.844715118408203125e+00 -3.240461349487304688e+01 -6.575971126556396484e+00 5.845144748687744141e+00 -3.371796798706054688e+01 3.974095582962036133e+00 7.392966151237487793e-01 -3.559251403808593750e+01 -7.955031871795654297e+00 -4.081937789916992188e+00 -3.288417816162109375e+01 -5.649909496307373047e+00 6.403860569000244141e+00 -3.369396591186523438e+01 1.540170192718505859e+00 -7.672498822212219238e-01 -3.481610488891601562e+01 4.679803371429443359e+00 1.044366073608398438e+01 -3.631029510498046875e+01 3.915886402130126953e+00 1.192547702789306641e+01 -3.645851898193359375e+01 -4.913422107696533203e+00 -4.586312294006347656e+00 -3.359027099609375000e+01 -8.951265215873718262e-01 -2.492331266403198242e+00 -3.437519073486328125e+01 2.546386957168579102e+00 1.478444576263427734e+01 -3.642112731933593750e+01 4.245157241821289062e+00 1.122864723205566406e+01 -3.620457458496093750e+01 3.963725566864013672e-01 1.229362773895263672e+01 -3.547170639038085938e+01 5.528863906860351562e+00 9.031068801879882812e+00 -3.640926361083984375e+01 -1.095020389556884766e+01 5.652227997779846191e-01 -3.234360122680664062e+01 -8.830190658569335938e+00 -2.765694379806518555e+00 -3.255509567260742188e+01 -8.575481414794921875e+00 3.956081867218017578e+00 -3.300155639648437500e+01 7.883171081542968750e+00 3.563464879989624023e+00 -3.644638824462890625e+01 -2.878166198730468750e+00 -3.247284412384033203e+00 -3.369154739379882812e+01 -1.022665786743164062e+01 3.524278998374938965e-01 -3.217284011840820312e+01 -2.902532339096069336e+00 8.738709449768066406e+00 -3.421511840820312500e+01 -1.752946853637695312e+00 9.746029853820800781e+00 -3.456365585327148438e+01 1.549448847770690918e+00 1.339227008819580078e+01 -3.580337524414062500e+01 3.312072753906250000e+00 1.334739875793457031e+01 -3.615292739868164062e+01 -5.192143440246582031e+00 -4.679519653320312500e+00 -3.328676605224609375e+01 2.661929726600646973e-01 -1.605410575866699219e+00 -3.447444152832031250e+01 6.489352703094482422e+00 7.639049053192138672e+00 -3.664168167114257812e+01 4.493817806243896484e+00 1.225383877754211426e+00 -3.547317123413085938e+01 4.947628021240234375e+00 9.449250221252441406e+00 -3.609788131713867188e+01 8.034789085388183594e+00 5.856469631195068359e+00 -3.677118682861328125e+01 2.708389043807983398e+00 5.976592190563678741e-03 -3.521946716308593750e+01 -6.279366493225097656e+00 -4.207518577575683594e+00 -3.297516632080078125e+01 9.852353930473327637e-01 1.271459197998046875e+01 -3.543019485473632812e+01 2.667346239089965820e+00 1.428195953369140625e+01 -3.596119308471679688e+01 -9.815279006958007812e+00 2.318913936614990234e+00 -3.244441986083984375e+01 4.314819350838661194e-02 1.166121196746826172e+01 -3.511443328857421875e+01 5.872718811035156250e+00 8.111637115478515625e+00 -3.612990188598632812e+01 -3.416906595230102539e+00 8.231136322021484375e+00 -3.404862976074218750e+01 3.594734907150268555e+00 1.271758079528808594e+01 -3.603648757934570312e+01 2.926257133483886719e+00 1.456112957000732422e+01 -3.609122467041015625e+01 8.499907493591308594e+00 4.431216239929199219e+00 -3.652408218383789062e+01 -4.112171649932861328e+00 7.542803764343261719e+00 -3.377785873413085938e+01 -2.168261528015136719e+00 9.190466880798339844e+00 -3.438421249389648438e+01 4.449152469635009766e+00 1.065709018707275391e+01 -3.607336807250976562e+01 2.560541391372680664e+00 1.513366317749023438e+01 -3.591703033447265625e+01 -7.244650840759277344e+00 -3.270996332168579102e+00 -3.257569122314453125e+01 -4.803737163543701172e+00 6.811583518981933594e+00 -3.349818801879882812e+01 2.775040388107299805e+00 1.347214508056640625e+01 -3.566134643554687500e+01 5.984857082366943359e+00 2.561840057373046875e+00 -3.551013565063476562e+01 6.392236232757568359e+00 7.757329463958740234e+00 -3.621615600585937500e+01 2.282902002334594727e+00 1.360950565338134766e+01 -3.572015380859375000e+01 7.609367370605468750e+00 6.075764179229736328e+00 -3.623236465454101562e+01 8.280678749084472656e+00 4.186023712158203125e+00 -3.641348648071289062e+01 6.812071800231933594e+00 7.142529010772705078e+00 -3.622814941406250000e+01 2.903406620025634766e+00 1.498885440826416016e+01 -3.580006027221679688e+01 4.833590030670166016e+00 9.880820274353027344e+00 -3.596605300903320312e+01 3.150684118270874023e+00 1.325002288818359375e+01 -3.569083786010742188e+01 2.918897151947021484e+00 1.394125652313232422e+01 -3.579327392578125000e+01 -3.714164257049560547e+00 -3.679199457168579102e+00 -3.329233551025390625e+01 6.887586116790771484e+00 3.217742204666137695e+00 -3.576029968261718750e+01 -5.430872917175292969e+00 -3.774628400802612305e+00 -3.304118347167968750e+01 3.620383977890014648e+00 1.223749542236328125e+01 -3.562867736816406250e+01 7.832839488983154297e+00 5.191713333129882812e+00 -3.622399139404296875e+01 -8.508631706237792969e+00 -2.028990745544433594e+00 -3.229718399047851562e+01 -4.720545768737792969e+00 -3.943985223770141602e+00 -3.310541534423828125e+01 -8.937288284301757812e+00 2.383185863494873047e+00 -3.227630996704101562e+01 -8.048746109008789062e+00 3.442930221557617188e+00 -3.252105331420898438e+01 -7.567246437072753906e+00 4.189915657043457031e+00 -3.281909179687500000e+01 -9.358632087707519531e+00 -6.465839743614196777e-01 -3.213502883911132812e+01 -4.614405333995819092e-01 1.090193080902099609e+01 -3.475240325927734375e+01 5.157005310058593750e+00 8.849662780761718750e+00 -3.553931045532226562e+01 -9.574128150939941406e+00 1.554381251335144043e+00 -3.213692092895507812e+01 1.081735968589782715e+00 1.231212806701660156e+01 -3.491427612304687500e+01 1.881695985794067383e+00 1.278613090515136719e+01 -3.508786010742187500e+01 -1.433282971382141113e+00 -2.129707574844360352e+00 -3.377496719360351562e+01 -5.971073627471923828e+00 5.340938568115234375e+00 -3.294421005249023438e+01 5.217435359954833984e+00 2.197887659072875977e+00 -3.519328689575195312e+01 4.005042552947998047e+00 1.151096916198730469e+01 -3.578969573974609375e+01 4.596960067749023438e+00 1.020460700988769531e+01 -3.573553085327148438e+01 -6.229448795318603516e+00 -3.436534166336059570e+00 -3.270991897583007812e+01 2.454481840133666992e+00 3.055453300476074219e-01 -3.471966171264648438e+01 2.706429481506347656e+00 1.369886207580566406e+01 -3.537352371215820312e+01 -1.910380601882934570e+00 -2.441946029663085938e+00 -3.343947982788085938e+01 5.939763188362121582e-01 -7.426794767379760742e-01 -3.387715530395507812e+01 -6.624847888946533203e+00 -2.635579109191894531e+00 -3.240174865722656250e+01 4.148518562316894531e+00 1.096614265441894531e+01 -3.560786437988281250e+01 7.612406253814697266e+00 4.732513904571533203e+00 -3.607379150390625000e+01 -4.025654792785644531e+00 -3.377764463424682617e+00 -3.297889328002929688e+01 -6.871172428131103516e+00 4.346229553222656250e+00 -3.270204544067382812e+01 3.233949899673461914e+00 1.333814382553100586e+00 -3.434075164794921875e+01 7.472788810729980469e+00 3.871159315109252930e+00 -3.576492691040039062e+01 7.890113592147827148e-01 1.153426742553710938e+01 -3.447921371459960938e+01 6.892697811126708984e+00 6.289417266845703125e+00 -3.574369812011718750e+01 -8.809915542602539062e+00 1.368843577802181244e-02 -3.194857788085937500e+01 -7.451344013214111328e+00 -2.007704019546508789e+00 -3.223423385620117188e+01 -6.577115654945373535e-01 1.011440753936767578e+01 -3.413447952270507812e+01 -5.034843087196350098e-01 1.057062244415283203e+01 -3.443734741210937500e+01 4.890850067138671875e+00 9.405674934387207031e+00 -3.541458511352539062e+01 -4.440622329711914062e+00 -2.918557882308959961e+00 -3.284300231933593750e+01 -5.022336959838867188e+00 -2.507190704345703125e+00 -3.254238128662109375e+01 6.123740673065185547e+00 7.532167911529541016e+00 -3.559761428833007812e+01 -1.418544292449951172e+00 9.469243049621582031e+00 -3.400329589843750000e+01 -5.723841667175292969e+00 -2.711734771728515625e+00 -3.251422500610351562e+01 -7.840690612792968750e+00 -1.289658308029174805e+00 -3.206497955322265625e+01 -2.784751653671264648e+00 -2.633064031600952148e+00 -3.313624572753906250e+01 7.228343963623046875e+00 4.248581886291503906e+00 -3.561567687988281250e+01 -3.283146858215332031e+00 7.764070034027099609e+00 -3.347795867919921875e+01 -2.618218660354614258e+00 8.148058891296386719e+00 -3.352238082885742188e+01 4.151979446411132812e+00 1.938434720039367676e+00 -3.449415588378906250e+01 5.260646820068359375e+00 8.151260375976562500e+00 -3.522391891479492188e+01 2.206678628921508789e+00 6.912142038345336914e-01 -3.428434371948242188e+01 6.808834552764892578e+00 5.307866096496582031e+00 -3.550022888183593750e+01 3.331980943679809570e+00 1.256381320953369141e+01 -3.523401260375976562e+01 -8.413061141967773438e+00 1.144916176795959473e+00 -3.196424293518066406e+01 -4.925096988677978516e+00 5.628455638885498047e+00 -3.278752899169921875e+01 -1.880729079246520996e+00 8.481313705444335938e+00 -3.365135955810546875e+01 3.855084180831909180e-01 1.097815799713134766e+01 -3.426515197753906250e+01 -7.799942493438720703e+00 2.482981681823730469e+00 -3.211663436889648438e+01 -8.565461635589599609e-01 -1.780916929244995117e+00 -3.350271224975585938e+01 5.933056354522705078e+00 3.272058010101318359e+00 -3.492081832885742188e+01 3.410284757614135742e+00 1.208399772644042969e+01 -3.497508621215820312e+01 2.859538555145263672e+00 1.256617355346679688e+01 -3.514004898071289062e+01 2.587989568710327148e+00 1.298199081420898438e+01 -3.496465301513671875e+01 -6.539602279663085938e+00 -1.183994054794311523e+00 -3.205394363403320312e+01 4.391846656799316406e+00 1.012703132629394531e+01 -3.521365737915039062e+01 -4.140767097473144531e+00 -2.225568771362304688e+00 -3.263611221313476562e+01 -7.654173374176025391e+00 -2.891226410865783691e-01 -3.191811561584472656e+01 -2.505447149276733398e+00 -1.972922325134277344e+00 -3.310610198974609375e+01 -5.915745735168457031e+00 -1.911705136299133301e+00 -3.228326416015625000e+01 3.754755258560180664e+00 1.123153305053710938e+01 -3.505786132812500000e+01 -3.684334516525268555e+00 6.893184185028076172e+00 -3.299788665771484375e+01 -6.759626865386962891e+00 3.585821151733398438e+00 -3.229965209960937500e+01 -5.964382648468017578e+00 4.109098434448242188e+00 -3.240314102172851562e+01 1.720613598823547363e+00 1.227232742309570312e+01 -3.462586212158203125e+01 2.053133726119995117e+00 1.282518005371093750e+01 -3.479501342773437500e+01 -7.670637607574462891e+00 2.092803716659545898e+00 -3.200805664062500000e+01 7.679781317710876465e-01 -5.700339078903198242e-01 -3.359981536865234375e+01 6.573452472686767578e+00 4.350877285003662109e+00 -3.490046310424804688e+01 -5.645170211791992188e-01 -9.805873036384582520e-01 -3.324928283691406250e+01 6.386605262756347656e+00 3.742279767990112305e+00 -3.490633392333984375e+01 6.338188171386718750e+00 6.565061569213867188e+00 -3.530118179321289062e+01 6.332745552062988281e+00 5.936716556549072266e+00 -3.512612533569335938e+01 3.659481287002563477e+00 1.071321678161621094e+01 -3.463610458374023438e+01 5.681547164916992188e+00 7.286634922027587891e+00 -3.499853134155273438e+01 -1.856261014938354492e+00 -1.328883767127990723e+00 -3.318179702758789062e+01 -4.876872062683105469e+00 4.605423927307128906e+00 -3.235413742065429688e+01 -5.435035705566406250e+00 -1.292348742485046387e+00 -3.218913269042968750e+01 -7.178792476654052734e+00 1.187864065170288086e+00 -3.189395904541015625e+01 -3.293103456497192383e+00 -1.469759345054626465e+00 -3.264449310302734375e+01 -2.186975002288818359e+00 -9.688972234725952148e-01 -3.285367965698242188e+01 -1.185914635658264160e+00 8.306231498718261719e+00 -3.325092315673828125e+01 -4.407492637634277344e+00 -1.531464576721191406e+00 -3.238378524780273438e+01 1.102821826934814453e+00 1.068229293823242188e+01 -3.386897277832031250e+01 2.735522031784057617e+00 1.199068927764892578e+01 -3.475205230712890625e+01 2.195305824279785156e+00 5.536163449287414551e-01 -3.398139572143554688e+01 4.849452972412109375e+00 8.471084594726562500e+00 -3.472944641113281250e+01 6.162925720214843750e+00 4.861550807952880859e+00 -3.481427764892578125e+01 -5.664488077163696289e-01 9.313118934631347656e+00 -3.360495758056640625e+01 1.656497478485107422e+00 1.153558635711669922e+01 -3.412110519409179688e+01 -6.555505752563476562e+00 -1.269380748271942139e-01 -3.190604400634765625e+01 -6.633927345275878906e+00 2.117579221725463867e+00 -3.194860458374023438e+01 2.234279155731201172e+00 1.234819412231445312e+01 -3.444105911254882812e+01 -1.763235569000244141e+00 7.879279136657714844e+00 -3.322944641113281250e+01 -6.493865489959716797e+00 7.484784722328186035e-01 -3.186177444458007812e+01 3.876725673675537109e+00 1.768203377723693848e+00 -3.416274261474609375e+01 -3.736061811447143555e+00 -7.186045050621032715e-01 -3.232308959960937500e+01 -5.777991771697998047e+00 -5.208017826080322266e-01 -3.199684524536132812e+01 3.870006561279296875e+00 9.644107818603515625e+00 -3.436003494262695312e+01 -5.465822696685791016e+00 2.874976158142089844e+00 -3.202998352050781250e+01 1.438970416784286499e-01 9.781847000122070312e+00 -3.365605926513671875e+01 4.197776794433593750e+00 9.030584335327148438e+00 -3.438471221923828125e+01 1.465924739837646484e+00 4.763132929801940918e-01 -3.360198974609375000e+01 2.576775789260864258e+00 1.209228157997131348e+00 -3.386105728149414062e+01 5.249073982238769531e+00 2.789658069610595703e+00 -3.452263641357421875e+01 5.755886077880859375e+00 5.387096405029296875e+00 -3.456650924682617188e+01 2.919754683971405029e-01 -2.604474723339080811e-01 -3.323744201660156250e+01 5.314373016357421875e+00 7.005147457122802734e+00 -3.458245849609375000e+01 -3.020055770874023438e+00 -3.584642410278320312e-01 -3.242653274536132812e+01 -3.885338783264160156e+00 5.748463153839111328e+00 -3.250977706909179688e+01 -4.913549900054931641e+00 -5.810613632202148438e-01 -3.207682800292968750e+01 -4.899239540100097656e+00 3.704592943191528320e+00 -3.215361785888671875e+01 -2.613836526870727539e+00 6.799182415008544922e+00 -3.272534561157226562e+01 -2.169425725936889648e+00 -3.309062123298645020e-01 -3.262991333007812500e+01 3.059350490570068359e+00 1.102891063690185547e+01 -3.426193237304687500e+01 4.796095371246337891e+00 7.300643920898437500e+00 -3.443750762939453125e+01 -5.674368381500244141e+00 8.677381873130798340e-01 -3.187512207031250000e+01 -5.680713176727294922e+00 1.608344793319702148e+00 -3.190940666198730469e+01 -1.370127558708190918e+00 -2.936193160712718964e-02 -3.276877593994140625e+01 2.545648336410522461e+00 1.111786270141601562e+01 -3.425732040405273438e+01 6.717045903205871582e-01 5.458853840827941895e-01 -3.328723907470703125e+01 1.975555181503295898e+00 1.465885758399963379e+00 -3.373493957519531250e+01 -5.279714107513427734e+00 2.822342216968536377e-01 -3.193453407287597656e+01 1.095230460166931152e+00 1.733555197715759277e+00 -3.315125274658203125e+01 3.822455167770385742e+00 2.280134916305541992e+00 -3.387869262695312500e+01 -3.748880624771118164e-01 2.891794443130493164e-01 -3.295682907104492188e+01 1.932649970054626465e+00 1.111153316497802734e+01 -3.393867492675781250e+01 -4.137505054473876953e+00 8.178763836622238159e-02 -3.206993865966796875e+01 5.640547752380371094e+00 3.774181842803955078e+00 -3.442158889770507812e+01 4.268991470336914062e+00 8.323838233947753906e+00 -3.415435409545898438e+01 -1.477377414703369141e+00 4.146959185600280762e-01 -3.261486434936523438e+01 2.084284067153930664e+00 2.178243160247802734e+00 -3.339983749389648438e+01 5.222478389739990234e+00 5.764777183532714844e+00 -3.430079650878906250e+01 -4.746934890747070312e+00 2.054534912109375000e+00 -3.194341850280761719e+01 -4.223945140838623047e+00 7.894483804702758789e-01 -3.201876449584960938e+01 -3.027259111404418945e+00 3.551333844661712646e-01 -3.228765106201171875e+01 1.278278946876525879e+00 1.010658454895019531e+01 -3.359090805053710938e+01 3.330416202545166016e+00 1.016838550567626953e+01 -3.412765884399414062e+01 4.654876708984375000e+00 3.386353969573974609e+00 -3.418726348876953125e+01 3.125155210494995117e+00 2.637903451919555664e+00 -3.360749053955078125e+01 -4.700374126434326172e+00 1.242876768112182617e+00 -3.195209884643554688e+01 -3.444208621978759766e+00 5.262132644653320312e+00 -3.229962921142578125e+01 -1.303313612937927246e+00 7.136161804199218750e+00 -3.278511047363281250e+01 -2.269689083099365234e+00 1.075502753257751465e+00 -3.233463668823242188e+01 -3.754250526428222656e+00 2.629016637802124023e+00 -3.200812149047851562e+01 -4.021990299224853516e+00 3.734778404235839844e+00 -3.210708999633789062e+01 5.264886856079101562e+00 4.543198108673095703e+00 -3.423346328735351562e+01 -1.276361793279647827e-01 8.915990829467773438e+00 -3.330044937133789062e+01 4.290829181671142578e+00 7.382585048675537109e+00 -3.400976943969726562e+01 -6.621144246309995651e-03 1.353766918182373047e+00 -3.281021118164062500e+01 4.844693660736083984e+00 6.438697814941406250e+00 -3.416029739379882812e+01 -3.841964006423950195e+00 1.789146184921264648e+00 -3.200371170043945312e+01 -2.758459091186523438e+00 1.225954055786132812e+00 -3.218544769287109375e+01 2.124117612838745117e+00 1.010637187957763672e+01 -3.371990203857421875e+01 3.602388381958007812e+00 2.757989883422851562e+00 -3.378802871704101562e+01 2.860203027725219727e+00 1.017385673522949219e+01 -3.390008544921875000e+01 1.505071640014648438e+00 2.618839025497436523e+00 -3.305577850341796875e+01 -1.196803689002990723e+00 1.283414602279663086e+00 -3.250985336303710938e+01 -3.431735992431640625e+00 1.249043464660644531e+00 -3.209107208251953125e+01 4.250488281250000000e+00 3.745817899703979492e+00 -3.386475753784179688e+01 8.398307561874389648e-01 8.995101928710937500e+00 -3.326097869873046875e+01 2.470049142837524414e+00 2.888566255569458008e+00 -3.329249191284179688e+01 -4.175879657268524170e-01 7.901559352874755859e+00 -3.294745254516601562e+01 3.916770935058593750e+00 8.046705245971679688e+00 -3.391326904296875000e+01 3.504161119461059570e+00 8.933509826660156250e+00 -3.388283157348632812e+01 -3.211835145950317383e+00 4.355133056640625000e+00 -3.212979507446289062e+01 -1.175390362739562988e+00 6.304021358489990234e+00 -3.251523208618164062e+01 -1.693961739540100098e+00 2.114655256271362305e+00 -3.230106735229492188e+01 4.336372375488281250e+00 5.598812580108642578e+00 -3.373089599609375000e+01 -3.072300910949707031e+00 3.442769050598144531e+00 -3.208575057983398438e+01 3.914310216903686523e+00 4.880920886993408203e+00 -3.354478454589843750e+01 -2.829705953598022461e+00 5.183632373809814453e+00 -3.224138259887695312e+01 -2.071091890335083008e+00 5.696393489837646484e+00 -3.234954452514648438e+01 2.895730733871459961e-01 7.969128131866455078e+00 -3.292430877685546875e+01 2.818039178848266602e+00 9.517289161682128906e+00 -3.367688369750976562e+01 -9.763418436050415039e-01 2.013183832168579102e+00 -3.245963668823242188e+01 -2.641180992126464844e+00 2.398106813430786133e+00 -3.212372589111328125e+01 3.772479057312011719e+00 4.074830532073974609e+00 -3.356755447387695312e+01 4.036775588989257812e+00 6.447696208953857422e+00 -3.367544174194335938e+01 1.873065710067749023e+00 9.263432502746582031e+00 -3.338524627685546875e+01 1.366547644138336182e-01 2.280971050262451172e+00 -3.268630599975585938e+01 2.909095764160156250e+00 3.746834993362426758e+00 -3.326995849609375000e+01 6.827942728996276855e-01 3.059102296829223633e+00 -3.272794723510742188e+01 -2.110148429870605469e+00 3.290696859359741211e+00 -3.215472030639648438e+01 -2.424910068511962891e+00 4.156465530395507812e+00 -3.213159179687500000e+01 3.343171119689941406e+00 7.527299404144287109e+00 -3.348395538330078125e+01 3.033306360244750977e+00 8.289772033691406250e+00 -3.348464202880859375e+01 -1.065841913223266602e+00 2.635280847549438477e+00 -3.236257553100585938e+01 1.270035386085510254e+00 8.232064247131347656e+00 -3.306861114501953125e+01 -2.637898921966552734e-01 6.875737667083740234e+00 -3.262922286987304688e+01 -1.487229585647583008e+00 5.017926692962646484e+00 -3.228678512573242188e+01 2.286528348922729492e+00 8.575739860534667969e+00 -3.328011703491210938e+01 2.002514839172363281e+00 3.787499666213989258e+00 -3.296845626831054688e+01 2.383324861526489258e+00 4.327934265136718750e+00 -3.300180435180664062e+01 3.532478332519531250e+00 6.343844413757324219e+00 -3.340208816528320312e+01 2.934374570846557617e+00 4.725039005279541016e+00 -3.315024948120117188e+01 -3.836201727390289307e-01 3.538867712020874023e+00 -3.244992828369140625e+01 -1.282963991165161133e+00 4.085753917694091797e+00 -3.228839874267578125e+01 1.182926058769226074e+00 6.948797702789306641e+00 -3.280484390258789062e+01 1.014193892478942871e+00 3.673800468444824219e+00 -3.272022247314453125e+01 -1.904317587614059448e-01 4.440136909484863281e+00 -3.244393157958984375e+01 -2.890284359455108643e-01 5.886728763580322266e+00 -3.246424102783203125e+01 2.104199171066284180e+00 7.405045032501220703e+00 -3.303864669799804688e+01 5.196180939674377441e-01 6.030342578887939453e+00 -3.258570861816406250e+01 2.878772258758544922e+00 5.576149940490722656e+00 -3.309471130371093750e+01 -7.479814440011978149e-02 5.183820724487304688e+00 -3.245730590820312500e+01 1.044845104217529297e+00 4.489901542663574219e+00 -3.263476562500000000e+01 2.503764390945434570e+00 6.387960910797119141e+00 -3.301663970947265625e+01 1.846107721328735352e+00 5.372133731842041016e+00 -3.279357528686523438e+01
