-6.807583570480346680e-01 -2.800825595855712891e+00 -3.476900863647460938e+01 4.221884608268737793e-01 -2.674695491790771484e+00 -3.393057632446289062e+01 -3.348347842693328857e-01 -1.273916125297546387e+00 -3.439507675170898438e+01 -8.915141224861145020e-02 -3.530704259872436523e+00 -3.447539138793945312e+01 6.913781166076660156e-01 -1.725844740867614746e+00 -3.369056320190429688e+01 1.534536004066467285e+00 -1.594553589820861816e+00 -3.310913085937500000e+01 1.520444273948669434e+00 -2.757715702056884766e+00 -3.321254348754882812e+01 2.219654798507690430e+00 -2.022905826568603516e+00 -3.273531723022460938e+01 9.858269691467285156e-01 -1.093969464302062988e+00 -3.348992156982421875e+01 -1.145424008369445801e+00 -1.923115372657775879e+00 -3.506544876098632812e+01 1.092797517776489258e+00 -3.551023006439208984e+00 -3.363467788696289062e+01 -1.501860260963439941e+00 -1.052687644958496094e+00 -3.543451309204101562e+01 2.182750225067138672e+00 -1.458565950393676758e+00 -3.276651763916015625e+01 2.624283730983734131e-01 6.766184698790311813e-03 -3.418053817749023438e+01 -1.503608465194702148e+00 -2.667788267135620117e+00 -3.546498107910156250e+01 1.051338791847229004e+00 -4.469491481781005859e+00 -3.395569229125976562e+01 2.363383293151855469e+00 -3.207173585891723633e+00 -3.279626464843750000e+01 -6.900103688240051270e-01 -1.796150505542755127e-01 -3.487608337402343750e+01 1.757026076316833496e+00 -6.655244529247283936e-02 -3.313049316406250000e+01 1.344235062599182129e+00 -4.040578007698059082e-01 -3.333780670166015625e+01 9.739599227905273438e-01 1.310577094554901123e-01 -3.367696380615234375e+01 -1.219151139259338379e+00 -4.063905239105224609e+00 -3.558507919311523438e+01 2.273898601531982422e+00 -3.974573850631713867e+00 -3.299701690673828125e+01 2.477576255798339844e+00 -2.414976209402084351e-01 -3.270154953002929688e+01 -2.174517393112182617e+00 -3.134530305862426758e+00 -3.621427154541015625e+01 3.323053717613220215e-01 -4.994600296020507812e+00 -3.469765853881835938e+01 -2.115860939025878906e+00 -1.829327464103698730e+00 -3.598964309692382812e+01 3.286572217941284180e+00 -2.018824100494384766e+00 -3.229209518432617188e+01 3.313359022140502930e+00 -1.524497509002685547e+00 -3.225468063354492188e+01 3.277611017227172852e+00 -8.444127440452575684e-01 -3.227927017211914062e+01 -1.910395860671997070e+00 -4.833392798900604248e-01 -3.590871047973632812e+01 3.213075637817382812e+00 -3.255702733993530273e+00 -3.243098068237304688e+01 -9.970151185989379883e-01 -4.976387500762939453e+00 -3.580301284790039062e+01 2.214181661605834961e+00 -4.763006687164306641e+00 -3.325577163696289062e+01 -1.062493771314620972e-01 6.151779294013977051e-01 -3.467111587524414062e+01 -1.212185382843017578e+00 3.318177461624145508e-01 -3.548756790161132812e+01 3.631261110305786133e+00 -2.557570695877075195e+00 -3.224439239501953125e+01 2.425500392913818359e+00 3.678236007690429688e-01 -3.286015319824218750e+01 -3.108041048049926758e+00 -2.112785100936889648e+00 -3.693589019775390625e+01 1.477892160415649414e+00 7.726042866706848145e-01 -3.350706481933593750e+01 1.255766987800598145e+00 1.260679125785827637e+00 -3.382802963256835938e+01 1.110192775726318359e+00 -5.399610042572021484e+00 -3.434744262695312500e+01 3.817111253738403320e+00 -3.815190792083740234e+00 -3.227729415893554688e+01 3.180051803588867188e+00 -4.593478679656982422e+00 -3.267914199829101562e+01 -3.134989023208618164e+00 -1.018768668174743652e+00 -3.703236770629882812e+01 2.157458543777465820e+00 7.886645197868347168e-01 -3.309869384765625000e+01 3.934498786926269531e+00 -2.987580060958862305e+00 -3.212541580200195312e+01 3.785794496536254883e+00 -1.461315393447875977e+00 -3.218907546997070312e+01 -2.846751213073730469e+00 -4.080604076385498047e+00 -3.701722717285156250e+01 -3.449858665466308594e+00 -3.122216224670410156e+00 -3.731920242309570312e+01 3.070587396621704102e+00 -4.723831638693809509e-02 -3.250384902954101562e+01 -5.527161359786987305e-01 -5.347058773040771484e+00 -3.570393371582031250e+01 -1.921269297599792480e+00 7.040697336196899414e-01 -3.635753631591796875e+01 1.801629066467285156e+00 -5.506481647491455078e+00 -3.388825225830078125e+01 2.732862234115600586e+00 -5.262678623199462891e+00 -3.318524932861328125e+01 -3.959073305130004883e+00 -2.223727226257324219e+00 -3.767591094970703125e+01 3.429260253906250000e-01 1.288056731224060059e+00 -3.458980941772460938e+01 -1.915225863456726074e+00 -5.006565570831298828e+00 -3.662186813354492188e+01 -2.403380393981933594e+00 -1.147203221917152405e-01 -3.653560256958007812e+01 3.921456575393676758e+00 -2.052606582641601562e+00 -3.206359481811523438e+01 -8.192318677902221680e-01 1.202959179878234863e+00 -3.552508926391601562e+01 3.986797809600830078e+00 3.931136056780815125e-02 -3.217433547973632812e+01 3.134261608123779297e+00 3.831298351287841797e-01 -3.248242187500000000e+01 -4.123291015625000000e+00 -1.166643738746643066e+00 -3.789343261718750000e+01 4.210572719573974609e+00 -4.595873355865478516e+00 -3.223777770996093750e+01 3.362773180007934570e+00 -5.549860954284667969e+00 -3.288002395629882812e+01 4.036350250244140625e+00 -1.257538795471191406e+00 -3.207803726196289062e+01 -3.492122173309326172e+00 -1.244438290596008301e-01 -3.758675765991210938e+01 -2.784615993499755859e+00 -5.396100521087646484e+00 -3.746938705444335938e+01 -3.867920160293579102e+00 -4.234994411468505859e+00 -3.790932083129882812e+01 -4.807286262512207031e+00 -2.923379421234130859e+00 -3.848009109497070312e+01 -4.848382472991943359e+00 -1.755057811737060547e+00 -3.851156616210937500e+01 2.785905122756958008e+00 1.250263810157775879e+00 -3.286429595947265625e+01 2.253646612167358398e+00 1.601521492004394531e+00 -3.333858871459960938e+01 -3.104955852031707764e-01 1.616497993469238281e+00 -3.529863739013671875e+01 4.632701873779296875e+00 -5.135638236999511719e+00 -3.211017990112304688e+01 3.653562784194946289e+00 3.912911117076873779e-01 -3.232643890380859375e+01 -5.126923561096191406e+00 -3.801923751831054688e+00 -3.891622924804687500e+01 4.666495800018310547e+00 -3.561745882034301758e+00 -3.199811744689941406e+01 -2.755198240280151367e+00 5.882511734962463379e-01 -3.719199371337890625e+01 4.605104446411132812e+00 -2.466238021850585938e+00 -3.200116729736328125e+01 4.770532131195068359e+00 -1.981108427047729492e+00 -3.196745491027832031e+01 2.493814945220947266e+00 -6.082370281219482422e+00 -3.377978897094726562e+01 4.881570816040039062e+00 -1.287746429443359375e+00 -3.201422500610351562e+01 2.955004215240478516e+00 2.031617403030395508e+00 -3.297092056274414062e+01 3.588338851928710938e+00 1.521377205848693848e+00 -3.244983291625976562e+01 -4.286797523498535156e+00 -4.945646762847900391e+00 -3.851561355590820312e+01 7.141147553920745850e-02 -5.729213714599609375e+00 -3.538796615600585938e+01 3.758397340774536133e+00 -6.054170131683349609e+00 -3.295187377929687500e+01 -5.936893939971923828e+00 -1.781272172927856445e+00 -3.963587951660156250e+01 -1.484062194824218750e+00 1.723609805107116699e+00 -3.656774139404296875e+01 2.314811468124389648e+00 2.293304204940795898e+00 -3.356985855102539062e+01 1.227852702140808105e+00 1.927489161491394043e+00 -3.417502975463867188e+01 3.997087717056274414e+00 1.097376823425292969e+00 -3.230320739746093750e+01 -1.173295259475708008e+00 -5.896337509155273438e+00 -3.650318908691406250e+01 4.298473834991455078e+00 -2.092596888542175293e-01 -3.207749938964843750e+01 -4.811912059783935547e+00 -4.616369605064392090e-01 -3.872525405883789062e+01 -5.929654121398925781e+00 -3.792471170425415039e+00 -3.970312118530273438e+01 -1.592167258262634277e+00 -6.295595645904541016e+00 -3.724356079101562500e+01 -3.436590909957885742e+00 -5.888707637786865234e+00 -3.827164459228515625e+01 1.150764703750610352e+00 -6.354091167449951172e+00 -3.509539413452148438e+01 -6.023853302001953125e+00 -2.614286422729492188e+00 -3.966093444824218750e+01 4.920667171478271484e+00 -5.719185829162597656e+00 -3.213223266601562500e+01 3.129858016967773438e+00 -6.623899459838867188e+00 -3.386586761474609375e+01 5.338451862335205078e+00 -4.542633533477783203e+00 -3.193896865844726562e+01 3.449204206466674805e+00 2.037447214126586914e+00 -3.265983963012695312e+01 -5.238761901855468750e+00 -4.806239604949951172e+00 -3.933379745483398438e+01 -5.689764976501464844e+00 -1.014023661613464355e+00 -3.953847885131835938e+01 2.118679523468017578e+00 -6.545750617980957031e+00 -3.454708099365234375e+01 5.118327140808105469e+00 -5.098477363586425781e+00 -3.213254547119140625e+01 5.388439655303955078e+00 -3.465939998626708984e+00 -3.199002075195312500e+01 3.958552777767181396e-01 2.417679786682128906e+00 -3.530250167846679688e+01 -3.849371671676635742e+00 4.398820400238037109e-01 -3.815459060668945312e+01 4.554568767547607422e+00 -6.290079116821289062e+00 -3.265029525756835938e+01 5.429474353790283203e+00 -2.553186416625976562e+00 -3.203890991210937500e+01 -2.465522289276123047e+00 1.297824740409851074e+00 -3.741810607910156250e+01 -8.197550773620605469e-01 2.045158386230468750e+00 -3.620167160034179688e+01 -6.881705284118652344e+00 -2.218021154403686523e+00 -4.059751510620117188e+01 1.377152800559997559e-01 -6.343826770782470703e+00 -3.592974090576171875e+01 -6.945855140686035156e+00 -3.748937845230102539e+00 -4.074341201782226562e+01 4.536412715911865234e+00 8.780503273010253906e-01 -3.215947723388671875e+01 3.923013687133789062e+00 1.831339836120605469e+00 -3.246039199829101562e+01 4.074562072753906250e+00 2.373757123947143555e+00 -3.250263977050781250e+01 -2.391258001327514648e+00 -6.466464996337890625e+00 -3.793572998046875000e+01 5.505825519561767578e+00 -1.529995918273925781e+00 -3.210481643676757812e+01 4.948602199554443359e+00 4.627153873443603516e-01 -3.221344757080078125e+01 2.095607280731201172e+00 2.770314455032348633e+00 -3.404694366455078125e+01 1.101592302322387695e+00 2.590823888778686523e+00 -3.481358337402343750e+01 -4.134596347808837891e+00 -6.055901527404785156e+00 -3.900422286987304688e+01 -6.391705989837646484e+00 -4.985434532165527344e+00 -4.056711959838867188e+01 6.085273623466491699e-01 -6.660448074340820312e+00 -3.591280746459960938e+01 -1.829992681741714478e-01 -6.685180187225341797e+00 -3.667324066162109375e+01 5.170482635498046875e+00 -3.883311152458190918e-01 -3.217966842651367188e+01 4.593843460083007812e+00 1.873394131660461426e+00 -3.224328994750976562e+01 3.403568744659423828e+00 3.021100997924804688e+00 -3.311318588256835938e+01 -5.525326728820800781e+00 -1.339445007033646107e-03 -3.969128799438476562e+01 -4.876390933990478516e+00 1.933502852916717529e-01 -3.906628036499023438e+01 5.579579830169677734e+00 -5.515888214111328125e+00 -3.211231231689453125e+01 -3.277876377105712891e+00 1.129372715950012207e+00 -3.812351226806640625e+01 -5.266195297241210938e+00 -5.623963356018066406e+00 -3.977096176147460938e+01 -7.567073345184326172e+00 -3.327003479003906250e+00 -4.137176132202148438e+01 5.355508327484130859e+00 -6.108373165130615234e+00 -3.216102981567382812e+01 5.838701725006103516e+00 -4.324645042419433594e+00 -3.200008392333984375e+01 -3.934884071350097656e+00 1.194867968559265137e+00 -3.877294921875000000e+01 -7.447332888841629028e-02 2.521592140197753906e+00 -3.589770507812500000e+01 -8.343985080718994141e-01 -6.396230697631835938e+00 -3.673119354248046875e+01 3.938112258911132812e+00 -7.116966247558593750e+00 -3.383183670043945312e+01 4.077314853668212891e+00 2.970367193222045898e+00 -3.263951873779296875e+01 -6.582041740417480469e+00 -9.666699171066284180e-01 -4.052000808715820312e+01 5.357824325561523438e+00 1.100148916244506836e+00 -3.223870849609375000e+01 4.593902587890625000e+00 2.811995983123779297e+00 -3.237611389160156250e+01 2.921458959579467773e+00 3.130114793777465820e+00 -3.361961364746093750e+01 5.612182140350341797e+00 -6.851496219635009766e+00 -3.238451004028320312e+01 -5.904316902160644531e+00 -5.929441928863525391e+00 -4.061040115356445312e+01 -7.295546054840087891e+00 -4.678702831268310547e+00 -4.138811492919921875e+01 1.142036795616149902e+00 -6.753738403320312500e+00 -3.559255981445312500e+01 -2.021853685379028320e+00 1.992272138595581055e+00 -3.747175598144531250e+01 -4.738117218017578125e+00 1.127970695495605469e+00 -3.955484390258789062e+01 5.840186595916748047e+00 -3.159099102020263672e+00 -3.208913803100585938e+01 -3.281245470046997070e+00 -6.661583423614501953e+00 -3.878376007080078125e+01 1.225456476211547852e+00 3.123340606689453125e+00 -3.532212829589843750e+01 5.870397567749023438e+00 -6.110025644302368164e-01 -3.235934829711914062e+01 7.302318215370178223e-01 2.806895256042480469e+00 -3.545650863647460938e+01 4.787749767303466797e+00 -7.033682346343994141e+00 -3.309057235717773438e+01 1.646296739578247070e+00 -6.951746940612792969e+00 -3.550435256958007812e+01 -4.424358844757080078e+00 -6.897262573242187500e+00 -3.996100997924804688e+01 6.130778789520263672e+00 -4.772827148437500000e+00 -3.205881500244140625e+01 6.551245689392089844e+00 -6.382425308227539062e+00 -3.214807128906250000e+01 5.365077972412109375e+00 -7.181237220764160156e+00 -3.283699798583984375e+01 5.982607364654541016e+00 -5.602488517761230469e+00 -3.205974578857421875e+01 5.311250209808349609e+00 2.012066364288330078e+00 -3.222233581542968750e+01 -8.030294418334960938e+00 -1.802978038787841797e+00 -4.195911026000976562e+01 -6.219638347625732422e+00 1.123554110527038574e-01 -4.053704071044921875e+01 -7.846586227416992188e+00 -4.689485549926757812e+00 -4.193518829345703125e+01 -8.183040022850036621e-01 -6.925186634063720703e+00 -3.741755294799804688e+01 5.703790664672851562e+00 4.235972464084625244e-01 -3.235272598266601562e+01 -7.678731918334960938e+00 -5.083613991737365723e-01 -4.187768554687500000e+01 4.046477794647216797e+00 3.685893297195434570e+00 -3.314068222045898438e+01 4.527912616729736328e+00 3.391242980957031250e+00 -3.254639053344726562e+01 2.253160476684570312e+00 3.476535797119140625e+00 -3.457759094238281250e+01 1.743824124336242676e+00 3.244763851165771484e+00 -3.493126296997070312e+01 -4.900646209716796875e+00 -6.803893089294433594e+00 -4.029739761352539062e+01 -5.556252956390380859e+00 -6.562530994415283203e+00 -4.073732376098632812e+01 6.344099998474121094e+00 -6.829769134521484375e+00 -3.215156555175781250e+01 6.182734012603759766e+00 -2.706192255020141602e+00 -3.235306549072265625e+01 6.047512531280517578e+00 -2.027817487716674805e+00 -3.228318786621093750e+01 2.298470020294189453e+00 -7.011048316955566406e+00 -3.497333908081054688e+01 3.552152395248413086e+00 3.512037754058837891e+00 -3.344832611083984375e+01 6.548437118530273438e+00 -5.377026557922363281e+00 -3.215237808227539062e+01 6.320790767669677734e+00 -3.628587722778320312e+00 -3.221920013427734375e+01 -6.890014171600341797e+00 -6.165771961212158203e+00 -4.165473556518554688e+01 -8.547221183776855469e+00 -3.401099205017089844e+00 -4.260885238647460938e+01 -5.552686691284179688e+00 7.873374223709106445e-01 -4.017211914062500000e+01 3.484334945678710938e+00 -7.113539695739746094e+00 -3.447775268554687500e+01 6.604111671447753906e+00 -5.986681938171386719e+00 -3.219850158691406250e+01 5.440831661224365234e+00 3.745001792907714844e+00 -3.235309982299804688e+01 -5.967007160186767578e+00 8.616201281547546387e-01 -4.069153213500976562e+01 -2.611199855804443359e+00 -7.008665561676025391e+00 -3.871081542968750000e+01 -3.372348546981811523e+00 -7.135212421417236328e+00 -3.940763854980468750e+01 5.999474525451660156e+00 -6.739968806505203247e-02 -3.263460922241210938e+01 -7.094986438751220703e+00 5.221987366676330566e-01 -4.169597244262695312e+01 5.704968452453613281e+00 2.858318567276000977e+00 -3.230497360229492188e+01 3.018532514572143555e+00 -7.246512889862060547e+00 -3.486155319213867188e+01 -3.209116220474243164e+00 1.603152036666870117e+00 -3.853919982910156250e+01 -8.635937690734863281e+00 -5.118253707885742188e+00 -4.302204513549804688e+01 -1.444363594055175781e+00 -7.079307556152343750e+00 -3.802044296264648438e+01 -2.516703605651855469e+00 2.135042428970336914e+00 -3.844833755493164062e+01 5.866838455200195312e+00 -7.481313228607177734e+00 -3.262462997436523438e+01 6.736175417900085449e-01 -7.048094272613525391e+00 -3.642789077758789062e+01 6.069438934326171875e+00 1.400597453117370605e+00 -3.241948318481445312e+01 4.973876953125000000e+00 3.654289484024047852e+00 -3.252566909790039062e+01 4.862135410308837891e+00 4.172639846801757812e+00 -3.279701614379882812e+01 4.294978141784667969e+00 3.786884784698486328e+00 -3.284370422363281250e+01 2.154011838138103485e-02 3.152285099029541016e+00 -3.685876464843750000e+01 6.491858482360839844e+00 -7.565066337585449219e+00 -3.242067718505859375e+01 -7.877359390258789062e+00 -5.901648998260498047e+00 -4.242049026489257812e+01 6.705098152160644531e+00 -4.191294670104980469e+00 -3.232233810424804688e+01 3.093175649642944336e+00 3.782049179077148438e+00 -3.422604751586914062e+01 -5.976114273071289062e-01 2.760027885437011719e+00 -3.694684219360351562e+01 -1.576663613319396973e+00 2.637399435043334961e+00 -3.782775115966796875e+01 -4.120703220367431641e+00 1.686022281646728516e+00 -3.949637222290039062e+01 6.250094413757324219e+00 -1.312597036361694336e+00 -3.247707366943359375e+01 -8.365855216979980469e+00 -7.041600942611694336e-01 -4.262517547607421875e+01 7.032136917114257812e+00 -7.064249992370605469e+00 -3.221163940429687500e+01 4.670104503631591797e+00 -7.527627468109130859e+00 -3.380108261108398438e+01 -5.992220401763916016e+00 -7.240221500396728516e+00 -4.162259292602539062e+01 2.254167556762695312e+00 -7.333848953247070312e+00 -3.560359191894531250e+01 3.557590007781982422e+00 3.996203899383544922e+00 -3.391780853271484375e+01 -8.935720443725585938e+00 -1.555773019790649414e+00 -4.325838088989257812e+01 -2.261655807495117188e+00 -7.349035739898681641e+00 -3.894089508056640625e+01 -3.945219516754150391e+00 -7.463414669036865234e+00 -4.022190093994140625e+01 -5.383821010589599609e+00 1.495600819587707520e+00 -4.064258193969726562e+01 7.542191147804260254e-01 3.351102113723754883e+00 -3.636088562011718750e+01 7.160346984863281250e+00 -5.061309814453125000e+00 -3.243714141845703125e+01 -6.449915409088134766e+00 1.207191109657287598e+00 -4.144526290893554688e+01 5.541004657745361328e+00 -7.657688140869140625e+00 -3.349108886718750000e+01 6.521617412567138672e+00 -3.180973529815673828e+00 -3.242684173583984375e+01 4.321535587310791016e+00 4.327551841735839844e+00 -3.360506439208984375e+01 1.699887394905090332e+00 3.531180620193481445e+00 -3.561190795898437500e+01 -8.973986625671386719e+00 -3.159470558166503906e+00 -4.332720184326171875e+01 4.530616104602813721e-01 -7.279941082000732422e+00 -3.710390090942382812e+01 -3.099559068679809570e+00 -7.634227752685546875e+00 -4.001882171630859375e+01 4.065967082977294922e+00 -7.437759399414062500e+00 -3.440992736816406250e+01 -8.311281204223632812e+00 -6.626965999603271484e+00 -4.312625122070312500e+01 -3.336092233657836914e+00 2.067127943038940430e+00 -3.920557403564453125e+01 -4.179106652736663818e-01 -7.237058639526367188e+00 -3.777337265014648438e+01 -5.009161949157714844e+00 -7.521235466003417969e+00 -4.113579559326171875e+01 6.356544017791748047e+00 -7.960768699645996094e+00 -3.277518844604492188e+01 5.519438266754150391e+00 4.589754581451416016e+00 -3.263077545166015625e+01 -4.912055015563964844e+00 1.928708076477050781e+00 -4.069490814208984375e+01 -7.099248409271240234e+00 -7.113281250000000000e+00 -4.247307205200195312e+01 7.086771488189697266e+00 -6.532465934753417969e+00 -3.234254074096679688e+01 -9.130070686340332031e+00 -4.621826171875000000e+00 -4.394214630126953125e+01 6.328517913818359375e+00 3.594312667846679688e+00 -3.243615341186523438e+01 -7.576679229736328125e+00 -7.501766681671142578e+00 -4.315896987915039062e+01 1.307573556900024414e+00 -7.300428867340087891e+00 -3.645349884033203125e+01 -7.713884830474853516e+00 6.153035163879394531e-01 -4.241608428955078125e+01 -4.518321037292480469e+00 1.900513887405395508e+00 -4.031464385986328125e+01 6.358506202697753906e+00 2.460024833679199219e+00 -3.245301818847656250e+01 6.339138031005859375e+00 -6.260866522789001465e-01 -3.267823028564453125e+01 2.265701293945312500e+00 3.865418672561645508e+00 -3.556201934814453125e+01 -9.429748654365539551e-01 3.034043788909912109e+00 -3.787673950195312500e+01 6.230507850646972656e+00 2.482317537069320679e-01 -3.269467926025390625e+01 3.242317438125610352e+00 -7.476382732391357422e+00 -3.520028305053710938e+01 -9.025481224060058594e+00 -6.308669090270996094e+00 -4.402321243286132812e+01 -8.973497390747070312e+00 -3.346928954124450684e-01 -4.353912734985351562e+01 -9.303798675537109375e+00 -2.806503534317016602e+00 -4.413777160644531250e+01 3.231461524963378906e+00 4.252401828765869141e+00 -3.493856048583984375e+01 -8.282050132751464844e+00 8.256427645683288574e-01 -4.314739227294921875e+01 -4.548377037048339844e+00 -7.556799411773681641e+00 -4.078797531127929688e+01 4.656215667724609375e+00 -7.805524826049804688e+00 -3.469872665405273438e+01 5.277523517608642578e+00 4.595728874206542969e+00 -3.309116363525390625e+01 -8.497395515441894531e-01 -7.527653217315673828e+00 -3.842244338989257812e+01 3.970115661621093750e+00 -7.404818534851074219e+00 -3.500593948364257812e+01 5.055530548095703125e+00 4.826940536499023438e+00 -3.365091323852539062e+01 1.509199619293212891e+00 3.658344268798828125e+00 -3.620865249633789062e+01 -1.673760414123535156e+00 -7.591626167297363281e+00 -3.902536392211914062e+01 -6.012662887573242188e+00 1.808192968368530273e+00 -4.157571029663085938e+01 4.231846332550048828e+00 4.574930667877197266e+00 -3.430545043945312500e+01 5.762251377105712891e+00 4.923738002777099609e+00 -3.275151062011718750e+01 2.934540033340454102e+00 4.064849376678466797e+00 -3.539888763427734375e+01 6.598488807678222656e+00 -2.205405235290527344e-01 -3.303292083740234375e+01 6.588695049285888672e+00 6.649434566497802734e-01 -3.280244827270507812e+01 7.092980861663818359e+00 -4.259056091308593750e+00 -3.248846817016601562e+01 6.731752872467041016e+00 -1.521722197532653809e+00 -3.279993438720703125e+01 -2.140076398849487305e+00 2.707732439041137695e+00 -3.886865615844726562e+01 7.427785873413085938e+00 -8.180819511413574219e+00 -3.257393264770507812e+01 6.458884716033935547e+00 4.248117923736572266e+00 -3.244438552856445312e+01 5.249642848968505859e+00 -7.834105491638183594e+00 -3.396384048461914062e+01 -8.463175773620605469e+00 -7.449148178100585938e+00 -4.378812789916992188e+01 -8.953583717346191406e+00 -7.161531925201416016e+00 -4.423752212524414062e+01 7.332712173461914062e+00 -7.173265457153320312e+00 -3.213896942138671875e+01 5.928670406341552734e+00 -8.105083465576171875e+00 -3.399108123779296875e+01 -9.359774589538574219e+00 -1.766893267631530762e+00 -4.408795166015625000e+01 -2.661869525909423828e+00 -7.773587226867675781e+00 -3.986943435668945312e+01 -6.444835186004638672e+00 -7.684461116790771484e+00 -4.247193145751953125e+01 2.442456007003784180e+00 -7.581706523895263672e+00 -3.613494110107421875e+01 -1.607338637113571167e-01 3.418012857437133789e+00 -3.793016433715820312e+01 -9.191658973693847656e+00 -5.380313873291015625e+00 -4.446117019653320312e+01 7.548900604248046875e+00 -7.801148414611816406e+00 -3.226540756225585938e+01 7.862003803253173828e+00 -7.240877628326416016e+00 -3.234971237182617188e+01 6.749903678894042969e+00 -9.433427453041076660e-01 -3.290906906127929688e+01 7.169243335723876953e+00 -3.565508842468261719e+00 -3.274883270263671875e+01 6.623593330383300781e+00 1.823979258537292480e+00 -3.269016265869140625e+01 6.530290126800537109e+00 4.775726318359375000e+00 -3.245475769042968750e+01 -2.693347215652465820e+00 2.660504579544067383e+00 -3.965404129028320312e+01 -3.689856767654418945e+00 2.324169874191284180e+00 -4.005074691772460938e+01 -7.042568206787109375e+00 1.984959125518798828e+00 -4.274687194824218750e+01 7.518158912658691406e+00 -5.908824443817138672e+00 -3.258679962158203125e+01 6.610918998718261719e+00 -8.218901634216308594e+00 -3.335331726074218750e+01 -7.581812858581542969e+00 1.572094678878784180e+00 -4.291077423095703125e+01 6.676301002502441406e+00 -8.113202095031738281e+00 -3.306688690185546875e+01 6.906178474426269531e+00 3.281827449798583984e+00 -3.267484664916992188e+01 3.212545871734619141e+00 -7.503499031066894531e+00 -3.550425720214843750e+01 6.214848756790161133e-01 -7.609920501708984375e+00 -3.774771499633789062e+01 7.023591518402099609e+00 -2.945443630218505859e+00 -3.272991943359375000e+01 -9.401231765747070312e+00 -3.508068084716796875e+00 -4.478155899047851562e+01 6.868117809295654297e+00 -1.871777176856994629e+00 -3.294364166259765625e+01 6.868696689605712891e+00 2.375334024429321289e+00 -3.279662704467773438e+01 -4.110393524169921875e+00 -7.984350204467773438e+00 -4.108123779296875000e+01 -7.348348617553710938e+00 -8.007276535034179688e+00 -4.347618103027343750e+01 6.674993038177490234e+00 1.324740767478942871e+00 -3.281943511962890625e+01 -3.413135528564453125e+00 -8.017779350280761719e+00 -4.081188201904296875e+01 -5.359535217285156250e+00 -7.853575229644775391e+00 -4.184022903442382812e+01 7.023133277893066406e+00 -2.632488965988159180e+00 -3.300423049926757812e+01 1.583023428916931152e+00 -7.515527248382568359e+00 -3.694186401367187500e+01 1.115814924240112305e+00 -7.739315509796142578e+00 -3.762966156005859375e+01 -9.540536880493164062e+00 -5.695067048072814941e-01 -4.459809494018554688e+01 7.573310852050781250e+00 -6.624604225158691406e+00 -3.262450408935546875e+01 3.255300223827362061e-02 -7.538191795349121094e+00 -3.821997070312500000e+01 4.910528361797332764e-01 3.587911605834960938e+00 -3.753521347045898438e+01 8.064696311950683594e+00 -8.480946540832519531e+00 -3.252527618408203125e+01 -2.159373044967651367e+00 -7.940290927886962891e+00 -4.001385879516601562e+01 7.481380462646484375e+00 -4.955256938934326172e+00 -3.274301147460937500e+01 -8.798569679260253906e+00 -7.984403610229492188e+00 -4.451340484619140625e+01 7.430201053619384766e+00 -8.624021530151367188e+00 -3.292882919311523438e+01 5.446315765380859375e+00 -8.033020019531250000e+00 -3.430929565429687500e+01 -6.218124389648437500e+00 2.338511466979980469e+00 -4.250236511230468750e+01 3.360427141189575195e+00 -7.806266784667968750e+00 -3.583252716064453125e+01 2.703572034835815430e+00 4.116581439971923828e+00 -3.591275024414062500e+01 -1.523246407508850098e+00 3.142497777938842773e+00 -3.886488342285156250e+01 -9.107418060302734375e+00 4.044234752655029297e-01 -4.402746200561523438e+01 6.862875461578369141e+00 3.789937257766723633e+00 -3.270735168457031250e+01 -1.877073645591735840e+00 -7.876527786254882812e+00 -3.970186233520507812e+01 -5.387851238250732422e+00 2.285680770874023438e+00 -4.164799118041992188e+01 7.405337810516357422e+00 -4.366429805755615234e+00 -3.288548660278320312e+01 4.260493278503417969e+00 -7.651433944702148438e+00 -3.552273178100585938e+01 6.035953998565673828e+00 5.420949459075927734e+00 -3.311703491210937500e+01 -1.276443481445312500e+00 -7.747236251831054688e+00 -3.924465560913085938e+01 6.013693809509277344e+00 5.123185634613037109e+00 -3.388243484497070312e+01 -8.996526718139648438e+00 1.358671545982360840e+00 -4.435380172729492188e+01 -8.236070632934570312e+00 1.647732496261596680e+00 -4.374345016479492188e+01 -9.411417007446289062e+00 -4.366094589233398438e+00 -4.528311538696289062e+01 -4.679773449897766113e-01 -7.699617385864257812e+00 -3.870462036132812500e+01 6.702706336975097656e+00 1.496810317039489746e-01 -3.304290008544921875e+01 6.641324520111083984e+00 -1.449802368879318237e-01 -3.327001571655273438e+01 -4.609695434570312500e+00 2.558744907379150391e+00 -4.136119079589843750e+01 -9.276792526245117188e+00 -6.534495830535888672e+00 -4.493642425537109375e+01 -9.513237953186035156e+00 -2.070201873779296875e+00 -4.488592147827148438e+01 -9.275459289550781250e+00 -5.045639991760253906e+00 -4.534800338745117188e+01 3.672816276550292969e+00 4.504924297332763672e+00 -3.544565963745117188e+01 1.683243274688720703e+00 3.816463708877563477e+00 -3.686145019531250000e+01 -4.452210426330566406e+00 -8.269442558288574219e+00 -4.190708541870117188e+01 7.246510982513427734e+00 -3.881537675857543945e+00 -3.284534454345703125e+01 7.147337436676025391e+00 4.901221752166748047e+00 -3.263400650024414062e+01 6.935724735260009766e+00 2.980814456939697266e+00 -3.290200042724609375e+01 -8.050292015075683594e+00 -8.388898849487304688e+00 -4.445422363281250000e+01 6.755278587341308594e+00 5.678457260131835938e+00 -3.269032287597656250e+01 7.870662212371826172e+00 -6.242812633514404297e+00 -3.298337173461914062e+01 -9.340873718261718750e+00 -2.793611764907836914e+00 -4.469086456298828125e+01 7.678617954254150391e+00 -8.062180519104003906e+00 -3.291735458374023438e+01 5.288263797760009766e+00 5.056738376617431641e+00 -3.430380630493164062e+01 -9.463203430175781250e+00 1.685007661581039429e-01 -4.488080978393554688e+01 2.481467247009277344e+00 -7.755095958709716797e+00 -3.684598922729492188e+01 -5.032714843750000000e+00 -8.383254051208496094e+00 -4.247240829467773438e+01 -5.886906147003173828e+00 -8.205526351928710938e+00 -4.278262329101562500e+01 -9.626483321189880371e-01 3.277022361755371094e+00 -3.876433944702148438e+01 7.525003910064697266e+00 -8.263669013977050781e+00 -3.333037567138671875e+01 -2.667305231094360352e+00 -8.024350166320800781e+00 -4.066049957275390625e+01 8.033243179321289062e+00 -7.277541637420654297e+00 -3.303625106811523438e+01 -4.038821697235107422e+00 2.611610174179077148e+00 -4.117642974853515625e+01 7.711190700531005859e+00 -5.651020050048828125e+00 -3.287957382202148438e+01 -9.223254203796386719e+00 -7.979082107543945312e+00 -4.521891784667968750e+01 6.794209957122802734e+00 1.267676472663879395e+00 -3.307146835327148438e+01 -3.854560256004333496e-01 3.456222534179687500e+00 -3.855863571166992188e+01 6.844676971435546875e+00 -6.029213070869445801e-01 -3.324383544921875000e+01 7.000968456268310547e+00 4.223210811614990234e+00 -3.270875549316406250e+01 6.735592365264892578e+00 4.976264536380767822e-01 -3.317495346069335938e+01 -8.787421226501464844e+00 -8.756027221679687500e+00 -4.520455932617187500e+01 7.085625171661376953e+00 -2.079168319702148438e+00 -3.322577285766601562e+01 3.195896863937377930e+00 4.265908241271972656e+00 -3.628981781005859375e+01 -9.327173233032226562e+00 1.031402587890625000e+00 -4.480091857910156250e+01 7.041226387023925781e+00 -1.261124134063720703e+00 -3.324032211303710938e+01 -3.615160465240478516e+00 2.693918228149414062e+00 -4.082007598876953125e+01 7.371633529663085938e+00 -3.200636625289916992e+00 -3.329376602172851562e+01 -6.597479820251464844e+00 -8.353963851928710938e+00 -4.340557479858398438e+01 -9.341167449951171875e+00 -7.428870201110839844e+00 -4.535945129394531250e+01 -1.989648103713989258e+00 3.041707754135131836e+00 -3.954298782348632812e+01 -2.931250810623168945e+00 2.669137716293334961e+00 -4.024264144897460938e+01 6.865075588226318359e+00 2.579926490783691406e+00 -3.306181335449218750e+01 -9.544596672058105469e+00 -1.564033269882202148e+00 -4.549829483032226562e+01 -7.505274295806884766e+00 2.247864246368408203e+00 -4.365906524658203125e+01 6.378678321838378906e+00 -8.151272773742675781e+00 -3.433023834228515625e+01 7.214077472686767578e+00 5.826809883117675781e+00 -3.274423980712890625e+01 4.276837825775146484e+00 4.751269340515136719e+00 -3.536760711669921875e+01 4.749032497406005859e+00 4.901257991790771484e+00 -3.482413482666015625e+01 7.876627445220947266e+00 -7.780348777770996094e+00 -3.319146728515625000e+01 6.547981262207031250e+00 5.791566848754882812e+00 -3.325318145751953125e+01 1.895950913429260254e+00 -7.699314117431640625e+00 -3.757189559936523438e+01 3.466367721557617188e-01 -7.775937080383300781e+00 -3.870211791992187500e+01 -8.566054344177246094e+00 1.995488882064819336e+00 -4.448658370971679688e+01 -1.297285676002502441e+00 -7.981387615203857422e+00 -3.986494064331054688e+01 5.748251914978027344e+00 -7.998094081878662109e+00 -3.475908660888671875e+01 7.738520622253417969e+00 -4.616258621215820312e+00 -3.311148834228515625e+01 -9.166569709777832031e+00 -8.757111549377441406e+00 -4.566150283813476562e+01 8.052676200866699219e+00 -6.876858234405517578e+00 -3.317963027954101562e+01 7.598580837249755859e+00 -3.898215532302856445e+00 -3.327316665649414062e+01 7.291672229766845703e+00 -2.650336503982543945e+00 -3.336515808105468750e+01 4.262182712554931641e+00 -7.732237815856933594e+00 -3.598233795166015625e+01 -7.694655656814575195e-01 -7.823451519012451172e+00 -3.934863662719726562e+01 6.984629154205322266e+00 8.222258687019348145e-01 -3.335573196411132812e+01 6.928407669067382812e+00 2.580885291099548340e-01 -3.334562301635742188e+01 7.166183948516845703e+00 3.928255319595336914e+00 -3.326613998413085938e+01 7.033052444458007812e+00 1.928061604499816895e+00 -3.311395263671875000e+01 -9.336300849914550781e+00 -3.101273536682128906e+00 -4.571800231933593750e+01 -5.459539413452148438e+00 -8.510657310485839844e+00 -4.311308670043945312e+01 1.483029246330261230e+00 3.764934062957763672e+00 -3.769794082641601562e+01 -9.334015846252441406e+00 -5.881978034973144531e+00 -4.595795440673828125e+01 -9.610220909118652344e+00 -4.931093156337738037e-01 -4.516180419921875000e+01 -5.227201938629150391e+00 2.890442371368408203e+00 -4.270174026489257812e+01 7.141489982604980469e+00 1.613257527351379395e+00 -3.340414047241210938e+01 7.270942687988281250e+00 3.535559892654418945e+00 -3.314764785766601562e+01 3.489538908004760742e+00 -7.784513473510742188e+00 -3.660823059082031250e+01 7.156362056732177734e+00 -9.437061548233032227e-01 -3.353276062011718750e+01 -1.817394733428955078e+00 -8.123881340026855469e+00 -4.046124649047851562e+01 7.228212833404541016e+00 2.677453756332397461e+00 -3.335312271118164062e+01 7.161932468414306641e+00 2.219138383865356445e+00 -3.335198211669921875e+01 7.597371578216552734e+00 -8.086300849914550781e+00 -3.356357955932617188e+01 6.565080642700195312e+00 5.487027168273925781e+00 -3.372121429443359375e+01 -2.730411529541015625e+00 2.962675333023071289e+00 -4.108542251586914062e+01 7.131119728088378906e+00 -2.312771379947662354e-01 -3.379505157470703125e+01 -2.210511445999145508e+00 3.124210834503173828e+00 -4.027309799194335938e+01 -3.262118577957153320e+00 -8.288755416870117188e+00 -4.137748336791992188e+01 -7.375848770141601562e+00 -8.659184455871582031e+00 -4.448038864135742188e+01 7.202601432800292969e+00 1.259336709976196289e+00 -3.365135955810546875e+01 7.926570415496826172e+00 -5.296667575836181641e+00 -3.337628173828125000e+01 2.647974967956542969e+00 4.092024326324462891e+00 -3.680963897705078125e+01 -6.227136850357055664e-01 -7.969239711761474609e+00 -3.957145309448242188e+01 -4.506189823150634766e+00 -8.564431190490722656e+00 -4.271643447875976562e+01 7.417410850524902344e+00 -2.373473167419433594e+00 -3.365414810180664062e+01 1.272660344839096069e-01 -7.885376930236816406e+00 -3.919469833374023438e+01 -9.387157440185546875e+00 -3.716845035552978516e+00 -4.570745849609375000e+01 6.762438297271728516e+00 5.242491245269775391e+00 -3.342827987670898438e+01 3.751707553863525391e+00 4.306337833404541016e+00 -3.590477371215820312e+01 5.297235250473022461e-01 3.656958580017089844e+00 -3.869426727294921875e+01 7.193507671356201172e+00 3.203392982482910156e+00 -3.336906814575195312e+01 -6.071150302886962891e+00 -8.768003463745117188e+00 -4.384030532836914062e+01 7.056362152099609375e+00 4.766291618347167969e+00 -3.319764709472656250e+01 -6.774784564971923828e+00 -8.802790641784667969e+00 -4.434108352661132812e+01 7.000405788421630859e+00 -1.981332540512084961e+00 -3.346688079833984375e+01 2.284292697906494141e+00 -7.778314113616943359e+00 -3.769229125976562500e+01 -7.897511959075927734e+00 2.395503759384155273e+00 -4.425458526611328125e+01 -9.541858673095703125e+00 6.640450358390808105e-01 -4.549946975708007812e+01 7.940799713134765625e+00 -5.837179183959960938e+00 -3.378511428833007812e+01 -6.950976371765136719e+00 2.662541389465332031e+00 -4.379642868041992188e+01 -9.439521789550781250e+00 1.902358889579772949e+00 -4.542655944824218750e+01 5.327005863189697266e+00 -7.766789436340332031e+00 -3.564898681640625000e+01 7.395439624786376953e+00 -1.941391706466674805e+00 -3.369260025024414062e+01 -3.471150159835815430e+00 -8.434753417968750000e+00 -4.202095794677734375e+01 -9.477927207946777344e+00 -7.314812660217285156e+00 -4.615825653076171875e+01 7.208879947662353516e+00 4.651751995086669922e+00 -3.337010955810546875e+01 -8.413382530212402344e+00 -9.065182685852050781e+00 -4.562343978881835938e+01 -8.985652923583984375e+00 2.233253479003906250e+00 -4.517124938964843750e+01 -9.562923431396484375e+00 1.466336607933044434e+00 -4.556726837158203125e+01 8.017225265502929688e+00 -6.264188289642333984e+00 -3.358664703369140625e+01 1.443406462669372559e+00 -7.882445812225341797e+00 -3.831089401245117188e+01 -8.136314749717712402e-01 3.420483350753784180e+00 -3.936875534057617188e+01 7.357142925262451172e+00 -7.889419078826904297e+00 -3.407701492309570312e+01 3.177667617797851562e+00 -7.704994201660156250e+00 -3.752267837524414062e+01 1.867040038108825684e+00 3.918329238891601562e+00 -3.733568191528320312e+01 7.378735542297363281e+00 -1.219639658927917480e+00 -3.375293350219726562e+01 -1.571568727493286133e+00 3.346174478530883789e+00 -4.009992218017578125e+01 7.957409381866455078e+00 -7.270567417144775391e+00 -3.368298339843750000e+01 8.001056313514709473e-01 -7.881195545196533203e+00 -3.889492797851562500e+01 -9.298151969909667969e+00 -4.245895385742187500e+00 -4.608310317993164062e+01 -2.400190114974975586e+00 -8.203372001647949219e+00 -4.120685958862304688e+01 -9.306120872497558594e+00 -6.741322994232177734e+00 -4.661995315551757812e+01 -4.103007793426513672e+00 3.023689031600952148e+00 -4.222545242309570312e+01 7.079826354980468750e+00 3.008703291416168213e-01 -3.376093292236328125e+01 6.468467235565185547e+00 -7.814671993255615234e+00 -3.488314819335937500e+01 -7.442366600036621094e+00 -8.945816040039062500e+00 -4.504410171508789062e+01 6.005915641784667969e+00 5.061429023742675781e+00 -3.471319580078125000e+01 -9.375532150268554688e+00 -7.763409137725830078e+00 -4.616183090209960938e+01 7.977251052856445312e+00 -4.474833965301513672e+00 -3.367405319213867188e+01 7.567905426025390625e+00 -3.506525039672851562e+00 -3.393204116821289062e+01 7.637637615203857422e+00 -3.109134197235107422e+00 -3.402278518676757812e+01 -9.115056991577148438e+00 -9.532207489013671875e+00 -4.641145706176757812e+01 1.073710799217224121e+00 3.748387336730957031e+00 -3.830154418945312500e+01 -9.483896255493164062e+00 -1.521625757217407227e+00 -4.605598068237304688e+01 -9.260104179382324219e+00 -2.182241439819335938e+00 -4.633047103881835938e+01 -9.364757537841796875e+00 -9.545420408248901367e-01 -4.603562545776367188e+01 -5.300090312957763672e+00 -8.765793800354003906e+00 -4.365848159790039062e+01 -9.554670333862304688e+00 -4.404152035713195801e-01 -4.615742492675781250e+01 5.158150672912597656e+00 4.849901676177978516e+00 -3.532618713378906250e+01 4.417283058166503906e+00 -7.470810413360595703e+00 -3.693930435180664062e+01 -4.820948600769042969e+00 -8.674313545227050781e+00 -4.321426010131835938e+01 7.317485809326171875e+00 4.023861885070800781e+00 -3.386957931518554688e+01 7.302094459533691406e+00 9.604496955871582031e-01 -3.398537063598632812e+01 -4.615816593170166016e+00 2.978065967559814453e+00 -4.247050857543945312e+01 -6.188083171844482422e+00 2.854857206344604492e+00 -4.368044281005859375e+01 -3.942293822765350342e-01 -7.976479530334472656e+00 -3.993234252929687500e+01 -9.121609687805175781e+00 -8.304565429687500000e+00 -4.629897308349609375e+01 7.473988533020019531e+00 -2.968545854091644287e-01 -3.438406753540039062e+01 6.989689826965332031e+00 4.943214893341064453e+00 -3.403013610839843750e+01 4.857907772064208984e+00 -7.492973327636718750e+00 -3.638270568847656250e+01 -1.467588663101196289e+00 -8.175684928894042969e+00 -4.101115417480468750e+01 7.928349971771240234e+00 -6.832778930664062500e+00 -3.406196212768554688e+01 7.932616233825683594e+00 -5.260420322418212891e+00 -3.426296234130859375e+01 7.270137786865234375e+00 1.607644259929656982e-01 -3.446762084960937500e+01 -9.641169548034667969e+00 6.871718168258666992e-01 -4.660243988037109375e+01 -9.173834800720214844e+00 -5.121149063110351562e+00 -4.644216156005859375e+01 7.577625274658203125e+00 -7.270486354827880859e+00 -3.455757904052734375e+01 -9.652523040771484375e+00 2.529104471206665039e+00 -4.642522048950195312e+01 -3.607183456420898438e+00 -8.554372787475585938e+00 -4.288804244995117188e+01 1.045350313186645508e+00 -7.869689941406250000e+00 -3.935306930541992188e+01 7.343705654144287109e+00 2.654684066772460938e+00 -3.426570510864257812e+01 -3.260444641113281250e+00 3.066724777221679688e+00 -4.197839736938476562e+01 -9.655790328979492188e+00 1.494575500488281250e+00 -4.687586975097656250e+01 -9.068740844726562500e+00 -3.601789474487304688e+00 -4.667216110229492188e+01 2.462093353271484375e+00 -7.727538108825683594e+00 -3.848723983764648438e+01 6.721236705780029297e+00 5.085669994354248047e+00 -3.447682189941406250e+01 7.643542766571044922e+00 -2.402309656143188477e+00 -3.422080993652343750e+01 7.502213478088378906e+00 -1.105384469032287598e+00 -3.442743301391601562e+01 3.963215589523315430e+00 -7.401472091674804688e+00 -3.741204452514648438e+01 -8.153336524963378906e+00 2.959189891815185547e+00 -4.555327987670898438e+01 -9.210149765014648438e+00 2.641545057296752930e+00 -4.596076583862304688e+01 7.363968849182128906e+00 5.417910814285278320e-01 -3.437638092041015625e+01 4.100746631622314453e+00 4.256530284881591797e+00 -3.641551589965820312e+01 -7.259902954101562500e+00 2.982581615447998047e+00 -4.473860549926757812e+01 2.415268421173095703e-01 -7.952699661254882812e+00 -3.992340850830078125e+01 -5.796100139617919922e+00 -8.900265693664550781e+00 -4.443584060668945312e+01 -8.994525909423828125e+00 -8.799264907836914062e+00 -4.672296142578125000e+01 -8.938424110412597656e+00 -4.433024406433105469e+00 -4.659735870361328125e+01 7.679988384246826172e+00 -3.407404184341430664e+00 -3.478034591674804688e+01 -6.797530174255371094e+00 -9.030121803283691406e+00 -4.500240707397460938e+01 2.581269741058349609e+00 3.988545179367065430e+00 -3.756326675415039062e+01 3.299542188644409180e+00 -7.488575935363769531e+00 -3.808933258056640625e+01 3.033991754055023193e-01 3.567940473556518555e+00 -3.923199462890625000e+01 -4.589082300662994385e-01 -8.018033981323242188e+00 -4.047917175292968750e+01 -3.979173183441162109e+00 -8.600597381591796875e+00 -4.341658401489257812e+01 6.272275447845458984e+00 -7.246911525726318359e+00 -3.589502716064453125e+01 3.241975545883178711e+00 4.090646743774414062e+00 -3.714035034179687500e+01 -9.287621498107910156e+00 -3.001658916473388672e+00 -4.636334991455078125e+01 7.900649547576904297e+00 -4.148826599121093750e+00 -3.438166427612304688e+01 -9.150707244873046875e+00 -1.871298074722290039e+00 -4.684389114379882812e+01 -2.472243070602416992e+00 -8.320091247558593750e+00 -4.197871780395507812e+01 -6.589922428131103516e+00 2.985800743103027344e+00 -4.426616668701171875e+01 -7.718249797821044922e+00 -9.226840019226074219e+00 -4.581129837036132812e+01 -9.228441238403320312e+00 -5.962521076202392578e+00 -4.664025115966796875e+01 7.412406444549560547e+00 1.300392866134643555e+00 -3.467335128784179688e+01 5.536184310913085938e+00 4.471600055694580078e+00 -3.589952468872070312e+01 4.636648654937744141e+00 4.214874744415283203e+00 -3.665986633300781250e+01 5.420091629028320312e+00 -7.418900966644287109e+00 -3.637231826782226562e+01 -9.162150382995605469e+00 -1.361168980598449707e+00 -4.653984069824218750e+01 -8.527692794799804688e+00 -9.375325202941894531e+00 -4.642042160034179688e+01 -1.012132740020751953e+01 -9.886503219604492188e+00 -4.707466506958007812e+01 -9.734328269958496094e+00 -9.969365119934082031e+00 -4.706786346435546875e+01 -9.097792625427246094e+00 -9.623695373535156250e+00 -4.702683258056640625e+01 -9.712790489196777344e+00 1.793926358222961426e+00 -4.716042327880859375e+01 -9.478931427001953125e+00 -8.141710281372070312e+00 -4.688274383544921875e+01 -1.383672237396240234e+00 3.308327436447143555e+00 -4.102812957763671875e+01 -9.360511779785156250e+00 -9.341082572937011719e+00 -4.684830856323242188e+01 -8.615234375000000000e+00 2.728974819183349609e+00 -4.572023391723632812e+01 -9.464348793029785156e+00 -8.945824623107910156e+00 -4.730615234375000000e+01 -9.837202072143554688e+00 -9.327372550964355469e+00 -4.736653900146484375e+01 7.693053722381591797e+00 -6.491208553314208984e+00 -3.483123397827148438e+01 6.937280178070068359e+00 4.656833171844482422e+00 -3.464612197875976562e+01 1.895197391510009766e+00 3.740689039230346680e+00 -3.838942337036132812e+01 7.328486442565917969e+00 -6.682877540588378906e+00 -3.534991073608398438e+01 6.825938224792480469e+00 -6.962404251098632812e+00 -3.570949172973632812e+01 -2.311210185289382935e-01 3.410547971725463867e+00 -3.986835861206054688e+01 -8.927350997924804688e+00 -5.090318202972412109e+00 -4.715454101562500000e+01 -5.454056262969970703e+00 3.050490379333496094e+00 -4.378515243530273438e+01 -9.482969284057617188e+00 -2.532270252704620361e-01 -4.674641418457031250e+01 7.216598033905029297e+00 3.565974712371826172e+00 -3.471030044555664062e+01 -9.109943389892578125e+00 -7.466350078582763672e+00 -4.727057647705078125e+01 -4.133533954620361328e+00 3.148481607437133789e+00 -4.323959350585937500e+01 -5.772997856140136719e+00 -8.946450233459472656e+00 -4.496946716308593750e+01 -6.827307701110839844e+00 -9.157427787780761719e+00 -4.570870590209960938e+01 -2.141126871109008789e+00 -8.219058036804199219e+00 -4.247209930419921875e+01 -9.326200485229492188e+00 -8.745448589324951172e-01 -4.669990921020507812e+01 5.618669033050537109e+00 -7.009095191955566406e+00 -3.689812469482421875e+01 3.697109937667846680e+00 3.902209758758544922e+00 -3.763586807250976562e+01 1.283583045005798340e+00 3.575251340866088867e+00 -3.913217544555664062e+01 -2.264715909957885742e+00 3.097598791122436523e+00 -4.188845062255859375e+01 -9.026657104492187500e+00 -2.341626405715942383e+00 -4.699217605590820312e+01 -9.541178703308105469e+00 6.164610385894775391e-01 -4.711753082275390625e+01 -5.078477859497070312e-01 3.405119895935058594e+00 -4.049289321899414062e+01 7.670862197875976562e+00 -5.093050003051757812e+00 -3.561928939819335938e+01 7.723011970520019531e+00 -2.823353290557861328e+00 -3.524607086181640625e+01 7.611058235168457031e+00 -1.519163012504577637e+00 -3.500848007202148438e+01 -8.943539619445800781e+00 2.890856981277465820e+00 -4.652288436889648438e+01 -5.175032615661621094e-01 -7.982119083404541016e+00 -4.127239227294921875e+01 -4.673805236816406250e+00 -8.740406036376953125e+00 -4.422631454467773438e+01 -9.419221878051757812e+00 -8.181921005249023438e+00 -4.728075408935546875e+01 -9.322399139404296875e+00 -9.473390579223632812e+00 -4.734215164184570312e+01 6.335008621215820312e+00 4.231584548950195312e+00 -3.556544113159179688e+01 -7.019158363342285156e+00 -9.264796257019042969e+00 -4.615190124511718750e+01 -8.957685470581054688e+00 -5.841219425201416016e+00 -4.723571777343750000e+01 7.623825550079345703e+00 -6.856197118759155273e-01 -3.524776458740234375e+01 -9.634111404418945312e+00 2.932103633880615234e+00 -4.717821121215820312e+01 1.484837770462036133e+00 -7.654494285583496094e+00 -4.010050582885742188e+01 2.724526405334472656e+00 -7.489395618438720703e+00 -3.900914001464843750e+01 2.787892222404479980e-01 -7.861159324645996094e+00 -4.062779235839843750e+01 3.103729963302612305e+00 3.884773015975952148e+00 -3.793261337280273438e+01 6.866798877716064453e+00 3.794262886047363281e+00 -3.544129180908203125e+01 -6.124193191528320312e+00 -9.000838279724121094e+00 -4.561233139038085938e+01 -7.610666751861572266e+00 -9.374012947082519531e+00 -4.645883178710937500e+01 -9.063262939453125000e+00 -6.536026000976562500e+00 -4.725002670288085938e+01 7.649909973144531250e+00 -4.535133838653564453e+00 -3.532132339477539062e+01 4.103867113590240479e-01 3.392082452774047852e+00 -4.012532424926757812e+01 -7.852973937988281250e+00 -9.198109626770019531e+00 -4.676325225830078125e+01 -9.308897972106933594e+00 -1.060556471347808838e-01 -4.692956161499023438e+01 7.317576885223388672e+00 1.794374704360961914e+00 -3.529364776611328125e+01 -8.823806762695312500e+00 -3.277722120285034180e+00 -4.723665237426757812e+01 -7.019954681396484375e+00 3.194777011871337891e+00 -4.541189956665039062e+01 4.552289485931396484e+00 -6.893911838531494141e+00 -3.793392944335937500e+01 7.480518341064453125e+00 -6.092877864837646484e+00 -3.546788406372070312e+01 7.498960494995117188e+00 -1.976158022880554199e-01 -3.527467346191406250e+01 2.401999950408935547e+00 3.715503692626953125e+00 -3.852532577514648438e+01 -5.401862144470214844e+00 3.106867074966430664e+00 -4.449923324584960938e+01 -8.640372276306152344e+00 3.275872468948364258e+00 -4.679149627685546875e+01 4.287627220153808594e+00 3.856631040573120117e+00 -3.735720443725585938e+01 -3.515255212783813477e+00 3.106337070465087891e+00 -4.289889144897460938e+01 7.585804462432861328e+00 -5.560421943664550781e+00 -3.539254379272460938e+01 -8.298715353012084961e-01 -7.855518817901611328e+00 -4.206858062744140625e+01 -3.197650671005249023e+00 -8.368553161621093750e+00 -4.365497207641601562e+01 -8.819766998291015625e+00 -9.246562957763671875e+00 -4.739049530029296875e+01 -9.121574401855468750e+00 -9.135497808456420898e-01 -4.719096374511718750e+01 -9.242095947265625000e+00 -3.244387507438659668e-01 -4.722612380981445312e+01 7.099538803100585938e+00 2.214680910110473633e+00 -3.577865982055664062e+01 8.265128731727600098e-02 3.237233877182006836e+00 -4.068730545043945312e+01 7.495601177215576172e+00 2.954424619674682617e-01 -3.547303390502929688e+01 -2.831424474716186523e+00 3.122377395629882812e+00 -4.284162139892578125e+01 -8.749115943908691406e+00 -8.849687576293945312e+00 -4.756720352172851562e+01 -6.365192890167236328e+00 -8.998614311218261719e+00 -4.604098892211914062e+01 -8.787495613098144531e+00 -8.010257720947265625e+00 -4.756131362915039062e+01 -8.634401321411132812e+00 -4.511920452117919922e+00 -4.719257354736328125e+01 -9.458195686340332031e+00 2.616694450378417969e+00 -4.761193084716796875e+01 -5.061096191406250000e+00 -8.663722038269042969e+00 -4.532468795776367188e+01 -4.645176410675048828e+00 -8.632055282592773438e+00 -4.481258392333984375e+01 4.912303924560546875e+00 3.967572927474975586e+00 -3.703883361816406250e+01 -9.321644783020019531e+00 1.025234818458557129e+00 -4.766917037963867188e+01 5.744331836700439453e+00 3.860914945602416992e+00 -3.657739257812500000e+01 2.026006460189819336e+00 3.355016708374023438e+00 -3.937223052978515625e+01 6.925744056701660156e+00 -6.189312458038330078e+00 -3.625350570678710938e+01 6.816134452819824219e+00 2.962632894515991211e+00 -3.607590484619140625e+01 7.544363975524902344e+00 -3.733097076416015625e+00 -3.598352813720703125e+01 -8.020599365234375000e+00 3.250318050384521484e+00 -4.635188674926757812e+01 -5.790181159973144531e+00 3.136553287506103516e+00 -4.522280502319335938e+01 -8.732020378112792969e+00 -2.403540849685668945e+00 -4.738212966918945312e+01 -8.920450210571289062e+00 -7.464604377746582031e-01 -4.759585189819335938e+01 -8.419253349304199219e+00 -9.293187141418457031e+00 -4.751747131347656250e+01 -9.218471527099609375e+00 2.555922567844390869e-01 -4.752003097534179688e+01 -8.647648811340332031e+00 -6.572065353393554688e+00 -4.752678680419921875e+01 8.847581744194030762e-01 3.232369422912597656e+00 -4.022495651245117188e+01 -1.480737090110778809e+00 3.059466838836669922e+00 -4.218057250976562500e+01 3.848622560501098633e+00 -6.941692829132080078e+00 -3.876261138916015625e+01 -9.639604568481445312e+00 2.298668146133422852e+00 -4.777855682373046875e+01 -2.220671415328979492e+00 -8.029417037963867188e+00 -4.342533874511718750e+01 -1.257454037666320801e+00 -7.862627029418945312e+00 -4.261072921752929688e+01 -8.140867233276367188e+00 -9.152402877807617188e+00 -4.717433929443359375e+01 -4.510130882263183594e+00 2.987560510635375977e+00 -4.433281326293945312e+01 -9.137287139892578125e+00 -1.722282916307449341e-01 -4.767515563964843750e+01 -7.563190937042236328e+00 3.276866197586059570e+00 -4.643353652954101562e+01 -9.532701492309570312e+00 3.057256221771240234e+00 -4.767256927490234375e+01 7.292555809020996094e+00 -5.566202163696289062e+00 -3.615977096557617188e+01 7.529672622680664062e+00 -1.583635807037353516e+00 -3.603055191040039062e+01 3.958975315093994141e+00 3.506428718566894531e+00 -3.822166824340820312e+01 -8.262828826904296875e+00 -5.429759025573730469e+00 -4.769963073730468750e+01 2.950799942016601562e+00 3.500640630722045898e+00 -3.881849288940429688e+01 -9.167827606201171875e+00 3.316501617431640625e+00 -4.769928741455078125e+01 -3.601290702819824219e+00 2.989551067352294922e+00 -4.374142837524414062e+01 6.339697360992431641e+00 -6.214676856994628906e+00 -3.695693969726562500e+01 4.718253910541534424e-01 -7.535885334014892578e+00 -4.154618072509765625e+01 -3.603236675262451172e-01 3.193227291107177734e+00 -4.118637847900390625e+01 -7.364133358001708984e+00 -8.852395057678222656e+00 -4.721041488647460938e+01 -8.697079658508300781e+00 -1.560858130455017090e+00 -4.734637832641601562e+01 -8.288684844970703125e+00 -4.731926918029785156e+00 -4.756387329101562500e+01 -9.428269386291503906e+00 1.472285389900207520e+00 -4.804149246215820312e+01 1.602922797203063965e+00 -7.446618556976318359e+00 -4.061751174926757812e+01 -5.851610660552978516e+00 3.096067190170288086e+00 -4.567061996459960938e+01 -8.176993370056152344e+00 -3.691271543502807617e+00 -4.758483123779296875e+01 -2.189726114273071289e+00 3.030253171920776367e+00 -4.270406723022460938e+01 -3.676992177963256836e+00 -8.231925010681152344e+00 -4.479923248291015625e+01 5.402880668640136719e+00 -6.402398109436035156e+00 -3.770866012573242188e+01 1.488642215728759766e+00 3.095573663711547852e+00 -4.033429718017578125e+01 -3.127131223678588867e+00 2.982768535614013672e+00 -4.352202606201171875e+01 2.147010326385498047e+00 2.934004783630371094e+00 -4.007596969604492188e+01 -6.544795513153076172e+00 3.206582784652709961e+00 -4.582062149047851562e+01 -8.354813575744628906e+00 -6.947639942169189453e+00 -4.777761077880859375e+01 2.976101636886596680e+00 -7.067258834838867188e+00 -3.958888244628906250e+01 7.095581531524658203e+00 4.551352560520172119e-01 -3.670519638061523438e+01 4.910399913787841797e+00 -6.025827407836914062e+00 -3.874860763549804688e+01 -8.359696388244628906e+00 3.326282262802124023e+00 -4.718463516235351562e+01 -8.254129409790039062e+00 -7.577539443969726562e+00 -4.780654144287109375e+01 7.038261890411376953e+00 -4.533775806427001953e+00 -3.688456726074218750e+01 -5.017881870269775391e+00 2.958029270172119141e+00 -4.521617889404296875e+01 -8.208719253540039062e+00 -1.765992999076843262e+00 -4.755076980590820312e+01 -6.472963690757751465e-01 3.018935918807983398e+00 -4.186210250854492188e+01 6.745246410369873047e+00 -5.676236629486083984e+00 -3.696952819824218750e+01 -9.233389854431152344e+00 9.270094037055969238e-01 -4.792720413208007812e+01 -7.814985275268554688e+00 -7.878340244293212891e+00 -4.775803375244140625e+01 7.296301841735839844e+00 -4.651971459388732910e-01 -3.659937286376953125e+01 -7.917402267456054688e+00 -8.660039901733398438e+00 -4.778624725341796875e+01 -9.644399642944335938e+00 2.675601959228515625e+00 -4.830252075195312500e+01 -9.548102378845214844e+00 3.381809473037719727e+00 -4.815713500976562500e+01 6.202825069427490234e+00 2.964297771453857422e+00 -3.695423126220703125e+01 6.994095325469970703e+00 -5.107235908508300781e+00 -3.700899124145507812e+01 4.857702732086181641e+00 3.146960258483886719e+00 -3.796841812133789062e+01 -8.083248138427734375e+00 -5.981279850006103516e+00 -4.786495590209960938e+01 -4.588049411773681641e+00 2.886740684509277344e+00 -4.514995193481445312e+01 -8.444672584533691406e+00 -2.370996475219726562e+00 -4.756336975097656250e+01 -5.535293102264404297e+00 -8.527383804321289062e+00 -4.616061401367187500e+01 5.729195594787597656e+00 2.808467626571655273e+00 -3.761443328857421875e+01 8.798733353614807129e-01 3.037558794021606445e+00 -4.082123565673828125e+01 -2.464523315429687500e+00 -7.853644371032714844e+00 -4.415053558349609375e+01 7.344374179840087891e+00 -3.410744190216064453e+00 -3.660535812377929688e+01 1.902862042188644409e-01 2.867779493331909180e+00 -4.163731002807617188e+01 -2.488394454121589661e-02 -7.305313587188720703e+00 -4.255554580688476562e+01 -8.428140640258789062e+00 -1.123150706291198730e+00 -4.793519210815429688e+01 -8.979323387145996094e+00 4.571906030178070068e-01 -4.794149398803710938e+01 5.748757839202880859e+00 -5.849139690399169922e+00 -3.783523178100585938e+01 2.288289308547973633e+00 -6.972622871398925781e+00 -4.064779281616210938e+01 -9.855293273925781250e+00 3.489719152450561523e+00 -4.823657989501953125e+01 -8.573575973510742188e+00 -2.380721569061279297e-01 -4.804374694824218750e+01 -6.896299839019775391e+00 3.143189430236816406e+00 -4.654767608642578125e+01 -8.130156517028808594e+00 -2.744522094726562500e+00 -4.784313964843750000e+01 6.609264850616455078e+00 2.086154460906982422e+00 -3.692646026611328125e+01 7.275338172912597656e+00 -1.809230566024780273e+00 -3.679793167114257812e+01 3.285316228866577148e+00 3.010608911514282227e+00 -3.930698394775390625e+01 -6.312386989593505859e+00 -8.369004249572753906e+00 -4.713620758056640625e+01 4.063086986541748047e+00 -6.162744998931884766e+00 -3.956892395019531250e+01 6.523724079132080078e+00 1.489091515541076660e+00 -3.741036224365234375e+01 -2.641999006271362305e+00 2.780935287475585938e+00 -4.392681121826171875e+01 -3.937510490417480469e+00 2.747089624404907227e+00 -4.480897903442382812e+01 -8.229446411132812500e+00 3.178378582000732422e+00 -4.747938537597656250e+01 -9.241804122924804688e+00 1.960582852363586426e+00 -4.832976531982421875e+01 6.141384124755859375e+00 -5.693307399749755859e+00 -3.782825088500976562e+01 1.231496572494506836e+00 -7.065665245056152344e+00 -4.165758132934570312e+01 -7.989073276519775391e+00 -4.442626476287841797e+00 -4.773914718627929688e+01 -2.866184711456298828e+00 -7.802754402160644531e+00 -4.474778747558593750e+01 -7.867778778076171875e+00 -2.009186744689941406e+00 -4.785371780395507812e+01 -7.827014446258544922e+00 -6.793157100677490234e+00 -4.791656875610351562e+01 -1.244552135467529297e+00 -7.535602569580078125e+00 -4.332019805908203125e+01 6.600316524505615234e+00 -4.593206882476806641e+00 -3.754347610473632812e+01 -7.350538253784179688e+00 3.088695049285888672e+00 -4.711016082763671875e+01 -9.310762405395507812e+00 3.106123924255371094e+00 -4.842367553710937500e+01 5.104786872863769531e+00 2.661315917968750000e+00 -3.826039886474609375e+01 -6.146587371826171875e+00 2.949833869934082031e+00 -4.631765747070312500e+01 -7.594811916351318359e+00 -3.612499237060546875e+00 -4.788386535644531250e+01 -2.024647951126098633e+00 2.754984140396118164e+00 -4.351676559448242188e+01 -8.950211524963378906e+00 1.324146866798400879e+00 -4.833674240112304688e+01 -9.667459487915039062e+00 3.129787445068359375e+00 -4.860829925537109375e+01 -7.101446628570556641e+00 -8.124087333679199219e+00 -4.781207275390625000e+01 -1.155928850173950195e+00 2.725330591201782227e+00 -4.299240493774414062e+01 -3.329440832138061523e+00 2.623599290847778320e+00 -4.445073699951171875e+01 -8.267148971557617188e+00 -7.780012488365173340e-01 -4.803438949584960938e+01 -9.681677818298339844e+00 3.821658134460449219e+00 -4.872232055664062500e+01 6.823005199432373047e+00 -3.208399772644042969e+00 -3.757729721069335938e+01 -2.597382366657257080e-01 2.662454366683959961e+00 -4.245943832397460938e+01 -8.713613510131835938e+00 2.475084304809570312e+00 -4.837358093261718750e+01 -4.262141227722167969e+00 -7.759500026702880859e+00 -4.618309783935546875e+01 -7.700725555419921875e+00 -4.225203514099121094e+00 -4.801132583618164062e+01 -8.610064506530761719e+00 2.884577512741088867e+00 -4.808012008666992188e+01 -7.364248275756835938e+00 -6.271755218505859375e+00 -4.809930801391601562e+01 -6.794403553009033203e+00 -8.150668144226074219e+00 -4.765260314941406250e+01 -7.570912361145019531e+00 -4.958266258239746094e+00 -4.802365875244140625e+01 -9.672893524169921875e+00 3.511290788650512695e+00 -4.895854568481445312e+01 -7.949950218200683594e+00 -1.591169118881225586e+00 -4.804119110107421875e+01 -8.784433364868164062e+00 2.062785863876342773e+00 -4.850129318237304688e+01 -9.120979309082031250e+00 2.714963912963867188e+00 -4.855979919433593750e+01 4.951658248901367188e+00 -5.889458656311035156e+00 -3.914398956298828125e+01 -5.191009521484375000e+00 -7.883973121643066406e+00 -4.683840179443359375e+01 5.946632862091064453e+00 -4.821875095367431641e+00 -3.820082092285156250e+01 -8.412862777709960938e+00 1.010352611541748047e+00 -4.843793487548828125e+01 -6.990083694458007812e+00 -7.078191280364990234e+00 -4.789628601074218750e+01 6.929439544677734375e+00 -1.421378135681152344e+00 -3.746319580078125000e+01 5.674059867858886719e+00 -5.414413452148437500e+00 -3.853544616699218750e+01 4.802199363708496094e+00 2.173124313354492188e+00 -3.894841766357421875e+01 3.670037746429443359e+00 2.362147808074951172e+00 -3.975770187377929688e+01 2.845579862594604492e+00 2.568640708923339844e+00 -4.015303421020507812e+01 6.693525791168212891e+00 1.877468973398208618e-01 -3.758527374267578125e+01 -5.259094238281250000e+00 2.758862733840942383e+00 -4.594608306884765625e+01 -7.239871501922607422e+00 -2.507073879241943359e+00 -4.812424468994140625e+01 5.624218940734863281e+00 1.979976415634155273e+00 -3.831683731079101562e+01 -6.807536602020263672e+00 2.804678440093994141e+00 -4.735904693603515625e+01 -7.539181232452392578e+00 2.621264457702636719e+00 -4.792984008789062500e+01 2.769775629043579102e+00 -6.261672019958496094e+00 -4.085779190063476562e+01 1.437198877334594727e+00 2.391401529312133789e+00 -4.152172851562500000e+01 -3.499539136886596680e+00 -7.491904258728027344e+00 -4.577246093750000000e+01 -8.316112518310546875e+00 1.926417797803878784e-01 -4.828392791748046875e+01 -7.849282741546630859e+00 -1.160232543945312500e+00 -4.817584609985351562e+01 6.362312793731689453e+00 -4.004355907440185547e+00 -3.805716323852539062e+01 -9.286656379699707031e-01 -7.069858074188232422e+00 -4.361568832397460938e+01 -8.594851493835449219e+00 2.734300613403320312e+00 -4.861368942260742188e+01 3.389494895935058594e+00 -6.138363361358642578e+00 -4.066180801391601562e+01 1.061621189117431641e+00 -6.534213542938232422e+00 -4.260478973388671875e+01 6.337397575378417969e+00 -3.100896835327148438e+00 -3.833280563354492188e+01 -7.960316658020019531e+00 -2.805234193801879883e-01 -4.828128814697265625e+01 -6.540715694427490234e+00 -7.258697509765625000e+00 -4.767834091186523438e+01 5.157376766204833984e+00 -5.414432525634765625e+00 -3.927876663208007812e+01 2.538248538970947266e+00 2.258269786834716797e+00 -4.072911834716796875e+01 -1.544714689254760742e+00 -6.737460613250732422e+00 -4.476393508911132812e+01 -5.799892425537109375e+00 -7.768577575683593750e+00 -4.745919418334960938e+01 -5.951559543609619141e+00 2.475336790084838867e+00 -4.716189956665039062e+01 -6.805344581604003906e+00 -5.575752735137939453e+00 -4.806377029418945312e+01 6.235412597656250000e+00 3.614386320114135742e-01 -3.831450271606445312e+01 6.493855476379394531e+00 -2.073164939880371094e+00 -3.817573547363281250e+01 -4.308631420135498047e+00 2.388921737670898438e+00 -4.592854309082031250e+01 -4.837401866912841797e+00 2.585837841033935547e+00 -4.600114440917968750e+01 -7.325376033782958984e+00 -1.899134516716003418e+00 -4.826078033447265625e+01 5.197263717651367188e+00 -4.782148838043212891e+00 -3.929150772094726562e+01 5.455671787261962891e+00 -4.053305625915527344e+00 -3.929185867309570312e+01 -7.015055656433105469e+00 -4.126045227050781250e+00 -4.817070388793945312e+01 -3.534541130065917969e+00 2.411997556686401367e+00 -4.528622817993164062e+01 5.895925521850585938e+00 -3.753093242645263672e+00 -3.879106903076171875e+01 6.409628391265869141e+00 -1.257542133331298828e+00 -3.832900619506835938e+01 4.098395347595214844e+00 -5.674430847167968750e+00 -4.024320602416992188e+01 -5.782882690429687500e+00 -7.304973125457763672e+00 -4.755541229248046875e+01 -1.424451947212219238e+00 2.407057046890258789e+00 -4.380035018920898438e+01 -1.955091953277587891e+00 2.262635231018066406e+00 -4.433804321289062500e+01 -2.383292913436889648e+00 -6.895216464996337891e+00 -4.547370910644531250e+01 -6.688588142395019531e+00 -3.049349308013916016e+00 -4.812599563598632812e+01 -7.076503634452819824e-01 -6.553348541259765625e+00 -4.390554809570312500e+01 -6.073035717010498047e+00 -6.221897602081298828e+00 -4.778813171386718750e+01 -8.171825408935546875e+00 1.501936316490173340e+00 -4.865163040161132812e+01 5.449616432189941406e+00 9.549818038940429688e-01 -3.899835205078125000e+01 9.336635470390319824e-01 1.961581587791442871e+00 -4.239522171020507812e+01 -2.552298545837402344e+00 2.020408868789672852e+00 -4.484426116943359375e+01 -5.323414325714111328e+00 2.349256992340087891e+00 -4.683412933349609375e+01 4.359480381011962891e+00 1.544109225273132324e+00 -3.980710601806640625e+01 2.525948762893676758e+00 -6.326708793640136719e+00 -4.153949737548828125e+01 -4.188457489013671875e+00 -7.100663661956787109e+00 -4.682722091674804688e+01 -7.765686988830566406e+00 1.131413221359252930e+00 -4.868570327758789062e+01 -7.895171642303466797e+00 1.821121931076049805e+00 -4.842006683349609375e+01 -7.867509365081787109e+00 2.335030317306518555e+00 -4.853205490112304688e+01 5.783548355102539062e+00 -2.010235548019409180e+00 -3.919248199462890625e+01 -7.339717864990234375e+00 -1.005812406539916992e+00 -4.836803436279296875e+01 4.847226619720458984e+00 -4.421192646026611328e+00 -3.989162063598632812e+01 5.903941154479980469e+00 -6.021222472190856934e-01 -3.893903350830078125e+01 3.647040128707885742e+00 -5.352522373199462891e+00 -4.069857406616210938e+01 5.725232124328613281e+00 -2.992770671844482422e+00 -3.914176940917968750e+01 -7.527908325195312500e+00 2.569787204265594482e-01 -4.850953674316406250e+01 -4.385388791561126709e-01 2.084311246871948242e+00 -4.352892303466796875e+01 3.181720972061157227e+00 1.677870750427246094e+00 -4.076991653442382812e+01 2.476810216903686523e+00 1.545434951782226562e+00 -4.140434646606445312e+01 -6.861836910247802734e+00 2.410237550735473633e+00 -4.793732070922851562e+01 -7.424236297607421875e+00 2.586356163024902344e+00 -4.824959564208984375e+01 4.586833477020263672e+00 1.184862852096557617e+00 -3.980727767944335938e+01 1.093577384948730469e+00 -6.472759246826171875e+00 -4.296838760375976562e+01 -5.028722763061523438e+00 -6.696984291076660156e+00 -4.766708374023437500e+01 2.156288862228393555e+00 -5.872803688049316406e+00 -4.220834350585937500e+01 -4.628155708312988281e+00 -7.035622119903564453e+00 -4.730624008178710938e+01 -6.384650230407714844e+00 -4.944264888763427734e+00 -4.812312316894531250e+01 -5.923416137695312500e+00 -5.385825634002685547e+00 -4.798978424072265625e+01 -6.906523227691650391e+00 -5.882796831429004669e-03 -4.852935409545898438e+01 -6.255491733551025391e+00 -3.933911323547363281e+00 -4.820023727416992188e+01 2.963286876678466797e+00 -5.296250820159912109e+00 -4.130789566040039062e+01 1.766547322273254395e+00 1.229183554649353027e+00 -4.231370544433593750e+01 5.252211570739746094e+00 -2.820630073547363281e+00 -3.975018310546875000e+01 4.929235935211181641e+00 2.071975469589233398e-01 -3.983514404296875000e+01 4.064853668212890625e+00 -4.397621154785156250e+00 -4.071453475952148438e+01 3.157203912734985352e+00 -4.762606620788574219e+00 -4.146360015869140625e+01 -2.478920221328735352e+00 1.505878329277038574e+00 -4.547958755493164062e+01 4.781238555908203125e+00 -3.689213275909423828e+00 -4.016810226440429688e+01 -5.199249267578125000e+00 1.728854537010192871e+00 -4.743305969238281250e+01 -7.255201339721679688e+00 1.528452157974243164e+00 -4.837664031982421875e+01 -4.107643365859985352e-01 -6.602306842803955078e+00 -4.404803085327148438e+01 -6.317369461059570312e+00 -2.468407630920410156e+00 -4.832743453979492188e+01 -5.053968429565429688e+00 -6.036601543426513672e+00 -4.766944503784179688e+01 -3.542596578598022461e+00 1.810592770576477051e+00 -4.602606964111328125e+01 -6.078790187835693359e+00 1.976149439811706543e+00 -4.794637298583984375e+01 5.338679790496826172e+00 -1.182442784309387207e+00 -3.969878768920898438e+01 4.156019210815429688e+00 5.483412742614746094e-01 -4.050595855712890625e+01 -6.996576309204101562e+00 2.166850805282592773e+00 -4.841310119628906250e+01 -1.981088519096374512e+00 1.558285236358642578e+00 -4.496435546875000000e+01 4.880447387695312500e+00 -5.570207238197326660e-01 -4.011229324340820312e+01 -1.931302428245544434e+00 -6.795156478881835938e+00 -4.545730590820312500e+01 4.096974849700927734e+00 -3.499055862426757812e+00 -4.094968414306640625e+01 5.135739326477050781e+00 -1.990934252738952637e+00 -3.996908187866210938e+01 -6.235172748565673828e+00 -9.014338850975036621e-01 -4.842539978027343750e+01 3.177619457244873047e+00 3.563741743564605713e-01 -4.148095703125000000e+01 -4.143052101135253906e+00 1.699721693992614746e+00 -4.662110519409179688e+01 -6.074293136596679688e+00 -1.576508522033691406e+00 -4.837207412719726562e+01 2.286130636930465698e-01 -6.133879184722900391e+00 -4.381631088256835938e+01 -8.399010896682739258e-01 -6.335230827331542969e+00 -4.462625122070312500e+01 -3.341493606567382812e+00 -6.962909221649169922e+00 -4.647684097290039062e+01 -4.971774101257324219e+00 -5.342109680175781250e+00 -4.778858184814453125e+01 1.403478860855102539e+00 -5.878552436828613281e+00 -4.303633117675781250e+01 -5.642603874206542969e+00 -3.845385074615478516e+00 -4.813940811157226562e+01 3.513566732406616211e+00 -3.703328847885131836e+00 -4.147023391723632812e+01 6.090103387832641602e-01 1.428688883781433105e+00 -4.328024673461914062e+01 4.725607872009277344e+00 -2.602688550949096680e+00 -4.043259048461914062e+01 2.397786140441894531e+00 5.976129174232482910e-01 -4.207947921752929688e+01 -6.674673557281494141e-01 1.370041251182556152e+00 -4.434531402587890625e+01 2.973903656005859375e+00 -4.259439468383789062e+00 -4.187668228149414062e+01 -6.536155700683593750e+00 6.743025779724121094e-01 -4.852994918823242188e+01 -5.463697910308837891e+00 -3.268538236618041992e+00 -4.802903366088867188e+01 4.443560600280761719e+00 -9.946515560150146484e-01 -4.066327667236328125e+01 4.030010223388671875e+00 -4.392272531986236572e-01 -4.092821884155273438e+01 2.358846664428710938e+00 -4.566654205322265625e+00 -4.240243148803710938e+01 -6.351566314697265625e+00 1.071104764938354492e+00 -4.824658203125000000e+01 7.723900079727172852e-01 -5.523565292358398438e+00 -4.355840301513671875e+01 -6.172199845314025879e-01 -5.737356185913085938e+00 -4.443597793579101562e+01 4.534784793853759766e+00 -1.696939945220947266e+00 -4.063949203491210938e+01 5.456822365522384644e-02 -4.881068706512451172e+00 -4.438323974609375000e+01 -1.972440004348754883e+00 -6.331328868865966797e+00 -4.581629943847656250e+01 1.612153768539428711e+00 -4.994328975677490234e+00 -4.302442932128906250e+01 -5.845375537872314453e+00 1.508830428123474121e+00 -4.807480239868164062e+01 4.035254478454589844e+00 -2.600715875625610352e+00 -4.118429946899414062e+01 -3.962930917739868164e+00 -6.458014011383056641e+00 -4.717801666259765625e+01 -5.565678596496582031e+00 -2.117517948150634766e+00 -4.829302597045898438e+01 2.283026456832885742e+00 -4.140160560607910156e+00 -4.261393356323242188e+01 -7.998470664024353027e-01 -5.219385147094726562e+00 -4.501036834716796875e+01 -4.742265701293945312e+00 -4.674983024597167969e+00 -4.778240203857421875e+01 3.354538679122924805e+00 -7.075699567794799805e-01 -4.166572570800781250e+01 3.736519336700439453e+00 -2.005415201187133789e+00 -4.144362258911132812e+01 3.239904880523681641e+00 -3.140686750411987305e+00 -4.184051132202148438e+01 -4.771745204925537109e+00 1.226966977119445801e+00 -4.750301742553710938e+01 -6.104534149169921875e+00 -1.253424584865570068e-01 -4.845071029663085938e+01 -3.150394439697265625e+00 -6.081346035003662109e+00 -4.656583023071289062e+01 -1.655603051185607910e+00 -5.573279857635498047e+00 -4.570337295532226562e+01 3.756712436676025391e+00 -1.348868012428283691e+00 -4.136903381347656250e+01 8.220823407173156738e-01 8.131448030471801758e-01 -4.350603866577148438e+01 -1.471244812011718750e+00 7.741482257843017578e-01 -4.525824737548828125e+01 2.488390207290649414e+00 -3.092028141021728516e+00 -4.256708526611328125e+01 2.562862634658813477e+00 -9.220110774040222168e-01 -4.247002792358398438e+01 2.025630474090576172e+00 6.533992290496826172e-02 -4.267178726196289062e+01 -4.066539287567138672e+00 -5.609908580780029297e+00 -4.737265014648437500e+01 -3.307421207427978516e+00 1.278280735015869141e+00 -4.634906768798828125e+01 -4.973162651062011719e+00 -2.816513538360595703e+00 -4.803289413452148438e+01 9.916542768478393555e-01 -4.407280445098876953e+00 -4.377330780029296875e+01 -4.829094886779785156e+00 -3.904415845870971680e+00 -4.790616607666015625e+01 3.049090862274169922e+00 -1.496423006057739258e+00 -4.208697509765625000e+01 2.733936786651611328e+00 -2.642460346221923828e+00 -4.242084884643554688e+01 -5.240802288055419922e+00 6.646387577056884766e-01 -4.794557571411132812e+01 -2.061733961105346680e+00 -5.816979408264160156e+00 -4.592795181274414062e+01 -5.733894348144531250e+00 2.155628949403762817e-01 -4.831167602539062500e+01 -5.265889167785644531e-01 -4.463408470153808594e+00 -4.505303955078125000e+01 1.774970293045043945e+00 -3.650622129440307617e+00 -4.320270538330078125e+01 3.089178323745727539e+00 -2.178918123245239258e+00 -4.207203292846679688e+01 -2.927520990371704102e+00 -5.501753330230712891e+00 -4.667143630981445312e+01 -3.750640392303466797e+00 7.238668799400329590e-01 -4.701238632202148438e+01 -1.269212841987609863e+00 -4.915959835052490234e+00 -4.560410690307617188e+01 -2.386937856674194336e+00 7.565560340881347656e-01 -4.600517272949218750e+01 -5.088283061981201172e+00 -2.062554121017456055e+00 -4.812552261352539062e+01 -5.351784706115722656e+00 -1.126790761947631836e+00 -4.823735809326171875e+01 1.321185111999511719e+00 8.900556713342666626e-03 -4.340818405151367188e+01 -8.929546475410461426e-01 1.086962446570396423e-01 -4.519184875488281250e+01 1.707392215728759766e+00 -2.674662351608276367e+00 -4.335972213745117188e+01 -3.848605871200561523e+00 -4.143091201782226562e+00 -4.754580688476562500e+01 1.773420095443725586e+00 -7.594676613807678223e-01 -4.316546630859375000e+01 -3.146888017654418945e+00 -4.383237838745117188e+00 -4.712382888793945312e+01 6.326281428337097168e-01 3.693886399269104004e-01 -4.389892196655273438e+01 -5.382204055786132812e-02 2.517957091331481934e-01 -4.450313568115234375e+01 -2.720185041427612305e+00 3.577468693256378174e-01 -4.649001693725585938e+01 -5.206601619720458984e+00 -2.161802649497985840e-01 -4.817662811279296875e+01 1.327464580535888672e+00 -3.235539436340332031e+00 -4.366219711303710938e+01 2.106707334518432617e+00 -1.826926946640014648e+00 -4.299790573120117188e+01 -2.674127578735351562e+00 -4.901808738708496094e+00 -4.670193099975585938e+01 -4.124190807342529297e+00 -3.304362297058105469e+00 -4.773026275634765625e+01 -4.441540718078613281e+00 2.440338134765625000e-01 -4.768129348754882812e+01 5.273516774177551270e-01 -3.782846450805664062e+00 -4.431190872192382812e+01 -1.901816248893737793e+00 -4.548684120178222656e+00 -4.623244857788085938e+01 -1.568793952465057373e-01 -3.554436206817626953e+00 -4.493251419067382812e+01 1.376373291015625000e+00 -1.501140475273132324e+00 -4.366134262084960938e+01 1.075224518775939941e+00 -6.450355648994445801e-01 -4.382121276855468750e+01 -4.248292922973632812e+00 -2.018509387969970703e+00 -4.785059356689453125e+01 -4.514226436614990234e+00 -1.246897816658020020e+00 -4.795677947998046875e+01 1.108513593673706055e+00 -2.695446729660034180e+00 -4.391675186157226562e+01 -3.399271011352539062e+00 -9.544027596712112427e-02 -4.711028289794921875e+01 -1.682777047157287598e+00 -6.353490799665451050e-02 -4.591114425659179688e+01 9.081863611936569214e-02 -6.226024031639099121e-01 -4.464333724975585938e+01 -4.185657978057861328e+00 -5.214942097663879395e-01 -4.773971176147460938e+01 -1.302401304244995117e+00 -3.890152454376220703e+00 -4.588390350341796875e+01 -1.781488418579101562e+00 -3.733165979385375977e+00 -4.631288909912109375e+01 -3.647495031356811523e+00 -3.016658782958984375e+00 -4.755760192871093750e+01 -2.343680620193481445e+00 -3.810946226119995117e+00 -4.671447753906250000e+01 2.644180655479431152e-01 -2.467066049575805664e+00 -4.464123153686523438e+01 4.917393624782562256e-01 -1.454457044601440430e+00 -4.440260314941406250e+01 -2.491319656372070312e+00 -9.631363153457641602e-01 -4.672731781005859375e+01 -6.235701441764831543e-01 -3.303564071655273438e+00 -4.538748550415039062e+01 -2.936191558837890625e-01 -1.912477731704711914e+00 -4.512151336669921875e+01 -1.029339432716369629e+00 -7.650806903839111328e-01 -4.561644744873046875e+01 -3.311033248901367188e+00 -1.247022032737731934e+00 -4.732652664184570312e+01 -1.552468657493591309e+00 -1.194290876388549805e+00 -4.609748840332031250e+01 -2.728809595108032227e+00 -3.126899957656860352e+00 -4.705259323120117188e+01 -7.478801012039184570e-01 -1.429657101631164551e+00 -4.547808837890625000e+01 -1.006883859634399414e+00 -2.696453094482421875e+00 -4.578592300415039062e+01 -2.934924364089965820e+00 -2.264186382293701172e+00 -4.719045257568359375e+01 -1.944263458251953125e+00 -2.571543216705322266e+00 -4.652841186523437500e+01
