-5.951115131378173828e+00 -1.915003776550292969e+00 -4.262822723388671875e+01 -8.705713272094726562e+00 -2.790655851364135742e+00 -4.131757354736328125e+01 -8.791082382202148438e+00 -6.751075983047485352e-01 -4.188994979858398438e+01 -6.542484760284423828e+00 -2.254117727279663086e+00 -4.159446716308593750e+01 -9.521913528442382812e+00 -2.149038076400756836e+00 -4.154024124145507812e+01 -1.052223300933837891e+01 -2.606044054031372070e+00 -4.059684753417968750e+01 -1.123468971252441406e+01 -3.111706018447875977e+00 -4.199463653564453125e+01 -1.017039012908935547e+01 -3.578422307968139648e+00 -4.128110122680664062e+01 -1.051665115356445312e+01 -1.986735343933105469e+00 -4.072668457031250000e+01 -5.901292800903320312e+00 -2.292291402816772461e+00 -4.145308303833007812e+01 -7.966651916503906250e+00 -3.634285926818847656e+00 -4.109162139892578125e+01 -7.120428562164306641e+00 1.186375856399536133e+00 -4.120355606079101562e+01 -1.248791408538818359e+01 -3.255910396575927734e+00 -3.975663757324218750e+01 -1.029270458221435547e+01 -3.694138228893280029e-01 -4.090515136718750000e+01 -5.752616882324218750e+00 -1.211197257041931152e+00 -4.301541137695312500e+01 -8.424272537231445312e+00 -4.198932170867919922e+00 -4.163396835327148438e+01 -9.799806594848632812e+00 -4.619626522064208984e+00 -4.094235610961914062e+01 -7.469876289367675781e+00 1.105850696563720703e+00 -4.016359710693359375e+01 -1.208232021331787109e+01 -8.591398596763610840e-01 -3.941487121582031250e+01 -1.142891502380371094e+01 -1.244689822196960449e+00 -4.012373352050781250e+01 -1.043379402160644531e+01 -1.549152851104736328e+00 -3.969364929199218750e+01 -5.549058437347412109e+00 -2.201000452041625977e+00 -4.243186950683593750e+01 -8.791954040527343750e+00 -5.637297153472900391e+00 -4.163917541503906250e+01 -1.276136016845703125e+01 -1.908887624740600586e+00 -3.970603942871093750e+01 -3.633839845657348633e+00 -9.290187358856201172e-01 -4.267453765869140625e+01 -8.103030204772949219e+00 -4.608851432800292969e+00 -4.282567977905273438e+01 -5.036441326141357422e+00 1.027142047882080078e+00 -4.226324462890625000e+01 -1.181759548187255859e+01 -4.844831466674804688e+00 -3.997126007080078125e+01 -1.232314395904541016e+01 -4.186532497406005859e+00 -4.200018310546875000e+01 -1.324270915985107422e+01 -2.994121074676513672e+00 -4.122355651855468750e+01 -6.650422573089599609e+00 1.257780194282531738e+00 -4.056421661376953125e+01 -1.134410095214843750e+01 -4.611124992370605469e+00 -4.066451644897460938e+01 -4.533620357513427734e+00 -3.116487979888916016e+00 -4.222251892089843750e+01 -8.986771583557128906e+00 -6.525045394897460938e+00 -4.122835922241210938e+01 -8.925327301025390625e+00 6.191855072975158691e-01 -3.983412551879882812e+01 -7.770882129669189453e+00 1.843612313270568848e+00 -4.006697082519531250e+01 -1.223479843139648438e+01 -4.742431640625000000e+00 -4.108619689941406250e+01 -1.188535308837890625e+01 -7.110342383384704590e-01 -3.931704330444335938e+01 -4.351387023925781250e+00 1.637667417526245117e+00 -4.124310684204101562e+01 -1.186419963836669922e+01 7.579225897789001465e-01 -4.035055160522460938e+01 -1.190530204772949219e+01 -8.916513323783874512e-01 -3.921174240112304688e+01 -6.986495971679687500e+00 -6.078823089599609375e+00 -4.134080123901367188e+01 -1.256778621673583984e+01 -6.217629432678222656e+00 -4.072140884399414062e+01 -9.531489372253417969e+00 -6.848670482635498047e+00 -4.148591613769531250e+01 -4.582739353179931641e+00 1.695016145706176758e+00 -4.119060897827148438e+01 -1.228536891937255859e+01 -8.269816637039184570e-01 -3.964892578125000000e+01 -1.364401054382324219e+01 -4.666495323181152344e+00 -4.022282409667968750e+01 -1.284196472167968750e+01 -3.572571516036987305e+00 -3.990522766113281250e+01 -2.772522687911987305e+00 -2.322216987609863281e+00 -4.223057174682617188e+01 -2.575115680694580078e+00 4.886865913867950439e-01 -4.270555114746093750e+01 -1.250550746917724609e+01 -2.280083179473876953e+00 -4.007738113403320312e+01 -4.665050029754638672e+00 -3.512694120407104492e+00 -4.174752044677734375e+01 -7.354873657226562500e+00 2.839374542236328125e+00 -3.978832244873046875e+01 -6.800253391265869141e+00 -6.094646930694580078e+00 -4.192265701293945312e+01 -9.328540802001953125e+00 -6.584390163421630859e+00 -4.123095703125000000e+01 -3.728210926055908203e+00 9.184787869453430176e-01 -4.254100036621093750e+01 -1.013063430786132812e+01 2.179394721984863281e+00 -3.984585189819335938e+01 -4.414072990417480469e+00 -2.842776775360107422e+00 -4.181877899169921875e+01 -6.356213569641113281e+00 2.423782825469970703e+00 -4.083043289184570312e+01 -1.365420150756835938e+01 -3.991956949234008789e+00 -3.877314758300781250e+01 -1.001899051666259766e+01 2.329042434692382812e+00 -3.963723373413085938e+01 -1.553138923645019531e+01 -1.747300267219543457e+00 -3.792272186279296875e+01 -1.313532543182373047e+01 -1.937966585159301758e+00 -3.912793350219726562e+01 -1.696307420730590820e+00 2.677690029144287109e+00 -4.316159820556640625e+01 -1.178052425384521484e+01 -7.329630374908447266e+00 -4.067266082763671875e+01 -9.606224060058593750e+00 -6.909822463989257812e+00 -4.232373809814453125e+01 -1.352043247222900391e+01 -3.189574480056762695e+00 -3.982878494262695312e+01 -4.634912967681884766e+00 3.907217979431152344e+00 -4.117041778564453125e+01 -2.288201808929443359e+00 -1.827615946531295776e-01 -4.332187271118164062e+01 -1.663848757743835449e+00 2.635323703289031982e-01 -4.356584167480468750e+01 -6.699227094650268555e-01 2.016751050949096680e+00 -4.170162582397460938e+01 -1.405168414115905762e+00 2.319254398345947266e+00 -4.023077774047851562e+01 -1.343034648895263672e+01 -3.023704886436462402e-01 -3.950817489624023438e+01 -1.342284297943115234e+01 3.166403174400329590e-01 -3.982233810424804688e+01 -8.899275779724121094e+00 3.118657827377319336e+00 -3.874089050292968750e+01 -1.229893875122070312e+01 -7.977097511291503906e+00 -4.030656051635742188e+01 -1.368122959136962891e+01 -2.244965791702270508e+00 -3.943742752075195312e+01 -8.178964257240295410e-01 2.195069074630737305e+00 -4.292060852050781250e+01 -1.238231086730957031e+01 -7.567318916320800781e+00 -4.084759521484375000e+01 -5.748167991638183594e+00 3.656341075897216797e+00 -4.113113403320312500e+01 -1.301621627807617188e+01 -6.027140140533447266e+00 -3.949218368530273438e+01 -1.482686901092529297e+01 -4.500491619110107422e+00 -3.967205429077148438e+01 -8.239137649536132812e+00 -6.310246944427490234e+00 -4.105699539184570312e+01 -1.503256130218505859e+01 -4.764561176300048828e+00 -3.942340850830078125e+01 -1.422021484375000000e+01 2.876233160495758057e-01 -3.657866668701171875e+01 -1.447121334075927734e+01 -6.762707233428955078e-01 -3.894156646728515625e+01 -1.261613070964813232e-01 -1.784170567989349365e-01 -4.182715606689453125e+01 -6.520215511322021484e+00 -4.741612434387207031e+00 -4.195950698852539062e+01 -9.371657371520996094e+00 -8.406139373779296875e+00 -4.035144424438476562e+01 1.307128429412841797e+00 4.989642143249511719e+00 -4.087860488891601562e+01 -7.813960552215576172e+00 3.685507535934448242e+00 -3.883839797973632812e+01 -1.354717350006103516e+01 1.349172115325927734e+00 -3.847914123535156250e+01 -1.136639595031738281e+01 2.498116970062255859e+00 -3.824897384643554688e+01 -1.420302295684814453e+01 1.763924062252044678e-01 -3.842155838012695312e+01 -2.789481639862060547e+00 -4.206492900848388672e+00 -4.232709503173828125e+01 -1.518431663513183594e+01 -2.772465467453002930e+00 -3.936110305786132812e+01 -2.792642354965209961e+00 3.890037059783935547e+00 -4.147003555297851562e+01 2.002966880798339844e+00 3.312718391418457031e+00 -4.166033554077148438e+01 -2.007706642150878906e+00 -3.203127384185791016e+00 -4.143997573852539062e+01 -1.063712120056152344e+00 -1.070805072784423828e+00 -4.142485427856445312e+01 -5.813933849334716797e+00 -5.838600158691406250e+00 -4.220864868164062500e+01 -4.740186035633087158e-01 3.176366090774536133e+00 -4.337705993652343750e+01 -1.186828041076660156e+01 -8.685719490051269531e+00 -4.204110717773437500e+01 -8.939240455627441406e+00 -7.272659778594970703e+00 -4.086998748779296875e+01 -1.222338962554931641e+01 -8.570001602172851562e+00 -4.030278778076171875e+01 -1.444832801818847656e+01 -8.069455027580261230e-01 -3.792231750488281250e+01 -4.399148374795913696e-02 1.466523647308349609e+00 -4.290513992309570312e+01 -7.324279546737670898e-01 5.354753971099853516e+00 -4.273722839355468750e+01 -8.047805786132812500e+00 -6.147768974304199219e+00 -4.151167297363281250e+01 -1.225337886810302734e+01 -7.685050487518310547e+00 -4.045764923095703125e+01 -1.178661537170410156e+01 -6.352108001708984375e+00 -3.856082153320312500e+01 -9.407021522521972656e+00 2.316536664962768555e+00 -3.830165100097656250e+01 -5.236847877502441406e+00 4.970016002655029297e+00 -4.083229064941406250e+01 -1.089362430572509766e+01 -7.793201923370361328e+00 -3.932410049438476562e+01 -1.341309547424316406e+01 -5.581826210021972656e+00 -4.013978958129882812e+01 -5.879162311553955078e+00 5.521664619445800781e+00 -3.932765197753906250e+01 -9.592101097106933594e+00 3.030386924743652344e+00 -3.874877166748046875e+01 1.207542300224304199e+00 4.682962894439697266e+00 -4.270606613159179688e+01 -4.264158248901367188e+00 -4.670377254486083984e+00 -4.173843765258789062e+01 1.848927140235900879e+00 3.735450267791748047e+00 -4.286219406127929688e+01 -1.515226173400878906e+01 -2.208461999893188477e+00 -3.831290817260742188e+01 -1.644683074951171875e+01 -3.246672451496124268e-01 -3.833477783203125000e+01 -1.571726226806640625e+01 1.112829804420471191e+00 -3.821579360961914062e+01 -2.271415710449218750e+00 -1.691709399223327637e+00 -4.209960556030273438e+01 -1.397421264648437500e+01 -4.395081996917724609e+00 -3.853063583374023438e+01 -1.468477725982666016e+01 -1.929350614547729492e+00 -3.802246093750000000e+01 -1.305668830871582031e+01 2.273276329040527344e+00 -3.823111343383789062e+01 -1.059461307525634766e+01 2.381625652313232422e+00 -3.836845779418945312e+01 8.621381521224975586e-01 2.909773886203765869e-01 -4.292307281494140625e+01 2.249199628829956055e+00 3.075980901718139648e+00 -4.250494003295898438e+01 -5.201839447021484375e+00 -4.548386096954345703e+00 -4.092292785644531250e+01 -3.284239053726196289e+00 -3.878815412521362305e+00 -4.077320861816406250e+01 -1.450783538818359375e+01 -3.926455497741699219e+00 -3.800829696655273438e+01 -1.475741672515869141e+01 -4.183570146560668945e-01 -3.846545791625976562e+01 -1.410226631164550781e+01 2.546297550201416016e+00 -3.756618118286132812e+01 -1.899687290191650391e+00 6.268408775329589844e+00 -4.072569656372070312e+01 -2.584401369094848633e+00 4.970633506774902344e+00 -4.082489395141601562e+01 -1.210761833190917969e+01 -7.437641143798828125e+00 -4.002095794677734375e+01 -4.704049110412597656e+00 5.659683227539062500e+00 -3.920592880249023438e+01 9.401955604553222656e-01 8.413409590721130371e-01 -4.308682632446289062e+01 2.820476293563842773e+00 4.482457160949707031e+00 -4.281274795532226562e+01 -1.101713562011718750e+01 -8.481665611267089844e+00 -4.126101684570312500e+01 -1.315265178680419922e+01 -8.046510696411132812e+00 -3.956884002685546875e+01 -4.429714679718017578e+00 6.578768730163574219e+00 -4.002285766601562500e+01 -9.440355300903320312e+00 3.155362606048583984e+00 -3.723863220214843750e+01 -3.165358543395996094e+00 -4.731328964233398438e+00 -4.116638565063476562e+01 -8.133003234863281250e+00 -7.206515789031982422e+00 -3.897758483886718750e+01 -1.512246131896972656e+01 1.791942238807678223e+00 -3.693775177001953125e+01 4.275098443031311035e-01 6.356291294097900391e+00 -4.269978713989257812e+01 -1.642172622680664062e+01 -2.040566921234130859e+00 -3.770964431762695312e+01 -1.648877716064453125e+01 3.865670561790466309e-01 -3.676922988891601562e+01 -1.315319442749023438e+01 1.057633399963378906e+00 -3.727578353881835938e+01 -1.033738231658935547e+01 -9.848167419433593750e+00 -4.066311645507812500e+01 2.209386110305786133e+00 2.234233617782592773e+00 -4.321823883056640625e+01 3.521169662475585938e+00 3.754083633422851562e+00 -4.274048614501953125e+01 -6.098183155059814453e+00 -6.281107425689697266e+00 -4.171417236328125000e+01 -6.998754024505615234e+00 3.855850696563720703e+00 -3.950476837158203125e+01 -2.470809698104858398e+00 6.620037078857421875e+00 -3.958013916015625000e+01 -1.393342781066894531e+01 -6.328017234802246094e+00 -3.886295700073242188e+01 -3.852414488792419434e-01 -9.993007183074951172e-01 -4.282034683227539062e+01 -1.138208484649658203e+01 2.836434125900268555e+00 -3.695072937011718750e+01 -1.538064289093017578e+01 -3.573094606399536133e+00 -3.717148971557617188e+01 -1.023404979705810547e+01 3.205171108245849609e+00 -3.831592559814453125e+01 -1.049341011047363281e+01 -8.928924560546875000e+00 -4.078911209106445312e+01 -6.044919490814208984e+00 -5.975416183471679688e+00 -4.121607208251953125e+01 2.135003805160522461e+00 -1.354380548000335693e-01 -4.204416275024414062e+01 -1.389825248718261719e+01 -8.373491287231445312e+00 -3.923155593872070312e+01 -1.304534721374511719e+01 -1.044032955169677734e+01 -3.990517425537109375e+01 -1.146008300781250000e+01 -9.947832107543945312e+00 -4.024167251586914062e+01 -1.249926853179931641e+01 -1.069608020782470703e+01 -3.902390289306640625e+01 -1.694316291809082031e+01 -1.295749545097351074e+00 -3.671669006347656250e+01 3.843265056610107422e+00 6.667883396148681641e+00 -4.235300827026367188e+01 -2.561205029487609863e-01 6.697875976562500000e+00 -4.029173278808593750e+01 4.705088615417480469e+00 4.247252941131591797e+00 -4.269797515869140625e+01 -2.911730766296386719e+00 -4.307190895080566406e+00 -4.106163406372070312e+01 -1.480112838745117188e+01 -3.297543048858642578e+00 -3.735793685913085938e+01 2.955334186553955078e+00 7.519642353057861328e+00 -4.080922698974609375e+01 -1.542804336547851562e+01 1.507907629013061523e+00 -3.562891387939453125e+01 -1.673869514465332031e+01 1.474012017250061035e+00 -3.711865234375000000e+01 -1.236770343780517578e+01 3.562920093536376953e+00 -3.580292129516601562e+01 -1.150934410095214844e+01 3.952887058258056641e+00 -3.657552337646484375e+01 3.008728027343750000e+00 1.214199066162109375e+00 -4.187199783325195312e+01 3.110364198684692383e+00 1.430045813322067261e-01 -4.323472595214843750e+01 -1.209947395324707031e+01 -8.944994926452636719e+00 -4.048416137695312500e+01 -1.480751132965087891e+01 -7.058188915252685547e+00 -3.904747772216796875e+01 -1.527934360504150391e+01 -5.911928653717041016e+00 -3.782616806030273438e+01 -6.139270305633544922e+00 -6.618395805358886719e+00 -4.134570312500000000e+01 -1.479982185363769531e+01 1.582465052604675293e+00 -3.658729553222656250e+01 -1.290235805511474609e+01 -9.176273345947265625e+00 -3.942206954956054688e+01 -1.409641647338867188e+01 -6.812005996704101562e+00 -3.784650802612304688e+01 3.315330505371093750e+00 2.522473096847534180e+00 -4.216776657104492188e+01 5.626595020294189453e+00 7.345623016357421875e+00 -4.256781005859375000e+01 -1.311733007431030273e+00 7.338231563568115234e+00 -3.992065048217773438e+01 -7.562146186828613281e+00 -7.685907363891601562e+00 -4.069783401489257812e+01 -1.241497421264648438e+01 -9.411238670349121094e+00 -4.005456161499023438e+01 -1.830191993713378906e+01 -9.570464491844177246e-02 -3.557687759399414062e+01 -8.707586526870727539e-01 7.174227237701416016e+00 -3.974457931518554688e+01 -7.305120229721069336e-01 -1.475651741027832031e+00 -4.176699829101562500e+01 -3.894586265087127686e-01 -1.141239881515502930e+00 -4.154344940185546875e+01 -1.464884567260742188e+01 -3.200919151306152344e+00 -3.686250305175781250e+01 1.700844645500183105e+00 9.282123565673828125e+00 -4.056591415405273438e+01 -1.695872497558593750e+01 -6.829180717468261719e-01 -3.464965820312500000e+01 -7.450312614440917969e+00 -7.401082038879394531e+00 -4.055595016479492188e+01 -4.181090831756591797e+00 5.963248252868652344e+00 -3.871743392944335938e+01 5.753865242004394531e+00 5.106082916259765625e+00 -4.344921112060546875e+01 -3.187706708908081055e+00 -2.972007274627685547e+00 -4.038187026977539062e+01 -6.293241977691650391e+00 5.947515964508056641e+00 -3.770266723632812500e+01 -1.154032325744628906e+01 -1.104214477539062500e+01 -3.947087097167968750e+01 -4.846367835998535156e+00 -4.253989219665527344e+00 -4.088321304321289062e+01 -1.573463916778564453e+01 -6.633080244064331055e-01 -3.633354187011718750e+01 -1.678370475769042969e+01 1.633550643920898438e+00 -3.671738052368164062e+01 -1.656546020507812500e+01 2.528903007507324219e+00 -3.601816940307617188e+01 -1.517290687561035156e+01 2.507361888885498047e+00 -3.673001861572265625e+01 -1.016481018066406250e+01 3.908723831176757812e+00 -3.649012374877929688e+01 -1.190936470031738281e+01 -1.091474628448486328e+01 -3.920755386352539062e+01 4.954029560089111328e+00 4.021239757537841797e+00 -4.321884536743164062e+01 -1.515886783599853516e+01 -8.670421600341796875e+00 -4.011578750610351562e+01 -1.403194236755371094e+01 3.710153579711914062e+00 -3.669200515747070312e+01 -8.314934730529785156e+00 3.774516820907592773e+00 -3.716617965698242188e+01 -5.539024353027343750e+00 5.718394279479980469e+00 -3.828608322143554688e+01 -3.844923496246337891e+00 6.270423412322998047e+00 -3.869285964965820312e+01 -1.499549102783203125e+01 -4.415914535522460938e+00 -3.738570785522460938e+01 3.440598249435424805e+00 9.008385658264160156e+00 -4.201924514770507812e+01 -1.335175800323486328e+01 -1.019384765625000000e+01 -3.928050994873046875e+01 -8.984421730041503906e+00 -1.032161617279052734e+01 -3.954175567626953125e+01 4.854423046112060547e+00 -1.638058573007583618e-01 -4.303847122192382812e+01 -6.932579040527343750e+00 -6.738503456115722656e+00 -3.935215759277343750e+01 -1.440403461456298828e+01 3.141911506652832031e+00 -3.648270416259765625e+01 3.914854526519775391e+00 8.399106025695800781e+00 -4.165639495849609375e+01 -8.070563673973083496e-01 -6.142598986625671387e-01 -4.167008209228515625e+01 2.347789049148559570e+00 -1.086136341094970703e+00 -4.171707153320312500e+01 -1.802757263183593750e+00 7.821322441101074219e+00 -3.801311111450195312e+01 -1.062884330749511719e+01 3.428325891494750977e+00 -3.605480194091796875e+01 -1.360874176025390625e+01 -9.608461380004882812e+00 -3.864265060424804688e+01 -6.146721839904785156e-01 7.820001125335693359e+00 -3.981257629394531250e+01 -1.068019294738769531e+01 -1.081020069122314453e+01 -3.903281784057617188e+01 -1.372312927246093750e+01 -7.619659900665283203e+00 -3.756016921997070312e+01 -1.548338031768798828e+01 1.326269984245300293e+00 -3.627522659301757812e+01 -1.177985668182373047e+01 3.352849960327148438e+00 -3.610471343994140625e+01 6.027130126953125000e+00 7.496752262115478516e+00 -4.229777145385742188e+01 -3.801698684692382812e+00 -2.858126401901245117e+00 -4.044535064697265625e+01 7.279658913612365723e-01 -9.384787082672119141e-01 -4.120328903198242188e+01 -8.434614181518554688e+00 -8.203680992126464844e+00 -3.927162551879882812e+01 5.973433971405029297e+00 4.468159675598144531e+00 -4.321302032470703125e+01 -4.372504711151123047e+00 6.305774211883544922e+00 -3.805514526367187500e+01 -2.827007770538330078e+00 -3.563144683837890625e+00 -4.065343475341796875e+01 3.405587673187255859e+00 9.889924526214599609e-02 -4.184402084350585938e+01 -1.146676254272460938e+01 -1.202666378021240234e+01 -3.936935806274414062e+01 -1.849646377563476562e+01 2.841005921363830566e-01 -3.537417602539062500e+01 -2.802244901657104492e+00 7.636035442352294922e+00 -3.901959228515625000e+01 5.426813125610351562e+00 2.471898317337036133e+00 -4.360980987548828125e+01 -1.276993656158447266e+01 -1.115713977813720703e+01 -3.893128967285156250e+01 6.404510974884033203e+00 6.922924995422363281e+00 -4.314801406860351562e+01 -1.730937385559082031e+01 6.274821162223815918e-01 -3.404109573364257812e+01 8.206192016601562500e+00 1.296457767486572266e+00 -4.317860031127929688e+01 -4.305174827575683594e+00 -6.133482933044433594e+00 -4.086435317993164062e+01 1.213100314140319824e+00 9.110304832458496094e+00 -3.999597167968750000e+01 -3.349390029907226562e+00 9.344964981079101562e+00 -3.876491165161132812e+01 -1.770533180236816406e+01 -3.121988773345947266e-01 -3.463017654418945312e+01 -1.644308853149414062e+01 -3.229415416717529297e+00 -3.603892898559570312e+01 -1.281627845764160156e+01 4.203227519989013672e+00 -3.616007995605468750e+01 -8.177836418151855469e+00 5.283071041107177734e+00 -3.616005325317382812e+01 -1.582434272766113281e+01 -3.600113868713378906e+00 -3.717324066162109375e+01 -7.421955108642578125e+00 -6.755583286285400391e+00 -4.014644241333007812e+01 6.811054229736328125e+00 4.995884895324707031e+00 -4.376984405517578125e+01 4.864742279052734375e+00 9.430639266967773438e+00 -4.093436050415039062e+01 6.040006160736083984e+00 7.908790588378906250e+00 -4.117887878417968750e+01 -1.355949497222900391e+01 4.444292545318603516e+00 -3.533715057373046875e+01 2.366317272186279297e+00 1.028933811187744141e+01 -4.008988189697265625e+01 3.193389177322387695e+00 9.194205701351165771e-02 -4.175373458862304688e+01 -8.832834243774414062e+00 -8.334115028381347656e+00 -3.904215240478515625e+01 -1.667214202880859375e+01 2.655982494354248047e+00 -3.515943527221679688e+01 -1.924300789833068848e+00 -3.751280069351196289e+00 -4.060808944702148438e+01 -7.751965522766113281e+00 -7.623313426971435547e+00 -4.026971435546875000e+01 -1.727222824096679688e+01 3.842025041580200195e+00 -3.534114837646484375e+01 -1.067738437652587891e+01 5.816903114318847656e+00 -3.626983642578125000e+01 -1.076606273651123047e+00 -2.563819408416748047e+00 -3.957689285278320312e+01 -8.624704554677009583e-03 8.286607742309570312e+00 -3.923682403564453125e+01 -1.651860046386718750e+01 3.693019151687622070e+00 -3.411698150634765625e+01 -1.850868034362792969e+01 2.348662853240966797e+00 -3.479842758178710938e+01 -1.314428520202636719e+01 3.403779268264770508e+00 -3.439768218994140625e+01 -1.510231208801269531e+01 -3.286243200302124023e+00 -3.553844833374023438e+01 -1.763229751586914062e+01 -4.137847423553466797e+00 -3.579124069213867188e+01 -1.495699501037597656e+01 -7.759179592132568359e+00 -3.770669555664062500e+01 -1.493814563751220703e+01 -4.347261905670166016e+00 -3.723468780517578125e+01 -6.873442173004150391e+00 6.459596633911132812e+00 -3.755555725097656250e+01 -1.137880134582519531e+01 -1.313861751556396484e+01 -3.854781341552734375e+01 -1.695851135253906250e+01 1.429015517234802246e+00 -3.446257400512695312e+01 -1.017512607574462891e+01 -1.020835590362548828e+01 -3.909201049804687500e+01 7.304031848907470703e+00 3.230062484741210938e+00 -4.295308303833007812e+01 8.001343727111816406e+00 3.512935638427734375e+00 -4.325692367553710938e+01 -1.256848049163818359e+01 -1.220719337463378906e+01 -3.944625854492187500e+01 -1.036736869812011719e+01 -9.902029991149902344e+00 -3.946812820434570312e+01 5.847305297851562500e+00 9.560565948486328125e+00 -4.074080657958984375e+01 1.526413321495056152e+00 -2.173489809036254883e+00 -4.115238952636718750e+01 5.023070335388183594e+00 1.245137810707092285e+00 -4.325532150268554688e+01 -5.715140819549560547e+00 -7.347901344299316406e+00 -3.930088806152343750e+01 -8.836632728576660156e+00 5.542727947235107422e+00 -3.515819931030273438e+01 6.491217136383056641e+00 6.339733600616455078e+00 -4.296472167968750000e+01 -1.294446468353271484e+01 -1.187482261657714844e+01 -3.906726074218750000e+01 -1.318726825714111328e+01 -1.038429832458496094e+01 -3.830632019042968750e+01 -1.611079978942871094e+01 -3.823445081710815430e+00 -3.575439071655273438e+01 -1.402559375762939453e+01 -7.602535724639892578e+00 -3.689060592651367188e+01 -1.686877822875976562e+01 -1.787210822105407715e+00 -3.663845443725585938e+01 -1.837417793273925781e+01 2.039946079254150391e+00 -3.475239944458007812e+01 -4.474267005920410156e+00 7.053805351257324219e+00 -3.666194915771484375e+01 -3.777364253997802734e+00 7.648732662200927734e+00 -3.851902389526367188e+01 -7.514150813221931458e-03 1.088379764556884766e+01 -3.911362457275390625e+01 -1.365558338165283203e+01 -1.033816432952880859e+01 -3.777816009521484375e+01 -1.195555973052978516e+01 -1.138190746307373047e+01 -3.806095886230468750e+01 1.891754627227783203e+00 1.105283164978027344e+01 -3.854647445678710938e+01 -1.123327064514160156e+01 -1.173659515380859375e+01 -3.835841751098632812e+01 -1.812280845642089844e+01 1.123500704765319824e+00 -3.403772735595703125e+01 -8.552813529968261719e+00 -7.690761089324951172e+00 -3.973750686645507812e+01 -3.831770658493041992e+00 -4.402496337890625000e+00 -4.109877395629882812e+01 -1.586473083496093750e+01 -5.317434310913085938e+00 -3.728657913208007812e+01 7.072573661804199219e+00 8.642910957336425781e+00 -4.181079483032226562e+01 -1.550181674957275391e+01 -5.374733448028564453e+00 -3.716846847534179688e+01 -1.784644889831542969e+01 -7.369394302368164062e-01 -3.616204452514648438e+01 2.676899433135986328e+00 -1.718744874000549316e+00 -4.067843246459960938e+01 5.894443988800048828e+00 3.160834550857543945e+00 -4.170489120483398438e+01 -1.751964187622070312e+01 -1.597744822502136230e+00 -3.499359130859375000e+01 1.989146947860717773e+00 -1.337116956710815430e+00 -4.059940719604492188e+01 3.225329637527465820e+00 4.503956139087677002e-01 -4.237935638427734375e+01 -1.535892486572265625e+01 -4.897786140441894531e+00 -3.746509552001953125e+01 -4.834064960479736328e+00 -5.244429588317871094e+00 -4.001716613769531250e+01 -4.280464649200439453e+00 -4.629860877990722656e+00 -3.965043640136718750e+01 6.838750362396240234e+00 1.028705501556396484e+01 -4.168667984008789062e+01 -1.305070686340332031e+01 -1.063370609283447266e+01 -3.718765640258789062e+01 -1.903477907180786133e+00 -3.474237203598022461e+00 -3.976882934570312500e+01 -8.933349609375000000e+00 5.748352527618408203e+00 -3.442294311523437500e+01 -1.186124706268310547e+01 -1.353436851501464844e+01 -3.853961944580078125e+01 5.566374063491821289e-01 -3.191059827804565430e+00 -4.136236953735351562e+01 -1.472250652313232422e+01 -8.128170967102050781e+00 -3.798340225219726562e+01 7.364385128021240234e+00 2.428647041320800781e+00 -4.323096847534179688e+01 -1.196497821807861328e+01 -1.247757911682128906e+01 -3.996735000610351562e+01 -9.660160064697265625e+00 -1.007706546783447266e+01 -3.918408584594726562e+01 2.557662725448608398e-01 1.082924652099609375e+01 -3.837834548950195312e+01 -6.905277729034423828e+00 -8.142554283142089844e+00 -3.980250549316406250e+01 -1.200138282775878906e+01 4.293889045715332031e+00 -3.413882827758789062e+01 -6.748478889465332031e+00 6.096988201141357422e+00 -3.666860580444335938e+01 5.567353248596191406e+00 1.048981761932373047e+01 -4.022623062133789062e+01 -1.843390083312988281e+01 7.259908914566040039e-01 -3.464351272583007812e+01 2.759070396423339844e-01 -2.620731115341186523e+00 -4.072528839111328125e+01 -1.652278661727905273e+00 9.011549949645996094e+00 -3.819377899169921875e+01 -1.497498703002929688e+01 -7.214800357818603516e+00 -3.767822647094726562e+01 -8.162449836730957031e+00 -8.391530990600585938e+00 -3.961577606201171875e+01 -1.806943702697753906e+01 3.787416934967041016e+00 -3.359560012817382812e+01 -1.305819392204284668e+00 -2.221446275711059570e+00 -4.062921905517578125e+01 -1.620260810852050781e+01 2.305688619613647461e+00 -3.339406967163085938e+01 4.397674083709716797e+00 1.062267303466796875e+01 -3.955848693847656250e+01 3.558448791503906250e+00 1.094190025329589844e+01 -3.975452804565429688e+01 7.782742977142333984e+00 6.935151100158691406e+00 -4.136338806152343750e+01 -1.990071415901184082e+00 -3.691221952438354492e+00 -4.049942779541015625e+01 -1.602983474731445312e+01 -3.134876489639282227e+00 -3.640391540527343750e+01 -1.507221603393554688e+01 -3.189634561538696289e+00 -3.520085525512695312e+01 -2.943127870559692383e+00 9.337332725524902344e+00 -3.584119415283203125e+01 8.335712432861328125e+00 5.158495426177978516e+00 -4.264761734008789062e+01 6.976621150970458984e+00 9.425555229187011719e+00 -4.197215270996093750e+01 8.841003417968750000e+00 6.491213321685791016e+00 -4.242533111572265625e+01 -1.353888416290283203e+01 3.820770502090454102e+00 -3.479586791992187500e+01 -1.151816463470458984e+01 4.942482948303222656e+00 -3.476150512695312500e+01 2.578360080718994141e+00 -2.457077205181121826e-01 -4.087586593627929688e+01 -1.409346389770507812e+01 -7.830756187438964844e+00 -3.701348495483398438e+01 -1.949441337585449219e+01 1.490637302398681641e+00 -3.334129714965820312e+01 -1.735523414611816406e+01 3.234452903270721436e-01 -3.478578948974609375e+01 9.178092002868652344e+00 2.381015539169311523e+00 -4.229666900634765625e+01 -1.952173042297363281e+01 2.773126363754272461e+00 -3.311392593383789062e+01 -1.412136459350585938e+01 -1.092842483520507812e+01 -3.709497070312500000e+01 8.058548927307128906e+00 9.084572792053222656e+00 -4.153603744506835938e+01 -1.343978023529052734e+01 -1.143707466125488281e+01 -3.764166641235351562e+01 -1.667057037353515625e+01 3.413934230804443359e+00 -3.429398727416992188e+01 5.837963104248046875e+00 1.119348716735839844e+01 -4.020616149902343750e+01 -6.193772792816162109e+00 -6.459505081176757812e+00 -3.923799514770507812e+01 3.779050111770629883e+00 6.075585484504699707e-01 -4.142816925048828125e+01 5.869175434112548828e+00 8.395414948463439941e-01 -4.347435379028320312e+01 -8.110387802124023438e+00 6.458573341369628906e+00 -3.590725326538085938e+01 -1.201588249206542969e+01 -1.143618011474609375e+01 -3.812559890747070312e+01 1.772733926773071289e-01 -1.657657265663146973e+00 -4.198638534545898438e+01 -1.366208934783935547e+01 -1.103906631469726562e+01 -3.710442733764648438e+01 -2.785300970077514648e+00 9.403904914855957031e+00 -3.634796524047851562e+01 -1.510093212127685547e+01 -8.721574783325195312e+00 -3.737931823730468750e+01 8.868276596069335938e+00 3.271393299102783203e+00 -4.270739364624023438e+01 -1.621435546875000000e+01 -2.035761833190917969e+00 -3.541803741455078125e+01 -7.804962158203125000e+00 6.742889404296875000e+00 -3.538866806030273438e+01 -1.540731716156005859e+01 -2.861198186874389648e+00 -3.647053909301757812e+01 -1.897350120544433594e+01 1.867222666740417480e+00 -3.476890563964843750e+01 -1.653226852416992188e+01 -1.958459019660949707e+00 -3.523197555541992188e+01 8.923567771911621094e+00 2.225491046905517578e+00 -4.137277984619140625e+01 -1.603821182250976562e+01 -5.356834888458251953e+00 -3.677223968505859375e+01 -1.346430492401123047e+01 4.425226211547851562e+00 -3.455886840820312500e+01 4.749393939971923828e+00 1.153856372833251953e+01 -3.962668609619140625e+01 -1.460420036315917969e+01 -3.521651029586791992e+00 -3.662533569335937500e+01 -3.343152999877929688e+00 8.364546775817871094e+00 -3.654019165039062500e+01 -1.444841098785400391e+01 -7.243961334228515625e+00 -3.580897521972656250e+01 5.850175857543945312e+00 1.438958525657653809e+00 -4.178022384643554688e+01 8.828534126281738281e+00 4.907765865325927734e+00 -4.283074951171875000e+01 -6.226314067840576172e+00 7.761835575103759766e+00 -3.688735198974609375e+01 -5.230815410614013672e+00 7.809492588043212891e+00 -3.654093933105468750e+01 -1.731891441345214844e+01 4.462110400199890137e-01 -3.513951873779296875e+01 7.255013942718505859e+00 1.019179630279541016e+01 -4.047439956665039062e+01 1.496433496475219727e+00 1.196782207489013672e+01 -3.875919723510742188e+01 -1.050739669799804688e+01 -1.046430206298828125e+01 -3.757528305053710938e+01 -1.987910842895507812e+01 3.590677499771118164e+00 -3.299108505249023438e+01 -1.532939624786376953e+01 5.039501667022705078e+00 -3.300335693359375000e+01 -1.631433296203613281e+01 4.454597949981689453e+00 -3.348577117919921875e+01 -1.180878925323486328e+01 -1.032723331451416016e+01 -3.770025634765625000e+01 -1.881554412841796875e+01 4.834245204925537109e+00 -3.308020782470703125e+01 -4.432380676269531250e+00 -6.195209026336669922e+00 -3.794351577758789062e+01 -2.447058200836181641e+00 -2.630755424499511719e+00 -4.042694473266601562e+01 3.115000486373901367e+00 1.215128803253173828e+01 -3.723063659667968750e+01 -2.446498721837997437e-01 -2.266407966613769531e+00 -3.955780410766601562e+01 -8.722722053527832031e+00 -8.753404617309570312e+00 -3.841008377075195312e+01 -1.374228382110595703e+01 -9.065853118896484375e+00 -3.617815780639648438e+01 9.522439956665039062e+00 3.010324001312255859e+00 -4.357326126098632812e+01 -1.382534980773925781e+01 -1.127402305603027344e+01 -3.732788085937500000e+01 -1.485408496856689453e+01 -6.893399715423583984e+00 -3.578137588500976562e+01 -1.446735763549804688e+01 -4.808723926544189453e+00 -3.661872100830078125e+01 -7.428228378295898438e+00 -8.160640716552734375e+00 -3.845862579345703125e+01 -5.556697249412536621e-01 -2.952465772628784180e+00 -4.019955444335937500e+01 -1.658712005615234375e+01 -2.485037565231323242e+00 -3.532022857666015625e+01 -1.590646076202392578e+01 -2.684764146804809570e+00 -3.594251251220703125e+01 -1.743934440612792969e+01 1.591861724853515625e+00 -3.469518661499023438e+01 -1.679656410217285156e+01 -4.997188746929168701e-01 -3.387773895263671875e+01 7.483969688415527344e+00 8.007937431335449219e+00 -4.137006759643554688e+01 5.934518814086914062e+00 7.662100791931152344e-01 -4.098200607299804688e+01 -1.024797344207763672e+01 6.182046890258789062e+00 -3.476709747314453125e+01 9.634362220764160156e+00 6.882434844970703125e+00 -4.064727401733398438e+01 6.488252639770507812e+00 1.122964763641357422e+01 -4.038133621215820312e+01 -2.233791500329971313e-01 9.967514991760253906e+00 -3.533490753173828125e+01 -1.720372581481933594e+01 -4.507382214069366455e-01 -3.365331649780273438e+01 -1.737529373168945312e+01 5.534046292304992676e-01 -3.267683410644531250e+01 -6.360816478729248047e+00 -8.171170234680175781e+00 -3.784661102294921875e+01 -1.498813819885253906e+01 -4.117631912231445312e+00 -3.421924972534179688e+01 7.074647545814514160e-01 -1.322332739830017090e+00 -3.927889251708984375e+01 -1.771093368530273438e+01 6.683041453361511230e-01 -3.389638900756835938e+01 -1.673555183410644531e+01 5.756363868713378906e-01 -3.423107147216796875e+01 -1.247233867645263672e+01 -1.101664543151855469e+01 -3.702974319458007812e+01 -1.838633728027343750e+01 3.628133058547973633e+00 -3.333316802978515625e+01 -4.533882617950439453e+00 8.235640525817871094e+00 -3.517944335937500000e+01 -1.535048961639404297e+01 -2.737098217010498047e+00 -3.549650192260742188e+01 -6.222302913665771484e+00 7.543023109436035156e+00 -3.580904388427734375e+01 2.552194118499755859e+00 -8.982077240943908691e-02 -4.100489044189453125e+01 7.400961875915527344e+00 1.963785767555236816e+00 -4.197051620483398438e+01 -1.626631546020507812e+01 -8.928148150444030762e-01 -3.393976593017578125e+01 -1.387175750732421875e+01 -7.555120944976806641e+00 -3.643473434448242188e+01 -1.289827537536621094e+01 5.272368431091308594e+00 -3.340481567382812500e+01 -1.736520290374755859e+00 -2.936735391616821289e+00 -3.851827621459960938e+01 3.657391548156738281e+00 -1.309209018945693970e-01 -4.101906585693359375e+01 -1.458868980407714844e+01 -5.649566173553466797e+00 -3.607143020629882812e+01 -1.218107104301452637e+00 -3.104190349578857422e+00 -3.917828750610351562e+01 6.763906955718994141e+00 8.668907165527343750e+00 -4.116128540039062500e+01 -1.748950195312500000e+01 3.215822696685791016e+00 -3.341819763183593750e+01 -1.383366775512695312e+01 5.373183727264404297e+00 -3.350378799438476562e+01 -8.631680488586425781e+00 6.547370910644531250e+00 -3.508362960815429688e+01 -1.824353981018066406e+01 9.231286048889160156e-01 -3.333214569091796875e+01 6.078486919403076172e+00 1.308950066566467285e+00 -4.156283569335937500e+01 -1.817677688598632812e+01 3.023620605468750000e+00 -3.295655441284179688e+01 7.352096080780029297e+00 9.098513722419738770e-01 -4.142850875854492188e+01 -1.398405361175537109e+01 -4.845540523529052734e+00 -3.555507278442382812e+01 -5.494709491729736328e+00 -5.366264343261718750e+00 -3.738362884521484375e+01 2.423566579818725586e+00 1.250461292266845703e+01 -3.854320144653320312e+01 5.637584209442138672e+00 1.231550979614257812e+01 -3.927069473266601562e+01 -1.347442245483398438e+01 -8.265877723693847656e+00 -3.637424468994140625e+01 7.928300499916076660e-01 1.144143009185791016e+01 -3.777938842773437500e+01 5.262171268463134766e+00 1.435792160034179688e+01 -3.902946853637695312e+01 -1.001171970367431641e+01 -8.236351013183593750e+00 -3.787419509887695312e+01 -1.518462848663330078e+01 -6.454852581024169922e+00 -3.435399246215820312e+01 3.254197120666503906e+00 9.266428947448730469e-01 -4.025057983398437500e+01 8.969027519226074219e+00 4.911823272705078125e+00 -4.257526779174804688e+01 -1.698567390441894531e+01 1.674034714698791504e+00 -3.333206176757812500e+01 9.771602630615234375e+00 2.332797288894653320e+00 -4.190127563476562500e+01 3.717273473739624023e+00 1.332304859161376953e+01 -3.714923477172851562e+01 4.495161533355712891e+00 1.232923316955566406e+01 -3.907830047607421875e+01 -1.353649139404296875e+01 -9.084085464477539062e+00 -3.723672866821289062e+01 -3.621210336685180664e+00 -5.224508285522460938e+00 -3.851092529296875000e+01 -6.683414936065673828e+00 7.105849742889404297e+00 -3.507948303222656250e+01 -1.165945625305175781e+01 -1.067678260803222656e+01 -3.730126190185546875e+01 -5.575396537780761719e+00 -6.022135734558105469e+00 -3.720837402343750000e+01 -1.134072875976562500e+01 5.603826999664306641e+00 -3.437398910522460938e+01 -1.515029621124267578e+01 -3.863680839538574219e+00 -3.439383697509765625e+01 -6.164639472961425781e+00 7.494706630706787109e+00 -3.563262176513671875e+01 -1.299747085571289062e+01 -1.180961418151855469e+01 -3.798576736450195312e+01 -2.722845792770385742e+00 -3.905714750289916992e+00 -3.823227691650390625e+01 7.748027801513671875e+00 6.723443508148193359e+00 -4.113158798217773438e+01 1.627535820007324219e+00 -1.914608240127563477e+00 -3.953930282592773438e+01 9.954813957214355469e+00 5.061038017272949219e+00 -4.251391220092773438e+01 -2.124348878860473633e+00 9.685323715209960938e+00 -3.561915588378906250e+01 -1.726069259643554688e+01 -2.440273046493530273e+00 -3.346477508544921875e+01 -1.046664142608642578e+01 -8.851051330566406250e+00 -3.717438507080078125e+01 7.511393070220947266e+00 2.166174411773681641e+00 -4.038089370727539062e+01 -1.619855117797851562e+01 3.251072645187377930e+00 -3.218791580200195312e+01 9.674468994140625000e+00 4.102665901184082031e+00 -4.139653015136718750e+01 -1.463441944122314453e+01 -7.789335727691650391e+00 -3.593733978271484375e+01 -1.443061828613281250e+01 -6.878774642944335938e+00 -3.648048782348632812e+01 -1.463598155975341797e+01 -6.200598239898681641e+00 -3.551565933227539062e+01 1.109928798675537109e+01 2.537814378738403320e+00 -4.269789886474609375e+01 -9.714680671691894531e+00 6.086010932922363281e+00 -3.472810745239257812e+01 7.343828201293945312e+00 9.854615211486816406e+00 -4.039178848266601562e+01 7.711266040802001953e+00 9.767848014831542969e+00 -3.950277328491210938e+01 7.160910606384277344e+00 1.078898429870605469e+01 -4.000456237792968750e+01 5.905781269073486328e+00 -8.313642144203186035e-01 -4.051906585693359375e+01 7.998277187347412109e+00 1.007337284088134766e+01 -3.857801818847656250e+01 -1.558359622955322266e+01 3.801953792572021484e+00 -3.274225616455078125e+01 -7.391211032867431641e+00 -7.221010684967041016e+00 -3.624412918090820312e+01 5.032267570495605469e+00 4.228494167327880859e-01 -4.141283035278320312e+01 -1.771790313720703125e+01 1.828421831130981445e+00 -3.181916618347167969e+01 -1.693414115905761719e+01 -1.916215419769287109e+00 -3.303017425537109375e+01 -1.611911654472351074e+00 1.063376235961914062e+01 -3.611087799072265625e+01 7.869357615709304810e-02 1.207049560546875000e+01 -3.571899032592773438e+01 -4.110810458660125732e-01 -4.850789070129394531e+00 -3.873661041259765625e+01 9.276809692382812500e+00 4.581578731536865234e+00 -4.108784484863281250e+01 -1.640316390991210938e+01 -2.897553205490112305e+00 -3.502348327636718750e+01 -1.792063713073730469e+01 3.556252717971801758e+00 -3.301464462280273438e+01 -8.427550315856933594e+00 -7.512932300567626953e+00 -3.799686050415039062e+01 7.021789550781250000e-01 -2.896193504333496094e+00 -3.983787536621093750e+01 -1.286758804321289062e+01 -1.162910366058349609e+01 -3.726741790771484375e+01 -1.361546230316162109e+01 -8.348196983337402344e+00 -3.558146286010742188e+01 -1.540535926818847656e+01 -1.791418433189392090e+00 -3.353185653686523438e+01 6.518799781799316406e+00 1.136395072937011719e+01 -3.898770904541015625e+01 9.533145904541015625e+00 7.729029655456542969e+00 -4.146181106567382812e+01 -1.196737670898437500e+01 -9.774355888366699219e+00 -3.729770660400390625e+01 4.559980869293212891e+00 1.459851551055908203e+01 -3.857117462158203125e+01 4.709239006042480469e+00 -1.405040502548217773e+00 -3.889218139648437500e+01 -2.573456525802612305e+00 -3.975531101226806641e+00 -3.770618820190429688e+01 -1.670633506774902344e+01 2.731531262397766113e-01 -3.295807647705078125e+01 -4.506227970123291016e+00 1.005957508087158203e+01 -3.513851547241210938e+01 5.703128814697265625e+00 1.397497177124023438e+01 -3.843265914916992188e+01 1.023566341400146484e+01 8.388544082641601562e+00 -3.982803344726562500e+01 -5.483508110046386719e+00 -5.799819946289062500e+00 -3.707209014892578125e+01 -1.806022071838378906e+01 2.991489410400390625e+00 -3.218373107910156250e+01 -1.554186344146728516e+01 -4.786798000335693359e+00 -3.451187133789062500e+01 -1.475243282318115234e+01 -4.617898464202880859e+00 -3.424635696411132812e+01 -6.625226497650146484e+00 -6.947057247161865234e+00 -3.800974655151367188e+01 4.053669452667236328e+00 1.342515373229980469e+01 -3.657278060913085938e+01 4.228433609008789062e+00 1.429889869689941406e+01 -3.840744018554687500e+01 -1.684428024291992188e+01 -1.539973497390747070e+00 -3.440715408325195312e+01 -1.414865016937255859e+01 3.294732809066772461e+00 -3.298833847045898438e+01 8.970456123352050781e-01 1.283430576324462891e+01 -3.713626861572265625e+01 -1.122086882591247559e+00 -2.605396986007690430e+00 -3.797637557983398438e+01 6.862456321716308594e+00 2.156880855560302734e+00 -4.099745559692382812e+01 1.091114711761474609e+01 4.097432613372802734e+00 -4.108934783935546875e+01 8.000328063964843750e+00 7.234869956970214844e+00 -3.931171035766601562e+01 -1.426810169219970703e+01 -6.432763099670410156e+00 -3.506873321533203125e+01 7.495409488677978516e+00 8.996060490608215332e-01 -4.161650848388671875e+01 -1.149459552764892578e+01 5.723343372344970703e+00 -3.345471954345703125e+01 -6.379400730133056641e+00 -5.702397346496582031e+00 -3.754720687866210938e+01 -8.608875274658203125e+00 6.410174846649169922e+00 -3.424565124511718750e+01 -3.609352111816406250e-01 -3.343986511230468750e+00 -3.829248428344726562e+01 4.590750694274902344e+00 -4.234385117888450623e-02 -3.899148559570312500e+01 -1.025764846801757812e+01 -9.789088249206542969e+00 -3.622875976562500000e+01 -1.242056179046630859e+01 5.393077373504638672e+00 -3.272132492065429688e+01 7.703981399536132812e+00 8.424858093261718750e+00 -4.084144210815429688e+01 -1.473290443420410156e+01 -7.146055698394775391e+00 -3.523365020751953125e+01 6.928611278533935547e+00 1.108069801330566406e+01 -3.960445785522460938e+01 2.966319084167480469e+00 -1.256286740303039551e+00 -3.823558807373046875e+01 6.111645698547363281e-01 1.270452117919921875e+01 -3.643961715698242188e+01 8.645872116088867188e+00 2.963716745376586914e+00 -4.144467926025390625e+01 1.053847408294677734e+01 6.585268020629882812e+00 -4.089294433593750000e+01 -1.608137130737304688e+01 -1.043803334236145020e+00 -3.333317184448242188e+01 -1.442078590393066406e+01 4.247365474700927734e+00 -3.254828643798828125e+01 -1.463243770599365234e+01 5.370620250701904297e+00 -3.259340667724609375e+01 -9.007168769836425781e+00 -7.132188320159912109e+00 -3.692109680175781250e+01 7.540802001953125000e+00 9.773483276367187500e+00 -3.944115066528320312e+01 1.030095291137695312e+01 2.707854986190795898e+00 -4.184133148193359375e+01 1.253959560394287109e+01 4.021572113037109375e+00 -4.320449447631835938e+01 1.246014499664306641e+01 2.865875720977783203e+00 -4.205121231079101562e+01 1.148301219940185547e+01 3.144281148910522461e+00 -4.198340988159179688e+01 5.103684425354003906e+00 1.557043647766113281e+01 -3.701061630249023438e+01 1.032254600524902344e+01 3.957895994186401367e+00 -4.185045242309570312e+01 -6.313431262969970703e+00 7.872565746307373047e+00 -3.324393081665039062e+01 1.096676254272460938e+01 3.973379135131835938e+00 -4.218552780151367188e+01 5.277217864990234375e+00 1.230520915985107422e+01 -3.697964859008789062e+01 1.176008605957031250e+01 2.790443897247314453e+00 -4.320684814453125000e+01 1.251911449432373047e+01 3.556920289993286133e+00 -4.143954467773437500e+01 -1.225068283081054688e+01 -9.140040397644042969e+00 -3.624845123291015625e+01 -1.823261260986328125e+01 2.207649230957031250e+00 -3.243627929687500000e+01 -9.875577926635742188e+00 5.201071739196777344e+00 -3.326002502441406250e+01 -1.023258876800537109e+01 -9.019849777221679688e+00 -3.561568832397460938e+01 -1.074696922302246094e+01 -6.888447761535644531e+00 -3.542758941650390625e+01 -7.817343711853027344e+00 7.011210441589355469e+00 -3.458489990234375000e+01 9.585792541503906250e+00 7.210241794586181641e+00 -3.984566879272460938e+01 -9.303976297378540039e-01 1.107426643371582031e+01 -3.469342041015625000e+01 7.139584541320800781e+00 1.189070224761962891e+01 -3.909254837036132812e+01 -1.637836647033691406e+01 2.014689922332763672e+00 -3.221645736694335938e+01 1.062787151336669922e+01 5.297716617584228516e+00 -4.046471786499023438e+01 -1.566500782966613770e+00 1.111516857147216797e+01 -3.520156860351562500e+01 6.861555576324462891e+00 1.006190419197082520e+00 -3.970940017700195312e+01 8.709882736206054688e+00 1.031849145889282227e+00 -4.198807525634765625e+01 2.344711065292358398e+00 -1.611994862556457520e+00 -3.956452560424804688e+01 6.475890159606933594e+00 1.159000205993652344e+01 -3.886705780029296875e+01 -9.986783981323242188e+00 -7.550460338592529297e+00 -3.702233123779296875e+01 -1.248214340209960938e+01 3.865029811859130859e+00 -3.256806182861328125e+01 -8.654483795166015625e+00 5.978375434875488281e+00 -3.421155548095703125e+01 -5.902016162872314453e+00 9.686227798461914062e+00 -3.396500015258789062e+01 8.490512847900390625e+00 9.443659782409667969e+00 -3.859645080566406250e+01 7.659690856933593750e+00 1.258208370208740234e+01 -3.785248184204101562e+01 -6.191295623779296875e+00 6.979431629180908203e+00 -3.504596710205078125e+01 -1.346557331085205078e+01 -7.845686435699462891e+00 -3.501042938232421875e+01 -1.426540374755859375e+01 -5.417390346527099609e+00 -3.471661376953125000e+01 -1.411572265625000000e+01 -3.598988533020019531e+00 -3.380661392211914062e+01 4.316071033477783203e+00 1.440062904357910156e+01 -3.789917755126953125e+01 1.654220521450042725e-01 -1.229884028434753418e+00 -3.861693954467773438e+01 4.794051647186279297e+00 1.006479144096374512e+00 -3.954434585571289062e+01 1.079280853271484375e+01 5.018074512481689453e+00 -4.153465270996093750e+01 1.240335369110107422e+01 3.185614347457885742e+00 -4.149294281005859375e+01 -1.644605636596679688e+01 3.819929838180541992e+00 -3.227909469604492188e+01 8.671800613403320312e+00 2.756535291671752930e+00 -3.974701690673828125e+01 1.044798469543457031e+01 5.980126857757568359e+00 -4.050598526000976562e+01 -1.533495616912841797e+01 -2.948631525039672852e+00 -3.360390853881835938e+01 5.364435672760009766e+00 1.587544918060302734e+01 -3.604190444946289062e+01 -2.944250583648681641e+00 -4.107883453369140625e+00 -3.589262390136718750e+01 -3.639956951141357422e+00 -4.656387805938720703e+00 -3.683421707153320312e+01 -1.541960120201110840e+00 -3.329231739044189453e+00 -3.700312042236328125e+01 -1.216249465942382812e+01 5.232387542724609375e+00 -3.319970703125000000e+01 -1.598801994323730469e+01 2.024571657180786133e+00 -3.193894195556640625e+01 7.601336956024169922e+00 1.035363912582397461e+00 -3.894215774536132812e+01 8.988672256469726562e+00 2.659526109695434570e+00 -4.017145156860351562e+01 9.678121566772460938e+00 5.989774227142333984e+00 -3.953098297119140625e+01 -1.205523014068603516e+01 -6.158514499664306641e+00 -3.472518157958984375e+01 -7.721965312957763672e+00 7.242633342742919922e+00 -3.437750625610351562e+01 9.480010032653808594e+00 3.093852758407592773e+00 -4.050909805297851562e+01 7.753630161285400391e+00 1.188424301147460938e+01 -3.866774368286132812e+01 -1.604310035705566406e+01 -8.542067408561706543e-01 -3.273083114624023438e+01 7.740189075469970703e+00 8.430495262145996094e+00 -3.967247390747070312e+01 1.751485586166381836e+00 1.290794944763183594e+01 -3.648335647583007812e+01 -7.446184635162353516e+00 -5.830637454986572266e+00 -3.722691345214843750e+01 -1.156704711914062500e+01 -6.875944137573242188e+00 -3.548591613769531250e+01 -1.399549484252929688e+01 -2.273856163024902344e+00 -3.364354324340820312e+01 -1.055187034606933594e+01 6.259009838104248047e+00 -3.203972244262695312e+01 -5.994480252265930176e-01 1.202391719818115234e+01 -3.588797378540039062e+01 4.192227840423583984e+00 1.567637157440185547e+01 -3.651000976562500000e+01 -1.330624580383300781e+01 4.359574794769287109e+00 -3.168016624450683594e+01 -3.067137002944946289e+00 9.633717536926269531e+00 -3.337831497192382812e+01 -1.215345287322998047e+01 -8.499448776245117188e+00 -3.531575775146484375e+01 1.663305640220642090e+00 -1.735524296760559082e+00 -3.745093154907226562e+01 3.989011287689208984e+00 -5.686940550804138184e-01 -3.897416687011718750e+01 1.226222991943359375e+01 4.711095809936523438e+00 -4.141871643066406250e+01 8.614922523498535156e+00 1.213919258117675781e+01 -3.965758895874023438e+01 7.416587829589843750e+00 1.274766159057617188e+01 -3.872756195068359375e+01 -1.630766105651855469e+01 4.516983628273010254e-01 -3.189953231811523438e+01 -6.476918697357177734e+00 8.285621643066406250e+00 -3.260953521728515625e+01 -1.548285388946533203e+01 -1.330546379089355469e+00 -3.207022857666015625e+01 -4.982950210571289062e+00 9.558140754699707031e+00 -3.472446441650390625e+01 1.084819793701171875e+01 4.755147933959960938e+00 -4.131565856933593750e+01 7.704229354858398438e+00 1.900958418846130371e+00 -3.989542770385742188e+01 1.134943675994873047e+01 4.980608940124511719e+00 -4.117036056518554688e+01 8.475576400756835938e+00 8.028536796569824219e+00 -3.938358306884765625e+01 6.000880241394042969e+00 1.430259799957275391e+01 -3.737733840942382812e+01 6.488776206970214844e+00 8.318032622337341309e-01 -3.921813583374023438e+01 6.069736957550048828e+00 5.103259086608886719e-01 -3.829649353027343750e+01 -1.428738403320312500e+01 3.755479812622070312e+00 -3.244118499755859375e+01 6.052208423614501953e+00 1.428824901580810547e+01 -3.640565872192382812e+01 -1.483600711822509766e+01 2.933913230895996094e+00 -3.233137130737304688e+01 -9.035629272460937500e+00 7.076048374176025391e+00 -3.272371292114257812e+01 -9.722313880920410156e+00 -7.484120845794677734e+00 -3.568447113037109375e+01 -1.463378238677978516e+01 2.274367094039916992e+00 -3.073546600341796875e+01 -1.237513446807861328e+01 -4.671141624450683594e+00 -3.412487030029296875e+01 2.364131212234497070e+00 1.413659286499023438e+01 -3.598762130737304688e+01 2.288879156112670898e-01 1.180362415313720703e+01 -3.525524139404296875e+01 7.146244049072265625e+00 1.023942184448242188e+01 -3.763386917114257812e+01 7.515816211700439453e+00 1.198802280426025391e+01 -3.833999633789062500e+01 1.087423801422119141e+01 3.398862838745117188e+00 -4.105669021606445312e+01 6.391754150390625000e+00 1.324167442321777344e+01 -3.703388977050781250e+01 9.503595352172851562e+00 6.542323589324951172e+00 -3.931788635253906250e+01 -8.853373527526855469e+00 6.924325466156005859e+00 -3.207683181762695312e+01 -4.573600292205810547e+00 9.012749671936035156e+00 -3.371886825561523438e+01 -6.908755779266357422e+00 -4.885844230651855469e+00 -3.634068679809570312e+01 6.546423435211181641e+00 1.389590072631835938e+01 -3.681107330322265625e+01 2.324308633804321289e+00 3.427079617977142334e-01 -3.649258041381835938e+01 1.986526727676391602e+00 -1.688972353935241699e+00 -3.658403778076171875e+01 1.132702922821044922e+01 3.081132411956787109e+00 -4.086146545410156250e+01 -3.851816654205322266e-01 1.011127567291259766e+01 -3.554574203491210938e+01 7.562777996063232422e+00 1.240347194671630859e+01 -3.672473907470703125e+01 2.915829896926879883e+00 1.449777507781982422e+01 -3.586860656738281250e+01 5.690959453582763672e+00 1.523911857604980469e+01 -3.749661254882812500e+01 -1.033737182617187500e+01 -6.573429107666015625e+00 -3.429644775390625000e+01 -1.352949237823486328e+01 -3.110491275787353516e+00 -3.382485961914062500e+01 -1.207155513763427734e+01 4.495397567749023438e+00 -3.070762252807617188e+01 8.634745597839355469e+00 6.660182952880859375e+00 -3.917192840576171875e+01 -1.079859352111816406e+01 5.424119472503662109e+00 -3.253548049926757812e+01 5.536642074584960938e+00 1.514664649963378906e+01 -3.633190155029296875e+01 -3.842185020446777344e+00 1.028998184204101562e+01 -3.505078887939453125e+01 -8.851135253906250000e+00 -6.103578090667724609e+00 -3.442739868164062500e+01 -1.300196647644042969e-01 -2.124648332595825195e+00 -3.579696655273437500e+01 -6.827363967895507812e+00 8.091445922851562500e+00 -3.321205520629882812e+01 1.006840515136718750e+01 3.796603441238403320e+00 -3.912963104248046875e+01 7.964057445526123047e+00 1.101102828979492188e+01 -3.836292648315429688e+01 9.722245216369628906e+00 6.501436710357666016e+00 -3.907646560668945312e+01 6.862005710601806641e+00 1.393571853637695312e+01 -3.662141799926757812e+01 -1.990498423576354980e+00 -2.737686872482299805e+00 -3.585610580444335938e+01 9.015063643455505371e-01 1.289118099212646484e+01 -3.420407104492187500e+01 9.249423027038574219e+00 9.590688705444335938e+00 -3.852041244506835938e+01 -3.317831277847290039e+00 1.086502361297607422e+01 -3.436116790771484375e+01 4.850074768066406250e+00 1.273240447044372559e-01 -3.761825561523437500e+01 -8.445069313049316406e+00 -7.138353824615478516e+00 -3.445326614379882812e+01 -8.473555564880371094e+00 6.435419082641601562e+00 -3.179708671569824219e+01 -2.771260261535644531e+00 1.054416084289550781e+01 -3.367731857299804688e+01 -9.434419631958007812e+00 5.870935916900634766e+00 -3.202720260620117188e+01 1.549016356468200684e+00 1.386310482025146484e+01 -3.456851959228515625e+01 9.893554687500000000e+00 6.564915657043457031e+00 -3.837406539916992188e+01 -5.175165176391601562e+00 -4.615328788757324219e+00 -3.491600036621093750e+01 -1.303969573974609375e+01 -1.059343814849853516e+00 -3.183447265625000000e+01 -7.515763759613037109e+00 -5.481451034545898438e+00 -3.400113296508789062e+01 5.003251552581787109e+00 1.403052997589111328e+01 -3.519189453125000000e+01 1.064082336425781250e+01 5.503596782684326172e+00 -4.022605514526367188e+01 -1.109649467468261719e+01 -5.595483779907226562e+00 -3.339144134521484375e+01 1.249884814023971558e-01 1.235488224029541016e+01 -3.354344177246093750e+01 6.906558990478515625e+00 1.049071311950683594e+01 -3.687759017944335938e+01 -6.266912460327148438e+00 8.603849411010742188e+00 -3.275864028930664062e+01 -1.042594146728515625e+01 -6.803252696990966797e+00 -3.341915893554687500e+01 6.671973228454589844e+00 1.307745838165283203e+01 -3.642647933959960938e+01 9.908217430114746094e+00 3.917479991912841797e+00 -3.891647338867187500e+01 -1.367260265350341797e+01 -1.340244650840759277e+00 -3.264527893066406250e+01 1.015725898742675781e+01 4.350847721099853516e+00 -4.045023727416992188e+01 4.988581657409667969e+00 1.703431892395019531e+01 -3.678621292114257812e+01 4.486011981964111328e+00 1.549312114715576172e+01 -3.525472640991210938e+01 -1.424216556549072266e+01 3.309828758239746094e+00 -3.178898239135742188e+01 -1.054352283477783203e+01 -5.370079994201660156e+00 -3.425998687744140625e+01 -1.212919807434082031e+01 4.260169029235839844e+00 -3.137456512451171875e+01 9.186491966247558594e+00 6.449341297149658203e+00 -3.892719268798828125e+01 -1.862272024154663086e-01 1.230148029327392578e+01 -3.368735885620117188e+01 8.091861724853515625e+00 8.675560951232910156e+00 -3.763907623291015625e+01 8.792633056640625000e+00 2.685785531997680664e+00 -3.874554443359375000e+01 -1.367877578735351562e+01 2.730018615722656250e+00 -3.114862632751464844e+01 -6.802367687225341797e+00 7.919796943664550781e+00 -3.270755386352539062e+01 3.473256111145019531e+00 7.934442758560180664e-01 -3.719560241699218750e+01 -1.320299911499023438e+01 -4.635940074920654297e+00 -3.251789474487304688e+01 -6.299804210662841797e+00 7.880464076995849609e+00 -3.168355369567871094e+01 4.224413335323333740e-01 -2.079632043838500977e+00 -3.521601867675781250e+01 7.069731235504150391e+00 1.072512722015380859e+01 -3.773603820800781250e+01 7.989937782287597656e+00 1.267449665069580078e+01 -3.697547149658203125e+01 -9.759388923645019531e+00 -5.399367809295654297e+00 -3.421046829223632812e+01 -3.618900775909423828e+00 -2.957367420196533203e+00 -3.556412506103515625e+01 5.933468341827392578e+00 1.671329689025878906e+01 -3.587978363037109375e+01 7.421648979187011719e+00 1.228491497039794922e+01 -3.740580368041992188e+01 2.097340583801269531e+00 1.408759593963623047e+01 -3.543465805053710938e+01 9.061409950256347656e+00 9.543976783752441406e+00 -3.768153762817382812e+01 -1.424290275573730469e+01 2.633504390716552734e+00 -3.163622665405273438e+01 -1.401355838775634766e+01 -2.621553659439086914e+00 -3.322246932983398438e+01 -8.917589187622070312e+00 5.090000152587890625e+00 -3.074731636047363281e+01 8.458101272583007812e+00 3.226639509201049805e+00 -3.996366500854492188e+01 -4.856958389282226562e+00 -4.389805793762207031e+00 -3.525214385986328125e+01 -1.448876571655273438e+01 1.898373723030090332e+00 -3.005123710632324219e+01 -3.101223945617675781e+00 1.037937927246093750e+01 -3.215810012817382812e+01 -1.321336627006530762e+00 1.036737537384033203e+01 -3.416956329345703125e+01 3.683733463287353516e+00 1.408735179901123047e+01 -3.442089080810546875e+01 5.999025821685791016e+00 1.453496170043945312e+01 -3.661719512939453125e+01 -1.071638298034667969e+01 -5.254877567291259766e+00 -3.354290771484375000e+01 -2.078369617462158203e+00 -2.762423753738403320e+00 -3.541294860839843750e+01 8.702118873596191406e+00 7.511321544647216797e+00 -3.688767242431640625e+01 5.248288154602050781e+00 1.213294386863708496e+00 -3.831471252441406250e+01 8.915245056152343750e+00 1.136799812316894531e+01 -3.556207656860351562e+01 9.196672439575195312e+00 5.999301433563232422e+00 -3.854904556274414062e+01 9.807078838348388672e-01 -2.872866988182067871e-01 -3.664804077148437500e+01 -9.116868972778320312e+00 -4.282641410827636719e+00 -3.384859848022460938e+01 2.992147922515869141e+00 1.398912334442138672e+01 -3.492187118530273438e+01 5.250207901000976562e+00 1.604376220703125000e+01 -3.537212753295898438e+01 -1.248053169250488281e+01 3.318115234375000000e+00 -3.251019287109375000e+01 1.824128746986389160e+00 1.231794834136962891e+01 -3.518496322631835938e+01 9.230393409729003906e+00 9.474287033081054688e+00 -3.716514587402343750e+01 -3.511295795440673828e+00 1.026824283599853516e+01 -3.387484359741210938e+01 7.532843112945556641e+00 1.376453876495361328e+01 -3.609943771362304688e+01 4.390947818756103516e+00 1.575814628601074219e+01 -3.550292205810546875e+01 1.057982540130615234e+01 5.002923011779785156e+00 -3.932018280029296875e+01 -3.352329492568969727e+00 8.908219337463378906e+00 -3.266507339477539062e+01 -2.541861295700073242e+00 1.090864086151123047e+01 -3.338763046264648438e+01 6.411665916442871094e+00 1.263762187957763672e+01 -3.728204345703125000e+01 4.644699096679687500e+00 1.686655426025390625e+01 -3.476118087768554688e+01 -1.263626480102539062e+01 -3.473898887634277344e+00 -3.377932739257812500e+01 -5.641857624053955078e+00 7.781061649322509766e+00 -3.162906455993652344e+01 6.060124397277832031e+00 1.592308425903320312e+01 -3.483712768554687500e+01 7.138476848602294922e+00 3.147271156311035156e+00 -3.778773498535156250e+01 8.647312164306640625e+00 8.186199188232421875e+00 -3.740001296997070312e+01 4.499524593353271484e+00 1.449458599090576172e+01 -3.554817581176757812e+01 9.089171409606933594e+00 5.894196987152099609e+00 -3.705057144165039062e+01 8.929895401000976562e+00 1.949493408203125000e+00 -3.832108688354492188e+01 9.002691268920898438e+00 6.820681095123291016e+00 -3.713683700561523438e+01 6.481624126434326172e+00 1.600939941406250000e+01 -3.527301406860351562e+01 8.551072120666503906e+00 9.970750808715820312e+00 -3.665785217285156250e+01 5.120794773101806641e+00 1.478552818298339844e+01 -3.486598205566406250e+01 6.563251495361328125e+00 1.602331924438476562e+01 -3.563718414306640625e+01 -8.354094505310058594e+00 -5.049552440643310547e+00 -3.321511840820312500e+01 7.565909385681152344e+00 3.526400089263916016e+00 -3.772174453735351562e+01 -9.008224487304687500e+00 -4.538418769836425781e+00 -3.199096298217773438e+01 7.372692584991455078e+00 1.364934921264648438e+01 -3.563378524780273438e+01 1.013308811187744141e+01 5.361336708068847656e+00 -3.795025634765625000e+01 -1.184482669830322266e+01 -2.050455570220947266e+00 -3.146364021301269531e+01 -8.937368392944335938e+00 -4.701141834259033203e+00 -3.418110656738281250e+01 -1.289185142517089844e+01 3.270557880401611328e+00 -3.150546073913574219e+01 -9.659744262695312500e+00 5.167032718658447266e+00 -3.098603439331054688e+01 -9.597349166870117188e+00 5.716717243194580078e+00 -3.103815460205078125e+01 -1.403346347808837891e+01 1.024075746536254883e+00 -3.182414054870605469e+01 5.873352885246276855e-01 1.294094753265380859e+01 -3.399468612670898438e+01 8.644434928894042969e+00 1.041883182525634766e+01 -3.653429412841796875e+01 -1.288654994964599609e+01 2.398099660873413086e+00 -3.129719352722167969e+01 3.201783895492553711e+00 1.350622844696044922e+01 -3.436027526855468750e+01 5.243587970733642578e+00 1.481462669372558594e+01 -3.504279327392578125e+01 -2.836610078811645508e+00 -2.981769561767578125e+00 -3.497705841064453125e+01 -7.521943092346191406e+00 7.637488842010498047e+00 -3.056996726989746094e+01 5.169833183288574219e+00 1.786308646202087402e+00 -3.713518142700195312e+01 5.585730552673339844e+00 1.240975761413574219e+01 -3.641837310791015625e+01 7.524459362030029297e+00 1.238748550415039062e+01 -3.687815093994140625e+01 -1.029839038848876953e+01 -4.050535678863525391e+00 -3.353700637817382812e+01 9.103217124938964844e-01 4.118359982967376709e-01 -3.649469757080078125e+01 4.657155036926269531e+00 1.552149677276611328e+01 -3.406850051879882812e+01 -4.271815776824951172e+00 -2.713095426559448242e+00 -3.458002471923828125e+01 -4.746053814888000488e-01 -1.683431863784790039e-01 -3.433138275146484375e+01 -1.114380550384521484e+01 -2.859268903732299805e+00 -3.193341636657714844e+01 6.748442173004150391e+00 1.197175312042236328e+01 -3.711925506591796875e+01 8.386735916137695312e+00 4.201336860656738281e+00 -3.753350067138671875e+01 -6.405508995056152344e+00 -3.850753307342529297e+00 -3.276064682006835938e+01 -9.180428504943847656e+00 6.101121425628662109e+00 -3.098541259765625000e+01 3.614214420318603516e+00 8.326457142829895020e-01 -3.606237411499023438e+01 9.569169998168945312e+00 4.494616508483886719e+00 -3.837500000000000000e+01 3.381574630737304688e+00 1.261392498016357422e+01 -3.293437576293945312e+01 8.318062782287597656e+00 7.473987579345703125e+00 -3.655815887451171875e+01 -1.278332996368408203e+01 2.111005067825317383e+00 -3.147411537170410156e+01 -1.149309825897216797e+01 -2.327890157699584961e+00 -3.260842132568359375e+01 -4.111486971378326416e-01 1.232777500152587891e+01 -3.320280075073242188e+01 1.791751742362976074e+00 1.201063919067382812e+01 -3.391061019897460938e+01 7.359452724456787109e+00 9.679731369018554688e+00 -3.549650573730468750e+01 -8.404128074645996094e+00 -3.870813131332397461e+00 -3.443633651733398438e+01 -9.965077400207519531e+00 -2.572514057159423828e+00 -3.292479705810546875e+01 9.285708427429199219e+00 6.895581722259521484e+00 -3.701845169067382812e+01 -1.484569549560546875e+00 1.032965564727783203e+01 -3.300154113769531250e+01 -1.074953842163085938e+01 -2.454796791076660156e+00 -3.268513488769531250e+01 -1.242776203155517578e+01 1.735517978668212891e-01 -3.187077903747558594e+01 -5.141334056854248047e+00 -2.332328557968139648e+00 -3.410919952392578125e+01 7.924146175384521484e+00 3.734270811080932617e+00 -3.669153213500976562e+01 -3.341317176818847656e+00 9.027841567993164062e+00 -3.182152938842773438e+01 -2.430734634399414062e+00 8.799063682556152344e+00 -3.193284606933593750e+01 4.235919475555419922e+00 1.896822810173034668e+00 -3.580552673339843750e+01 7.500273227691650391e+00 8.053667068481445312e+00 -3.535583877563476562e+01 1.222171545028686523e+00 -3.720273450016975403e-02 -3.633168792724609375e+01 8.976780891418457031e+00 4.242088317871093750e+00 -3.688898468017578125e+01 5.516015529632568359e+00 1.435916042327880859e+01 -3.570215988159179688e+01 -1.146966075897216797e+01 2.647747755050659180e+00 -3.192699432373046875e+01 -6.235749244689941406e+00 7.093631744384765625e+00 -3.155088424682617188e+01 -1.750960588455200195e+00 8.770887374877929688e+00 -3.283690261840820312e+01 1.083015084266662598e+00 1.189455127716064453e+01 -3.185740852355957031e+01 -1.166327190399169922e+01 3.971663951873779297e+00 -3.131609725952148438e+01 -3.866636514663696289e+00 -1.631854653358459473e+00 -3.442963409423828125e+01 6.859767436981201172e+00 3.228725910186767578e+00 -3.570284652709960938e+01 5.739420413970947266e+00 1.308112049102783203e+01 -3.409197616577148438e+01 4.805899143218994141e+00 1.404307937622070312e+01 -3.509381103515625000e+01 5.060042381286621094e+00 1.469707775115966797e+01 -3.448297882080078125e+01 -1.026474761962890625e+01 -7.726894021034240723e-01 -3.095919036865234375e+01 5.450649738311767578e+00 1.087261486053466797e+01 -3.576899337768554688e+01 -8.323218345642089844e+00 -2.172387838363647461e+00 -3.392506408691406250e+01 -1.125428485870361328e+01 7.581529617309570312e-01 -3.097682189941406250e+01 -5.459375858306884766e+00 -1.857540845870971680e+00 -3.294511413574218750e+01 -9.538409233093261719e+00 -2.454347610473632812e+00 -3.270769119262695312e+01 4.271050453186035156e+00 1.304662418365478516e+01 -3.512852478027343750e+01 -4.546336174011230469e+00 8.428887367248535156e+00 -3.153931045532226562e+01 -9.061341285705566406e+00 3.337337017059326172e+00 -3.071450233459472656e+01 -7.923109531402587891e+00 5.046148777008056641e+00 -3.190524101257324219e+01 3.809792041778564453e+00 1.325206184387207031e+01 -3.394722747802734375e+01 5.489440917968750000e+00 1.525930690765380859e+01 -3.394295883178710938e+01 -1.134760284423828125e+01 3.743607282638549805e+00 -3.086565589904785156e+01 -1.166304796934127808e-01 2.576026916503906250e-01 -3.403492355346679688e+01 7.775973320007324219e+00 4.859247207641601562e+00 -3.634757995605468750e+01 -3.003392696380615234e+00 -1.599044680595397949e+00 -3.341824722290039062e+01 7.086285114288330078e+00 3.829113721847534180e+00 -3.592655563354492188e+01 8.469767570495605469e+00 7.021039485931396484e+00 -3.620414733886718750e+01 8.865132331848144531e+00 6.144110202789306641e+00 -3.575149917602539062e+01 4.825846195220947266e+00 1.170735645294189453e+01 -3.443559265136718750e+01 8.327745437622070312e+00 7.134800910949707031e+00 -3.555459213256835938e+01 -3.842875242233276367e+00 -8.935103416442871094e-01 -3.308512115478515625e+01 -6.130900859832763672e+00 6.233600139617919922e+00 -3.077877426147460938e+01 -9.255743026733398438e+00 -1.353454113006591797e+00 -3.277557754516601562e+01 -1.095488739013671875e+01 1.517074584960937500e+00 -3.144994926452636719e+01 -5.971157550811767578e+00 -9.309710264205932617e-01 -3.277580642700195312e+01 -4.219458103179931641e+00 -5.035005807876586914e-01 -3.377312469482421875e+01 -1.986418247222900391e+00 1.044941902160644531e+01 -3.198712730407714844e+01 -8.481051445007324219e+00 -1.214739561080932617e+00 -3.339825439453125000e+01 1.575862169265747070e+00 1.166918563842773438e+01 -3.243954849243164062e+01 5.261296749114990234e+00 1.295914936065673828e+01 -3.471527862548828125e+01 9.767736196517944336e-01 6.080050021409988403e-02 -3.539836502075195312e+01 6.313069343566894531e+00 9.321195602416992188e+00 -3.478478240966796875e+01 7.542778968811035156e+00 5.202004909515380859e+00 -3.579492187500000000e+01 -1.610653288662433624e-02 1.108150863647460938e+01 -3.330201339721679688e+01 2.951458215713500977e+00 1.326486778259277344e+01 -3.315311813354492188e+01 -1.001234149932861328e+01 7.228403091430664062e-01 -3.186194229125976562e+01 -9.783827781677246094e+00 3.990437269210815430e+00 -3.068545150756835938e+01 4.688646316528320312e+00 1.343297958374023438e+01 -3.418631744384765625e+01 -1.039880037307739258e+00 9.577965736389160156e+00 -3.168071937561035156e+01 -9.574932098388671875e+00 2.822335243225097656e+00 -3.085011291503906250e+01 4.225805282592773438e+00 2.045988559722900391e+00 -3.535318374633789062e+01 -6.710208892822265625e+00 -1.074508309364318848e+00 -3.277362442016601562e+01 -9.674069404602050781e+00 8.357515186071395874e-02 -3.130118370056152344e+01 6.576049327850341797e+00 1.074834442138671875e+01 -3.367256164550781250e+01 -8.968543052673339844e+00 4.833159446716308594e+00 -3.090136337280273438e+01 4.552859812974929810e-02 1.092650604248046875e+01 -3.317891693115234375e+01 5.532151222229003906e+00 1.036976718902587891e+01 -3.403960418701171875e+01 3.171592056751251221e-01 1.181753993034362793e+00 -3.458186340332031250e+01 1.897102952003479004e+00 5.975553393363952637e-01 -3.448907089233398438e+01 6.202086448669433594e+00 3.798014402389526367e+00 -3.676780319213867188e+01 7.882579803466796875e+00 7.078843116760253906e+00 -3.484875488281250000e+01 -1.770455360412597656e+00 1.722214519977569580e-01 -3.488379287719726562e+01 6.569966316223144531e+00 8.741225242614746094e+00 -3.510089111328125000e+01 -5.862188816070556641e+00 7.122201919555664062e-01 -3.296596145629882812e+01 -4.110642910003662109e+00 6.779163837432861328e+00 -3.080331611633300781e+01 -8.676901817321777344e+00 6.900521516799926758e-01 -3.230560302734375000e+01 -6.722908496856689453e+00 4.810088634490966797e+00 -3.133333587646484375e+01 -2.965675830841064453e+00 7.225263595581054688e+00 -3.131947135925292969e+01 -4.553654670715332031e+00 -1.587317436933517456e-01 -3.199684715270996094e+01 4.816579341888427734e+00 1.173544216156005859e+01 -3.422853851318359375e+01 7.101407527923583984e+00 8.645298957824707031e+00 -3.477722167968750000e+01 -8.765973091125488281e+00 1.234274983406066895e+00 -3.214438247680664062e+01 -8.267867088317871094e+00 3.306871414184570312e+00 -3.165790176391601562e+01 -3.368329763412475586e+00 7.434630990028381348e-01 -3.323192214965820312e+01 3.309497356414794922e+00 1.179631233215332031e+01 -3.341413116455078125e+01 -4.516695141792297363e-01 3.615867793560028076e-01 -3.322137832641601562e+01 1.767616510391235352e+00 1.099135041236877441e+00 -3.367557907104492188e+01 -8.247048377990722656e+00 5.851237773895263672e-01 -3.211376953125000000e+01 1.545258045196533203e+00 2.934080839157104492e+00 -3.373180770874023438e+01 3.679075956344604492e+00 2.348068475723266602e+00 -3.461090087890625000e+01 -2.823629856109619141e+00 2.411630451679229736e-01 -3.324169540405273438e+01 2.650178909301757812e+00 1.234021854400634766e+01 -3.381113433837890625e+01 -7.987791538238525391e+00 1.240744948387145996e+00 -3.041804313659667969e+01 5.730314731597900391e+00 4.183201789855957031e+00 -3.494966506958007812e+01 6.264925956726074219e+00 9.427359580993652344e+00 -3.471482086181640625e+01 -3.333761692047119141e+00 1.252912878990173340e+00 -3.251244354248046875e+01 3.206526279449462891e+00 2.321465730667114258e+00 -3.295820236206054688e+01 7.196612358093261719e+00 5.565537452697753906e+00 -3.579705047607421875e+01 -7.144252300262451172e+00 2.242330074310302734e+00 -3.167018699645996094e+01 -6.712494373321533203e+00 1.714093446731567383e+00 -3.191052055358886719e+01 -5.759192943572998047e+00 9.927663207054138184e-01 -3.243070983886718750e+01 2.204661846160888672e+00 1.093824577331542969e+01 -3.316740036010742188e+01 4.294639110565185547e+00 1.157164764404296875e+01 -3.328083038330078125e+01 5.062750816345214844e+00 4.364284515380859375e+00 -3.522384262084960938e+01 3.629896640777587891e+00 3.454832315444946289e+00 -3.408863449096679688e+01 -7.919236183166503906e+00 2.214442253112792969e+00 -3.095293998718261719e+01 -4.513352394104003906e+00 6.142492771148681641e+00 -3.135408973693847656e+01 -1.941532015800476074e+00 8.261045455932617188e+00 -3.190693283081054688e+01 -5.435317039489746094e+00 2.087583303451538086e+00 -3.326159667968750000e+01 -5.875263214111328125e+00 3.672774076461791992e+00 -3.258732223510742188e+01 -5.779096126556396484e+00 4.856217384338378906e+00 -3.053718948364257812e+01 5.379683494567871094e+00 4.831765174865722656e+00 -3.406411361694335938e+01 1.037745475769042969e+00 1.073554801940917969e+01 -3.292950439453125000e+01 6.290938377380371094e+00 8.570867538452148438e+00 -3.495728302001953125e+01 -2.236969470977783203e+00 1.808537125587463379e+00 -3.407625198364257812e+01 6.260064601898193359e+00 6.987428188323974609e+00 -3.440414428710937500e+01 -7.376688003540039062e+00 2.251650094985961914e+00 -3.203951644897460938e+01 -5.266481399536132812e+00 1.295435786247253418e+00 -3.165197753906250000e+01 4.298358440399169922e+00 1.125469589233398438e+01 -3.250338363647460938e+01 3.821300029754638672e+00 2.981521844863891602e+00 -3.396636581420898438e+01 4.456036090850830078e+00 1.224488067626953125e+01 -3.443475341796875000e+01 2.110660076141357422e+00 2.990085601806640625e+00 -3.329574584960937500e+01 -3.681596040725708008e+00 2.235030412673950195e+00 -3.180196762084960938e+01 -6.558768749237060547e+00 1.955933332443237305e+00 -3.232238388061523438e+01 5.710419178009033203e+00 5.027747154235839844e+00 -3.439328384399414062e+01 1.387656450271606445e+00 9.471092224121093750e+00 -3.262067794799804688e+01 1.527244925498962402e+00 4.385692119598388672e+00 -3.420941162109375000e+01 -2.523729503154754639e-01 9.664917945861816406e+00 -3.267361450195312500e+01 5.512321472167968750e+00 9.664330482482910156e+00 -3.402663040161132812e+01 5.143492698669433594e+00 9.632041931152343750e+00 -3.360577774047851562e+01 -3.939777374267578125e+00 7.222993850708007812e+00 -3.174267387390136719e+01 -2.283929824829101562e+00 8.626748085021972656e+00 -3.170854949951171875e+01 -2.404788255691528320e+00 3.445846796035766602e+00 -3.065986251831054688e+01 6.307164192199707031e+00 7.141441345214843750e+00 -3.457508850097656250e+01 -4.373162269592285156e+00 5.201852321624755859e+00 -3.092795181274414062e+01 5.290184974670410156e+00 6.286273479461669922e+00 -3.427656936645507812e+01 -2.744464874267578125e+00 7.101686954498291016e+00 -3.061198616027832031e+01 -2.514587402343750000e+00 7.666458129882812500e+00 -3.189643859863281250e+01 5.251954123377799988e-02 9.338208198547363281e+00 -3.237795257568359375e+01 4.009926319122314453e+00 1.003422737121582031e+01 -3.321475982666015625e+01 -3.534446477890014648e+00 2.983373403549194336e+00 -3.211147308349609375e+01 -4.731144905090332031e+00 3.336345195770263672e+00 -3.211485290527343750e+01 3.705127716064453125e+00 3.825328350067138672e+00 -3.336822891235351562e+01 4.506455421447753906e+00 6.441614627838134766e+00 -3.415060043334960938e+01 3.476153612136840820e+00 1.076334953308105469e+01 -3.316204452514648438e+01 3.031983971595764160e-02 2.539682149887084961e+00 -3.303542709350585938e+01 2.643685817718505859e+00 3.513479471206665039e+00 -3.277513504028320312e+01 2.875938117504119873e-01 4.200324535369873047e+00 -3.321783828735351562e+01 -3.157133817672729492e+00 4.600803852081298828e+00 -3.249036407470703125e+01 -3.549103260040283203e+00 5.403153896331787109e+00 -3.130288887023925781e+01 4.305396556854248047e+00 6.727138996124267578e+00 -3.276699829101562500e+01 5.001372337341308594e+00 9.367783546447753906e+00 -3.333360290527343750e+01 -2.026562690734863281e+00 3.925424337387084961e+00 -3.188398742675781250e+01 1.858548402786254883e+00 1.044762516021728516e+01 -3.327185058593750000e+01 -1.599346399307250977e-01 9.925111770629882812e+00 -3.203424072265625000e+01 -7.614338397979736328e-01 6.801872253417968750e+00 -3.238056945800781250e+01 3.053786993026733398e+00 9.673657417297363281e+00 -3.258687973022460938e+01 2.818861961364746094e+00 4.387887477874755859e+00 -3.346857070922851562e+01 2.940690994262695312e+00 4.953701496124267578e+00 -3.394621658325195312e+01 5.064973354339599609e+00 7.815902233123779297e+00 -3.412549591064453125e+01 3.760617733001708984e+00 5.371378898620605469e+00 -3.360800552368164062e+01 -1.282585144042968750e+00 5.131114959716796875e+00 -3.252309799194335938e+01 -2.533157348632812500e+00 5.156805515289306641e+00 -3.152650833129882812e+01 1.239893436431884766e+00 9.012858390808105469e+00 -3.199829292297363281e+01 6.522170901298522949e-01 5.699520111083984375e+00 -3.287061691284179688e+01 -9.082164168357849121e-01 5.547253608703613281e+00 -3.200845336914062500e+01 -6.542230844497680664e-01 7.329274177551269531e+00 -3.215978240966796875e+01 4.032114505767822266e+00 8.654461860656738281e+00 -3.277819061279296875e+01 7.831367254257202148e-01 7.135423660278320312e+00 -3.252005004882812500e+01 3.047149658203125000e+00 5.911173820495605469e+00 -3.278174591064453125e+01 -7.876773476600646973e-01 6.543649196624755859e+00 -3.218841171264648438e+01 6.533764600753784180e-01 6.316140651702880859e+00 -3.206358337402343750e+01 3.399532318115234375e+00 6.710620403289794922e+00 -3.266532516479492188e+01 1.262787938117980957e+00 5.842844963073730469e+00 -3.343317413330078125e+01
