3.865274667739868164e+00 6.126683712005615234e+00 -4.658731079101562500e+01 3.477557897567749023e+00 6.114351272583007812e+00 -4.751832962036132812e+01 3.807792425155639648e+00 7.141596794128417969e+00 -4.692300796508789062e+01 3.452458858489990234e+00 5.561005115509033203e+00 -4.729282760620117188e+01 3.303648471832275391e+00 6.631891250610351562e+00 -4.708250045776367188e+01 3.051442861557006836e+00 6.729076862335205078e+00 -4.719192504882812500e+01 2.711101531982421875e+00 6.478026390075683594e+00 -4.789713668823242188e+01 2.646486520767211914e+00 6.867749214172363281e+00 -4.745363235473632812e+01 2.743974924087524414e+00 7.550854206085205078e+00 -4.740132904052734375e+01 3.942718505859375000e+00 6.793517589569091797e+00 -4.636132812500000000e+01 3.593144655227661133e+00 6.129158496856689453e+00 -4.853060531616210938e+01 3.305693864822387695e+00 6.609903335571289062e+00 -4.525229644775390625e+01 2.683944940567016602e+00 7.282647132873535156e+00 -4.788967895507812500e+01 3.284466266632080078e+00 7.488374233245849609e+00 -4.576121902465820312e+01 4.510633945465087891e+00 5.756001472473144531e+00 -4.640762329101562500e+01 3.972457170486450195e+00 5.607264041900634766e+00 -4.886666870117187500e+01 2.384816169738769531e+00 6.698966503143310547e+00 -4.847854232788085938e+01 3.511865377426147461e+00 6.389132499694824219e+00 -4.528152084350585938e+01 3.008158922195434570e+00 7.331998825073242188e+00 -4.687602233886718750e+01 3.479064464569091797e+00 7.012946605682373047e+00 -4.672646713256835938e+01 3.164188146591186523e+00 7.510139465332031250e+00 -4.649403762817382812e+01 4.532020092010498047e+00 5.471353530883789062e+00 -4.708849716186523438e+01 2.894788742065429688e+00 6.124727249145507812e+00 -4.818436813354492188e+01 2.515416860580444336e+00 7.624228000640869141e+00 -4.659436035156250000e+01 4.488608837127685547e+00 5.398556709289550781e+00 -4.649868774414062500e+01 3.575489044189453125e+00 5.308476448059082031e+00 -4.814303207397460938e+01 3.643652677536010742e+00 5.812757015228271484e+00 -4.590221023559570312e+01 1.866129279136657715e+00 7.078340530395507812e+00 -4.857265472412109375e+01 1.927395343780517578e+00 7.045127868652343750e+00 -4.754825973510742188e+01 2.609457492828369141e+00 7.485116958618164062e+00 -4.733837509155273438e+01 4.356658935546875000e+00 7.215583801269531250e+00 -4.612614440917968750e+01 2.253380298614501953e+00 6.544753551483154297e+00 -4.919512557983398438e+01 4.230262756347656250e+00 5.229627609252929688e+00 -4.763770675659179688e+01 2.360722541809082031e+00 6.119489192962646484e+00 -4.921770477294921875e+01 2.979592084884643555e+00 7.160869598388671875e+00 -4.573818588256835938e+01 4.133567333221435547e+00 6.998670578002929688e+00 -4.435105514526367188e+01 2.317951679229736328e+00 7.748781204223632812e+00 -4.859775161743164062e+01 2.630229949951171875e+00 7.132797241210937500e+00 -4.668615341186523438e+01 4.641564846038818359e+00 5.809342384338378906e+00 -4.593302917480468750e+01 3.311566591262817383e+00 6.700562953948974609e+00 -4.590515899658203125e+01 2.965960502624511719e+00 8.215727806091308594e+00 -4.554683685302734375e+01 2.896634101867675781e+00 5.643723011016845703e+00 -4.934980010986328125e+01 2.139117956161499023e+00 5.986084461212158203e+00 -4.915505981445312500e+01 1.971807956695556641e+00 6.188958644866943359e+00 -4.904749679565429688e+01 4.788540363311767578e+00 6.861657619476318359e+00 -4.481249237060546875e+01 2.460573196411132812e+00 7.771883487701416016e+00 -4.610831069946289062e+01 2.214653253555297852e+00 6.520880222320556641e+00 -4.886752700805664062e+01 1.946725726127624512e+00 7.048346996307373047e+00 -4.789477157592773438e+01 4.423560619354248047e+00 5.571874141693115234e+00 -4.718405914306640625e+01 4.553999423980712891e+00 5.627535343170166016e+00 -4.642972564697265625e+01 1.940358161926269531e+00 7.477334976196289062e+00 -4.739918899536132812e+01 3.354162693023681641e+00 4.854849338531494141e+00 -4.879445266723632812e+01 4.102271080017089844e+00 6.946044921875000000e+00 -4.417930603027343750e+01 2.987302303314208984e+00 5.789437770843505859e+00 -4.925256729125976562e+01 3.105939388275146484e+00 5.790606021881103516e+00 -4.956307601928710938e+01 4.795361995697021484e+00 5.798169612884521484e+00 -4.527075195312500000e+01 3.280331134796142578e+00 6.867485523223876953e+00 -4.546756744384765625e+01 4.078732013702392578e+00 5.142983436584472656e+00 -4.728640365600585938e+01 4.774173259735107422e+00 6.435569763183593750e+00 -4.473115921020507812e+01 3.086991548538208008e+00 6.962234020233154297e+00 -4.906232833862304688e+01 3.972509860992431641e+00 6.454840183258056641e+00 -4.432167816162109375e+01 2.663621902465820312e+00 7.061617374420166016e+00 -4.780827713012695312e+01 2.137712240219116211e+00 7.370333194732666016e+00 -4.725838470458984375e+01 5.375776290893554688e+00 5.656178474426269531e+00 -4.412483215332031250e+01 2.712760210037231445e+00 6.297426223754882812e+00 -4.967525482177734375e+01 2.860491514205932617e+00 6.122340679168701172e+00 -4.964754486083984375e+01 2.214585304260253906e+00 6.949768066406250000e+00 -4.813853454589843750e+01 4.707541942596435547e+00 6.199831485748291016e+00 -4.402366256713867188e+01 4.432896137237548828e+00 4.346959114074707031e+00 -4.644118499755859375e+01 5.584343910217285156e+00 5.252720832824707031e+00 -4.566062164306640625e+01 5.173546314239501953e+00 5.566914558410644531e+00 -4.522466659545898438e+01 5.357628345489501953e+00 6.205719947814941406e+00 -4.512220764160156250e+01 2.902950286865234375e+00 7.339561462402343750e+00 -4.653124618530273438e+01 2.867966651916503906e+00 7.614247798919677734e+00 -4.549024963378906250e+01 4.119526386260986328e+00 7.219477653503417969e+00 -4.446475219726562500e+01 2.943530797958374023e+00 5.921286106109619141e+00 -5.063451385498046875e+01 2.034702301025390625e+00 7.390366554260253906e+00 -4.689850997924804688e+01 5.295487880706787109e+00 4.416154384613037109e+00 -4.432307052612304688e+01 1.738329052925109863e+00 6.603972434997558594e+00 -4.941902923583984375e+01 3.979958057403564453e+00 5.960506439208984375e+00 -4.367829895019531250e+01 2.342472314834594727e+00 6.724625587463378906e+00 -4.874102020263671875e+01 2.407051801681518555e+00 6.184561252593994141e+00 -4.896081542968750000e+01 2.515330553054809570e+00 5.454518318176269531e+00 -4.959877777099609375e+01 2.754136085510253906e+00 6.945875167846679688e+00 -4.834754180908203125e+01 2.820617198944091797e+00 7.692627429962158203e+00 -4.596588134765625000e+01 2.096069812774658203e+00 7.700089931488037109e+00 -4.691266250610351562e+01 4.517261981964111328e+00 4.680974006652832031e+00 -4.627450942993164062e+01 4.068293094635009766e+00 4.960026741027832031e+00 -4.863667297363281250e+01 2.559240579605102539e+00 5.498898029327392578e+00 -5.063249969482421875e+01 5.670716762542724609e+00 4.917649745941162109e+00 -4.320004653930664062e+01 4.185828685760498047e+00 6.740451335906982422e+00 -4.379473114013671875e+01 3.056145191192626953e+00 6.675495147705078125e+00 -4.584639358520507812e+01 3.454500675201416016e+00 6.983638286590576172e+00 -4.522668457031250000e+01 2.406471729278564453e+00 7.294455528259277344e+00 -4.674972534179687500e+01 3.984218835830688477e+00 4.540914058685302734e+00 -4.874741744995117188e+01 2.280228853225708008e+00 7.395875930786132812e+00 -4.760871887207031250e+01 5.011440277099609375e+00 6.001481533050537109e+00 -4.337585067749023438e+01 5.516546726226806641e+00 4.087714195251464844e+00 -4.547864532470703125e+01 4.151591300964355469e+00 4.682555198669433594e+00 -4.801839447021484375e+01 5.501981735229492188e+00 4.190704822540283203e+00 -4.811174774169921875e+01 2.753159761428833008e+00 4.838205337524414062e+00 -4.891440582275390625e+01 5.887391090393066406e+00 5.120851039886474609e+00 -4.446441268920898438e+01 2.592087984085083008e+00 5.863172054290771484e+00 -5.041704559326171875e+01 3.371085643768310547e+00 4.789259910583496094e+00 -4.974608993530273438e+01 2.153536081314086914e+00 6.052923679351806641e+00 -4.985246276855468750e+01 2.515827417373657227e+00 7.829561233520507812e+00 -4.633649063110351562e+01 5.673202037811279297e+00 4.280282020568847656e+00 -4.611368942260742188e+01 5.265085697174072266e+00 5.589178085327148438e+00 -4.374150085449218750e+01 3.568801164627075195e+00 4.919859886169433594e+00 -4.988093948364257812e+01 1.958752751350402832e+00 6.206919193267822266e+00 -5.039317703247070312e+01 1.877311825752258301e+00 6.327447891235351562e+00 -4.988103103637695312e+01 3.673686504364013672e+00 7.448971748352050781e+00 -4.424615097045898438e+01 4.678768634796142578e+00 6.232128620147705078e+00 -4.407210159301757812e+01 2.614182710647583008e+00 4.915595054626464844e+00 -5.078151321411132812e+01 2.608373403549194336e+00 6.284050464630126953e+00 -4.934899139404296875e+01 4.269416809082031250e+00 6.043697357177734375e+00 -4.330761337280273438e+01 4.363431930541992188e+00 6.792314529418945312e+00 -4.441667175292968750e+01 6.191832542419433594e+00 4.858192443847656250e+00 -4.323730087280273438e+01 3.929505825042724609e+00 4.614555358886718750e+00 -4.852003479003906250e+01 6.340625286102294922e+00 3.907192468643188477e+00 -4.458065414428710938e+01 2.327395677566528320e+00 7.394938468933105469e+00 -4.745688247680664062e+01 3.002226114273071289e+00 7.451081752777099609e+00 -4.595740127563476562e+01 2.158320903778076172e+00 7.773700714111328125e+00 -4.665817642211914062e+01 4.727072238922119141e+00 4.209934234619140625e+00 -4.757735443115234375e+01 2.322098731994628906e+00 6.530297756195068359e+00 -4.839205551147460938e+01 1.851734280586242676e+00 7.068492412567138672e+00 -4.704209899902343750e+01 3.077807188034057617e+00 7.109512805938720703e+00 -4.469969558715820312e+01 3.842864990234375000e+00 7.212148666381835938e+00 -4.428849029541015625e+01 5.673015594482421875e+00 4.170260906219482422e+00 -4.657146072387695312e+01 5.954684734344482422e+00 3.747673749923706055e+00 -4.479150009155273438e+01 3.474551916122436523e+00 4.221809864044189453e+00 -4.957851409912109375e+01 3.982475757598876953e+00 4.431346416473388672e+00 -4.893254852294921875e+01 2.161881923675537109e+00 7.010878086090087891e+00 -4.821474838256835938e+01 2.145956039428710938e+00 7.573310852050781250e+00 -4.590149688720703125e+01 2.395772933959960938e+00 6.974467277526855469e+00 -4.480203628540039062e+01 5.535173892974853516e+00 5.054943561553955078e+00 -4.294197845458984375e+01 5.402387142181396484e+00 6.186191558837890625e+00 -4.318613052368164062e+01 2.127146244049072266e+00 5.680919647216796875e+00 -5.154257965087890625e+01 5.208443641662597656e+00 6.360548496246337891e+00 -4.340673065185546875e+01 5.911082267761230469e+00 4.448985099792480469e+00 -4.604354476928710938e+01 6.326454162597656250e+00 3.990032434463500977e+00 -4.436433029174804688e+01 2.158460378646850586e+00 5.597113132476806641e+00 -5.106172180175781250e+01 2.301243305206298828e+00 6.151952743530273438e+00 -4.982602691650390625e+01 5.179311752319335938e+00 5.582774162292480469e+00 -4.255289840698242188e+01 3.760260105133056641e+00 6.745762825012207031e+00 -4.331037139892578125e+01 3.926542520523071289e+00 4.702357769012451172e+00 -4.829335403442382812e+01 3.451334238052368164e+00 4.548484802246093750e+00 -5.105903625488281250e+01 2.067964553833007812e+00 7.003087043762207031e+00 -4.570837402343750000e+01 5.937355518341064453e+00 5.090838432312011719e+00 -4.285960388183593750e+01 2.096318721771240234e+00 7.060712337493896484e+00 -4.713131713867187500e+01 3.116550445556640625e+00 7.719476699829101562e+00 -4.603451919555664062e+01 2.792659044265747070e+00 7.503566741943359375e+00 -4.544045639038085938e+01 2.065360784530639648e+00 5.636998176574707031e+00 -5.170561981201171875e+01 6.006030082702636719e+00 3.794465303421020508e+00 -4.598803329467773438e+01 6.108417034149169922e+00 3.272815465927124023e+00 -4.457503128051757812e+01 3.142533063888549805e+00 4.560252189636230469e+00 -4.945824813842773438e+01 5.052196979522705078e+00 6.864609718322753906e+00 -4.233091354370117188e+01 5.243471622467041016e+00 5.682677268981933594e+00 -4.239202880859375000e+01 1.659521222114562988e+00 6.574409961700439453e+00 -4.982943725585937500e+01 5.154337882995605469e+00 3.597671031951904297e+00 -4.741498565673828125e+01 3.456347703933715820e+00 6.896644115447998047e+00 -4.433129882812500000e+01 1.805416226387023926e+00 6.648431301116943359e+00 -4.790985870361328125e+01 3.873486995697021484e+00 7.154950141906738281e+00 -4.450048446655273438e+01 2.687669992446899414e+00 4.826709270477294922e+00 -5.160803222656250000e+01 3.879627943038940430e+00 4.561266899108886719e+00 -4.980579376220703125e+01 5.215441703796386719e+00 3.427012205123901367e+00 -4.738859558105468750e+01 1.991309523582458496e+00 5.505710124969482422e+00 -5.059090042114257812e+01 1.945485949516296387e+00 5.529083728790283203e+00 -5.160842132568359375e+01 2.780869007110595703e+00 5.181173324584960938e+00 -5.106758880615234375e+01 2.417381525039672852e+00 5.705258369445800781e+00 -5.081468963623046875e+01 2.568679332733154297e+00 7.750267982482910156e+00 -4.676644897460937500e+01 5.932995319366455078e+00 4.483972072601318359e+00 -4.240236282348632812e+01 5.844870567321777344e+00 5.217635154724121094e+00 -4.213692474365234375e+01 6.821353435516357422e+00 3.736828327178955078e+00 -4.395785903930664062e+01 4.587020874023437500e+00 4.242022991180419922e+00 -4.920656585693359375e+01 1.897173404693603516e+00 7.099036693572998047e+00 -4.755572891235351562e+01 5.740946292877197266e+00 4.479207992553710938e+00 -4.144412994384765625e+01 3.305663108825683594e+00 7.641723632812500000e+00 -4.475434875488281250e+01 2.911895036697387695e+00 7.667236804962158203e+00 -4.577807235717773438e+01 2.366928339004516602e+00 7.129275798797607422e+00 -4.472023010253906250e+01 3.056524038314819336e+00 6.632920265197753906e+00 -4.475029754638671875e+01 6.127006053924560547e+00 2.922794818878173828e+00 -4.710798263549804688e+01 5.799931526184082031e+00 3.528987884521484375e+00 -4.615783309936523438e+01 2.307060718536376953e+00 4.967713832855224609e+00 -5.132408905029296875e+01 2.210554122924804688e+00 6.152391433715820312e+00 -4.944471740722656250e+01 1.881579875946044922e+00 6.603504657745361328e+00 -4.913856124877929688e+01 2.994409322738647461e+00 4.561486721038818359e+00 -5.010100555419921875e+01 2.751042366027832031e+00 7.056385040283203125e+00 -4.497666931152343750e+01 2.277805805206298828e+00 5.363674640655517578e+00 -5.093804168701171875e+01 2.363353967666625977e+00 5.706284523010253906e+00 -4.977912139892578125e+01 6.416517734527587891e+00 3.945498466491699219e+00 -4.605921936035156250e+01 6.886382579803466797e+00 3.645058870315551758e+00 -4.342845153808593750e+01 5.639598369598388672e+00 5.748274326324462891e+00 -4.268775558471679688e+01 2.846117019653320312e+00 4.438169002532958984e+00 -5.012867355346679688e+01 2.215841531753540039e+00 5.235090732574462891e+00 -5.139683151245117188e+01 2.424651145935058594e+00 7.645318031311035156e+00 -4.575172424316406250e+01 5.861306667327880859e+00 4.808830261230468750e+00 -4.241143798828125000e+01 5.376415252685546875e+00 3.260145664215087891e+00 -4.785358428955078125e+01 5.770700454711914062e+00 3.532091617584228516e+00 -4.775144577026367188e+01 2.029445171356201172e+00 5.903653144836425781e+00 -4.839754486083984375e+01 5.935441970825195312e+00 4.582053661346435547e+00 -4.152495956420898438e+01 2.017757892608642578e+00 7.420708656311035156e+00 -4.636457061767578125e+01 3.303459405899047852e+00 4.144235610961914062e+00 -5.037160491943359375e+01 4.893930435180664062e+00 6.085508823394775391e+00 -4.315728759765625000e+01 6.664297580718994141e+00 3.541312456130981445e+00 -4.412556457519531250e+01 5.171256065368652344e+00 3.797775268554687500e+00 -4.863394165039062500e+01 4.857009887695312500e+00 5.959985256195068359e+00 -4.247872161865234375e+01 3.017528772354125977e+00 5.539204597473144531e+00 -5.164821624755859375e+01 4.454357147216796875e+00 3.540060758590698242e+00 -4.942976379394531250e+01 1.925464987754821777e+00 6.651795387268066406e+00 -4.750158691406250000e+01 2.657909870147705078e+00 7.154102802276611328e+00 -4.555028915405273438e+01 2.556944370269775391e+00 7.434978008270263672e+00 -4.494602203369140625e+01 2.562340736389160156e+00 7.889153480529785156e+00 -4.532871627807617188e+01 4.019076347351074219e+00 6.712351799011230469e+00 -4.329493331909179688e+01 2.806179761886596680e+00 5.075496196746826172e+00 -5.207722473144531250e+01 6.240622997283935547e+00 3.275517463684082031e+00 -4.441388320922851562e+01 2.123092889785766602e+00 5.713702678680419922e+00 -5.067526626586914062e+01 3.035873889923095703e+00 7.172988891601562500e+00 -4.503378295898437500e+01 4.624632835388183594e+00 6.750754833221435547e+00 -4.352058792114257812e+01 4.462561607360839844e+00 6.437816619873046875e+00 -4.286478805541992188e+01 5.666968345642089844e+00 6.092147350311279297e+00 -4.240835571289062500e+01 1.672290802001953125e+00 5.782884597778320312e+00 -4.849270629882812500e+01 5.932480335235595703e+00 4.718363285064697266e+00 -4.211267471313476562e+01 2.990721225738525391e+00 5.236863613128662109e+00 -5.119920349121093750e+01 3.229942560195922852e+00 4.686408519744873047e+00 -5.174983215332031250e+01 6.005206584930419922e+00 3.288831233978271484e+00 -4.655371475219726562e+01 3.595862150192260742e+00 3.657153606414794922e+00 -5.009629821777343750e+01 2.927345991134643555e+00 6.569870471954345703e+00 -4.500375366210937500e+01 6.705393791198730469e+00 3.598618268966674805e+00 -4.119242477416992188e+01 5.420638084411621094e+00 3.160980939865112305e+00 -4.827670669555664062e+01 5.516940593719482422e+00 3.312038660049438477e+00 -4.690697097778320312e+01 6.118204116821289062e+00 5.171035766601562500e+00 -4.185989761352539062e+01 3.811397314071655273e+00 7.526715755462646484e+00 -4.327012634277343750e+01 2.269508600234985352e+00 5.176881313323974609e+00 -5.077408599853515625e+01 6.172436237335205078e+00 5.499599933624267578e+00 -4.127680206298828125e+01 3.460902214050292969e+00 4.644207954406738281e+00 -5.148542785644531250e+01 1.748860359191894531e+00 5.980252265930175781e+00 -4.985295867919921875e+01 2.885630130767822266e+00 7.545362949371337891e+00 -4.465307617187500000e+01 3.373969793319702148e+00 7.224635124206542969e+00 -4.403062438964843750e+01 6.262085914611816406e+00 3.421665430068969727e+00 -4.288640975952148438e+01 3.937834024429321289e+00 3.366062879562377930e+00 -4.957391738891601562e+01 5.761483669281005859e+00 2.164721250534057617e+00 -4.749071502685546875e+01 2.460365772247314453e+00 4.280773639678955078e+00 -5.032450485229492188e+01 7.032946109771728516e+00 2.110893726348876953e+00 -4.447851181030273438e+01 5.089064598083496094e+00 5.922044754028320312e+00 -4.242683029174804688e+01 4.201817989349365234e+00 2.781017780303955078e+00 -4.880855178833007812e+01 6.292129993438720703e+00 2.754944562911987305e+00 -4.710934066772460938e+01 2.843347787857055664e+00 4.850157737731933594e+00 -5.132226562500000000e+01 2.304604530334472656e+00 8.107275009155273438e+00 -4.478514862060546875e+01 5.535671234130859375e+00 5.638957500457763672e+00 -4.219880294799804688e+01 6.983259677886962891e+00 2.340958833694458008e+00 -4.627300643920898438e+01 2.592879056930541992e+00 5.266417980194091797e+00 -5.206673431396484375e+01 6.963376045227050781e+00 2.629077672958374023e+00 -4.366093063354492188e+01 2.375153779983520508e+00 7.239233016967773438e+00 -4.620095443725585938e+01 6.246229648590087891e+00 1.972180604934692383e+00 -4.554035949707031250e+01 4.206703186035156250e+00 3.499214172363281250e+00 -4.954682159423828125e+01 6.443522453308105469e+00 4.477991104125976562e+00 -4.117306518554687500e+01 5.716331005096435547e+00 4.897319316864013672e+00 -4.167710494995117188e+01 2.599319458007812500e+00 6.915051937103271484e+00 -4.620632934570312500e+01 2.194353103637695312e+00 6.159042835235595703e+00 -4.863562011718750000e+01 3.036917924880981445e+00 6.721806526184082031e+00 -4.422566604614257812e+01 4.417778015136718750e+00 6.063621520996093750e+00 -4.292076492309570312e+01 2.711511373519897461e+00 6.956361293792724609e+00 -4.764038085937500000e+01 3.756403684616088867e+00 3.869248867034912109e+00 -5.046756362915039062e+01 7.110294818878173828e+00 2.746468544006347656e+00 -4.436591339111328125e+01 6.550587177276611328e+00 3.979885578155517578e+00 -4.098362350463867188e+01 6.874650955200195312e+00 3.672047853469848633e+00 -4.221996307373046875e+01 2.937368392944335938e+00 6.553326129913330078e+00 -4.480230331420898438e+01 7.036420345306396484e+00 4.322853565216064453e+00 -4.042726135253906250e+01 5.512764930725097656e+00 2.695610284805297852e+00 -4.687955474853515625e+01 3.520419836044311523e+00 3.829730510711669922e+00 -5.173393630981445312e+01 2.817203283309936523e+00 7.423141479492187500e+00 -4.525786209106445312e+01 5.397281646728515625e+00 2.817965269088745117e+00 -4.835130310058593750e+01 2.679883241653442383e+00 3.925031661987304688e+00 -5.044334793090820312e+01 2.520282983779907227e+00 6.710994243621826172e+00 -4.462490463256835938e+01 3.977231979370117188e+00 6.627062320709228516e+00 -4.333780670166015625e+01 4.868232250213623047e+00 2.985832214355468750e+00 -4.868120574951171875e+01 5.884282112121582031e+00 5.591247558593750000e+00 -4.162233734130859375e+01 3.327162265777587891e+00 7.039536476135253906e+00 -4.472603607177734375e+01 2.238274812698364258e+00 7.297908782958984375e+00 -4.482754135131835938e+01 3.480361700057983398e+00 6.678078174591064453e+00 -4.389095687866210938e+01 2.067229509353637695e+00 5.985187053680419922e+00 -4.786669540405273438e+01 2.425917863845825195e+00 6.668892383575439453e+00 -4.767519378662109375e+01 2.411234617233276367e+00 5.429424762725830078e+00 -4.976799011230468750e+01 2.046669483184814453e+00 5.575103759765625000e+00 -4.880508041381835938e+01 4.837887763977050781e+00 5.858402252197265625e+00 -4.244956588745117188e+01 2.271726608276367188e+00 5.019553661346435547e+00 -5.239843368530273438e+01 1.926931619644165039e+00 7.627726078033447266e+00 -4.563067626953125000e+01 3.230942487716674805e+00 4.240802764892578125e+00 -5.200005722045898438e+01 7.297581672668457031e+00 2.141051054000854492e+00 -4.535737228393554688e+01 6.732753276824951172e+00 2.176463603973388672e+00 -4.477702713012695312e+01 2.118097543716430664e+00 5.230396747589111328e+00 -5.209706878662109375e+01 3.322857618331909180e+00 4.218574047088623047e+00 -5.123776626586914062e+01 6.560156822204589844e+00 3.570736169815063477e+00 -4.161200714111328125e+01 5.624371528625488281e+00 2.570587158203125000e+00 -4.834907913208007812e+01 5.998551368713378906e+00 2.251376628875732422e+00 -4.625282669067382812e+01 3.081936120986938477e+00 3.644437313079833984e+00 -4.993890762329101562e+01 3.935016393661499023e+00 6.062125682830810547e+00 -4.292291641235351562e+01 7.753465652465820312e+00 2.390356540679931641e+00 -4.330138778686523438e+01 3.263295650482177734e+00 5.171202182769775391e+00 -5.246786499023437500e+01 2.157135963439941406e+00 4.521191120147705078e+00 -5.243162536621093750e+01 2.559797048568725586e+00 6.396242141723632812e+00 -4.803614425659179688e+01 2.644107103347778320e+00 5.595504760742187500e+00 -5.015341186523437500e+01 2.257420063018798828e+00 6.439927577972412109e+00 -4.706199645996093750e+01 2.318804025650024414e+00 7.143321037292480469e+00 -4.539217376708984375e+01 4.464173316955566406e+00 5.062250614166259766e+00 -4.214870071411132812e+01 5.473584175109863281e+00 5.072059154510498047e+00 -4.145705795288085938e+01 6.081724643707275391e+00 4.821671009063720703e+00 -4.019186019897460938e+01 2.687600851058959961e+00 4.903865337371826172e+00 -5.098936080932617188e+01 2.969228506088256836e+00 4.152834892272949219e+00 -5.262659072875976562e+01 6.114127159118652344e+00 4.460030078887939453e+00 -4.121069335937500000e+01 2.678543567657470703e+00 4.351322650909423828e+00 -5.259485626220703125e+01 1.973913311958312988e+00 6.749527931213378906e+00 -4.643879699707031250e+01 3.708223342895507812e+00 3.905557632446289062e+00 -5.094623184204101562e+01 4.326776027679443359e+00 3.961653232574462891e+00 -4.957276916503906250e+01 2.412873983383178711e+00 5.322207450866699219e+00 -4.985246276855468750e+01 6.988902568817138672e+00 2.416741371154785156e+00 -4.253461456298828125e+01 2.620989084243774414e+00 5.105123043060302734e+00 -4.901847457885742188e+01 2.183366537094116211e+00 6.873751163482666016e+00 -4.649236297607421875e+01 5.748035430908203125e+00 2.873880386352539062e+00 -4.793977355957031250e+01 6.507929325103759766e+00 1.834157586097717285e+00 -4.596614837646484375e+01 2.215926647186279297e+00 6.703310966491699219e+00 -4.783388137817382812e+01 5.961469173431396484e+00 2.713529109954833984e+00 -4.812205505371093750e+01 6.049244880676269531e+00 2.655128717422485352e+00 -4.699098587036132812e+01 2.600368261337280273e+00 5.320700168609619141e+00 -4.896507644653320312e+01 3.482993602752685547e+00 3.349504470825195312e+00 -4.990497970581054688e+01 4.250629901885986328e+00 2.748304128646850586e+00 -5.008477401733398438e+01 6.436807632446289062e+00 3.398394584655761719e+00 -4.060996246337890625e+01 2.227091312408447266e+00 4.657156467437744141e+00 -5.186359405517578125e+01 4.011858463287353516e+00 2.584583759307861328e+00 -4.936390686035156250e+01 4.665061473846435547e+00 5.827114105224609375e+00 -4.333393478393554688e+01 2.341301202774047852e+00 4.424831390380859375e+00 -5.298065185546875000e+01 4.211558341979980469e+00 2.913537979125976562e+00 -4.803456115722656250e+01 2.557394981384277344e+00 4.986725807189941406e+00 -5.059215927124023438e+01 7.498794555664062500e+00 1.913944125175476074e+00 -4.527802276611328125e+01 2.514460086822509766e+00 4.014283657073974609e+00 -5.248151016235351562e+01 3.231020212173461914e+00 4.039440631866455078e+00 -5.127533340454101562e+01 6.208317756652832031e+00 4.467688560485839844e+00 -4.103393173217773438e+01 3.338955402374267578e+00 4.079195022583007812e+00 -5.090141296386718750e+01 3.985663175582885742e+00 6.720135211944580078e+00 -4.378837966918945312e+01 4.919699668884277344e+00 5.721392631530761719e+00 -4.288005065917968750e+01 6.969242095947265625e+00 4.146087646484375000e+00 -4.033780288696289062e+01 2.214562892913818359e+00 6.844369411468505859e+00 -4.598805999755859375e+01 5.159904479980468750e+00 1.989106655120849609e+00 -4.859825515747070312e+01 5.568437099456787109e+00 4.961557865142822266e+00 -4.142351913452148438e+01 2.462348937988281250e+00 4.862448215484619141e+00 -5.021550369262695312e+01 4.101423263549804688e+00 3.734534740447998047e+00 -5.043180465698242188e+01 2.288786888122558594e+00 7.486494064331054688e+00 -4.471578216552734375e+01 5.541706562042236328e+00 2.551116228103637695e+00 -4.858384704589843750e+01 2.988553524017333984e+00 6.874422550201416016e+00 -4.450225830078125000e+01 7.081117153167724609e+00 4.171624660491943359e+00 -3.992071914672851562e+01 6.156496524810791016e+00 4.038917541503906250e+00 -3.998575592041015625e+01 7.424350261688232422e+00 2.468961954116821289e+00 -4.334570312500000000e+01 4.574925422668457031e+00 2.669119119644165039e+00 -4.883053588867187500e+01 1.960654258728027344e+00 6.243784427642822266e+00 -4.742229080200195312e+01 2.454220056533813477e+00 5.161337852478027344e+00 -4.784645843505859375e+01 5.761108398437500000e+00 4.558130741119384766e+00 -4.094935607910156250e+01 7.653618812561035156e+00 2.084508895874023438e+00 -4.411019134521484375e+01 6.678632259368896484e+00 3.680235624313354492e+00 -4.175444412231445312e+01 7.182215690612792969e+00 2.185430765151977539e+00 -4.312746810913085938e+01 3.179043292999267578e+00 6.392358303070068359e+00 -4.374967193603515625e+01 3.924252033233642578e+00 6.504430770874023438e+00 -4.365287017822265625e+01 5.873459815979003906e+00 2.078234434127807617e+00 -4.760996627807617188e+01 2.421030282974243164e+00 4.921058654785156250e+00 -5.039836502075195312e+01 1.637488842010498047e+00 6.997270107269287109e+00 -4.538627624511718750e+01 2.073528766632080078e+00 7.071114540100097656e+00 -4.629290008544921875e+01 6.942029476165771484e+00 1.660663962364196777e+00 -4.592737960815429688e+01 2.533011913299560547e+00 7.010479927062988281e+00 -4.482651519775390625e+01 2.318751573562622070e+00 4.221915721893310547e+00 -5.195681762695312500e+01 6.616961002349853516e+00 2.583269596099853516e+00 -4.199368286132812500e+01 2.454215049743652344e+00 3.770822763442993164e+00 -5.250075149536132812e+01 3.071038722991943359e+00 7.126122951507568359e+00 -4.452441787719726562e+01 6.748006343841552734e+00 3.398993492126464844e+00 -3.971189117431640625e+01 3.424860477447509766e+00 3.005656242370605469e+00 -4.950714492797851562e+01 6.529069423675537109e+00 1.981056928634643555e+00 -4.712085342407226562e+01 6.587726116180419922e+00 1.759677410125732422e+00 -4.638616943359375000e+01 4.557805538177490234e+00 6.151070594787597656e+00 -4.348611068725585938e+01 2.128287792205810547e+00 4.203738212585449219e+00 -5.207267379760742188e+01 5.728571414947509766e+00 2.397130727767944336e+00 -4.728465652465820312e+01 1.946037054061889648e+00 4.191610336303710938e+00 -5.188367080688476562e+01 6.225479602813720703e+00 4.872108459472656250e+00 -4.142513275146484375e+01 2.594028711318969727e+00 4.055464267730712891e+00 -5.092166137695312500e+01 7.331124782562255859e+00 1.817619800567626953e+00 -4.556356048583984375e+01 1.899003386497497559e+00 6.182348728179931641e+00 -4.718359756469726562e+01 4.655321121215820312e+00 5.896252155303955078e+00 -4.256423950195312500e+01 2.735311985015869141e+00 5.503424644470214844e+00 -4.823226165771484375e+01 2.580618858337402344e+00 6.814408302307128906e+00 -4.606875610351562500e+01 2.320456743240356445e+00 5.917000293731689453e+00 -4.791570281982421875e+01 7.291576862335205078e+00 9.746796488761901855e-01 -4.563228225708007812e+01 2.447079420089721680e+00 5.003300189971923828e+00 -4.865857315063476562e+01 2.982772827148437500e+00 6.070717334747314453e+00 -4.376526641845703125e+01 6.392121315002441406e+00 3.796071529388427734e+00 -3.998478698730468750e+01 2.179474353790283203e+00 5.236783504486083984e+00 -4.849156951904296875e+01 5.591488838195800781e+00 5.078314781188964844e+00 -4.139291381835937500e+01 2.608529329299926758e+00 4.864017009735107422e+00 -4.893155288696289062e+01 6.761398315429687500e+00 2.121828317642211914e+00 -4.651691436767578125e+01 7.226074218750000000e+00 1.847523570060729980e+00 -4.442540740966796875e+01 4.771007537841796875e+00 5.029603004455566406e+00 -4.178665542602539062e+01 5.432414054870605469e+00 5.279432296752929688e+00 -4.133444976806640625e+01 2.425684452056884766e+00 6.241653919219970703e+00 -4.652405166625976562e+01 6.875272750854492188e+00 2.411945343017578125e+00 -4.080437469482421875e+01 6.894475936889648438e+00 3.987085819244384766e+00 -4.005503463745117188e+01 2.975781202316284180e+00 3.896890640258789062e+00 -5.161212921142578125e+01 2.791422605514526367e+00 7.156272411346435547e+00 -4.507181167602539062e+01 3.026508569717407227e+00 5.837923049926757812e+00 -4.403668594360351562e+01 3.583736658096313477e+00 6.729319572448730469e+00 -4.477454757690429688e+01 2.390934705734252930e+00 3.928970336914062500e+00 -5.162432479858398438e+01 1.834694981575012207e+00 6.939988136291503906e+00 -4.471568298339843750e+01 4.655864238739013672e+00 3.008728504180908203e+00 -4.975666809082031250e+01 4.387565612792968750e+00 2.639901399612426758e+00 -4.926475143432617188e+01 6.918479919433593750e+00 3.872950315475463867e+00 -3.915937423706054688e+01 4.978506565093994141e+00 2.456713676452636719e+00 -4.849138259887695312e+01 2.891196250915527344e+00 2.785818815231323242e+00 -5.157970428466796875e+01 2.832952022552490234e+00 4.429386615753173828e+00 -5.073652267456054688e+01 7.687270641326904297e+00 9.364908337593078613e-01 -4.512758255004882812e+01 2.422894477844238281e+00 4.270124435424804688e+00 -5.208161544799804688e+01 2.314884424209594727e+00 4.944481372833251953e+00 -5.066377258300781250e+01 2.496198892593383789e+00 4.836130619049072266e+00 -4.954866790771484375e+01 3.630278587341308594e+00 3.168579578399658203e+00 -5.058964157104492188e+01 5.124302864074707031e+00 2.197813510894775391e+00 -4.836994934082031250e+01 2.049012184143066406e+00 6.107479095458984375e+00 -4.696999359130859375e+01 1.915634989738464355e+00 5.571321964263916016e+00 -4.778460693359375000e+01 2.045694351196289062e+00 6.635424137115478516e+00 -4.564498901367187500e+01 2.322803258895874023e+00 6.154295921325683594e+00 -4.682335662841796875e+01 6.822426795959472656e+00 2.525911331176757812e+00 -4.232783126831054688e+01 6.560117244720458984e+00 1.611210346221923828e+00 -4.717897415161132812e+01 4.634237766265869141e+00 5.525610446929931641e+00 -4.327462387084960938e+01 7.234987258911132812e+00 1.145220160484313965e+00 -4.395755004882812500e+01 7.496797084808349609e+00 2.817113399505615234e+00 -4.079566955566406250e+01 5.853598594665527344e+00 4.553352355957031250e+00 -4.064015197753906250e+01 1.946535706520080566e+00 5.865277290344238281e+00 -4.675787734985351562e+01 1.541771173477172852e+00 6.896656036376953125e+00 -4.586798858642578125e+01 3.920465707778930664e+00 3.340396642684936523e+00 -5.049254608154296875e+01 2.119452714920043945e+00 5.663668632507324219e+00 -4.813862991333007812e+01 5.843421936035156250e+00 1.952566623687744141e+00 -4.865443801879882812e+01 2.691882848739624023e+00 5.933448791503906250e+00 -4.665925216674804688e+01 2.684896230697631836e+00 5.845376968383789062e+00 -4.682553100585937500e+01 2.815377473831176758e+00 4.088446617126464844e+00 -5.247142410278320312e+01 2.195397853851318359e+00 6.256627082824707031e+00 -4.460163497924804688e+01 5.455715179443359375e+00 4.513123512268066406e+00 -4.155238342285156250e+01 2.501277446746826172e+00 5.388011932373046875e+00 -4.770497894287109375e+01 5.042608737945556641e+00 5.310192108154296875e+00 -4.201968002319335938e+01 5.833620071411132812e+00 1.329205989837646484e+00 -4.742081832885742188e+01 7.081923484802246094e+00 1.032806396484375000e+00 -4.553551101684570312e+01 2.149436712265014648e+00 5.573769569396972656e+00 -4.692585754394531250e+01 2.767308950424194336e+00 4.456747531890869141e+00 -5.120798492431640625e+01 3.967117547988891602e+00 5.487892627716064453e+00 -4.296304321289062500e+01 5.946683406829833984e+00 2.012918710708618164e+00 -4.891242980957031250e+01 6.886915683746337891e+00 1.446555972099304199e+00 -4.660877609252929688e+01 2.257951259613037109e+00 5.038354873657226562e+00 -4.906881332397460938e+01 5.068318367004394531e+00 2.679539203643798828e+00 -4.980925750732421875e+01 7.487275600433349609e+00 2.427385568618774414e+00 -4.285805130004882812e+01 2.352256774902343750e+00 6.711248397827148438e+00 -4.480150985717773438e+01 3.765550851821899414e+00 6.039454936981201172e+00 -4.406961059570312500e+01 4.449708938598632812e+00 5.317177295684814453e+00 -4.258251190185546875e+01 1.987292051315307617e+00 6.428460597991943359e+00 -4.646396636962890625e+01 6.831218719482421875e+00 1.391077995300292969e+00 -4.663064956665039062e+01 3.227763652801513672e+00 6.796863079071044922e+00 -4.541292190551757812e+01 6.615895271301269531e+00 1.184965848922729492e+00 -4.621308898925781250e+01 2.410913705825805664e+00 5.698148250579833984e+00 -4.909434127807617188e+01 3.773329734802246094e+00 2.643885612487792969e+00 -4.998265075683593750e+01 6.900741100311279297e+00 3.729326009750366211e+00 -3.948632812500000000e+01 7.367154121398925781e+00 3.619349002838134766e+00 -3.953413391113281250e+01 2.665953159332275391e+00 3.407797813415527344e+00 -5.080842971801757812e+01 6.834211349487304688e+00 4.262434959411621094e+00 -4.005356597900390625e+01 7.253933906555175781e+00 3.291512489318847656e+00 -3.927017211914062500e+01 3.463410854339599609e+00 3.189035177230834961e+00 -5.076467132568359375e+01 2.531439304351806641e+00 4.976758956909179688e+00 -4.951085281372070312e+01 5.882424831390380859e+00 1.031457185745239258e+00 -4.754822921752929688e+01 7.584827899932861328e+00 9.822777509689331055e-01 -4.440304946899414062e+01 1.970991969108581543e+00 6.218734264373779297e+00 -4.556684112548828125e+01 7.172320365905761719e+00 7.372881770133972168e-01 -4.528550720214843750e+01 7.205132484436035156e+00 3.689835309982299805e+00 -3.972596740722656250e+01 6.881283283233642578e+00 3.416517496109008789e+00 -3.910232162475585938e+01 2.634470701217651367e+00 3.677203416824340820e+00 -5.169218444824218750e+01 4.439734935760498047e+00 2.334370851516723633e+00 -4.972300720214843750e+01 5.108655929565429688e+00 5.461745262145996094e+00 -4.256438827514648438e+01 2.505399942398071289e+00 3.427057027816772461e+00 -5.170354461669921875e+01 4.109766483306884766e+00 2.202556848526000977e+00 -5.020495986938476562e+01 4.320117950439453125e+00 5.822276115417480469e+00 -4.297320556640625000e+01 2.643809795379638672e+00 4.978499412536621094e+00 -4.931137847900390625e+01 4.805913925170898438e+00 5.480657100677490234e+00 -4.143991088867187500e+01 2.733393907546997070e+00 3.728630542755126953e+00 -5.189198684692382812e+01 4.494644165039062500e+00 2.113568782806396484e+00 -4.968806838989257812e+01 7.411318302154541016e+00 1.943753004074096680e+00 -4.254285049438476562e+01 5.544158458709716797e+00 2.007184267044067383e+00 -4.775408554077148438e+01 7.768229007720947266e+00 8.189746737480163574e-01 -4.341323089599609375e+01 6.176305294036865234e+00 4.519013881683349609e+00 -4.085784149169921875e+01 1.992262125015258789e+00 5.073729515075683594e+00 -4.795987701416015625e+01 3.386755228042602539e+00 2.947572469711303711e+00 -5.085893630981445312e+01 6.754865169525146484e+00 5.937685966491699219e-01 -4.608526992797851562e+01 2.859566926956176758e+00 6.381070137023925781e+00 -4.453628158569335938e+01 7.518854141235351562e+00 7.647122740745544434e-01 -4.463381958007812500e+01 3.313778400421142578e+00 4.244291782379150391e+00 -5.038627243041992188e+01 2.572854280471801758e+00 4.744721889495849609e+00 -4.941273880004882812e+01 2.293411016464233398e+00 4.864015579223632812e+00 -5.004745864868164062e+01 7.612927436828613281e+00 2.435501068830490112e-01 -4.641989135742187500e+01 4.738677024841308594e+00 5.251739501953125000e+00 -4.262293243408203125e+01 7.275995731353759766e+00 2.008838653564453125e+00 -4.060476684570312500e+01 7.280670642852783203e+00 2.231595516204833984e+00 -4.133035659790039062e+01 6.929845333099365234e+00 2.732123374938964844e+00 -4.091024398803710938e+01 5.682061672210693359e+00 1.405882477760314941e+00 -4.713645172119140625e+01 7.201519966125488281e+00 2.689647674560546875e+00 -3.998787689208984375e+01 3.424316167831420898e+00 6.528696060180664062e+00 -4.362731170654296875e+01 4.146056652069091797e+00 2.790762662887573242e+00 -5.128114700317382812e+01 6.591208934783935547e+00 1.643764138221740723e+00 -4.693311309814453125e+01 2.136341333389282227e+00 5.858653545379638672e+00 -4.548035430908203125e+01 2.129401683807373047e+00 5.436139583587646484e+00 -4.755287933349609375e+01 6.143581390380859375e+00 4.298906326293945312e+00 -4.052986907958984375e+01 6.712685108184814453e+00 3.960315704345703125e+00 -3.997540664672851562e+01 4.280812263488769531e+00 2.195774555206298828e+00 -4.868604278564453125e+01 7.461811542510986328e+00 5.323008298873901367e-01 -4.534281539916992188e+01 2.107826948165893555e+00 5.355571746826171875e+00 -4.787973022460937500e+01 1.806984663009643555e+00 5.931497573852539062e+00 -4.482899093627929688e+01 3.840575218200683594e+00 2.929243564605712891e+00 -5.141433715820312500e+01 5.774955272674560547e+00 2.237957954406738281e+00 -4.822972106933593750e+01 2.539943456649780273e+00 3.400814771652221680e+00 -5.142219924926757812e+01 3.357453346252441406e+00 3.795084953308105469e+00 -5.110216522216796875e+01 2.168547868728637695e+00 4.749458789825439453e+00 -4.797373962402343750e+01 7.218225479125976562e+00 3.188100814819335938e+00 -3.960390472412109375e+01 7.150262355804443359e+00 9.292657971382141113e-01 -4.290831756591796875e+01 3.317527055740356445e+00 3.360280275344848633e+00 -5.158216476440429688e+01 7.336563110351562500e+00 3.350533962249755859e+00 -3.869094467163085938e+01 5.502963066101074219e+00 1.496891856193542480e+00 -4.783263015747070312e+01 5.226253032684326172e+00 1.709851503372192383e+00 -4.944124221801757812e+01 2.351711511611938477e+00 5.793429374694824219e+00 -4.633090972900390625e+01 6.168824672698974609e+00 4.034792423248291016e+00 -4.099003219604492188e+01 7.477754592895507812e+00 2.484457015991210938e+00 -3.891056442260742188e+01 6.890122890472412109e+00 1.672323107719421387e+00 -4.221074295043945312e+01 4.368425369262695312e+00 1.644153714179992676e+00 -4.885125350952148438e+01 2.543936252593994141e+00 6.054292678833007812e+00 -4.464001846313476562e+01 2.345571517944335938e+00 4.252951145172119141e+00 -4.891730880737304688e+01 2.786487817764282227e+00 5.119122505187988281e+00 -4.898583984375000000e+01 3.872957706451416016e+00 2.817649126052856445e+00 -4.998957824707031250e+01 6.963429450988769531e+00 3.156619548797607422e+00 -3.926424026489257812e+01 7.493551254272460938e+00 3.189501047134399414e+00 -3.878276062011718750e+01 2.164334297180175781e+00 5.446451663970947266e+00 -4.718291854858398438e+01 4.230887889862060547e+00 6.116729736328125000e+00 -4.433521652221679688e+01 6.783962726593017578e+00 3.581929206848144531e+00 -3.889366531372070312e+01 5.454936981201171875e+00 1.913740873336791992e+00 -4.902957534790039062e+01 6.763063430786132812e+00 6.932681798934936523e-01 -4.690415954589843750e+01 7.630462646484375000e+00 1.344650834798812866e-01 -4.512731552124023438e+01 7.650232315063476562e+00 1.421433329582214355e+00 -4.301440429687500000e+01 2.555029869079589844e+00 3.979790925979614258e+00 -4.920051956176757812e+01 7.077034473419189453e+00 6.401892304420471191e-01 -4.614999771118164062e+01 3.656900405883789062e+00 5.475187301635742188e+00 -4.320679092407226562e+01 4.035760879516601562e+00 2.214155912399291992e+00 -4.956204223632812500e+01 4.547149181365966797e+00 5.016727924346923828e+00 -4.309189224243164062e+01 4.681068897247314453e+00 1.872843384742736816e+00 -4.856413650512695312e+01 6.298604965209960938e+00 9.346801638603210449e-01 -4.763618850708007812e+01 3.551268339157104492e+00 2.942701578140258789e+00 -5.089947891235351562e+01 2.842188358306884766e+00 6.057919979095458984e+00 -4.415660095214843750e+01 6.949552059173583984e+00 1.808858156204223633e+00 -4.166691207885742188e+01 2.409581422805786133e+00 4.209356307983398438e+00 -4.983378219604492188e+01 7.095101833343505859e+00 2.178268194198608398e+00 -4.127197265625000000e+01 5.453303813934326172e+00 8.673416376113891602e-01 -4.780339813232421875e+01 6.418747901916503906e+00 3.818220376968383789e+00 -3.936626434326171875e+01 7.553919315338134766e+00 -8.342717587947845459e-02 -4.554631805419921875e+01 7.147196769714355469e+00 1.020712137222290039e+00 -4.349974060058593750e+01 2.246810197830200195e+00 5.379571437835693359e+00 -4.642556762695312500e+01 2.616033315658569336e+00 5.610547542572021484e+00 -4.396261978149414062e+01 3.592293024063110352e+00 5.213441371917724609e+00 -4.390215682983398438e+01 3.423645257949829102e+00 2.758705615997314453e+00 -5.028719329833984375e+01 7.161351680755615234e+00 2.559448957443237305e+00 -4.077127838134765625e+01 7.590590000152587891e+00 9.621537327766418457e-01 -4.561341476440429688e+01 8.133557319641113281e+00 -6.129417419433593750e-01 -4.502818679809570312e+01 8.035595893859863281e+00 2.832697927951812744e-01 -4.626640701293945312e+01 8.156221389770507812e+00 -1.100124001502990723e+00 -4.555025100708007812e+01 7.066139221191406250e+00 2.665808200836181641e+00 -3.960765457153320312e+01 7.964680194854736328e+00 4.944669604301452637e-01 -4.472885131835937500e+01 5.236906528472900391e+00 4.837881565093994141e+00 -4.181695175170898438e+01 8.001893043518066406e+00 -6.346139907836914062e-01 -4.508719253540039062e+01 6.953514099121093750e+00 3.513093233108520508e+00 -3.917071914672851562e+01 8.179993629455566406e+00 6.260372400283813477e-01 -4.526168823242187500e+01 7.750199317932128906e+00 -2.181028574705123901e-01 -4.537139892578125000e+01 3.333907365798950195e+00 3.007630825042724609e+00 -5.099705886840820312e+01 3.034774065017700195e+00 5.707938194274902344e+00 -4.488666152954101562e+01 4.159510612487792969e+00 5.168337821960449219e+00 -4.322973632812500000e+01 2.947161436080932617e+00 3.197207212448120117e+00 -5.161303710937500000e+01 2.953353881835937500e+00 2.705899477005004883e+00 -5.100223541259765625e+01 4.982830047607421875e+00 4.786876678466796875e+00 -4.280960083007812500e+01 7.785021305084228516e+00 8.768194913864135742e-01 -4.332136154174804688e+01 6.353020668029785156e+00 3.872864961624145508e+00 -4.017432785034179688e+01 7.452523231506347656e+00 2.135228872299194336e+00 -4.037232971191406250e+01 2.783384561538696289e+00 5.456298828125000000e+00 -4.581193923950195312e+01 7.835732460021972656e+00 4.438767135143280029e-01 -4.451688003540039062e+01 6.196668624877929688e+00 3.673370361328125000e+00 -4.020367813110351562e+01 7.120456218719482422e+00 3.135707974433898926e-01 -4.630939865112304688e+01 7.362291812896728516e+00 3.527743518352508545e-01 -4.549650192260742188e+01 5.917407512664794922e+00 1.367614626884460449e+00 -4.738881683349609375e+01 7.666199207305908203e+00 2.194715023040771484e+00 -4.119800186157226562e+01 3.647844791412353516e+00 2.349260091781616211e+00 -5.011882400512695312e+01 4.595296859741210938e+00 5.240623950958251953e+00 -4.333263778686523438e+01 4.488796234130859375e+00 4.599177360534667969e+00 -4.326382827758789062e+01 5.980944633483886719e+00 4.265462875366210938e+00 -4.111016845703125000e+01 7.549898147583007812e+00 1.275624513626098633e+00 -4.108708953857421875e+01 6.947653770446777344e+00 2.274812459945678711e+00 -3.934120178222656250e+01 5.264465332031250000e+00 4.938536167144775391e+00 -4.143532180786132812e+01 3.169822931289672852e+00 3.226233243942260742e+00 -5.031091308593750000e+01 2.980958938598632812e+00 3.565531253814697266e+00 -4.902449417114257812e+01 2.391552925109863281e+00 3.775530099868774414e+00 -4.837836074829101562e+01 7.255968093872070312e+00 3.460307598114013672e+00 -3.897824096679687500e+01 5.590152263641357422e+00 1.296053767204284668e+00 -4.848326110839843750e+01 6.799688816070556641e+00 2.231094241142272949e-01 -4.720264434814453125e+01 7.623960018157958984e+00 -3.780728280544281006e-01 -4.506713485717773438e+01 7.781754970550537109e+00 2.063567042350769043e-01 -4.501052474975585938e+01 3.754018306732177734e+00 6.002627849578857422e+00 -4.458519363403320312e+01 7.227565288543701172e+00 -2.153784334659576416e-01 -4.612905120849609375e+01 7.714425563812255859e+00 6.439205408096313477e-01 -4.351020431518554688e+01 2.760087013244628906e+00 3.726473331451416016e+00 -4.782379150390625000e+01 7.347087860107421875e+00 2.729407310485839844e+00 -3.881953048706054688e+01 4.670853137969970703e+00 1.545329451560974121e+00 -4.904613113403320312e+01 4.063818454742431641e+00 1.463175177574157715e+00 -4.965433120727539062e+01 5.646994590759277344e+00 1.603305339813232422e+00 -4.859062576293945312e+01 4.564122200012207031e+00 5.480603694915771484e+00 -4.353761672973632812e+01 2.489575624465942383e+00 5.514447212219238281e+00 -4.508921051025390625e+01 7.313209056854248047e+00 6.550353765487670898e-01 -4.583837509155273438e+01 7.499204635620117188e+00 -3.816563189029693604e-01 -4.582956314086914062e+01 8.110875129699707031e+00 7.390509247779846191e-01 -4.394652557373046875e+01 2.415049314498901367e+00 3.234933614730834961e+00 -4.982420730590820312e+01 4.648323059082031250e+00 4.331339359283447266e+00 -4.248901367187500000e+01 8.099788665771484375e+00 -3.301371335983276367e-01 -4.541952514648437500e+01 7.284705162048339844e+00 2.145183563232421875e+00 -4.053823852539062500e+01 2.436015605926513672e+00 5.298850059509277344e+00 -4.583685302734375000e+01 7.348308563232421875e+00 1.332991480827331543e+00 -4.152758407592773438e+01 6.884675979614257812e+00 3.105082273483276367e+00 -3.883192825317382812e+01 4.281009197235107422e+00 1.842880129814147949e+00 -4.920807266235351562e+01 3.158487558364868164e+00 2.529166221618652344e+00 -5.090017700195312500e+01 2.227979898452758789e+00 4.683949947357177734e+00 -4.817229843139648438e+01 3.948637485504150391e+00 5.278483390808105469e+00 -4.340947723388671875e+01 6.745204925537109375e+00 3.242740869522094727e+00 -3.943086242675781250e+01 6.847349643707275391e+00 2.761527538299560547e+00 -3.833620071411132812e+01 3.928037405014038086e+00 5.433001995086669922e+00 -4.389713668823242188e+01 5.961264610290527344e+00 3.578313589096069336e+00 -4.058816146850585938e+01 2.814437627792358398e+00 3.130209445953369141e+00 -5.009344100952148438e+01 5.298680782318115234e+00 1.005500197410583496e+00 -4.799763107299804688e+01 6.663511276245117188e+00 5.926285386085510254e-01 -4.681889343261718750e+01 7.630712032318115234e+00 -4.774608910083770752e-01 -4.487681198120117188e+01 7.079137802124023438e+00 1.706105351448059082e+00 -4.024621200561523438e+01 7.399984359741210938e+00 2.193344831466674805e+00 -3.967004776000976562e+01 3.098968505859375000e+00 5.305136680603027344e+00 -4.655542373657226562e+01 5.092600345611572266e+00 4.170764446258544922e+00 -4.264289093017578125e+01 2.601843595504760742e+00 4.033123016357421875e+00 -4.831568145751953125e+01 6.213681221008300781e+00 3.210126161575317383e+00 -4.119747161865234375e+01 7.919950485229492188e+00 -5.382772088050842285e-01 -4.515064239501953125e+01 7.416022777557373047e+00 9.850932657718658447e-02 -4.582220840454101562e+01 7.766382694244384766e+00 -1.671716421842575073e-01 -4.466974258422851562e+01 7.690481662750244141e+00 9.234364032745361328e-01 -4.283547592163085938e+01 7.366631984710693359e+00 2.799114227294921875e+00 -3.887793731689453125e+01 7.432294368743896484e+00 -1.541502773761749268e-01 -4.646079635620117188e+01 6.917370796203613281e+00 4.562953412532806396e-01 -4.650548171997070312e+01 3.277756690979003906e+00 5.043179035186767578e+00 -4.409360122680664062e+01 7.615694999694824219e+00 2.270189285278320312e+00 -3.941713333129882812e+01 3.208887338638305664e+00 5.835473537445068359e+00 -4.442544174194335938e+01 3.742748737335205078e+00 4.960896492004394531e+00 -4.293352127075195312e+01 3.309737205505371094e+00 2.253895998001098633e+00 -5.085366821289062500e+01 3.408885002136230469e+00 5.129812717437744141e+00 -4.570560455322265625e+01 2.866786718368530273e+00 3.115219831466674805e+00 -4.928901672363281250e+01 7.197373867034912109e+00 3.274072647094726562e+00 -3.911685943603515625e+01 6.793023109436035156e+00 2.953041315078735352e+00 -3.997979354858398438e+01 7.750192165374755859e+00 1.192386388778686523e+00 -4.179452896118164062e+01 7.179469585418701172e+00 1.574507117271423340e+00 -4.056139373779296875e+01 7.898295879364013672e+00 -1.766327321529388428e-01 -4.499953460693359375e+01 7.950690746307373047e+00 2.515612840652465820e+00 -3.985300064086914062e+01 7.738256454467773438e+00 -1.171716451644897461e-01 -4.403182220458984375e+01 4.959351062774658203e+00 4.119125366210937500e+00 -4.255032730102539062e+01 6.178712368011474609e+00 3.759592056274414062e+00 -4.142809295654296875e+01 4.266072750091552734e+00 1.412646889686584473e+00 -4.905142593383789062e+01 7.473311424255371094e+00 2.353191137313842773e+00 -3.832409667968750000e+01 6.798661231994628906e+00 7.903715372085571289e-01 -4.745808029174804688e+01 5.959448337554931641e+00 1.057575941085815430e+00 -4.769985198974609375e+01 7.143342971801757812e+00 5.360022187232971191e-02 -4.517656707763671875e+01 6.287114143371582031e+00 3.367323398590087891e+00 -4.009796142578125000e+01 7.766021728515625000e+00 1.557206630706787109e+00 -3.996379089355468750e+01 7.337195873260498047e+00 3.000945329666137695e+00 -3.863629913330078125e+01 7.479416847229003906e+00 2.648473739624023438e+00 -3.812981033325195312e+01 2.871364355087280273e+00 2.535321950912475586e+00 -5.028897476196289062e+01 2.642796039581298828e+00 3.614768981933593750e+00 -4.801756286621093750e+01 3.857838869094848633e+00 4.783256053924560547e+00 -4.382512664794921875e+01 8.142891883850097656e+00 -1.383097171783447266e-01 -4.335300445556640625e+01 4.452826976776123047e+00 4.783143997192382812e+00 -4.344641494750976562e+01 7.358799457550048828e+00 2.878485679626464844e+00 -3.821715927124023438e+01 6.371076107025146484e+00 3.277176856994628906e+00 -4.024797821044921875e+01 3.179506063461303711e+00 2.272325038909912109e+00 -5.021920394897460938e+01 4.880485534667968750e+00 9.915892481803894043e-01 -4.837130355834960938e+01 5.473863124847412109e+00 4.069681167602539062e+00 -4.237881851196289062e+01 7.857671260833740234e+00 -7.051017284393310547e-01 -4.505398178100585938e+01 7.378697395324707031e+00 1.498884439468383789e+00 -4.106255722045898438e+01 7.574647903442382812e+00 1.067978620529174805e+00 -4.256602859497070312e+01 7.825437545776367188e+00 2.152697563171386719e+00 -3.873162841796875000e+01 4.635249137878417969e+00 8.857005834579467773e-01 -4.936600875854492188e+01 6.711919307708740234e+00 2.801947593688964844e+00 -3.966426849365234375e+01 7.275634288787841797e+00 9.157111644744873047e-01 -4.205891799926757812e+01 5.647544860839843750e+00 3.459618330001831055e+00 -4.115874481201171875e+01 6.865660190582275391e+00 -2.965688705444335938e-03 -4.679087829589843750e+01 3.571240901947021484e+00 1.827507495880126953e+00 -5.019664764404296875e+01 4.649185657501220703e+00 4.593142986297607422e+00 -4.266519927978515625e+01 5.848646640777587891e+00 3.369634151458740234e+00 -4.087213134765625000e+01 5.230853557586669922e+00 4.366727352142333984e+00 -4.369250869750976562e+01 7.165274620056152344e+00 2.586431741714477539e+00 -3.903258132934570312e+01 8.292255401611328125e+00 -9.234524518251419067e-02 -4.414647674560546875e+01 5.041757106781005859e+00 1.129219770431518555e+00 -4.925445938110351562e+01 2.492269515991210938e+00 3.332502365112304688e+00 -4.740741348266601562e+01 4.469637870788574219e+00 1.375598788261413574e+00 -4.949864578247070312e+01 7.080833911895751953e+00 2.925611019134521484e+00 -3.798635101318359375e+01 7.897071838378906250e+00 -3.158687949180603027e-01 -4.449231338500976562e+01 3.179322719573974609e+00 2.155342102050781250e+00 -4.948907470703125000e+01 6.844431400299072266e+00 2.622509479522705078e+00 -4.041983795166015625e+01 7.486941814422607422e+00 1.351694107055664062e+00 -4.153985595703125000e+01 5.919140338897705078e+00 3.567437171936035156e+00 -4.163175201416015625e+01 3.072990417480468750e+00 2.112708806991577148e+00 -4.966910934448242188e+01 7.832278251647949219e+00 1.567425251007080078e+00 -3.955843734741210938e+01 7.706974983215332031e+00 -1.046047359704971313e-01 -4.496214675903320312e+01 2.795369863510131836e+00 3.326259613037109375e+00 -4.727627563476562500e+01 8.389044761657714844e+00 -6.725880503654479980e-01 -4.457761764526367188e+01 7.709367752075195312e+00 1.914554119110107422e+00 -3.830985260009765625e+01 7.734559059143066406e+00 2.302579641342163086e+00 -3.782605361938476562e+01 2.997278451919555664e+00 4.948145866394042969e+00 -4.487036895751953125e+01 3.394513368606567383e+00 1.773647427558898926e+00 -4.910816574096679688e+01 4.640363693237304688e+00 4.555987358093261719e+00 -4.436632919311523438e+01 8.090426445007324219e+00 7.471480965614318848e-02 -4.318327713012695312e+01 6.625816822052001953e+00 2.565032958984375000e+00 -4.004261398315429688e+01 7.715679168701171875e+00 1.388506650924682617e+00 -4.146739959716796875e+01 6.972256660461425781e+00 1.809908309951424599e-03 -4.554062652587890625e+01 3.457287549972534180e+00 4.478096485137939453e+00 -4.495907974243164062e+01 5.195913314819335938e+00 4.014104843139648438e+00 -4.212496948242187500e+01 6.594579696655273438e+00 5.768048167228698730e-01 -4.740526962280273438e+01 3.647409677505493164e+00 2.473045587539672852e+00 -4.928290939331054688e+01 5.238911628723144531e+00 3.630099296569824219e+00 -4.214096069335937500e+01 5.395414829254150391e+00 7.559895515441894531e-01 -4.768773651123046875e+01 7.569938182830810547e+00 9.126012921333312988e-01 -4.081421661376953125e+01 7.453934192657470703e+00 2.057746171951293945e+00 -3.924546813964843750e+01 4.098817825317382812e+00 1.670920133590698242e+00 -4.941659927368164062e+01 5.398484230041503906e+00 5.164064168930053711e-01 -4.851734161376953125e+01 7.408441543579101562e+00 2.820326328277587891e+00 -3.751528167724609375e+01 7.776801586151123047e+00 1.785958886146545410e+00 -4.021880340576171875e+01 6.965749263763427734e+00 2.220670223236083984e+00 -3.819557952880859375e+01 7.386781692504882812e+00 8.755667805671691895e-01 -4.155805587768554688e+01 3.561169862747192383e+00 3.982020378112792969e+00 -4.535760879516601562e+01 3.101290225982666016e+00 2.890078067779541016e+00 -4.819279861450195312e+01 4.722178936004638672e+00 4.121882438659667969e+00 -4.385727691650390625e+01 7.728064060211181641e+00 -7.797346711158752441e-01 -4.560226440429687500e+01 4.461537361145019531e+00 9.930483102798461914e-01 -4.897392654418945312e+01 3.735234498977661133e+00 4.005520820617675781e+00 -4.622393798828125000e+01 6.509076118469238281e+00 2.948845863342285156e+00 -4.070230865478515625e+01 6.662806987762451172e+00 2.725619316101074219e+00 -4.028164291381835938e+01 7.217505931854248047e+00 2.250275373458862305e+00 -3.857385635375976562e+01 7.632043361663818359e+00 1.894833564758300781e+00 -3.800882720947265625e+01 4.249376773834228516e+00 1.389412522315979004e+00 -5.005185317993164062e+01 5.413777351379394531e+00 1.422300577163696289e+00 -4.854200744628906250e+01 7.762105464935302734e+00 -2.931331470608711243e-02 -4.275752639770507812e+01 7.127810001373291016e+00 -2.501092255115509033e-01 -4.659912490844726562e+01 8.001041412353515625e+00 8.783643245697021484e-01 -4.162309646606445312e+01 8.271158218383789062e+00 -1.502393841743469238e+00 -4.406974029541015625e+01 6.374540328979492188e+00 8.649662733078002930e-01 -4.726574325561523438e+01 3.425419092178344727e+00 2.152268409729003906e+00 -4.947008132934570312e+01 7.460008621215820312e+00 2.306617498397827148e+00 -3.919373703002929688e+01 7.543591022491455078e+00 2.344963312149047852e+00 -3.811164474487304688e+01 3.141275167465209961e+00 4.006568431854248047e+00 -4.447204208374023438e+01 6.994621276855468750e+00 2.584000349044799805e+00 -3.965920257568359375e+01 7.182261466979980469e+00 6.914089322090148926e-01 -4.236411666870117188e+01 5.576315879821777344e+00 3.135290861129760742e+00 -4.141175079345703125e+01 7.180553913116455078e+00 1.707650780677795410e+00 -3.919710922241210938e+01 7.876535415649414062e+00 2.121414184570312500e+00 -3.804275894165039062e+01 7.796947479248046875e+00 -9.096935987472534180e-01 -4.473997879028320312e+01 5.997636795043945312e+00 3.062001705169677734e+00 -4.136430358886718750e+01 5.965852260589599609e+00 2.219341516494750977e+00 -4.029122161865234375e+01 7.768121719360351562e+00 1.015211224555969238e+00 -4.007190322875976562e+01 7.519721984863281250e+00 2.425902605056762695e+00 -3.752607727050781250e+01 3.474104166030883789e+00 2.385569095611572266e+00 -4.841652679443359375e+01 5.720850944519042969e+00 3.465538263320922852e+00 -4.189009475708007812e+01 7.873896121978759766e+00 1.608373522758483887e+00 -3.851335906982421875e+01 7.400398731231689453e+00 -6.842865347862243652e-01 -4.580361938476562500e+01 7.988463401794433594e+00 4.188219904899597168e-01 -4.261339569091796875e+01 7.748223781585693359e+00 2.013519048690795898e+00 -3.822046661376953125e+01 7.793730735778808594e+00 -8.422599434852600098e-01 -4.439269256591796875e+01 7.888689994812011719e+00 -6.050699949264526367e-01 -4.518317413330078125e+01 7.576355457305908203e+00 -3.407476097345352173e-02 -4.272999954223632812e+01 7.447405815124511719e+00 1.895838856697082520e+00 -3.743363189697265625e+01 7.699243545532226562e+00 6.495683193206787109e-01 -4.107938385009765625e+01 7.910786628723144531e+00 1.668836355209350586e+00 -3.864616012573242188e+01 7.737739562988281250e+00 2.051738977432250977e+00 -3.794324493408203125e+01 3.792021751403808594e+00 9.440469741821289062e-01 -4.929353332519531250e+01 7.391764640808105469e+00 -6.650665402412414551e-01 -4.595807266235351562e+01 3.656136274337768555e+00 2.033354997634887695e+00 -4.983305740356445312e+01 7.732813835144042969e+00 1.110021471977233887e+00 -3.978649520874023438e+01 7.866419792175292969e+00 -2.657889425754547119e-01 -4.494586563110351562e+01 2.942506790161132812e+00 2.868411064147949219e+00 -4.764016342163085938e+01 3.586033344268798828e+00 1.216579198837280273e+00 -4.884243011474609375e+01 4.783853530883789062e+00 4.454114437103271484e+00 -4.472999572753906250e+01 3.889014959335327148e+00 3.392191648483276367e+00 -4.389314270019531250e+01 4.701426506042480469e+00 3.622851610183715820e+00 -4.369114685058593750e+01 3.143157243728637695e+00 3.218200206756591797e+00 -4.613928985595703125e+01 7.038644313812255859e+00 2.616857767105102539e+00 -4.021342086791992188e+01 7.478747367858886719e+00 5.244440436363220215e-01 -4.198938751220703125e+01 3.986791372299194336e+00 3.104973316192626953e+00 -4.536192321777343750e+01 7.103019237518310547e+00 1.871788263320922852e+00 -3.852859878540039062e+01 7.344870090484619141e+00 1.918775677680969238e+00 -3.847114181518554688e+01 4.569582939147949219e+00 9.155462980270385742e-01 -4.839466094970703125e+01 5.389479637145996094e+00 3.643798828125000000e+00 -4.283021545410156250e+01 6.428963661193847656e+00 -4.691598713397979736e-01 -4.573269653320312500e+01 7.413398742675781250e+00 8.399404883384704590e-01 -3.985284042358398438e+01 7.777861118316650391e+00 1.142632961273193359e+00 -4.006949234008789062e+01 3.261545896530151367e+00 1.900517344474792480e+00 -4.866877365112304688e+01 6.711046218872070312e+00 -1.617668569087982178e-01 -4.688217926025390625e+01 7.838135242462158203e+00 1.635265588760375977e+00 -3.844838333129882812e+01 4.773100376129150391e+00 5.183955430984497070e-01 -4.796819686889648438e+01 4.821735858917236328e+00 2.357814460992813110e-01 -4.821128845214843750e+01 3.715401887893676758e+00 2.221457958221435547e+00 -4.814021301269531250e+01 7.430352687835693359e+00 6.720958948135375977e-01 -4.038727951049804688e+01 8.131361007690429688e+00 -7.628073692321777344e-01 -4.499808502197265625e+01 4.009549140930175781e+00 1.005785822868347168e+00 -4.920112991333007812e+01 4.906586170196533203e+00 3.642750740051269531e+00 -4.379628372192382812e+01 7.021721363067626953e+00 6.683169305324554443e-02 -4.629877471923828125e+01 7.680734157562255859e+00 -3.655259013175964355e-01 -4.515927124023437500e+01 6.701445102691650391e+00 1.790360450744628906e+00 -3.956071853637695312e+01 7.662406921386718750e+00 -5.031660795211791992e-01 -4.380572128295898438e+01 4.360538005828857422e+00 2.691123247146606445e+00 -4.627173233032226562e+01 3.757800340652465820e+00 2.984227895736694336e+00 -4.770752716064453125e+01 6.928611278533935547e+00 2.097883701324462891e+00 -4.005360412597656250e+01 6.406177520751953125e+00 1.870632529258728027e+00 -3.989067459106445312e+01 7.977793216705322266e+00 5.794082880020141602e-01 -4.122761917114257812e+01 4.156912803649902344e+00 1.806142210960388184e+00 -4.873738479614257812e+01 4.193720817565917969e+00 1.602087497711181641e+00 -4.808058166503906250e+01 7.398517131805419922e+00 1.880735158920288086e-01 -4.246847915649414062e+01 6.984299659729003906e+00 2.480422973632812500e+00 -4.060715866088867188e+01 3.931570529937744141e+00 1.682110071182250977e+00 -4.827260589599609375e+01 4.149461746215820312e+00 2.595699071884155273e+00 -4.775208663940429688e+01 4.245826721191406250e+00 1.272746562957763672e+00 -4.860658645629882812e+01 7.635643482208251953e+00 -9.023292064666748047e-01 -4.523191070556640625e+01 6.362723350524902344e+00 2.976657390594482422e+00 -4.095307922363281250e+01 6.186465740203857422e+00 2.167658329010009766e+00 -4.100586318969726562e+01 7.416050434112548828e+00 -8.310308456420898438e-01 -4.635848236083984375e+01 7.803617000579833984e+00 3.525925576686859131e-01 -4.240933609008789062e+01 6.358084678649902344e+00 9.117989242076873779e-02 -4.664416122436523438e+01 7.250012397766113281e+00 -6.964806914329528809e-01 -4.424023818969726562e+01 7.616837024688720703e+00 1.163174152374267578e+00 -3.884344863891601562e+01 3.349557876586914062e+00 3.525045156478881836e+00 -4.540468978881835938e+01 5.382949829101562500e+00 2.996873140335083008e+00 -4.329129791259765625e+01 6.299430370330810547e+00 2.208097696304321289e+00 -4.115496444702148438e+01 6.852525234222412109e+00 1.647606253623962402e+00 -3.934342193603515625e+01 4.829822540283203125e+00 3.351749658584594727e+00 -4.478134918212890625e+01 4.904816150665283203e+00 9.485316872596740723e-01 -4.788760757446289062e+01 7.104546070098876953e+00 -5.191338062286376953e-01 -4.521454620361328125e+01 7.562564849853515625e+00 1.553167462348937988e+00 -3.961589431762695312e+01 7.476274967193603516e+00 1.586345672607421875e+00 -3.915737533569335938e+01 7.756403446197509766e+00 1.922227144241333008e+00 -3.850917816162109375e+01 3.643758773803710938e+00 2.851127624511718750e+00 -4.753662490844726562e+01 8.459569931030273438e+00 1.302699685096740723e+00 -4.040893936157226562e+01 4.086237430572509766e+00 1.130906224250793457e+00 -4.794035720825195312e+01 3.576833963394165039e+00 2.263111114501953125e+00 -4.644643783569335938e+01 4.315661907196044922e+00 1.247550368309020996e+00 -4.791059494018554688e+01 4.563283443450927734e+00 2.198958873748779297e+00 -4.843305969238281250e+01 8.026826858520507812e+00 6.360033154487609863e-01 -3.980648422241210938e+01 6.041720390319824219e+00 2.456055402755737305e+00 -4.200153350830078125e+01 4.358659267425537109e+00 3.529946327209472656e+00 -4.418122100830078125e+01 5.496491909027099609e+00 3.450037479400634766e+00 -4.338942337036132812e+01 6.608135223388671875e+00 1.426111459732055664e+00 -3.929118347167968750e+01 7.420056819915771484e+00 1.266812205314636230e+00 -3.896195602416992188e+01 5.164782524108886719e+00 2.567317247390747070e+00 -4.571908950805664062e+01 5.310796260833740234e+00 -3.217555209994316101e-02 -4.766680908203125000e+01 7.542656898498535156e+00 -1.078385353088378906e+00 -4.440359497070312500e+01 5.268672466278076172e+00 7.804138064384460449e-01 -4.738246917724609375e+01 7.740221500396728516e+00 -9.567137360572814941e-01 -4.586902999877929688e+01 7.495545387268066406e+00 -7.006797194480895996e-01 -4.339006805419921875e+01 7.537827014923095703e+00 -2.861931324005126953e-01 -4.404523468017578125e+01 7.784926891326904297e+00 1.422561109066009521e-01 -4.052606582641601562e+01 7.614461898803710938e+00 -3.423248529434204102e-01 -4.237713623046875000e+01 4.366023540496826172e+00 1.428581327199935913e-01 -4.836114120483398438e+01 5.253391742706298828e+00 2.075578212738037109e+00 -4.351024246215820312e+01 4.283429622650146484e+00 1.768756270408630371e+00 -4.742670822143554688e+01 4.300539493560791016e+00 2.973800182342529297e+00 -4.561726379394531250e+01 5.038206100463867188e+00 5.825258493423461914e-01 -4.748430252075195312e+01 4.825752258300781250e+00 5.625290870666503906e-01 -4.777332687377929688e+01 6.510158061981201172e+00 1.222182154655456543e+00 -4.158962631225585938e+01 4.741346359252929688e+00 1.004287362098693848e+00 -4.739486694335937500e+01 7.194897651672363281e+00 8.654544949531555176e-01 -4.001651763916015625e+01 7.207845211029052734e+00 1.317597031593322754e+00 -3.912776565551757812e+01 6.485017776489257812e+00 -9.082047641277313232e-02 -4.698346328735351562e+01 7.987553596496582031e+00 -5.110535621643066406e-01 -4.165154266357421875e+01 6.887995243072509766e+00 -7.014319896697998047e-01 -4.455727005004882812e+01 6.877503871917724609e+00 1.618431091308593750e+00 -4.017927932739257812e+01 7.397395133972167969e+00 1.795012712478637695e+00 -3.899328231811523438e+01 4.603174686431884766e+00 1.664032816886901855e+00 -4.643838882446289062e+01 4.863143920898437500e+00 2.923371553421020508e+00 -4.520141601562500000e+01 7.595061302185058594e+00 1.092428803443908691e+00 -3.920919418334960938e+01 6.969492435455322266e+00 1.728106737136840820e+00 -4.202820205688476562e+01 4.547203063964843750e+00 3.082632303237915039e+00 -4.602839279174804688e+01 6.845508098602294922e+00 -5.975465774536132812e-01 -4.578097534179687500e+01 5.551780223846435547e+00 1.167233586311340332e+00 -4.738236236572265625e+01 5.257974147796630859e+00 1.467484593391418457e+00 -4.697007751464843750e+01 7.371208190917968750e+00 2.686080038547515869e-01 -4.102560806274414062e+01 5.292660236358642578e+00 2.308005332946777344e+00 -4.515935897827148438e+01 7.085816860198974609e+00 1.566152930259704590e+00 -4.043557739257812500e+01 7.700440883636474609e+00 2.865296900272369385e-01 -4.158530807495117188e+01 6.596807956695556641e+00 -2.171528935432434082e-01 -4.675901412963867188e+01 6.963859558105468750e+00 -2.841784358024597168e-01 -4.583196258544921875e+01 7.237864494323730469e+00 -1.071460723876953125e+00 -4.511374664306640625e+01 6.884928703308105469e+00 -9.314738512039184570e-01 -4.401712417602539062e+01 6.678882122039794922e+00 -6.909599304199218750e-01 -4.648157882690429688e+01 8.072005271911621094e+00 1.585621982812881470e-01 -4.317103195190429688e+01 5.099392890930175781e+00 4.301369488239288330e-01 -4.690190887451171875e+01 5.649765491485595703e+00 2.069987297058105469e+00 -4.323141860961914062e+01 4.090682983398437500e+00 1.489078640937805176e+00 -4.719475936889648438e+01 4.592980384826660156e+00 2.000669717788696289e+00 -4.380975723266601562e+01 5.969499588012695312e+00 1.942305445671081543e+00 -4.202095031738281250e+01 4.905714511871337891e+00 3.918189406394958496e-01 -4.699197006225585938e+01 7.026306629180908203e+00 9.494903087615966797e-01 -4.021101760864257812e+01 7.628502368927001953e+00 -4.935123920440673828e-01 -4.266247940063476562e+01 4.294450283050537109e+00 2.681682825088500977e+00 -4.622201156616210938e+01 4.123462200164794922e+00 2.785927295684814453e+00 -4.472716140747070312e+01 5.224478721618652344e+00 6.486123204231262207e-01 -4.652220535278320312e+01 7.584605693817138672e+00 1.373897433280944824e+00 -3.981728363037109375e+01 5.518449306488037109e+00 -2.816654182970523834e-02 -4.640772247314453125e+01 7.177659034729003906e+00 2.179329395294189453e-01 -4.601474380493164062e+01 3.921272277832031250e+00 2.341841220855712891e+00 -4.674127197265625000e+01 5.346028327941894531e+00 -8.956980705261230469e-02 -4.568687820434570312e+01 7.422351360321044922e+00 -5.459614098072052002e-02 -4.609172821044921875e+01 6.759443759918212891e+00 -3.891596198081970215e-01 -4.623706054687500000e+01 7.680457592010498047e+00 5.816189646720886230e-01 -3.984815979003906250e+01 4.946010112762451172e+00 1.105405211448669434e+00 -4.705005645751953125e+01 7.684305191040039062e+00 -1.455057978630065918e+00 -4.518001174926757812e+01 7.563266754150390625e+00 1.958112716674804688e-01 -4.252346038818359375e+01 5.443875312805175781e+00 -1.926688849925994873e-01 -4.689620208740234375e+01 6.335619449615478516e+00 -1.785559803247451782e-01 -4.661181259155273438e+01 7.326586723327636719e+00 -2.962050437927246094e-01 -4.372256088256835938e+01 6.056332111358642578e+00 2.215418100357055664e+00 -4.524860763549804688e+01 4.294863700866699219e+00 1.611987233161926270e+00 -4.556354904174804688e+01 5.271885395050048828e+00 1.745986342430114746e+00 -4.625424957275390625e+01 7.228826999664306641e+00 1.171044468879699707e+00 -4.016699600219726562e+01 7.680110454559326172e+00 -5.257539078593254089e-02 -4.070263290405273438e+01 7.100257396697998047e+00 -7.739124894142150879e-01 -4.515663528442382812e+01 6.920672893524169922e+00 -4.700314700603485107e-01 -4.578634262084960938e+01 5.267560958862304688e+00 1.907999038696289062e+00 -4.598802566528320312e+01 6.391329765319824219e+00 2.282887220382690430e+00 -4.353049087524414062e+01 6.624076366424560547e+00 9.916052222251892090e-01 -4.223045349121093750e+01 5.815207481384277344e+00 -4.496819898486137390e-02 -4.606813812255859375e+01 5.435140132904052734e+00 1.716637134552001953e+00 -4.493166351318359375e+01 5.412119865417480469e+00 2.345483541488647461e+00 -4.362610244750976562e+01 7.839716911315917969e+00 -1.119442701339721680e+00 -4.497293090820312500e+01 6.813776493072509766e+00 5.547872781753540039e-01 -4.091999053955078125e+01 7.657580852508544922e+00 -1.020174920558929443e-01 -4.228462219238281250e+01 6.909960269927978516e+00 -3.315488994121551514e-01 -4.618811035156250000e+01 7.414767265319824219e+00 -6.178988218307495117e-01 -4.392188262939453125e+01 5.636324405670166016e+00 1.461597442626953125e+00 -4.576919555664062500e+01 5.555201530456542969e+00 4.568750858306884766e-01 -4.564216995239257812e+01 7.160847663879394531e+00 5.850258469581604004e-01 -4.007096099853515625e+01 6.713291168212890625e+00 -4.445744454860687256e-01 -4.566691207885742188e+01 7.457166671752929688e+00 5.621160846203565598e-03 -4.029174423217773438e+01 6.758076667785644531e+00 -9.602393209934234619e-02 -4.529080963134765625e+01 5.952292919158935547e+00 5.662832856178283691e-01 -4.638012313842773438e+01 6.420230388641357422e+00 8.958024382591247559e-01 -4.581146240234375000e+01 7.197884559631347656e+00 -1.160003781318664551e+00 -4.521643447875976562e+01 6.631863594055175781e+00 6.134064197540283203e-01 -4.130683517456054688e+01 6.946033000946044922e+00 -6.758760809898376465e-01 -4.535862350463867188e+01 6.804399967193603516e+00 5.850169062614440918e-01 -4.136080169677734375e+01 7.810231685638427734e+00 2.499187588691711426e-01 -4.190091323852539062e+01 7.367678642272949219e+00 3.805298209190368652e-01 -4.137362670898437500e+01 4.991234302520751953e+00 1.930527448654174805e+00 -4.365222167968750000e+01 6.490288257598876953e+00 1.560421824455261230e+00 -4.243427658081054688e+01 6.395320415496826172e+00 3.505769371986389160e-01 -4.589102172851562500e+01 7.129395008087158203e+00 -9.423087835311889648e-01 -4.358180236816406250e+01 5.853093147277832031e+00 8.084952831268310547e-01 -4.445621109008789062e+01 6.470703601837158203e+00 -1.005261540412902832e+00 -4.380429077148437500e+01 6.533480167388916016e+00 2.037568569183349609e+00 -4.344047164916992188e+01 6.307676315307617188e+00 1.652514576911926270e+00 -4.277981567382812500e+01 6.772950172424316406e+00 1.048396944999694824e+00 -4.202887344360351562e+01 7.609331607818603516e+00 2.423615455627441406e-01 -4.051275634765625000e+01 6.457453250885009766e+00 1.565183103084564209e-01 -4.520941925048828125e+01 5.654958724975585938e+00 8.649479746818542480e-01 -4.501758956909179688e+01 7.223717689514160156e+00 -9.817795753479003906e-01 -4.497872543334960938e+01 7.610349178314208984e+00 -1.641980111598968506e-01 -4.270379638671875000e+01 7.196963787078857422e+00 1.011114478111267090e+00 -4.144778442382812500e+01 6.770436286926269531e+00 -1.540454179048538208e-01 -4.560094070434570312e+01 7.465913772583007812e+00 -1.261746048927307129e+00 -4.495505142211914062e+01 6.703517913818359375e+00 -1.793520450592041016e-01 -4.517283248901367188e+01 6.667243957519531250e+00 7.067925333976745605e-01 -4.448555755615234375e+01 6.225595951080322266e+00 1.359078168869018555e+00 -4.377399444580078125e+01 7.348564147949218750e+00 -1.199398376047611237e-02 -4.287269210815429688e+01 7.073765277862548828e+00 -3.238438665866851807e-01 -4.251573181152343750e+01 6.272303104400634766e+00 1.613695025444030762e-01 -4.526390457153320312e+01 6.834156513214111328e+00 6.393905282020568848e-01 -4.187118911743164062e+01 6.114352703094482422e+00 5.856036543846130371e-01 -4.249414443969726562e+01 6.766772270202636719e+00 4.474767148494720459e-01 -4.339995574951171875e+01 7.054680347442626953e+00 1.301779597997665405e-01 -4.135358047485351562e+01 7.382445812225341797e+00 -6.554034948348999023e-01 -4.431233215332031250e+01 6.975913047790527344e+00 -4.182813167572021484e-01 -4.434510421752929688e+01 6.844841480255126953e+00 6.969553232192993164e-02 -4.320833587646484375e+01 7.271616935729980469e+00 -1.140646100044250488e+00 -4.440760040283203125e+01 6.788453102111816406e+00 -1.817095875740051270e-01 -4.444974136352539062e+01 5.384087085723876953e+00 8.413881063461303711e-01 -4.423576736450195312e+01 7.361920833587646484e+00 4.740027487277984619e-01 -4.256726455688476562e+01 6.887025833129882812e+00 -4.277892708778381348e-01 -4.446751022338867188e+01 6.842484951019287109e+00 5.803645849227905273e-01 -4.463514328002929688e+01 6.437934875488281250e+00 1.196605801582336426e+00 -4.305389022827148438e+01 6.228076457977294922e+00 2.724565863609313965e-01 -4.225810623168945312e+01 7.152249813079833984e+00 5.175765156745910645e-01 -4.260132217407226562e+01 6.806671619415283203e+00 -7.042593359947204590e-01 -4.341076660156250000e+01 6.286726951599121094e+00 2.455170899629592896e-01 -4.407085418701171875e+01 6.944537639617919922e+00 -4.953835308551788330e-01 -4.422665023803710938e+01 7.408320903778076172e+00 -1.338988542556762695e-01 -4.299221420288085938e+01 7.531879425048828125e+00 -3.096450567245483398e-01 -4.309113693237304688e+01
-3.461403608322143555e+00 -9.996373057365417480e-01 -3.795027160644531250e+01 -4.323020458221435547e+00 -2.160692930221557617e+00 -3.775480651855468750e+01 -2.458664417266845703e+00 -1.330865740776062012e+00 -3.733618545532226562e+01 -4.471627712249755859e+00 -1.616415143013000488e+00 -3.881676864624023438e+01 -3.606397151947021484e+00 -2.571802139282226562e+00 -3.762624359130859375e+01 -4.401189327239990234e+00 -3.378014802932739258e+00 -3.676206588745117188e+01 -4.829468727111816406e+00 -3.152143478393554688e+00 -3.815543365478515625e+01 -4.783186435699462891e+00 -3.857456922531127930e+00 -3.708172225952148438e+01 -3.532464981079101562e+00 -2.397552013397216797e+00 -3.664777374267578125e+01 -2.454997777938842773e+00 -4.297677576541900635e-01 -3.778025817871093750e+01 -4.949337482452392578e+00 -2.666299819946289062e+00 -3.936202621459960938e+01 -1.845219612121582031e+00 -3.808116018772125244e-01 -3.659395599365234375e+01 -4.370892524719238281e+00 -3.772354364395141602e+00 -3.636042785644531250e+01 -1.649107217788696289e+00 -1.876771330833435059e+00 -3.527061843872070312e+01 -2.368509769439697266e+00 -5.905914902687072754e-01 -3.860425567626953125e+01 -4.861195087432861328e+00 -2.237916707992553711e+00 -3.987024688720703125e+01 -5.566637039184570312e+00 -3.633863687515258789e+00 -3.852396774291992188e+01 -1.132414698600769043e+00 -1.295024394989013672e+00 -3.566627502441406250e+01 -2.740993261337280273e+00 -3.482357740402221680e+00 -3.583634185791015625e+01 -2.765439271926879883e+00 -3.227385997772216797e+00 -3.630445480346679688e+01 -2.159707546234130859e+00 -2.695429086685180664e+00 -3.582483291625976562e+01 -3.276582956314086914e+00 -4.095875024795532227e-01 -3.914633178710937500e+01 -5.699012279510498047e+00 -3.513440847396850586e+00 -3.923218917846679688e+01 -3.734383344650268555e+00 -3.972239017486572266e+00 -3.556235885620117188e+01 -2.147646903991699219e+00 4.062406420707702637e-01 -3.938150787353515625e+01 -5.152845859527587891e+00 -1.405837059020996094e+00 -4.047087860107421875e+01 -1.471788763999938965e+00 -1.312194298952817917e-02 -3.793444442749023438e+01 -5.488105773925781250e+00 -4.503998279571533203e+00 -3.798987960815429688e+01 -4.710735797882080078e+00 -4.928621768951416016e+00 -3.674277877807617188e+01 -4.220868587493896484e+00 -4.751487731933593750e+00 -3.627470779418945312e+01 -4.679194688796997070e-01 3.060858249664306641e-01 -3.718160629272460938e+01 -6.112219810485839844e+00 -4.458817481994628906e+00 -3.922686767578125000e+01 -3.954466342926025391e+00 5.376061052083969116e-02 -4.079651641845703125e+01 -6.586102485656738281e+00 -3.278615713119506836e+00 -3.965980529785156250e+01 -1.255055189132690430e+00 -1.630106806755065918e+00 -3.551627731323242188e+01 -1.568967103958129883e-02 -6.850500106811523438e-01 -3.574642562866210938e+01 -5.480603694915771484e+00 -4.239876270294189453e+00 -3.779333496093750000e+01 -2.857153177261352539e+00 -4.058181285858154297e+00 -3.504874801635742188e+01 -7.349920272827148438e-01 1.332623243331909180e+00 -3.866347503662109375e+01 -1.593571186065673828e+00 -3.803760528564453125e+00 -3.535245132446289062e+01 -1.365685462951660156e+00 -2.700539588928222656e+00 -3.489525985717773438e+01 -5.823347091674804688e+00 -2.089261293411254883e+00 -4.107679748535156250e+01 -6.543087005615234375e+00 -4.718097209930419922e+00 -3.920274734497070312e+01 -6.807246685028076172e+00 -4.154467105865478516e+00 -3.973597335815429688e+01 4.615570306777954102e-01 1.562791705131530762e+00 -3.767089843750000000e+01 -1.981252074241638184e+00 -3.834809303283691406e+00 -3.526295852661132812e+01 -5.961925983428955078e+00 -5.215782642364501953e+00 -3.846070480346679688e+01 -4.750257968902587891e+00 -5.094188213348388672e+00 -3.674707031250000000e+01 -2.435067415237426758e+00 1.414873480796813965e+00 -4.081170654296875000e+01 -9.081131815910339355e-01 1.831474065780639648e+00 -4.004457473754882812e+01 -3.592570781707763672e+00 -4.558298110961914062e+00 -3.553311157226562500e+01 -4.820063114166259766e+00 -7.064498066902160645e-01 -4.175361251831054688e+01 9.642896056175231934e-01 9.096022695302963257e-02 -3.588147735595703125e+01 -6.125541210174560547e+00 -2.851281642913818359e+00 -4.104441070556640625e+01 -6.577832221984863281e+00 -3.485949516296386719e+00 -4.061847305297851562e+01 1.287229359149932861e-01 1.957182049751281738e+00 -3.933712768554687500e+01 -4.454535841941833496e-01 -2.492061853408813477e+00 -3.546105957031250000e+01 -3.516438245773315430e+00 7.583599686622619629e-01 -4.073741912841796875e+01 6.371572017669677734e-01 4.000321328639984131e-01 -3.623427963256835938e+01 -5.084867954254150391e+00 -5.095395088195800781e+00 -3.790537643432617188e+01 3.703390359878540039e-01 -1.564638495445251465e+00 -3.506986236572265625e+01 -3.825501203536987305e+00 -5.519174098968505859e+00 -3.592277145385742188e+01 -3.223405361175537109e+00 -4.805992603302001953e+00 -3.535659408569335938e+01 1.332015991210937500e+00 1.956621885299682617e+00 -3.816148757934570312e+01 -7.126313686370849609e+00 -5.038479328155517578e+00 -3.974897003173828125e+01 -7.069434165954589844e+00 -4.062885284423828125e+00 -4.058464813232421875e+01 -4.317441940307617188e+00 -5.525107383728027344e+00 -3.713616943359375000e+01 1.436933636665344238e+00 1.483273983001708984e+00 -3.705846786499023438e+01 -2.846520662307739258e+00 1.414916634559631348e+00 -4.161138534545898438e+01 -1.107755184173583984e+00 2.583570480346679688e+00 -4.064613723754882812e+01 4.190993905067443848e-01 3.117912292480468750e+00 -3.974153518676757812e+01 1.440543651580810547e+00 3.430389642715454102e+00 -3.905797195434570312e+01 -1.716378927230834961e+00 -4.845561504364013672e+00 -3.510003662109375000e+01 -1.241436600685119629e+00 -4.175405979156494141e+00 -3.436484527587890625e+01 6.674087047576904297e-01 -1.370301246643066406e+00 -3.493268585205078125e+01 -6.997586727142333984e+00 -5.348799705505371094e+00 -4.059313583374023438e+01 -3.113221406936645508e+00 -5.321077823638916016e+00 -3.582462692260742188e+01 8.538033813238143921e-02 3.593689203262329102e+00 -4.011108398437500000e+01 -6.598070621490478516e+00 -5.659971237182617188e+00 -3.894405746459960938e+01 8.991870880126953125e-01 7.100607156753540039e-01 -3.590303421020507812e+01 -5.237624168395996094e+00 -5.405172824859619141e+00 -3.786505889892578125e+01 -5.139439105987548828e+00 -5.871568202972412109e+00 -3.747451782226562500e+01 -7.186989784240722656e+00 -3.080539464950561523e+00 -4.151467514038085938e+01 -4.849578380584716797e+00 -6.100437164306640625e+00 -3.706531143188476562e+01 -1.225310564041137695e+00 -4.431358814239501953e+00 -3.437244415283203125e+01 -2.367798089981079102e+00 -5.142960548400878906e+00 -3.430130767822265625e+01 -1.428981781005859375e+00 2.940572500228881836e+00 -4.167822265625000000e+01 -4.861940860748291016e+00 -1.141845226287841797e+00 -4.195884704589843750e+01 -7.635551929473876953e+00 -4.253459453582763672e+00 -4.121187591552734375e+01 2.559932708740234375e+00 3.832665681838989258e+00 -3.875729370117187500e+01 2.008122444152832031e+00 -4.769282937049865723e-01 -3.547669219970703125e+01 -9.575212746858596802e-02 -4.621328830718994141e+00 -3.431418609619140625e+01 -1.102466881275177002e-02 -3.445817470550537109e+00 -3.427807235717773438e+01 -2.371389865875244141e+00 -5.816679000854492188e+00 -3.487508392333984375e+01 -4.245088100433349609e+00 2.760851681232452393e-01 -4.237000656127929688e+01 -3.694755315780639648e+00 -5.870885372161865234e+00 -3.620153427124023438e+01 2.227000951766967773e+00 2.906216144561767578e+00 -3.765156936645507812e+01 9.916726350784301758e-01 3.994755983352661133e+00 -4.142591857910156250e+01 -3.676209211349487305e+00 9.965403676033020020e-01 -4.333234024047851562e+01 -2.050002098083496094e+00 2.362515687942504883e+00 -4.280265426635742188e+01 -5.935970306396484375e+00 -1.827035546302795410e+00 -4.218270492553710938e+01 1.843742012977600098e+00 4.123639106750488281e+00 -4.023586273193359375e+01 -7.997278213500976562e+00 -5.062129497528076172e+00 -4.045596313476562500e+01 -6.678415775299072266e+00 -3.440805196762084961e+00 -4.213674926757812500e+01 -6.997195243835449219e+00 -6.088093757629394531e+00 -3.908557128906250000e+01 -1.378761529922485352e+00 -5.093310832977294922e+00 -3.387181854248046875e+01 -3.806102573871612549e-01 3.779812097549438477e+00 -4.199433135986328125e+01 2.948229551315307617e+00 3.728595972061157227e+00 -3.867537689208984375e+01 -6.052629470825195312e+00 -2.414813280105590820e+00 -4.238607406616210938e+01 -7.504984378814697266e+00 -5.487635612487792969e+00 -3.996011734008789062e+01 -6.321250438690185547e+00 -6.424958705902099609e+00 -3.896401214599609375e+01 1.083202958106994629e+00 -2.179186820983886719e+00 -3.411366271972656250e+01 2.548855543136596680e+00 2.190781831741333008e+00 -3.703181838989257812e+01 -7.898352146148681641e+00 -4.961285114288330078e+00 -4.164423370361328125e+01 -5.081692218780517578e+00 -6.231455802917480469e+00 -3.846541976928710938e+01 2.421329021453857422e+00 5.536541342735290527e-01 -3.580667114257812500e+01 1.526301980018615723e+00 -1.257305026054382324e+00 -3.531327819824218750e+01 3.113519430160522461e+00 4.952121257781982422e+00 -3.997295379638671875e+01 -4.779590129852294922e+00 -6.833166480064392090e-01 -4.227261734008789062e+01 2.007163524627685547e+00 4.992483139038085938e+00 -4.159652709960937500e+01 -2.776854991912841797e+00 -6.038211345672607422e+00 -3.540680313110351562e+01 -1.584032654762268066e+00 -5.748020648956298828e+00 -3.369778060913085938e+01 -1.677930712699890137e+00 -6.045280933380126953e+00 -3.434234237670898438e+01 -3.144870519638061523e+00 1.851634740829467773e+00 -4.301369476318359375e+01 -4.336479663848876953e+00 -6.665795803070068359e+00 -3.732788467407226562e+01 -3.252650737762451172e+00 -6.366741657257080078e+00 -3.552559661865234375e+01 5.494154691696166992e-01 -4.326525688171386719e+00 -3.362935638427734375e+01 1.379460334777832031e+00 -2.990760564804077148e+00 -3.411500167846679688e+01 -1.329577445983886719e+00 3.180513858795166016e+00 -4.271566772460937500e+01 6.395958065986633301e-01 4.758228778839111328e+00 -4.257017135620117188e+01 -5.464903354644775391e+00 -1.354924201965332031e+00 -4.291777038574218750e+01 -4.682008743286132812e+00 -8.685506880283355713e-02 -4.344905853271484375e+01 -4.141197681427001953e+00 -6.236929893493652344e+00 -3.721854400634765625e+01 -1.768003940582275391e+00 -6.128644943237304688e+00 -3.404388046264648438e+01 -4.430524110794067383e-01 -5.605675220489501953e+00 -3.341704940795898438e+01 3.610830307006835938e+00 3.227730989456176758e+00 -3.802058792114257812e+01 3.268967628479003906e+00 3.231089591979980469e+00 -3.741438674926757812e+01 -7.684494018554687500e+00 -5.624931812286376953e+00 -4.099377059936523438e+01 3.270349740982055664e+00 1.418608069419860840e+00 -3.642106628417968750e+01 -3.895915150642395020e-01 4.362339496612548828e+00 -4.307715988159179688e+01 2.777595043182373047e+00 5.646201610565185547e+00 -4.128585815429687500e+01 -8.440039634704589844e+00 -5.574480056762695312e+00 -4.078244018554687500e+01 -7.062047481536865234e+00 -6.407160282135009766e+00 -4.022993087768554688e+01 3.653812885284423828e+00 1.503399133682250977e+00 -3.624260711669921875e+01 1.756638288497924805e+00 -2.187301874160766602e+00 -3.451509857177734375e+01 -4.388759613037109375e+00 5.236321091651916504e-01 -4.285735702514648438e+01 -6.949262619018554688e+00 -3.961367607116699219e+00 -4.322856903076171875e+01 -7.710549235343933105e-01 -6.492145061492919922e+00 -3.349229431152343750e+01 4.035182952880859375e+00 4.472236156463623047e+00 -3.846752929687500000e+01 -2.891422986984252930e+00 -6.776556015014648438e+00 -3.557081604003906250e+01 -6.381677389144897461e-01 -6.548521041870117188e+00 -3.378505706787109375e+01 -3.080463036894798279e-02 -5.281352043151855469e+00 -3.384438705444335938e+01 -8.357681274414062500e+00 -5.384473800659179688e+00 -4.253770446777343750e+01 -5.624040961265563965e-03 4.585898876190185547e+00 -4.349544143676757812e+01 1.484875559806823730e+00 5.537616252899169922e+00 -4.229512405395507812e+01 -5.625856399536132812e+00 -1.416736721992492676e+00 -4.271703338623046875e+01 3.141849279403686523e+00 1.620073765516281128e-01 -3.487059402465820312e+01 4.407144069671630859e+00 2.663015604019165039e+00 -3.656356048583984375e+01 -6.129570484161376953e+00 -6.295734882354736328e+00 -3.922772979736328125e+01 -2.302202463150024414e+00 2.461735486984252930e+00 -4.342595672607421875e+01 1.974507570266723633e+00 -3.304057359695434570e+00 -3.433624267578125000e+01 -3.616878032684326172e+00 -6.996628284454345703e+00 -3.697436523437500000e+01 1.995465755462646484e+00 -2.367184638977050781e+00 -3.449004364013671875e+01 -7.888088703155517578e+00 -4.744536399841308594e+00 -4.286269760131835938e+01 -5.725992202758789062e+00 -2.021775245666503906e+00 -4.318153762817382812e+01 -1.661148428916931152e+00 3.916466236114501953e+00 -4.455720520019531250e+01 -7.201737403869628906e+00 -6.734273433685302734e+00 -4.079217529296875000e+01 -8.418465614318847656e+00 -6.392832279205322266e+00 -4.229089355468750000e+01 -8.008999824523925781e+00 -5.199255943298339844e+00 -4.275391006469726562e+01 -7.472494125366210938e+00 -6.373477458953857422e+00 -4.120770645141601562e+01 -1.656830668449401855e+00 -6.843953609466552734e+00 -3.430348968505859375e+01 4.373230457305908203e+00 5.923800468444824219e+00 -4.008293151855468750e+01 4.684297561645507812e+00 4.003082275390625000e+00 -3.793129348754882812e+01 2.416037559509277344e+00 6.313738346099853516e+00 -4.214062118530273438e+01 -3.819747447967529297e+00 6.867622137069702148e-01 -4.345609283447265625e+01 -3.000916481018066406e+00 -6.677284240722656250e+00 -3.631521606445312500e+01 5.290819644927978516e+00 5.272132396697998047e+00 -3.879294967651367188e+01 7.100075483322143555e-01 -5.995624542236328125e+00 -3.291494750976562500e+01 -2.450480163097381592e-01 -6.495053768157958984e+00 -3.324224090576171875e+01 1.106691241264343262e+00 -4.148831844329833984e+00 -3.372170257568359375e+01 1.624509930610656738e+00 -3.961790323257446289e+00 -3.407942199707031250e+01 -4.698010087013244629e-01 4.035288333892822266e+00 -4.443671035766601562e+01 -3.320004940032958984e-01 4.557722091674804688e+00 -4.425762939453125000e+01 -8.585341453552246094e+00 -6.103776454925537109e+00 -4.218233871459960938e+01 -5.496242046356201172e+00 -7.007522583007812500e+00 -3.888389205932617188e+01 -4.976341724395751953e+00 -6.687775135040283203e+00 -3.809561538696289062e+01 -6.307260513305664062e+00 -2.321868658065795898e+00 -4.249317932128906250e+01 1.779422163963317871e-01 -5.748030662536621094e+00 -3.336944198608398438e+01 -7.284688949584960938e+00 -6.415793418884277344e+00 -4.125091552734375000e+01 -6.420590877532958984e+00 -6.648224830627441406e+00 -3.961590194702148438e+01 9.115372300148010254e-01 5.995213508605957031e+00 -4.431153869628906250e+01 3.957710742950439453e+00 6.622544765472412109e+00 -4.170964813232421875e+01 4.798925876617431641e+00 3.589884996414184570e+00 -3.758213806152343750e+01 -7.062249660491943359e+00 -3.179650783538818359e+00 -4.300430679321289062e+01 -7.474817276000976562e+00 -6.494425773620605469e+00 -4.186514282226562500e+01 -4.560329616069793701e-01 -7.383817672729492188e+00 -3.311201858520507812e+01 5.228312015533447266e+00 3.469185352325439453e+00 -3.735123443603515625e+01 -2.085042953491210938e+00 1.973134040832519531e+00 -4.436714172363281250e+01 -1.563716769218444824e+00 3.132788181304931641e+00 -4.451664352416992188e+01 -2.908560514450073242e+00 -7.200970172882080078e+00 -3.670550537109375000e+01 5.834614276885986328e+00 4.689953327178955078e+00 -3.837596893310546875e+01 -1.165363669395446777e+00 -7.256052494049072266e+00 -3.388136291503906250e+01 -6.241949081420898438e+00 -2.899487018585205078e+00 -4.338606643676757812e+01 3.846440076828002930e+00 1.291711568832397461e+00 -3.611561203002929688e+01 2.964099884033203125e+00 7.200761795043945312e+00 -4.369741439819335938e+01 -3.193973302841186523e+00 9.604734182357788086e-01 -4.430586624145507812e+01 3.920271396636962891e+00 7.959965467453002930e-01 -3.544139862060546875e+01 -8.326157569885253906e+00 -5.618950843811035156e+00 -4.298890304565429688e+01 -4.615506172180175781e+00 -9.904031753540039062e-01 -4.377663040161132812e+01 -2.125725984573364258e+00 -7.182766437530517578e+00 -3.488515472412109375e+01 -1.937506198883056641e-01 -7.109357357025146484e+00 -3.309032440185546875e+01 3.396852612495422363e-01 -6.850450992584228516e+00 -3.278229141235351562e+01 4.314526617527008057e-01 -6.410184383392333984e+00 -3.281986618041992188e+01 3.186335802078247070e+00 -1.782630801200866699e+00 -3.474793243408203125e+01 -9.206723213195800781e+00 -5.985078811645507812e+00 -4.359827423095703125e+01 1.620657801628112793e+00 6.717735290527343750e+00 -4.352126312255859375e+01 -6.709127426147460938e+00 -7.218013286590576172e+00 -4.085959243774414062e+01 1.342144131660461426e+00 -5.125656604766845703e+00 -3.360723114013671875e+01 3.100264310836791992e+00 -1.062272667884826660e+00 -3.468639373779296875e+01 3.922175168991088867e+00 -9.746892750263214111e-02 -3.514663696289062500e+01 4.843653678894042969e+00 2.191785335540771484e+00 -3.632099914550781250e+01 -4.323026180267333984e+00 -7.233599662780761719e+00 -3.813425064086914062e+01 5.729963302612304688e+00 6.536234378814697266e+00 -3.983193206787109375e+01 -8.596844673156738281e+00 -6.289283275604248047e+00 -4.270416641235351562e+01 -7.490011692047119141e+00 -4.296076774597167969e+00 -4.392209243774414062e+01 2.176689654588699341e-01 5.363642215728759766e+00 -4.544886398315429688e+01 -5.844645500183105469e+00 -2.406330347061157227e+00 -4.356605148315429688e+01 1.439890742301940918e+00 -6.005955219268798828e+00 -3.324001312255859375e+01 5.898581027984619141e+00 6.618377208709716797e+00 -4.011569213867187500e+01 -2.242918252944946289e+00 1.988076090812683105e+00 -4.448727416992187500e+01 -1.460200905799865723e+00 3.782580375671386719e+00 -4.442943191528320312e+01 5.884940147399902344e+00 3.165615558624267578e+00 -3.698260116577148438e+01 3.051451683044433594e+00 -2.224053144454956055e+00 -3.428147125244140625e+01 -6.794951438903808594e+00 -7.461661815643310547e+00 -4.164735031127929688e+01 6.390613555908203125e+00 4.373314857482910156e+00 -3.727992248535156250e+01 -8.126705169677734375e+00 -4.910876274108886719e+00 -4.352693939208984375e+01 -5.595821857452392578e+00 -7.332947254180908203e+00 -3.959711074829101562e+01 1.269426822662353516e+00 -6.375585556030273438e+00 -3.284944534301757812e+01 2.577521800994873047e+00 -3.421649694442749023e+00 -3.409868621826171875e+01 4.560091018676757812e+00 7.207452774047851562e+00 -4.195310974121093750e+01 -4.392982959747314453e+00 -3.205235600471496582e-01 -4.473403549194335938e+01 -1.180156826972961426e+00 2.492978811264038086e+00 -4.547874832153320312e+01 -7.095834732055664062e+00 -3.950778484344482422e+00 -4.326288223266601562e+01 2.064923286437988281e+00 7.361441612243652344e+00 -4.442103576660156250e+01 4.739035606384277344e+00 1.518510937690734863e+00 -3.618918991088867188e+01 -3.691852807998657227e+00 -6.620137393474578857e-02 -4.408499145507812500e+01 -4.641699790954589844e-01 4.461515426635742188e+00 -4.542335128784179688e+01 -8.688040733337402344e+00 -5.626699447631835938e+00 -4.345663833618164062e+01 5.403637886047363281e-01 -7.587714672088623047e+00 -3.238605880737304688e+01 5.981462478637695312e+00 3.040553331375122070e+00 -3.709238815307617188e+01 1.765990257263183594e+00 6.340771198272705078e+00 -4.588188934326171875e+01 -8.049509048461914062e+00 -6.470189094543457031e+00 -4.288595199584960938e+01 4.051147937774658203e+00 7.770833492279052734e+00 -4.359870147705078125e+01 -2.167822420597076416e-02 -8.002771377563476562e+00 -3.330566024780273438e+01 8.501358032226562500e-01 6.958628654479980469e+00 -4.576312637329101562e+01 -4.530000209808349609e+00 -1.334221363067626953e+00 -4.411495208740234375e+01 6.560573577880859375e+00 5.330296993255615234e+00 -3.831908416748046875e+01 5.700460910797119141e+00 2.302496910095214844e+00 -3.654594802856445312e+01 -1.097755432128906250e+00 -7.990090370178222656e+00 -3.466139984130859375e+01 -3.303143262863159180e+00 -7.313038349151611328e+00 -3.753893280029296875e+01 2.406659603118896484e+00 -4.203994274139404297e+00 -3.380811309814453125e+01 3.815815925598144531e+00 -7.876899838447570801e-01 -3.549263381958007812e+01 -2.425306558609008789e+00 -7.052203655242919922e+00 -3.619149398803710938e+01 -6.016490936279296875e+00 -2.840502977371215820e+00 -4.386053848266601562e+01 2.773542642593383789e+00 7.918406009674072266e+00 -4.487511444091796875e+01 6.955757141113281250e+00 6.775235652923583984e+00 -3.904784393310546875e+01 5.602218627929687500e+00 7.724729061126708984e+00 -4.225457382202148438e+01 2.375914096832275391e+00 -5.014897823333740234e+00 -3.358987426757812500e+01 7.613338470458984375e+00 5.770481586456298828e+00 -3.818471908569335938e+01 -8.422161936759948730e-01 4.023067951202392578e+00 -4.537519454956054688e+01 -6.751516342163085938e+00 -4.093025207519531250e+00 -4.446398925781250000e+01 1.225379109382629395e+00 -7.128058910369873047e+00 -3.283861160278320312e+01 -2.769325733184814453e+00 6.721325516700744629e-01 -4.460819244384765625e+01 -6.669259071350097656e+00 -3.484651327133178711e+00 -4.385456466674804688e+01 1.579407215118408203e+00 -7.111658096313476562e+00 -3.289567184448242188e+01 3.307789087295532227e+00 -3.189065456390380859e+00 -3.427937316894531250e+01 -2.622910022735595703e+00 1.521161437034606934e+00 -4.558613586425781250e+01 6.753570556640625000e+00 3.925371408462524414e+00 -3.701917648315429688e+01 1.932118058204650879e+00 -6.179612636566162109e+00 -3.316039276123046875e+01 8.387638926506042480e-01 -7.845321178436279297e+00 -3.236413574218750000e+01 2.874401092529296875e+00 -4.587291717529296875e+00 -3.405772018432617188e+01 -2.780687093734741211e+00 -7.279266834259033203e+00 -3.722337341308593750e+01 -2.282665491104125977e+00 -7.306009292602539062e+00 -3.673074340820312500e+01 -5.729154586791992188e+00 -7.328481197357177734e+00 -4.079930496215820312e+01 -3.939257383346557617e+00 -7.327515602111816406e+00 -3.868733978271484375e+01 4.828595638275146484e+00 3.117624521255493164e-01 -3.536287689208984375e+01 -8.928019523620605469e+00 -6.601527690887451172e+00 -4.432034683227539062e+01 2.541743218898773193e-01 -8.155744552612304688e+00 -3.309685897827148438e+01 -7.554278373718261719e+00 -4.628526687622070312e+00 -4.485237121582031250e+01 1.893807888031005859e+00 7.911751270294189453e+00 -4.613512802124023438e+01 2.598988533020019531e+00 8.315949440002441406e+00 -4.573412322998046875e+01 -8.918612480163574219e+00 -6.782460212707519531e+00 -4.272315597534179688e+01 -7.495951652526855469e+00 -5.233238220214843750e+00 -4.422290420532226562e+01 5.857390880584716797e+00 7.517743110656738281e+00 -4.126479339599609375e+01 -1.916672825813293457e+00 2.258988142013549805e+00 -4.549659347534179688e+01 2.674241662025451660e-01 5.918053627014160156e+00 -4.621759033203125000e+01 -5.617294311523437500e+00 -2.159307003021240234e+00 -4.446393585205078125e+01 4.527983665466308594e+00 -1.587561964988708496e+00 -3.511093902587890625e+01 4.194386482238769531e+00 8.150123596191406250e+00 -4.432686614990234375e+01 -8.611930847167968750e+00 -6.989658355712890625e+00 -4.392832946777343750e+01 -8.390004158020019531e+00 -7.067193031311035156e+00 -4.346334457397460938e+01 -3.093266725540161133e+00 -7.290832042694091797e+00 -3.778316116333007812e+01 -5.088680267333984375e+00 -7.369415760040283203e+00 -4.005768203735351562e+01 -1.737815737724304199e+00 -8.042863845825195312e+00 -3.525382232666015625e+01 6.464926004409790039e-01 -8.509167671203613281e+00 -3.267183685302734375e+01 5.248866081237792969e+00 6.460726857185363770e-01 -3.611708831787109375e+01 5.874646663665771484e+00 1.624673843383789062e+00 -3.621411132812500000e+01 