-2.169369459152221680e+00 -4.732235908508300781e+00 -4.176201248168945312e+01 -1.355219841003417969e+00 -4.466389656066894531e+00 -4.080631256103515625e+01 -1.604334235191345215e+00 -3.409565925598144531e+00 -4.142548751831054688e+01 -1.709382772445678711e+00 -5.348405838012695312e+00 -4.176135253906250000e+01 -1.020379424095153809e+00 -3.931514501571655273e+00 -4.096714782714843750e+01 -4.744771122932434082e-01 -3.552460670471191406e+00 -3.994568634033203125e+01 -3.635813891887664795e-01 -4.599694728851318359e+00 -4.076012039184570312e+01 2.000985443592071533e-01 -3.805747509002685547e+00 -3.997554016113281250e+01 -6.555737257003784180e-01 -3.195645809173583984e+00 -4.017609024047851562e+01 -2.627824783325195312e+00 -4.113330841064453125e+00 -4.217580795288085938e+01 -7.949460744857788086e-01 -5.188057899475097656e+00 -4.128463363647460938e+01 -2.685139656066894531e+00 -3.515455007553100586e+00 -4.234692001342773438e+01 3.409993052482604980e-01 -3.307550191879272461e+00 -3.944552993774414062e+01 -1.016517877578735352e+00 -2.386458158493041992e+00 -4.062776947021484375e+01 -2.590112209320068359e+00 -4.689335346221923828e+00 -4.267666625976562500e+01 -5.331851243972778320e-01 -6.041551589965820312e+00 -4.136292266845703125e+01 2.111362516880035400e-01 -4.821496486663818359e+00 -4.052135467529296875e+01 -1.851242423057556152e+00 -2.271940231323242188e+00 -4.127017211914062500e+01 3.289546072483062744e-01 -2.100536346435546875e+00 -3.974210357666015625e+01 -1.082288920879364014e-01 -2.516258239746093750e+00 -4.030321502685546875e+01 -1.959539055824279785e-01 -2.064190149307250977e+00 -4.034139251708984375e+01 -2.239988327026367188e+00 -5.671528816223144531e+00 -4.265879821777343750e+01 3.782989382743835449e-01 -5.313177108764648438e+00 -4.064894866943359375e+01 6.223377585411071777e-01 -2.424631834030151367e+00 -3.918181991577148438e+01 -3.126121759414672852e+00 -5.046740531921386719e+00 -4.342183685302734375e+01 -1.230744004249572754e+00 -6.352847576141357422e+00 -4.209394073486328125e+01 -3.296251058578491211e+00 -4.059162616729736328e+00 -4.276103591918945312e+01 8.485027551651000977e-01 -3.385300636291503906e+00 -3.968152618408203125e+01 1.399196147918701172e+00 -3.170091390609741211e+00 -3.909480285644531250e+01 1.289363265037536621e+00 -2.678684949874877930e+00 -3.897430038452148438e+01 -2.723211288452148438e+00 -2.947996139526367188e+00 -4.236100387573242188e+01 6.473315358161926270e-01 -4.623412132263183594e+00 -4.010931777954101562e+01 -2.097957372665405273e+00 -6.626880645751953125e+00 -4.307191085815429688e+01 8.677184581756591797e-02 -5.773213386535644531e+00 -4.062802886962890625e+01 -1.215232968330383301e+00 -1.554768800735473633e+00 -4.099721908569335938e+01 -1.972727417945861816e+00 -2.161889553070068359e+00 -4.195422363281250000e+01 1.418716907501220703e+00 -3.929417848587036133e+00 -3.920848464965820312e+01 8.416917324066162109e-01 -1.277338504791259766e+00 -3.907560729980468750e+01 -4.092045307159423828e+00 -4.564036369323730469e+00 -4.397682952880859375e+01 2.637445032596588135e-01 -1.236993312835693359e+00 -3.994685363769531250e+01 3.537030816078186035e-01 -7.768591642379760742e-01 -4.014758300781250000e+01 -6.029281616210937500e-01 -6.306141376495361328e+00 -4.171234893798828125e+01 1.322203040122985840e+00 -4.662616252899169922e+00 -3.973627853393554688e+01 9.537368416786193848e-01 -5.403691768646240234e+00 -4.002325439453125000e+01 -3.736958503723144531e+00 -3.639113426208496094e+00 -4.381913757324218750e+01 5.292044281959533691e-01 -1.241937756538391113e+00 -3.938164520263671875e+01 1.793976306915283203e+00 -4.189996242523193359e+00 -3.934772491455078125e+01 1.614091396331787109e+00 -2.875008583068847656e+00 -3.903275299072265625e+01 -3.517880678176879883e+00 -5.768837451934814453e+00 -4.429625701904296875e+01 -4.315609455108642578e+00 -5.420008182525634766e+00 -4.447724533081054688e+01 1.167166709899902344e+00 -1.665094614028930664e+00 -3.872622299194335938e+01 -1.935214996337890625e+00 -6.767688751220703125e+00 -4.323011016845703125e+01 -2.509639024734497070e+00 -1.818471789360046387e+00 -4.240463256835937500e+01 -6.042120978236198425e-02 -6.309691905975341797e+00 -4.154095840454101562e+01 5.963656902313232422e-01 -6.144500255584716797e+00 -4.064155960083007812e+01 -4.572345256805419922e+00 -4.887692451477050781e+00 -4.491878509521484375e+01 -5.723494887351989746e-01 -7.630799412727355957e-01 -4.086925125122070312e+01 -2.688444137573242188e+00 -6.437680244445800781e+00 -4.387953567504882812e+01 -2.707778930664062500e+00 -2.652193784713745117e+00 -4.284307479858398438e+01 1.948638916015625000e+00 -3.423260927200317383e+00 -3.892129135131835938e+01 -1.377667069435119629e+00 -1.132884621620178223e+00 -4.159141921997070312e+01 2.221253871917724609e+00 -1.498037576675415039e+00 -3.853974914550781250e+01 1.276487588882446289e+00 -1.427855253219604492e+00 -3.876935577392578125e+01 -4.537385463714599609e+00 -3.998709917068481445e+00 -4.486919784545898438e+01 1.806091666221618652e+00 -5.143795013427734375e+00 -3.949853134155273438e+01 1.335885882377624512e+00 -6.284746170043945312e+00 -4.051031494140625000e+01 2.042888879776000977e+00 -2.700726270675659180e+00 -3.887978363037109375e+01 -3.488073825836181641e+00 -2.875421285629272461e+00 -4.396210861206054688e+01 -3.444114446640014648e+00 -7.207610607147216797e+00 -4.481661987304687500e+01 -4.077348709106445312e+00 -6.211843490600585938e+00 -4.529158020019531250e+01 -5.189211845397949219e+00 -5.716002464294433594e+00 -4.585225677490234375e+01 -5.107457160949707031e+00 -4.400809288024902344e+00 -4.547616577148437500e+01 1.449460983276367188e+00 -8.257991671562194824e-01 -3.898888015747070312e+01 8.099516034126281738e-01 -2.922359704971313477e-01 -3.926924133300781250e+01 -8.437325358390808105e-01 -7.277619242668151855e-01 -4.130644607543945312e+01 2.402039289474487305e+00 -5.468826770782470703e+00 -3.954055404663085938e+01 1.670297741889953613e+00 -1.387902021408081055e+00 -3.893980407714843750e+01 -5.006379604339599609e+00 -6.101232528686523438e+00 -4.621958541870117188e+01 2.367372512817382812e+00 -4.409901618957519531e+00 -3.888201904296875000e+01 -3.242965698242187500e+00 -1.855361342430114746e+00 -4.319098281860351562e+01 2.629230260848999023e+00 -3.375238418579101562e+00 -3.876871109008789062e+01 2.683108329772949219e+00 -3.082245826721191406e+00 -3.835645294189453125e+01 2.490980327129364014e-01 -6.588832378387451172e+00 -4.139234161376953125e+01 2.164561271667480469e+00 -2.443008899688720703e+00 -3.831340026855468750e+01 1.724756717681884766e+00 5.219759345054626465e-01 -3.887677383422851562e+01 1.990942001342773438e+00 -9.017220139503479004e-02 -3.826815032958984375e+01 -4.680765628814697266e+00 -6.728082656860351562e+00 -4.604598236083984375e+01 -1.328378558158874512e+00 -6.857226371765136719e+00 -4.279905319213867188e+01 1.555981874465942383e+00 -6.386020660400390625e+00 -4.031818389892578125e+01 -5.622118473052978516e+00 -4.740084648132324219e+00 -4.653433609008789062e+01 -1.870262265205383301e+00 -7.615032196044921875e-01 -4.216117095947265625e+01 8.620536923408508301e-01 4.537188112735748291e-01 -3.916115188598632812e+01 3.600172400474548340e-01 -3.818138241767883301e-01 -3.996995544433593750e+01 2.243577480316162109e+00 -5.632553696632385254e-01 -3.835987854003906250e+01 -2.311505794525146484e+00 -7.065124511718750000e+00 -4.392272949218750000e+01 2.342179775238037109e+00 -1.962676286697387695e+00 -3.823126220703125000e+01 -5.140196800231933594e+00 -3.319264888763427734e+00 -4.534649276733398438e+01 -5.504426956176757812e+00 -6.256480693817138672e+00 -4.711253738403320312e+01 -2.655332326889038086e+00 -7.409011840820312500e+00 -4.456993103027343750e+01 -4.013181686401367188e+00 -7.660565376281738281e+00 -4.565637588500976562e+01 -4.796030223369598389e-01 -6.864530563354492188e+00 -4.250035476684570312e+01 -5.548714160919189453e+00 -5.228046894073486328e+00 -4.695278930664062500e+01 2.672650337219238281e+00 -5.919204711914062500e+00 -3.933273315429687500e+01 1.466257214546203613e+00 -6.855120182037353516e+00 -4.114016723632812500e+01 3.299238204956054688e+00 -5.010785102844238281e+00 -3.869805145263671875e+01 1.825338482856750488e+00 3.594971895217895508e-01 -3.836959457397460938e+01 -4.879440307617187500e+00 -7.057165145874023438e+00 -4.671102905273437500e+01 -5.467496871948242188e+00 -3.931675672531127930e+00 -4.611936950683593750e+01 5.806927680969238281e-01 -7.049449920654296875e+00 -4.177671432495117188e+01 2.815277338027954102e+00 -5.372007369995117188e+00 -3.925024414062500000e+01 3.219914913177490234e+00 -3.840234041213989258e+00 -3.880364227294921875e+01 -2.266174256801605225e-01 1.611474603414535522e-01 -4.050566864013671875e+01 -4.010853290557861328e+00 -2.254825830459594727e+00 -4.423117828369140625e+01 2.310799360275268555e+00 -6.476588726043701172e+00 -4.016124343872070312e+01 3.666242837905883789e+00 -2.942841053009033203e+00 -3.859912872314453125e+01 -2.725384473800659180e+00 -1.328667044639587402e+00 -4.330168533325195312e+01 -1.083196878433227539e+00 -2.876510024070739746e-01 -4.152377319335937500e+01 -5.680548191070556641e+00 -4.829712390899658203e+00 -4.772696304321289062e+01 -1.197412252426147461e+00 -7.084444046020507812e+00 -4.312891387939453125e+01 -6.095129489898681641e+00 -6.677798271179199219e+00 -4.821587371826171875e+01 2.760557174682617188e+00 -6.331188678741455078e-01 -3.812329101562500000e+01 2.424285173416137695e+00 5.308786407113075256e-03 -3.796890640258789062e+01 2.529177904129028320e+00 5.316269397735595703e-01 -3.819965362548828125e+01 -3.122452259063720703e+00 -7.901312828063964844e+00 -4.527820968627929688e+01 3.546380996704101562e+00 -2.301127910614013672e+00 -3.813673400878906250e+01 2.929482221603393555e+00 -9.887879490852355957e-01 -3.804313278198242188e+01 7.854863405227661133e-01 9.087826013565063477e-01 -3.946701049804687500e+01 1.397752016782760620e-01 4.831544160842895508e-01 -4.003575897216796875e+01 -4.712904930114746094e+00 -7.755243301391601562e+00 -4.646399307250976562e+01 -5.735849857330322266e+00 -7.367111682891845703e+00 -4.825207138061523438e+01 -6.783900260925292969e-01 -7.227246284484863281e+00 -4.303067398071289062e+01 -1.348260521888732910e+00 -6.931584358215332031e+00 -4.397994232177734375e+01 2.980805397033691406e+00 -1.390091538429260254e+00 -3.850854110717773438e+01 2.647303819656372070e+00 2.758395671844482422e-01 -3.801898956298828125e+01 1.959324479103088379e+00 1.242414116859436035e+00 -3.862381744384765625e+01 -4.941807270050048828e+00 -3.124082326889038086e+00 -4.621110534667968750e+01 -4.648837089538574219e+00 -2.614553928375244141e+00 -4.538753509521484375e+01 3.475624084472656250e+00 -5.583434581756591797e+00 -3.928743743896484375e+01 -3.169799089431762695e+00 -1.747994661331176758e+00 -4.392021179199218750e+01 -5.151590347290039062e+00 -7.675729274749755859e+00 -4.755909347534179688e+01 -6.513775825500488281e+00 -6.187288284301757812e+00 -4.849488830566406250e+01 2.747563838958740234e+00 -6.205674171447753906e+00 -3.913892364501953125e+01 3.179575920104980469e+00 -4.619107246398925781e+00 -3.918716430664062500e+01 -3.948805332183837891e+00 -1.813184976577758789e+00 -4.454286575317382812e+01 -4.718233644962310791e-01 3.845480978488922119e-01 -4.132271957397460938e+01 -1.800677537918090820e+00 -7.097509860992431641e+00 -4.390234375000000000e+01 2.301175832748413086e+00 -7.051082611083984375e+00 -4.112536239624023438e+01 2.185766220092773438e+00 1.226937532424926758e+00 -3.815821456909179688e+01 -5.467590332031250000e+00 -3.940961360931396484e+00 -4.697433853149414062e+01 3.372690677642822266e+00 -2.511091828346252441e-01 -3.798610687255859375e+01 2.900917291641235352e+00 1.099352717399597168e+00 -3.806567001342773438e+01 1.717435240745544434e+00 1.430021166801452637e+00 -3.912753677368164062e+01 3.601360559463500977e+00 -6.285244941711425781e+00 -3.980397415161132812e+01 -5.407778739929199219e+00 -8.279939651489257812e+00 -4.824252700805664062e+01 -6.428092956542968750e+00 -7.595704078674316406e+00 -4.873278808593750000e+01 -2.038939148187637329e-01 -7.294724464416503906e+00 -4.277690505981445312e+01 -2.032984256744384766e+00 -5.212783813476562500e-01 -4.293962097167968750e+01 -4.247648715972900391e+00 -1.753711342811584473e+00 -4.544651412963867188e+01 3.497865676879882812e+00 -3.568764925003051758e+00 -3.867100906372070312e+01 -3.805409908294677734e+00 -8.036998748779296875e+00 -4.595543289184570312e+01 3.571870028972625732e-01 1.252987146377563477e+00 -4.053849411010742188e+01 4.114311218261718750e+00 -1.664621233940124512e+00 -3.827400588989257812e+01 -6.367757916450500488e-03 6.912558078765869141e-01 -4.069993591308593750e+01 2.563650131225585938e+00 -6.735255241394042969e+00 -4.053224563598632812e+01 1.791642904281616211e-01 -7.244641780853271484e+00 -4.257206726074218750e+01 -4.975250720977783203e+00 -8.383568763732910156e+00 -4.748859786987304688e+01 4.080402374267578125e+00 -4.757773876190185547e+00 -3.916483306884765625e+01 3.964721918106079102e+00 -5.785576343536376953e+00 -3.943900680541992188e+01 3.621647834777832031e+00 -6.596422672271728516e+00 -4.025616455078125000e+01 4.093642711639404297e+00 -5.295111656188964844e+00 -3.944719696044921875e+01 3.512906074523925781e+00 5.325124859809875488e-01 -3.766912078857421875e+01 -6.619803905487060547e+00 -4.774272918701171875e+00 -4.871324157714843750e+01 -4.862007617950439453e+00 -3.036200523376464844e+00 -4.687715148925781250e+01 -6.591708660125732422e+00 -7.550824642181396484e+00 -4.903893280029296875e+01 -1.996883034706115723e+00 -7.360486984252929688e+00 -4.426307296752929688e+01 3.881909847259521484e+00 -5.812634229660034180e-01 -3.806772994995117188e+01 -6.381865978240966797e+00 -3.766541719436645508e+00 -4.851837158203125000e+01 2.714868068695068359e+00 2.038012504577636719e+00 -3.810395431518554688e+01 2.923175811767578125e+00 1.726462960243225098e+00 -3.796950531005859375e+01 1.045176386833190918e+00 1.597144603729248047e+00 -3.962331390380859375e+01 6.050375103950500488e-01 1.432005047798156738e+00 -3.997145843505859375e+01 -5.039403915405273438e+00 -8.605390548706054688e+00 -4.762667083740234375e+01 -5.620998859405517578e+00 -8.671926498413085938e+00 -4.840235900878906250e+01 4.001214981079101562e+00 -6.187838077545166016e+00 -3.948077011108398438e+01 3.643873691558837891e+00 -3.064087629318237305e+00 -3.842257690429687500e+01 3.808049201965332031e+00 -2.451826810836791992e+00 -3.818613433837890625e+01 8.617228865623474121e-01 -7.343168258666992188e+00 -4.178371429443359375e+01 2.138363838195800781e+00 1.832500815391540527e+00 -3.867074966430664062e+01 4.483072280883789062e+00 -4.817425727844238281e+00 -3.898133087158203125e+01 3.585851192474365234e+00 -3.541627883911132812e+00 -3.865733718872070312e+01 -6.232086181640625000e+00 -8.550382614135742188e+00 -4.917886734008789062e+01 -7.028617382049560547e+00 -6.409663677215576172e+00 -4.965733337402343750e+01 -4.571137905120849609e+00 -2.372775793075561523e+00 -4.641758728027343750e+01 1.393749833106994629e+00 -6.958741664886474609e+00 -4.144710159301757812e+01 4.567830085754394531e+00 -5.405795097351074219e+00 -3.927300643920898438e+01 3.788441181182861328e+00 2.378111839294433594e+00 -3.756311416625976562e+01 -4.917045116424560547e+00 -2.428721904754638672e+00 -4.658086776733398438e+01 -3.370179653167724609e+00 -8.099997520446777344e+00 -4.607976531982421875e+01 -3.788381338119506836e+00 -8.225609779357910156e+00 -4.665260314941406250e+01 4.220902919769287109e+00 -7.004566788673400879e-01 -3.792076110839843750e+01 -5.900631904602050781e+00 -2.888557672500610352e+00 -4.807767105102539062e+01 3.642828464508056641e+00 1.566539525985717773e+00 -3.771745681762695312e+01 1.490191102027893066e+00 -7.363336563110351562e+00 -4.212797546386718750e+01 -3.228542327880859375e+00 -1.339932918548583984e+00 -4.380839920043945312e+01 -7.241314888000488281e+00 -7.587767601013183594e+00 -5.064146804809570312e+01 -2.391245126724243164e+00 -7.904140949249267578e+00 -4.515990829467773438e+01 -2.542939186096191406e+00 -6.574517488479614258e-01 -4.358386230468750000e+01 3.772318124771118164e+00 -6.516305446624755859e+00 -4.020305252075195312e+01 -4.595613479614257812e-01 -7.289000511169433594e+00 -4.359503555297851562e+01 4.167774677276611328e+00 6.439663171768188477e-01 -3.717503738403320312e+01 3.323435783386230469e+00 2.118207693099975586e+00 -3.781087875366210938e+01 3.189388036727905273e+00 2.815860509872436523e+00 -3.783523178100585938e+01 2.581000566482543945e+00 2.241611957550048828e+00 -3.815490341186523438e+01 -1.056289225816726685e-01 1.060196280479431152e+00 -4.159938049316406250e+01 3.943678855895996094e+00 -6.514787673950195312e+00 -3.990670394897460938e+01 -6.851500988006591797e+00 -8.514560699462890625e+00 -4.969394683837890625e+01 4.209715366363525391e+00 -3.864646196365356445e+00 -3.890865707397460938e+01 2.006699562072753906e+00 2.209688901901245117e+00 -3.918844985961914062e+01 -7.277574539184570312e-01 3.607997596263885498e-01 -4.177222442626953125e+01 -1.769235372543334961e+00 -1.611460149288177490e-01 -4.288842010498046875e+01 -3.833629846572875977e+00 -1.476141095161437988e+00 -4.501913833618164062e+01 4.281160831451416016e+00 -1.686943054199218750e+00 -3.810958862304687500e+01 -6.602021694183349609e+00 -4.196031570434570312e+00 -4.931420516967773438e+01 4.913643360137939453e+00 -5.908899307250976562e+00 -3.943291854858398438e+01 2.934863805770874023e+00 -6.985904216766357422e+00 -4.133343887329101562e+01 -5.939356803894042969e+00 -9.376786231994628906e+00 -4.906124114990234375e+01 8.894258737564086914e-01 -7.383351325988769531e+00 -4.250991821289062500e+01 2.115518331527709961e+00 2.590995550155639648e+00 -3.873450088500976562e+01 -6.850757598876953125e+00 -5.057434082031250000e+00 -4.968162155151367188e+01 -2.826721668243408203e+00 -7.849568367004394531e+00 -4.594374084472656250e+01 -4.304601192474365234e+00 -8.545452117919921875e+00 -4.733145904541015625e+01 -4.295718669891357422e+00 -1.777555346488952637e+00 -4.643763732910156250e+01 3.923813104629516602e-01 1.242076516151428223e+00 -4.128865814208984375e+01 4.852118492126464844e+00 -4.439666271209716797e+00 -3.916460800170898438e+01 -5.136792182922363281e+00 -2.187997341156005859e+00 -4.722637557983398438e+01 3.199069023132324219e+00 -6.739841461181640625e+00 -4.072052001953125000e+01 4.358355998992919922e+00 -3.276780843734741211e+00 -3.859838485717773438e+01 3.001993179321289062e+00 3.157146930694580078e+00 -3.843495559692382812e+01 8.677891492843627930e-01 1.761530041694641113e+00 -4.046723937988281250e+01 -7.012975692749023438e+00 -5.994285583496093750e+00 -5.017480087280273438e+01 -8.742946386337280273e-01 -7.627742767333984375e+00 -4.421836853027343750e+01 -3.386040687561035156e+00 -8.536668777465820312e+00 -4.709227752685546875e+01 2.007645130157470703e+00 -7.039632320404052734e+00 -4.152042388916015625e+01 -6.937067031860351562e+00 -8.990505218505859375e+00 -5.039646530151367188e+01 -3.156630277633666992e+00 -8.263981938362121582e-01 -4.443021011352539062e+01 -1.593676447868347168e+00 -7.498989582061767578e+00 -4.455297470092773438e+01 -4.952547073364257812e+00 -9.257089614868164062e+00 -4.855818939208984375e+01 4.478277206420898438e+00 -6.537021636962890625e+00 -4.013642120361328125e+01 3.702161312103271484e+00 3.511863231658935547e+00 -3.759118652343750000e+01 -4.181581974029541016e+00 -1.369473695755004883e+00 -4.604686355590820312e+01 -6.324288845062255859e+00 -9.345570564270019531e+00 -5.019758987426757812e+01 4.585437774658203125e+00 -5.302999019622802734e+00 -3.956143569946289062e+01 -7.355753898620605469e+00 -7.238079071044921875e+00 -5.109790039062500000e+01 4.425768852233886719e+00 2.808718919754028320e+00 -3.727666854858398438e+01 -6.993974208831787109e+00 -9.636305809020996094e+00 -5.042456817626953125e+01 -2.481422387063503265e-02 -7.513900756835937500e+00 -4.332640457153320312e+01 -6.128945827484130859e+00 -2.892336368560791016e+00 -4.871718978881835938e+01 -3.784234523773193359e+00 -1.141415715217590332e+00 -4.543036270141601562e+01 4.449123382568359375e+00 1.377513170242309570e+00 -3.760561370849609375e+01 4.601655483245849609e+00 -1.192166209220886230e+00 -3.815790176391601562e+01 1.391412258148193359e+00 2.458418607711791992e+00 -4.003964996337890625e+01 -9.281867146492004395e-01 5.945556759834289551e-01 -4.278628158569335938e+01 4.530736446380615234e+00 -4.409356117248535156e-01 -3.773331069946289062e+01 1.854777574539184570e+00 -7.328265666961669922e+00 -4.201587295532226562e+01 -7.506147861480712891e+00 -9.044294357299804688e+00 -5.144847488403320312e+01 -7.106069564819335938e+00 -3.866962194442749023e+00 -4.956230163574218750e+01 -7.366563796997070312e+00 -5.792026519775390625e+00 -5.116329193115234375e+01 2.247443914413452148e+00 2.851558208465576172e+00 -3.948451232910156250e+01 -6.575407505035400391e+00 -3.042171239852905273e+00 -4.902399444580078125e+01 -4.804233551025390625e+00 -9.185016632080078125e+00 -4.798777770996093750e+01 2.973650932312011719e+00 -6.857565879821777344e+00 -4.174203872680664062e+01 3.650285959243774414e+00 3.320780515670776367e+00 -3.806626510620117188e+01 -1.833928585052490234e+00 -7.664558410644531250e+00 -4.526663589477539062e+01 1.915368795394897461e+00 -6.542604923248291016e+00 -4.196276092529296875e+01 3.458493232727050781e+00 3.816527843475341797e+00 -3.825373840332031250e+01 9.477849006652832031e-01 1.776082277297973633e+00 -4.090311431884765625e+01 -2.497806787490844727e+00 -7.821655750274658203e+00 -4.612220764160156250e+01 -5.136468887329101562e+00 -1.677322149276733398e+00 -4.682080841064453125e+01 3.107658147811889648e+00 3.415178537368774414e+00 -3.876842117309570312e+01 3.963144540786743164e+00 3.879693508148193359e+00 -3.732782363891601562e+01 2.247382640838623047e+00 2.619276762008666992e+00 -4.012845611572265625e+01 4.934481143951416016e+00 -6.767150759696960449e-01 -3.820593261718750000e+01 4.630718231201171875e+00 3.489304184913635254e-01 -3.793454360961914062e+01 5.474915981292724609e+00 -3.819510459899902344e+00 -3.881368637084960938e+01 4.846070766448974609e+00 -1.622637867927551270e+00 -3.832962799072265625e+01 -2.167003870010375977e+00 1.307411342859268188e-01 -4.343598937988281250e+01 5.103037357330322266e+00 -6.557501316070556641e+00 -4.014550781250000000e+01 4.579176902770996094e+00 3.324086666107177734e+00 -3.730999755859375000e+01 3.283236503601074219e+00 -6.885363101959228516e+00 -4.158798217773437500e+01 -7.330111980438232422e+00 -9.508544921875000000e+00 -5.150204849243164062e+01 -7.616860389709472656e+00 -9.555272102355957031e+00 -5.198203277587890625e+01 4.658282756805419922e+00 -6.031617164611816406e+00 -3.936549377441406250e+01 4.480872154235839844e+00 -6.728950500488281250e+00 -4.099621200561523438e+01 -7.667426586151123047e+00 -5.000638484954833984e+00 -5.081196212768554688e+01 -3.478727817535400391e+00 -8.364765167236328125e+00 -4.679872131347656250e+01 -6.096828937530517578e+00 -9.453918457031250000e+00 -4.996018600463867188e+01 1.043570160865783691e+00 -7.231674671173095703e+00 -4.302994918823242188e+01 -1.937835216522216797e-01 1.512509942054748535e+00 -4.230276107788085938e+01 -7.432324886322021484e+00 -7.833913803100585938e+00 -5.165305709838867188e+01 5.497728347778320312e+00 -6.222593784332275391e+00 -3.969104766845703125e+01 5.609931468963623047e+00 -5.913060665130615234e+00 -3.945899581909179688e+01 4.924355983734130859e+00 -1.283197879791259766e+00 -3.818506240844726562e+01 5.549984455108642578e+00 -3.123334646224975586e+00 -3.860046386718750000e+01 4.691415309906005859e+00 1.189774155616760254e+00 -3.751753234863281250e+01 5.039976596832275391e+00 3.861988306045532227e+00 -3.721498870849609375e+01 -2.535525083541870117e+00 -3.463432192802429199e-02 -4.434974670410156250e+01 -3.250652790069580078e+00 -5.652538537979125977e-01 -4.526151657104492188e+01 -5.377805709838867188e+00 -1.643502593040466309e+00 -4.824050903320312500e+01 5.153120517730712891e+00 -4.924705028533935547e+00 -3.928887557983398438e+01 4.575158119201660156e+00 -6.588421821594238281e+00 -4.052044677734375000e+01 -6.089024066925048828e+00 -2.045209646224975586e+00 -4.819127273559570312e+01 4.539217948913574219e+00 -6.755257606506347656e+00 -4.062337112426757812e+01 5.169031143188476562e+00 2.527123689651489258e+00 -3.749170303344726562e+01 1.962288379669189453e+00 -7.105389118194580078e+00 -4.262823104858398438e+01 -6.896626353263854980e-01 -7.208784580230712891e+00 -4.450442123413085938e+01 4.855538368225097656e+00 -2.655284881591796875e+00 -3.833748245239257812e+01 -7.288084506988525391e+00 -6.245063304901123047e+00 -5.140169906616210938e+01 4.721942901611328125e+00 -2.043354511260986328e+00 -3.837100601196289062e+01 5.124537944793701172e+00 2.012939453125000000e+00 -3.744277954101562500e+01 -4.255953788757324219e+00 -9.088494300842285156e+00 -4.859987640380859375e+01 -6.620375633239746094e+00 -9.921160697937011719e+00 -5.120843887329101562e+01 4.854476451873779297e+00 6.239461302757263184e-01 -3.775365829467773438e+01 -3.796533584594726562e+00 -8.837390899658203125e+00 -4.789757156372070312e+01 -5.254238128662109375e+00 -9.789588928222656250e+00 -4.918242645263671875e+01 5.311154842376708984e+00 -2.410212993621826172e+00 -3.855814361572265625e+01 -5.332635045051574707e-01 -7.377182960510253906e+00 -4.353351974487304688e+01 -5.459929704666137695e-01 -7.548355579376220703e+00 -4.403921508789062500e+01 -7.370909214019775391e+00 -4.135558605194091797e+00 -5.054440689086914062e+01 5.553044795989990234e+00 -4.915781974792480469e+00 -3.978392791748046875e+01 -1.011002779006958008e+00 -7.447478771209716797e+00 -4.478435134887695312e+01 5.184361934661865234e-01 1.587371230125427246e+00 -4.210567474365234375e+01 5.734738826751708984e+00 -6.373979568481445312e+00 -4.012426757812500000e+01 -2.809913873672485352e+00 -8.201431274414062500e+00 -4.698272705078125000e+01 4.996090412139892578e+00 -3.809217453002929688e+00 -3.909646606445312500e+01 -7.452062606811523438e+00 -1.020936965942382812e+01 -5.220296859741210938e+01 5.296739101409912109e+00 -6.521906375885009766e+00 -4.027008819580078125e+01 3.553809881210327148e+00 -6.843689441680908203e+00 -4.129864883422851562e+01 -5.095212936401367188e+00 -1.302787780761718750e+00 -4.743432998657226562e+01 1.307534933090209961e+00 -7.027746677398681641e+00 -4.254101562500000000e+01 2.196446418762207031e+00 2.945423603057861328e+00 -4.019983291625976562e+01 -1.304875254631042480e+00 6.084299087524414062e-01 -4.356569671630859375e+01 -7.062106609344482422e+00 -3.272543430328369141e+00 -5.008422088623046875e+01 4.741074085235595703e+00 3.028953790664672852e+00 -3.728079223632812500e+01 -2.671246767044067383e+00 -8.102883338928222656e+00 -4.664771270751953125e+01 -4.424270629882812500e+00 -1.171713471412658691e+00 -4.695811080932617188e+01 5.074366092681884766e+00 -3.768549442291259766e+00 -3.888817214965820312e+01 2.879497289657592773e+00 -6.664680004119873047e+00 -4.179560089111328125e+01 4.264050006866455078e+00 4.664829254150390625e+00 -3.744736480712890625e+01 -2.057123899459838867e+00 -7.709205150604248047e+00 -4.593773269653320312e+01 4.664577484130859375e+00 4.782069206237792969e+00 -3.785189056396484375e+01 -7.214730262756347656e+00 -2.595437765121459961e+00 -5.001177597045898438e+01 -6.167248249053955078e+00 -2.203080892562866211e+00 -4.929367828369140625e+01 -7.454287528991699219e+00 -6.850006580352783203e+00 -5.192337036132812500e+01 -1.473043084144592285e+00 -7.772927284240722656e+00 -4.550309753417968750e+01 4.940785408020019531e+00 -2.306555807590484619e-01 -3.831268692016601562e+01 5.135395526885986328e+00 -3.301483094692230225e-01 -3.859264755249023438e+01 -3.772858858108520508e+00 -5.886120796203613281e-01 -4.658174514770507812e+01 -7.515917301177978516e+00 -8.832418441772460938e+00 -5.235025405883789062e+01 -7.460501194000244141e+00 -5.160647869110107422e+00 -5.143355560302734375e+01 -7.367807865142822266e+00 -7.290235996246337891e+00 -5.190593338012695312e+01 2.772027015686035156e+00 3.514907360076904297e+00 -3.967926025390625000e+01 1.262041091918945312e+00 2.374380111694335938e+00 -4.112965774536132812e+01 -4.435914993286132812e+00 -9.330344200134277344e+00 -4.892358779907226562e+01 5.388833045959472656e+00 -3.347747802734375000e+00 -3.914056777954101562e+01 5.120482444763183594e+00 4.360443115234375000e+00 -3.670490264892578125e+01 5.053851604461669922e+00 2.652575969696044922e+00 -3.740804672241210938e+01 -6.976755619049072266e+00 -1.026735115051269531e+01 -5.214177703857421875e+01 5.261793613433837891e+00 4.835796356201171875e+00 -3.710629653930664062e+01 5.937427997589111328e+00 -4.767468452453613281e+00 -3.928398132324218750e+01 -7.426105022430419922e+00 -5.694025993347167969e+00 -5.135693740844726562e+01 5.268848896026611328e+00 -5.964377403259277344e+00 -3.998616790771484375e+01 4.335458755493164062e+00 4.424878597259521484e+00 -3.859604263305664062e+01 -7.218098163604736328e+00 -3.514501571655273438e+00 -5.079044723510742188e+01 8.032078146934509277e-01 -7.125232696533203125e+00 -4.339200592041015625e+01 -4.640083312988281250e+00 -9.564580917358398438e+00 -4.956087493896484375e+01 -5.451839447021484375e+00 -9.553859710693359375e+00 -4.993247985839843750e+01 -9.322936534881591797e-01 8.899644613265991211e-01 -4.290039825439453125e+01 5.698307514190673828e+00 -6.408681869506835938e+00 -4.046446609497070312e+01 -2.976844310760498047e+00 -8.132873535156250000e+00 -4.731026458740234375e+01 5.733269214630126953e+00 -5.598175525665283203e+00 -3.956779479980468750e+01 -3.309384584426879883e+00 -4.162917137145996094e-01 -4.565264892578125000e+01 5.037093162536621094e+00 -4.365862846374511719e+00 -3.943297576904296875e+01 -7.720653057098388672e+00 -1.022653484344482422e+01 -5.209746551513671875e+01 5.058360099792480469e+00 7.066086530685424805e-01 -3.771688461303710938e+01 -2.372375726699829102e-01 1.297538042068481445e+00 -4.257804489135742188e+01 5.068836688995361328e+00 -1.052146911621093750e+00 -3.842925643920898438e+01 5.052892684936523438e+00 3.391829490661621094e+00 -3.725261688232421875e+01 4.951213359832763672e+00 1.454998999834060669e-01 -3.811930084228515625e+01 -7.605965614318847656e+00 -1.075133895874023438e+01 -5.276095962524414062e+01 5.156897068023681641e+00 -1.763348102569580078e+00 -3.851448822021484375e+01 2.525006294250488281e+00 3.256929397583007812e+00 -4.025350952148437500e+01 -6.993636131286621094e+00 -2.830460548400878906e+00 -5.068447875976562500e+01 5.249321460723876953e+00 -1.075918197631835938e+00 -3.849216079711914062e+01 -2.940513610839843750e+00 -3.562150001525878906e-01 -4.548406982421875000e+01 6.113664150238037109e+00 -2.461286783218383789e+00 -3.908469009399414062e+01 -5.949862003326416016e+00 -1.005482673645019531e+01 -5.049153137207031250e+01 -7.901624202728271484e+00 -9.579598426818847656e+00 -5.299024963378906250e+01 -1.674412250518798828e+00 4.421589076519012451e-01 -4.388186645507812500e+01 -2.698549985885620117e+00 -1.004304438829421997e-01 -4.502652359008789062e+01 5.158501148223876953e+00 1.941983699798583984e+00 -3.751232147216796875e+01 -7.186655044555664062e+00 -4.397068023681640625e+00 -5.145632171630859375e+01 -5.625698566436767578e+00 -1.250325202941894531e+00 -4.878078460693359375e+01 4.395051002502441406e+00 -6.362653732299804688e+00 -4.123167419433593750e+01 5.642677783966064453e+00 5.147230148315429688e+00 -3.657794952392578125e+01 3.384479284286499023e+00 3.978178024291992188e+00 -3.951942062377929688e+01 4.038603305816650391e+00 4.110486984252929688e+00 -3.903709030151367188e+01 5.453885555267333984e+00 -5.921641349792480469e+00 -4.006394958496093750e+01 4.812538146972656250e+00 5.208499431610107422e+00 -3.763018035888671875e+01 2.837441563606262207e-01 -7.093787670135498047e+00 -4.387122344970703125e+01 -7.145709991455078125e-01 -7.267849445343017578e+00 -4.513332748413085938e+01 -6.659560680389404297e+00 -1.867029786109924316e+00 -4.989696121215820312e+01 -1.986071467399597168e+00 -7.818045616149902344e+00 -4.661661529541015625e+01 3.560743808746337891e+00 -6.801239490509033203e+00 -4.152759933471679688e+01 5.747610092163085938e+00 -3.699372053146362305e+00 -3.890235900878906250e+01 -7.438918113708496094e+00 -1.058128738403320312e+01 -5.307432937622070312e+01 5.777330875396728516e+00 -4.845713615417480469e+00 -3.959101104736328125e+01 5.404839992523193359e+00 -3.100807189941406250e+00 -3.883567810058593750e+01 5.474450111389160156e+00 -2.058531522750854492e+00 -3.890263366699218750e+01 2.446682691574096680e+00 -6.770056724548339844e+00 -4.245841979980468750e+01 -1.455532073974609375e+00 -7.310823440551757812e+00 -4.577482986450195312e+01 5.323610305786132812e+00 5.567846298217773438e-01 -3.834377288818359375e+01 5.338224411010742188e+00 6.400064378976821899e-02 -3.814171218872070312e+01 5.549487590789794922e+00 3.607524633407592773e+00 -3.745238494873046875e+01 5.380384922027587891e+00 1.627748847007751465e+00 -3.768266677856445312e+01 -7.000687599182128906e+00 -5.396977901458740234e+00 -5.189356613159179688e+01 -5.017103195190429688e+00 -9.645022392272949219e+00 -5.038708877563476562e+01 1.442898392677307129e+00 2.480167865753173828e+00 -4.166498184204101562e+01 -7.568232536315917969e+00 -8.092839241027832031e+00 -5.248527145385742188e+01 -7.186132907867431641e+00 -3.989243507385253906e+00 -5.101160812377929688e+01 -4.034286975860595703e+00 -4.852243661880493164e-01 -4.674987411499023438e+01 5.447124004364013672e+00 1.406771779060363770e+00 -3.797004318237304688e+01 5.563044071197509766e+00 3.537765979766845703e+00 -3.741901779174804688e+01 2.067925930023193359e+00 -6.892560958862304688e+00 -4.320712280273437500e+01 5.500527381896972656e+00 -7.677765488624572754e-01 -3.848107910156250000e+01 -2.350880622863769531e+00 -8.003774642944335938e+00 -4.707481384277343750e+01 5.822122097015380859e+00 2.418361186981201172e+00 -3.785525894165039062e+01 5.632151126861572266e+00 1.857857704162597656e+00 -3.757842254638671875e+01 4.948879241943359375e+00 -6.084268093109130859e+00 -4.052526473999023438e+01 4.972062587738037109e+00 4.852767944335937500e+00 -3.782357788085937500e+01 -2.279601573944091797e+00 3.255169391632080078e-01 -4.538557434082031250e+01 5.537353992462158203e+00 -5.068237185478210449e-01 -3.835059356689453125e+01 -1.827460169792175293e+00 5.201697945594787598e-01 -4.446993637084960938e+01 -3.408305644989013672e+00 -8.830348968505859375e+00 -4.818546295166015625e+01 -6.172315597534179688e+00 -1.036634159088134766e+01 -5.156612396240234375e+01 5.470384597778320312e+00 9.895352125167846680e-01 -3.794474029541015625e+01 6.214817047119140625e+00 -4.080962181091308594e+00 -3.952242279052734375e+01 2.357015132904052734e+00 2.903615713119506836e+00 -4.093629455566406250e+01 -1.454977989196777344e+00 -7.776810646057128906e+00 -4.608116531372070312e+01 -4.187897205352783203e+00 -9.449763298034667969e+00 -4.948339080810546875e+01 5.354025363922119141e+00 -1.580100059509277344e+00 -3.877127838134765625e+01 -7.760446071624755859e-01 -7.274189472198486328e+00 -4.528260803222656250e+01 -6.965433120727539062e+00 -6.304931640625000000e+00 -5.185074615478515625e+01 5.170046806335449219e+00 4.848879814147949219e+00 -3.721313476562500000e+01 3.214010477066040039e+00 3.372307538986206055e+00 -4.012047958374023438e+01 5.557438135147094727e-01 1.743912220001220703e+00 -4.249604034423828125e+01 5.573905467987060547e+00 2.727335929870605469e+00 -3.746746063232421875e+01 -5.089577674865722656e+00 -9.815382957458496094e+00 -5.092424392700195312e+01 5.840156078338623047e+00 4.217248916625976562e+00 -3.724214553833007812e+01 -6.027876377105712891e+00 -1.018237876892089844e+01 -5.140836715698242188e+01 4.959955692291259766e+00 -1.732559323310852051e+00 -3.850250244140625000e+01 7.686672210693359375e-01 -7.067292213439941406e+00 -4.396722793579101562e+01 -5.910983562469482422e+00 -1.470477581024169922e+00 -4.905553436279296875e+01 -7.124669075012207031e+00 -2.923649072647094727e+00 -5.091830825805664062e+01 5.502848625183105469e+00 -4.080426216125488281e+00 -3.954678344726562500e+01 -5.206071376800537109e+00 -9.219926595687866211e-01 -4.858152389526367188e+01 -7.078487396240234375e+00 -1.872313737869262695e+00 -5.048140716552734375e+01 3.613035440444946289e+00 -6.736983776092529297e+00 -4.186687850952148438e+01 5.771869182586669922e+00 -1.422993421554565430e+00 -3.874713134765625000e+01 -3.515636682510375977e+00 -9.050678253173828125e+00 -4.868093490600585938e+01 -7.616538524627685547e+00 -9.404004096984863281e+00 -5.330728912353515625e+01 5.556387424468994141e+00 4.284246921539306641e+00 -3.755968856811523438e+01 -7.104149818420410156e+00 -1.057601833343505859e+01 -5.292151641845703125e+01 -6.945549488067626953e+00 -1.652967929840087891e+00 -5.019883346557617188e+01 -7.226503372192382812e+00 -2.376847982406616211e+00 -5.102772521972656250e+01 5.937616348266601562e+00 -4.447487831115722656e+00 -3.969338989257812500e+01 3.082132041454315186e-01 -7.309194087982177734e+00 -4.443268203735351562e+01 -5.388625264167785645e-01 1.310958743095397949e+00 -4.330307006835937500e+01 5.596027851104736328e+00 -6.076904773712158203e+00 -4.085055923461914062e+01 1.340091109275817871e+00 -6.847180843353271484e+00 -4.343218994140625000e+01 1.596529364585876465e+00 2.817806720733642578e+00 -4.147831344604492188e+01 5.456196784973144531e+00 -1.094423174858093262e+00 -3.841606140136718750e+01 -1.099344611167907715e+00 1.040806651115417480e+00 -4.419283294677734375e+01 6.323312282562255859e+00 -5.220887184143066406e+00 -4.019737625122070312e+01 -2.302852869033813477e-01 -7.207571029663085938e+00 -4.503955841064453125e+01 -6.996140003204345703e+00 -6.431371688842773438e+00 -5.254916763305664062e+01 -2.947585582733154297e+00 -8.277617454528808594e+00 -4.753852462768554688e+01 -7.609071254730224609e+00 -8.678791046142578125e+00 -5.313602066040039062e+01 -3.232924699783325195e+00 2.497171908617019653e-01 -4.621184921264648438e+01 5.598824501037597656e+00 2.541224658489227295e-01 -3.825100326538085938e+01 4.412353038787841797e+00 -5.960948944091796875e+00 -4.147766494750976562e+01 -6.086715698242187500e+00 -1.051806259155273438e+01 -5.207616806030273438e+01 4.975010871887207031e+00 4.660067558288574219e+00 -3.857815933227539062e+01 -7.731061935424804688e+00 -9.712361335754394531e+00 -5.314473724365234375e+01 6.265466690063476562e+00 -3.220829010009765625e+00 -3.903342819213867188e+01 6.005658149719238281e+00 -2.569922924041748047e+00 -3.889712905883789062e+01 5.848278045654296875e+00 -2.521575689315795898e+00 -3.908607864379882812e+01 -7.355659008026123047e+00 -1.138496875762939453e+01 -5.369536972045898438e+01 1.215209245681762695e+00 2.379784345626831055e+00 -4.199402999877929688e+01 -6.985047340393066406e+00 -4.402933597564697266e+00 -5.133563613891601562e+01 -6.759865760803222656e+00 -4.488005161285400391e+00 -5.189867782592773438e+01 -6.841202735900878906e+00 -3.777014493942260742e+00 -5.150618743896484375e+01 -4.796823024749755859e+00 -9.933912277221679688e+00 -5.035449600219726562e+01 -7.153835773468017578e+00 -3.384170055389404297e+00 -5.156253051757812500e+01 4.495639801025390625e+00 4.327034473419189453e+00 -3.918506240844726562e+01 3.025718212127685547e+00 -6.402533054351806641e+00 -4.292437744140625000e+01 -4.187052249908447266e+00 -9.185574531555175781e+00 -4.985985946655273438e+01 5.697417736053466797e+00 4.058180332183837891e+00 -3.768857192993164062e+01 5.598509788513183594e+00 9.312363266944885254e-01 -3.804900741577148438e+01 -3.580544471740722656e+00 6.305127590894699097e-02 -4.661160278320312500e+01 -4.612961292266845703e+00 -2.810776829719543457e-01 -4.802498245239257812e+01 -1.368995547294616699e+00 -7.432461738586425781e+00 -4.600957489013671875e+01 -7.495359420776367188e+00 -9.910045623779296875e+00 -5.338215637207031250e+01 5.992846012115478516e+00 -5.865752324461936951e-02 -3.854356002807617188e+01 5.556968212127685547e+00 4.729711532592773438e+00 -3.824267578125000000e+01 3.173753976821899414e+00 -6.028529644012451172e+00 -4.198923492431640625e+01 -1.763351559638977051e+00 -7.710978031158447266e+00 -4.703336334228515625e+01 5.909245491027832031e+00 -4.816353797912597656e+00 -4.052357482910156250e+01 5.811606407165527344e+00 -3.427564620971679688e+00 -3.948992156982421875e+01 5.796408653259277344e+00 2.736716270446777344e-01 -3.860791015625000000e+01 -7.109888553619384766e+00 -2.563140869140625000e+00 -5.156315612792968750e+01 -7.159842014312744141e+00 -7.035364627838134766e+00 -5.271781158447265625e+01 5.463922023773193359e+00 -5.427252769470214844e+00 -4.108999633789062500e+01 -7.225602626800537109e+00 -1.423980116844177246e+00 -5.097307205200195312e+01 -3.279524803161621094e+00 -8.688587188720703125e+00 -4.956892395019531250e+01 -1.175450161099433899e-01 -7.021117210388183594e+00 -4.553160476684570312e+01 5.938999652862548828e+00 2.937733650207519531e+00 -3.792572784423828125e+01 -2.515961885452270508e+00 3.628786504268646240e-01 -4.591806411743164062e+01 -7.089251995086669922e+00 -2.200288772583007812e+00 -5.120977783203125000e+01 -7.086610794067382812e+00 -5.921425819396972656e+00 -5.258580398559570312e+01 1.286420822143554688e+00 -6.997369766235351562e+00 -4.438062667846679688e+01 5.525279521942138672e+00 5.084210395812988281e+00 -3.809632873535156250e+01 5.968566417694091797e+00 -1.694635748863220215e+00 -3.889919281005859375e+01 6.248141288757324219e+00 -5.976095199584960938e-01 -3.879903411865234375e+01 2.224963188171386719e+00 -6.287988185882568359e+00 -4.293759155273437500e+01 -6.128904819488525391e+00 -7.607601881027221680e-01 -4.979955673217773438e+01 -6.835401535034179688e+00 -1.244803905487060547e+00 -5.038575363159179688e+01 5.714645385742187500e+00 9.275266528129577637e-01 -3.850943756103515625e+01 3.856371164321899414e+00 3.654015541076660156e+00 -4.004014968872070312e+01 -5.203289985656738281e+00 -5.423468351364135742e-01 -4.921747970581054688e+01 -7.495050430297851562e-01 -7.216093540191650391e+00 -4.581138610839843750e+01 -4.814027786254882812e+00 -9.613836288452148438e+00 -5.114518737792968750e+01 -7.326275348663330078e+00 -1.011341953277587891e+01 -5.373420715332031250e+01 -6.879731655120849609e+00 -6.223012924194335938e+00 -5.230324172973632812e+01 5.466845989227294922e+00 -2.215516328811645508e+00 -3.960774993896484375e+01 -5.879785060882568359e+00 -1.037744045257568359e+01 -5.189934158325195312e+01 2.211194038391113281e+00 3.112382650375366211e+00 -4.141016387939453125e+01 2.014756679534912109e+00 -6.431523323059082031e+00 -4.371747970581054688e+01 6.336895227432250977e-01 1.948635458946228027e+00 -4.286702346801757812e+01 -1.568959951400756836e+00 -6.948112487792968750e+00 -4.664080810546875000e+01 -3.409201145172119141e+00 -9.156723976135253906e+00 -4.966366958618164062e+01 4.298155307769775391e+00 -5.453227519989013672e+00 -4.200853347778320312e+01 2.611439704895019531e+00 3.209255695343017578e+00 -4.083914947509765625e+01 -6.896342277526855469e+00 -5.192356109619140625e+00 -5.177083969116210938e+01 5.743732452392578125e+00 -2.903452157974243164e+00 -3.914334869384765625e+01 -6.834910869598388672e+00 -4.003638744354248047e+00 -5.202011871337890625e+01 -2.680287361145019531e+00 -8.240316390991210938e+00 -4.836264419555664062e+01 -5.005545616149902344e+00 -3.798939883708953857e-01 -4.855081558227539062e+01 -6.304676055908203125e+00 -1.004538059234619141e+01 -5.284866714477539062e+01 -7.559780120849609375e+00 -7.879923820495605469e+00 -5.303284835815429688e+01 6.128099441528320312e+00 1.480885624885559082e+00 -3.864569854736328125e+01 4.632124423980712891e+00 4.242090225219726562e+00 -3.926950454711914062e+01 3.977228164672851562e+00 3.764065265655517578e+00 -4.019691085815429688e+01 3.834285020828247070e+00 -6.003371715545654297e+00 -4.241557693481445312e+01 -6.686525821685791016e+00 -3.889495611190795898e+00 -5.195072937011718750e+01 -7.218685626983642578e+00 -1.077246475219726562e+01 -5.352976226806640625e+01 -7.934909820556640625e+00 -1.152644252777099609e+01 -5.470112991333007812e+01 -7.963237285614013672e+00 -1.190898418426513672e+01 -5.448685455322265625e+01 -7.105311393737792969e+00 -1.085504055023193359e+01 -5.407074737548828125e+01 -6.785707473754882812e+00 -1.569220542907714844e+00 -5.179539108276367188e+01 -7.236633777618408203e+00 -9.902153015136718750e+00 -5.350373077392578125e+01 -7.419776320457458496e-01 1.507275342941284180e+00 -4.469281387329101562e+01 -7.357425212860107422e+00 -1.087232112884521484e+01 -5.396422195434570312e+01 -6.386075973510742188e+00 -9.557293653488159180e-01 -5.010624313354492188e+01 -7.470862865447998047e+00 -1.056132793426513672e+01 -5.401357269287109375e+01 -7.726943969726562500e+00 -1.097361278533935547e+01 -5.423981475830078125e+01 5.356974124908447266e+00 -4.403803348541259766e+00 -4.056749725341796875e+01 5.734730243682861328e+00 4.610462188720703125e+00 -3.828073501586914062e+01 2.054706573486328125e+00 2.530268192291259766e+00 -4.187203979492187500e+01 5.410363674163818359e+00 -4.557255268096923828e+00 -4.091965866088867188e+01 4.919130325317382812e+00 -4.927107334136962891e+00 -4.129094314575195312e+01 1.234779208898544312e-01 1.791816830635070801e+00 -4.355611801147460938e+01 -6.488522529602050781e+00 -6.789353370666503906e+00 -5.302964019775390625e+01 -4.090137004852294922e+00 -1.190772652626037598e-01 -4.775787734985351562e+01 -6.770565509796142578e+00 -3.256618738174438477e+00 -5.185939788818359375e+01 6.126063823699951172e+00 3.624635696411132812e+00 -3.819057846069335938e+01 -7.149242877960205078e+00 -9.210365295410156250e+00 -5.383738327026367188e+01 -3.263635635375976562e+00 3.893295526504516602e-01 -4.692496871948242188e+01 -4.535057067871093750e+00 -9.561426162719726562e+00 -5.151449966430664062e+01 -5.510088443756103516e+00 -1.033229351043701172e+01 -5.279504394531250000e+01 -2.105818986892700195e+00 -7.787417411804199219e+00 -4.849926376342773438e+01 -6.655804157257080078e+00 -3.447048664093017578e+00 -5.186040115356445312e+01 4.239749431610107422e+00 -5.303065776824951172e+00 -4.245536422729492188e+01 3.619539737701416016e+00 3.456277847290039062e+00 -4.100660324096679688e+01 1.534813880920410156e+00 2.152115583419799805e+00 -4.244115447998046875e+01 -1.796357393264770508e+00 1.161135673522949219e+00 -4.547658538818359375e+01 -6.638080596923828125e+00 -4.314426898956298828e+00 -5.227406311035156250e+01 -7.107784748077392578e+00 -2.535058498382568359e+00 -5.178025817871093750e+01 -1.964229494333267212e-01 1.865274071693420410e+00 -4.407593536376953125e+01 6.007796287536621094e+00 -3.484287500381469727e+00 -4.022831726074218750e+01 6.674927711486816406e+00 -1.804280281066894531e+00 -3.957376480102539062e+01 6.437941074371337891e+00 -8.038547635078430176e-01 -3.906750869750976562e+01 -6.515436649322509766e+00 -4.982228875160217285e-01 -5.052618026733398438e+01 -8.732879757881164551e-01 -7.319325447082519531e+00 -4.698617935180664062e+01 -3.917215824127197266e+00 -8.661929130554199219e+00 -5.037253570556640625e+01 -7.438227653503417969e+00 -9.802356719970703125e+00 -5.411666488647460938e+01 -7.514981269836425781e+00 -1.062841510772705078e+01 -5.421712493896484375e+01 5.570096015930175781e+00 4.249015331268310547e+00 -3.869431304931640625e+01 -5.231262207031250000e+00 -1.022607898712158203e+01 -5.296109771728515625e+01 -6.926787376403808594e+00 -7.527259349822998047e+00 -5.314486694335937500e+01 6.467553138732910156e+00 -1.048931665718555450e-02 -3.896325302124023438e+01 -6.702393531799316406e+00 -7.330325841903686523e-01 -5.135368347167968750e+01 3.320465981960296631e-01 -6.461162090301513672e+00 -4.577590942382812500e+01 1.704600214958190918e+00 -6.528726577758789062e+00 -4.428445053100585938e+01 -4.425539076328277588e-01 -6.598093509674072266e+00 -4.627005004882812500e+01 3.195646762847900391e+00 3.555763959884643555e+00 -4.136096954345703125e+01 5.750773429870605469e+00 4.289950370788574219e+00 -3.891842269897460938e+01 -4.763837337493896484e+00 -9.550114631652832031e+00 -5.220314025878906250e+01 -5.700574398040771484e+00 -1.008788776397705078e+01 -5.318274688720703125e+01 -6.650516510009765625e+00 -8.044709205627441406e+00 -5.373358917236328125e+01 5.548400402069091797e+00 -2.761062383651733398e+00 -4.026669311523437500e+01 7.987740039825439453e-01 2.087354660034179688e+00 -4.324925994873046875e+01 -5.811412811279296875e+00 -1.044464492797851562e+01 -5.377139663696289062e+01 -6.959911346435546875e+00 -2.802939891815185547e+00 -5.202447891235351562e+01 5.854598522186279297e+00 2.268937826156616211e+00 -3.893387985229492188e+01 -6.508498668670654297e+00 -4.947027206420898438e+00 -5.259910583496093750e+01 -5.069089412689208984e+00 -1.464885324239730835e-01 -4.927118682861328125e+01 2.795433282852172852e+00 -5.663583278656005859e+00 -4.309534072875976562e+01 5.409981250762939453e+00 -4.084984302520751953e+00 -4.088118743896484375e+01 5.952966690063476562e+00 3.149555027484893799e-01 -3.917849349975585938e+01 2.260181903839111328e+00 2.965699672698974609e+00 -4.180316162109375000e+01 -3.977567911148071289e+00 5.242015123367309570e-01 -4.795228195190429688e+01 -6.078500270843505859e+00 -2.658435404300689697e-01 -5.056735992431640625e+01 3.909847021102905273e+00 3.688447237014770508e+00 -4.081893920898437500e+01 -2.677593946456909180e+00 6.746231317520141602e-01 -4.634241867065429688e+01 6.107373714447021484e+00 -3.657478094100952148e+00 -4.076836776733398438e+01 -8.871281743049621582e-01 -6.716562747955322266e+00 -4.749821472167968750e+01 -2.588240861892700195e+00 -8.181140899658203125e+00 -4.963872146606445312e+01 -6.920557498931884766e+00 -1.053839588165283203e+01 -5.423685073852539062e+01 -6.444495677947998047e+00 -3.221584796905517578e+00 -5.215232849121093750e+01 -6.688567638397216797e+00 -2.849887609481811523e+00 -5.186540222167968750e+01 6.065141677856445312e+00 2.667715311050415039e+00 -3.907134628295898438e+01 5.320533514022827148e-01 1.802000164985656738e+00 -4.360135650634765625e+01 6.195575237274169922e+00 8.457044363021850586e-01 -3.893201065063476562e+01 -2.004823446273803711e+00 8.942883610725402832e-01 -4.634622955322265625e+01 -6.675623416900634766e+00 -9.894465446472167969e+00 -5.440879058837890625e+01 -4.875243663787841797e+00 -9.258737564086914062e+00 -5.175128936767578125e+01 -6.716485500335693359e+00 -9.404054641723632812e+00 -5.395394134521484375e+01 -6.514663696289062500e+00 -6.060949325561523438e+00 -5.264534378051757812e+01 -6.962566375732421875e+00 -1.022185564041137695e+00 -5.110160827636718750e+01 -3.884797096252441406e+00 -8.802971839904785156e+00 -5.149553680419921875e+01 -3.802569389343261719e+00 -8.967329025268554688e+00 -5.134689331054687500e+01 4.625557899475097656e+00 3.691223621368408203e+00 -4.020431518554687500e+01 -6.660726070404052734e+00 -2.259504318237304688e+00 -5.187385559082031250e+01 4.954973220825195312e+00 3.932076930999755859e+00 -3.961038589477539062e+01 1.969281792640686035e+00 2.452685832977294922e+00 -4.252214813232421875e+01 5.209737777709960938e+00 -4.282759666442871094e+00 -4.119584655761718750e+01 5.917861461639404297e+00 3.262550830841064453e+00 -3.897504043579101562e+01 5.737185478210449219e+00 -2.336310863494873047e+00 -4.039992523193359375e+01 -5.573031902313232422e+00 -1.328616589307785034e-01 -5.010984802246093750e+01 -3.996896028518676758e+00 3.701322376728057861e-01 -4.847066497802734375e+01 -6.502462387084960938e+00 -4.023688316345214844e+00 -5.225250625610351562e+01 -6.302505016326904297e+00 -3.139464139938354492e+00 -5.222009277343750000e+01 -6.616530418395996094e+00 -1.026552104949951172e+01 -5.386164093017578125e+01 -6.654748439788818359e+00 -2.296087265014648438e+00 -5.201314163208007812e+01 -6.509731769561767578e+00 -8.101433753967285156e+00 -5.333365631103515625e+01 1.306054472923278809e+00 2.103190422058105469e+00 -4.346903991699218750e+01 -7.680077552795410156e-01 1.526815652847290039e+00 -4.503076553344726562e+01 2.285344362258911133e+00 -5.646219730377197266e+00 -4.402476882934570312e+01 -7.028244018554687500e+00 -1.232423186302185059e+00 -5.164387512207031250e+01 -1.617144584655761719e+00 -7.667774677276611328e+00 -4.923220062255859375e+01 -1.199131131172180176e+00 -6.842638492584228516e+00 -4.754995727539062500e+01 -6.161273479461669922e+00 -9.939585685729980469e+00 -5.405993270874023438e+01 -3.267076492309570312e+00 8.184716105461120605e-01 -4.759898376464843750e+01 -6.406783103942871094e+00 -2.585666179656982422e+00 -5.208288574218750000e+01 -5.215006351470947266e+00 3.194621205329895020e-01 -4.981085205078125000e+01 -6.655034542083740234e+00 -7.494952082633972168e-01 -5.147310256958007812e+01 5.254350185394287109e+00 -3.841765165328979492e+00 -4.099468612670898438e+01 5.893111228942871094e+00 -4.469051063060760498e-01 -3.975006103515625000e+01 3.851937770843505859e+00 3.252812147140502930e+00 -4.109231185913085938e+01 -5.885254859924316406e+00 -6.907460212707519531e+00 -5.290000152587890625e+01 2.991904735565185547e+00 3.068824291229248047e+00 -4.176739501953125000e+01 -6.431349754333496094e+00 -7.927019149065017700e-02 -5.118340301513671875e+01 -2.414469003677368164e+00 8.548865914344787598e-01 -4.669586181640625000e+01 4.502161502838134766e+00 -4.270667552947998047e+00 -4.211938858032226562e+01 1.069945618510246277e-01 -6.039463043212890625e+00 -4.663338851928710938e+01 1.817796677350997925e-01 1.564278721809387207e+00 -4.430521774291992188e+01 -5.360875129699707031e+00 -9.394207954406738281e+00 -5.369655990600585938e+01 -6.218649864196777344e+00 -3.656443834304809570e+00 -5.235028839111328125e+01 -6.067444324493408203e+00 -6.047085762023925781e+00 -5.310634994506835938e+01 -6.711297035217285156e+00 -1.428305149078369141e+00 -5.204798507690429688e+01 6.539084911346435547e-01 -6.281592845916748047e+00 -4.605796813964843750e+01 -4.150516033172607422e+00 7.028411030769348145e-01 -4.898080062866210938e+01 -5.894140243530273438e+00 -5.086624145507812500e+00 -5.245368957519531250e+01 -1.434459090232849121e+00 1.256451725959777832e+00 -4.604178619384765625e+01 -2.717882871627807617e+00 -7.726830482482910156e+00 -5.057630920410156250e+01 3.566648006439208984e+00 -4.883012294769287109e+00 -4.260521697998046875e+01 1.835551381111145020e+00 2.767126321792602539e+00 -4.318960571289062500e+01 -2.371565103530883789e+00 8.525655269622802734e-01 -4.686329650878906250e+01 2.573677778244018555e+00 2.854487419128417969e+00 -4.261067962646484375e+01 -4.617631435394287109e+00 4.777859747409820557e-01 -4.927396011352539062e+01 -6.096851825714111328e+00 -8.221501350402832031e+00 -5.373713684082031250e+01 2.318798542022705078e+00 -5.838645458221435547e+00 -4.434117889404296875e+01 6.065878868103027344e+00 1.382844686508178711e+00 -3.966309738159179688e+01 3.697072505950927734e+00 -4.515819549560546875e+00 -4.310475921630859375e+01 -5.940000057220458984e+00 2.292076647281646729e-01 -5.038268280029296875e+01 -6.089190483093261719e+00 -8.605180740356445312e+00 -5.364511108398437500e+01 5.314987182617187500e+00 -3.003426313400268555e+00 -4.115739059448242188e+01 -3.329324483871459961e+00 6.736154556274414062e-01 -4.836009597778320312e+01 -5.765428543090820312e+00 -3.371012210845947266e+00 -5.186325836181640625e+01 1.133707985281944275e-01 1.417886018753051758e+00 -4.492891311645507812e+01 4.904840469360351562e+00 -3.942391157150268555e+00 -4.119967269897460938e+01 -6.482553005218505859e+00 -1.881500720977783203e+00 -5.237748336791992188e+01 -5.659188270568847656e+00 -8.049142837524414062e+00 -5.438045501708984375e+01 6.322086811065673828e+00 5.186234116554260254e-01 -3.979127883911132812e+01 -5.841191768646240234e+00 -9.344347000122070312e+00 -5.377312850952148438e+01 -6.542394638061523438e+00 -5.579380989074707031e-01 -5.179214096069335938e+01 -6.608897686004638672e+00 -9.710332751274108887e-02 -5.142795181274414062e+01 5.548261165618896484e+00 3.433474063873291016e+00 -3.965701293945312500e+01 5.274801254272460938e+00 -3.098988294601440430e+00 -4.138469314575195312e+01 4.950644493103027344e+00 3.287103891372680664e+00 -4.052156829833984375e+01 -5.900550842285156250e+00 -7.173104286193847656e+00 -5.359084320068359375e+01 -3.028202295303344727e+00 7.198699712753295898e-01 -4.812211608886718750e+01 -6.042313098907470703e+00 -4.380879878997802734e+00 -5.274388885498046875e+01 -4.051138877868652344e+00 -8.956709861755371094e+00 -5.178399658203125000e+01 5.332879066467285156e+00 3.503077030181884766e+00 -4.048455047607421875e+01 1.476179718971252441e+00 2.014072418212890625e+00 -4.368592453002929688e+01 -1.819020390510559082e+00 -7.161216735839843750e+00 -4.985567474365234375e+01 6.173670768737792969e+00 -2.026801824569702148e+00 -4.056825637817382812e+01 4.301264286041259766e-01 1.776497721672058105e+00 -4.441616821289062500e+01 1.193641200661659241e-01 -5.793313503265380859e+00 -4.751604461669921875e+01 -6.003645420074462891e+00 -2.959173917770385742e+00 -5.253996658325195312e+01 -6.452549457550048828e+00 -1.996308803558349609e+00 -5.218396759033203125e+01 4.321012020111083984e+00 -4.357987880706787109e+00 -4.256851196289062500e+01 1.783186554908752441e+00 -5.981236457824707031e+00 -4.547179412841796875e+01 -7.017550945281982422e+00 -2.760640382766723633e-01 -5.139619445800781250e+01 -5.823637962341308594e+00 -2.338541030883789062e+00 -5.208251953125000000e+01 -4.851564884185791016e+00 2.150221318006515503e-01 -5.004177474975585938e+01 -5.760733127593994141e+00 -4.118947505950927734e+00 -5.268768692016601562e+01 6.112324714660644531e+00 3.009303092956542969e+00 -3.973246765136718750e+01 6.209831714630126953e+00 -4.716201424598693848e-01 -4.000961685180664062e+01 3.468590021133422852e+00 2.694712638854980469e+00 -4.196553802490234375e+01 -4.291524410247802734e+00 -8.313417434692382812e+00 -5.313661193847656250e+01 2.857325315475463867e+00 -4.577326297760009766e+00 -4.371511077880859375e+01 5.937580108642578125e+00 2.170896768569946289e+00 -3.999647140502929688e+01 -1.508701205253601074e+00 1.073477387428283691e+00 -4.698682403564453125e+01 -2.698310375213623047e+00 9.172229170799255371e-01 -4.765373611450195312e+01 -5.465601444244384766e+00 -7.965429872274398804e-02 -5.071239852905273438e+01 -6.380905628204345703e+00 -1.121356606483459473e+00 -5.206146240234375000e+01 4.663467884063720703e+00 -3.827568054199218750e+00 -4.261820983886718750e+01 8.587599992752075195e-01 -5.496037006378173828e+00 -4.642832183837890625e+01 -5.845541477203369141e+00 -5.880917549133300781e+00 -5.278481674194335938e+01 -1.800981998443603516e+00 -6.988461971282958984e+00 -5.031320571899414062e+01 -5.709900379180908203e+00 -3.296139001846313477e+00 -5.234941482543945312e+01 -5.437009334564208984e+00 -7.612151622772216797e+00 -5.379321670532226562e+01 -8.014743328094482422e-01 -6.788604259490966797e+00 -4.846989059448242188e+01 4.897274017333984375e+00 -3.170911073684692383e+00 -4.172172164916992188e+01 -4.964704513549804688e+00 -5.339719355106353760e-02 -5.022187423706054688e+01 -6.370704650878906250e+00 -4.476568400859832764e-01 -5.186559295654296875e+01 5.064136028289794922e+00 2.810989856719970703e+00 -4.083455276489257812e+01 -3.982835769653320312e+00 5.784078836441040039e-01 -4.923855972290039062e+01 -4.966111183166503906e+00 -4.794691085815429688e+00 -5.261607360839843750e+01 -1.052754044532775879e+00 1.761850714683532715e+00 -4.626512527465820312e+01 -6.185124874114990234e+00 -1.442836642265319824e+00 -5.204249572753906250e+01 -6.468478679656982422e+00 -6.179245710372924805e-01 -5.207850265502929688e+01 -4.853909492492675781e+00 -8.541913986206054688e+00 -5.357934570312500000e+01 -3.438794612884521484e-01 1.610392808914184570e+00 -4.568093490600585938e+01 -2.151250839233398438e+00 7.913060784339904785e-01 -4.753342437744140625e+01 -5.657597541809082031e+00 -2.439448356628417969e+00 -5.221082687377929688e+01 -6.407270908355712891e+00 8.461654186248779297e-01 -5.171090698242187500e+01 5.592968463897705078e+00 -1.731047630310058594e+00 -4.107796478271484375e+01 3.377715051174163818e-01 2.062945842742919922e+00 -4.538530349731445312e+01 -5.894306182861328125e+00 -3.676524460315704346e-01 -5.158924865722656250e+01 -2.723032474517822266e+00 -7.446816921234130859e+00 -5.153935241699218750e+01 -5.063419818878173828e+00 -5.537625312805175781e+00 -5.314788055419921875e+01 -5.689781188964843750e+00 -4.264489412307739258e-01 -5.124447631835937500e+01 -4.897846698760986328e+00 -6.993591785430908203e+00 -5.355785369873046875e+01 -4.626509666442871094e+00 -8.521583557128906250e+00 -5.389752197265625000e+01 -5.387347698211669922e+00 -5.991840362548828125e+00 -5.317020416259765625e+01 -6.395652294158935547e+00 -3.339038789272308350e-01 -5.203860855102539062e+01 -5.625273704528808594e+00 -3.043303966522216797e+00 -5.248254394531250000e+01 -6.000897884368896484e+00 -4.720421731472015381e-01 -5.213824081420898438e+01 -6.204369068145751953e+00 -4.995516836643218994e-01 -5.172822189331054688e+01 3.766878843307495117e+00 -4.420794963836669922e+00 -4.316258239746093750e+01 -3.492593288421630859e+00 -7.929697513580322266e+00 -5.245640945434570312e+01 4.349382400512695312e+00 -3.419080972671508789e+00 -4.226766967773437500e+01 -5.895259380340576172e+00 -1.447413444519042969e+00 -5.186065292358398438e+01 -5.280869960784912109e+00 -7.860518932342529297e+00 -5.322025299072265625e+01 5.941299438476562500e+00 -2.366854548454284668e-01 -4.055180740356445312e+01 4.093155860900878906e+00 -3.799741506576538086e+00 -4.248134231567382812e+01 4.772076606750488281e+00 2.758121490478515625e+00 -4.148895263671875000e+01 3.630644559860229492e+00 2.483272075653076172e+00 -4.217837142944335938e+01 3.051433324813842773e+00 2.718404054641723633e+00 -4.276085281372070312e+01 5.739565372467041016e+00 1.362263560295104980e+00 -4.052294540405273438e+01 -3.646134138107299805e+00 1.082868576049804688e+00 -4.892433929443359375e+01 -4.827250480651855469e+00 -3.714969873428344727e+00 -5.270240402221679688e+01 5.172374725341796875e+00 2.694464206695556641e+00 -4.083921051025390625e+01 -4.266187667846679688e+00 4.876558184623718262e-01 -5.018458557128906250e+01 -5.067853927612304688e+00 -1.371426880359649658e-01 -5.099498748779296875e+01 2.036329030990600586e+00 -4.862528324127197266e+00 -4.507632827758789062e+01 1.714194416999816895e+00 2.135140419006347656e+00 -4.419831085205078125e+01 -2.111187934875488281e+00 -6.669824600219726562e+00 -5.115080261230468750e+01 -5.608028411865234375e+00 -1.783072710037231445e+00 -5.216446685791015625e+01 -5.306558609008789062e+00 -2.550493001937866211e+00 -5.233576965332031250e+01 5.060678005218505859e+00 -2.454440832138061523e+00 -4.194942474365234375e+01 -4.524212777614593506e-01 -6.071148395538330078e+00 -4.862117004394531250e+01 -5.811290740966796875e+00 -2.853835523128509521e-01 -5.179172134399414062e+01 2.786647558212280273e+00 -4.848085403442382812e+00 -4.446479797363281250e+01 9.923508167266845703e-01 -4.988312244415283203e+00 -4.721193695068359375e+01 5.350311279296875000e+00 -1.617971420288085938e+00 -4.177704620361328125e+01 -5.503145217895507812e+00 -1.953537225723266602e+00 -5.238927459716796875e+01 -4.091950416564941406e+00 -7.990999221801757812e+00 -5.318038177490234375e+01 4.350425243377685547e+00 -3.845721006393432617e+00 -4.307941436767578125e+01 2.948965549468994141e+00 2.361648797988891602e+00 -4.327797317504882812e+01 -4.421029686927795410e-01 -5.307222366333007812e+00 -4.905509948730468750e+01 -3.694018602371215820e+00 -7.921706199645996094e+00 -5.279723739624023438e+01 -3.965636730194091797e+00 6.015499234199523926e-01 -5.024199295043945312e+01 -4.552765369415283203e+00 -5.836398124694824219e+00 -5.302195739746093750e+01 5.922172546386718750e+00 1.492019772529602051e+00 -4.073265457153320312e+01 5.788497924804687500e+00 -5.879990458488464355e-01 -4.132102966308593750e+01 -2.392610311508178711e+00 8.144851922988891602e-01 -4.849909210205078125e+01 -3.299542903900146484e+00 7.524348497390747070e-01 -4.869917678833007812e+01 -4.898614883422851562e+00 -2.910992145538330078e+00 -5.251852035522460938e+01 4.139446735382080078e+00 -3.356307029724121094e+00 -4.317148208618164062e+01 5.007393836975097656e+00 -2.451853275299072266e+00 -4.263093566894531250e+01 -4.402439594268798828e+00 -4.896927356719970703e+00 -5.268872833251953125e+01 -1.941653132438659668e+00 8.046100139617919922e-01 -4.788632965087890625e+01 4.879414558410644531e+00 -2.141460418701171875e+00 -4.227355575561523438e+01 6.126714706420898438e+00 6.182593107223510742e-02 -4.107574844360351562e+01 3.473111867904663086e+00 -4.472516059875488281e+00 -4.425817108154296875e+01 -3.694588422775268555e+00 -7.132397174835205078e+00 -5.304129791259765625e+01 8.891605585813522339e-02 1.498616337776184082e+00 -4.634317398071289062e+01 -9.401657581329345703e-01 1.222213387489318848e+00 -4.690489578247070312e+01 -1.238596677780151367e+00 -5.868485927581787109e+00 -5.003205490112304688e+01 -4.004921436309814453e+00 -3.742705106735229492e+00 -5.238575363159179688e+01 -8.319920301437377930e-02 -4.976369857788085938e+00 -4.833979415893554688e+01 -4.088247776031494141e+00 -6.381267070770263672e+00 -5.261944580078125000e+01 -5.386012554168701172e+00 -1.177264928817749023e+00 -5.194707870483398438e+01 5.077857971191406250e+00 2.287220478057861328e+00 -4.138122558593750000e+01 1.052635908126831055e+00 1.958876252174377441e+00 -4.443461608886718750e+01 -1.150542497634887695e+00 9.240862131118774414e-01 -4.762548828125000000e+01 -3.232638359069824219e+00 5.261638164520263672e-01 -4.957777404785156250e+01 4.357212543487548828e+00 2.275886774063110352e+00 -4.199734878540039062e+01 2.224372625350952148e+00 -4.981613159179687500e+00 -4.581682968139648438e+01 -2.451578140258789062e+00 -6.299683570861816406e+00 -5.210127258300781250e+01 -5.057736873626708984e+00 -1.275198698043823242e+00 -5.202177047729492188e+01 -5.298974037170410156e+00 -8.466697931289672852e-01 -5.174271774291992188e+01 -5.215997695922851562e+00 -1.359307952225208282e-02 -5.162272262573242188e+01 5.242601871490478516e+00 -4.073346555233001709e-01 -4.203020477294921875e+01 -4.983194828033447266e+00 -2.169889450073242188e+00 -5.225942993164062500e+01 4.017467498779296875e+00 -2.812222480773925781e+00 -4.323948669433593750e+01 5.596899509429931641e+00 9.733546376228332520e-01 -4.158518218994140625e+01 2.792061805725097656e+00 -4.106562137603759766e+00 -4.441858673095703125e+01 5.366076946258544922e+00 -1.177527666091918945e+00 -4.240856552124023438e+01 -4.586584091186523438e+00 -1.593002796173095703e+00 -5.204741287231445312e+01 4.594420194625854492e-01 1.458632469177246094e+00 -4.581863784790039062e+01 3.311527252197265625e+00 2.705834865570068359e+00 -4.311160278320312500e+01 2.785396814346313477e+00 2.037983894348144531e+00 -4.372107315063476562e+01 -4.329128742218017578e+00 2.179463505744934082e-01 -5.068260192871093750e+01 -4.848971843719482422e+00 3.784408569335937500e-01 -5.114525985717773438e+01 4.727457523345947266e+00 1.616730570793151855e+00 -4.204996871948242188e+01 1.234765529632568359e+00 -5.197614669799804688e+00 -4.710686111450195312e+01 -3.041116237640380859e+00 -6.174668788909912109e+00 -5.261879348754882812e+01 2.481140136718750000e+00 -4.229243278503417969e+00 -4.598387145996093750e+01 -2.553584575653076172e+00 -6.505406379699707031e+00 -5.223588562011718750e+01 -3.777257680892944336e+00 -5.443319320678710938e+00 -5.301601409912109375e+01 -3.549162387847900391e+00 -5.317866802215576172e+00 -5.250772857666015625e+01 -4.643385410308837891e+00 -1.574103355407714844e+00 -5.178516387939453125e+01 -3.750299930572509766e+00 -4.478638648986816406e+00 -5.261900711059570312e+01 2.558919906616210938e+00 -4.136611461639404297e+00 -4.527609252929687500e+01 2.328689098358154297e+00 1.312055945396423340e+00 -4.451632690429687500e+01 4.820583820343017578e+00 -1.124824881553649902e+00 -4.262731552124023438e+01 5.066467761993408203e+00 1.342799186706542969e+00 -4.201707458496093750e+01 3.450151443481445312e+00 -2.909124612808227539e+00 -4.400856399536132812e+01 2.719511270523071289e+00 -3.285386562347412109e+00 -4.497379302978515625e+01 -7.934865355491638184e-01 8.133001327514648438e-01 -4.817302703857421875e+01 4.489220142364501953e+00 -2.331366539001464844e+00 -4.314197540283203125e+01 -2.865195035934448242e+00 4.933388233184814453e-01 -5.002096176147460938e+01 -4.841795444488525391e+00 -3.418669402599334717e-01 -5.161008453369140625e+01 1.371868550777435303e-01 -5.176911830902099609e+00 -4.857357788085937500e+01 -3.708880901336669922e+00 -3.052136182785034180e+00 -5.235892486572265625e+01 -3.062099218368530273e+00 -5.694412231445312500e+00 -5.235332870483398438e+01 -1.865167737007141113e+00 1.001334905624389648e+00 -4.855881881713867188e+01 -3.859002351760864258e+00 3.591401278972625732e-01 -5.079199218750000000e+01 5.240527629852294922e+00 3.009199500083923340e-01 -4.216611480712890625e+01 4.306034564971923828e+00 1.416261076927185059e+00 -4.268014144897460938e+01 -4.435531139373779297e+00 9.458822011947631836e-02 -5.121329116821289062e+01 -1.370359212160110474e-01 7.069985866546630859e-01 -4.732571029663085938e+01 5.026198387145996094e+00 9.175664186477661133e-01 -4.231030654907226562e+01 -9.382116794586181641e-01 -5.614942550659179688e+00 -5.031966400146484375e+01 4.282042503356933594e+00 -1.584261059761047363e+00 -4.383013916015625000e+01 4.990785598754882812e+00 -3.533469736576080322e-01 -4.269969940185546875e+01 -3.869097948074340820e+00 -1.743886232376098633e+00 -5.164862823486328125e+01 3.511504888534545898e+00 1.315705180168151855e+00 -4.353911209106445312e+01 -2.437916517257690430e+00 3.168337047100067139e-01 -4.922567367553710938e+01 -3.584519624710083008e+00 -2.081762552261352539e+00 -5.191015625000000000e+01 7.291788458824157715e-01 -4.625814437866210938e+00 -4.787208175659179688e+01 -3.191780149936676025e-01 -4.774740695953369141e+00 -4.890733337402343750e+01 -1.656111955642700195e+00 -6.081909179687500000e+00 -5.162651443481445312e+01 -2.967810153961181641e+00 -4.961377143859863281e+00 -5.204414749145507812e+01 1.782158851623535156e+00 -4.476152420043945312e+00 -4.674777984619140625e+01 -3.167598485946655273e+00 -4.194962501525878906e+00 -5.233077239990234375e+01 3.634226799011230469e+00 -2.101550340652465820e+00 -4.457556533813476562e+01 1.503594756126403809e+00 1.862725615501403809e+00 -4.542250061035156250e+01 4.591894149780273438e+00 -1.203937411308288574e+00 -4.294384384155273438e+01 2.436297893524169922e+00 1.345384836196899414e+00 -4.414321517944335938e+01 1.899050474166870117e-01 1.383644700050354004e+00 -4.680197143554687500e+01 2.782665014266967773e+00 -2.570097208023071289e+00 -4.489307022094726562e+01 -3.846987724304199219e+00 -9.022176861763000488e-01 -5.132805252075195312e+01 -2.839688777923583984e+00 -3.622347831726074219e+00 -5.210558700561523438e+01 4.426164627075195312e+00 7.451910972595214844e-01 -4.293049621582031250e+01 4.021166801452636719e+00 8.479577302932739258e-01 -4.324798583984375000e+01 2.156589984893798828e+00 -3.389899253845214844e+00 -4.570908737182617188e+01 -3.848341941833496094e+00 -5.962213277816772461e-01 -5.118183135986328125e+01 9.633772969245910645e-01 -3.830436468124389648e+00 -4.728205490112304688e+01 3.700285851955413818e-01 -4.152298450469970703e+00 -4.879194641113281250e+01 3.950544357299804688e+00 -2.333470731973648071e-01 -4.318539047241210938e+01 5.845597386360168457e-01 -3.289292335510253906e+00 -4.817715454101562500e+01 -5.489573478698730469e-01 -4.900647163391113281e+00 -5.044718551635742188e+01 1.947119474411010742e+00 -3.182462453842163086e+00 -4.649636840820312500e+01 -2.992884397506713867e+00 -1.263235062360763550e-01 -5.079024505615234375e+01 4.180351734161376953e+00 -8.987588286399841309e-01 -4.371812057495117188e+01 -1.997804045677185059e+00 -5.778053760528564453e+00 -5.198851776123046875e+01 -2.848862171173095703e+00 -2.404371023178100586e+00 -5.185846710205078125e+01 2.220156669616699219e+00 -2.362293481826782227e+00 -4.588460922241210938e+01 -1.946526914834976196e-01 -3.520808935165405273e+00 -4.896919250488281250e+01 -2.371360063552856445e+00 -4.446904182434082031e+00 -5.214432907104492188e+01 3.947701692581176758e+00 8.609459996223449707e-01 -4.397785949707031250e+01 3.772774934768676758e+00 -5.769754648208618164e-01 -4.389922714233398438e+01 3.274298191070556641e+00 -1.612906455993652344e+00 -4.488190460205078125e+01 -2.471042633056640625e+00 2.483163177967071533e-01 -5.010009765625000000e+01 -3.533693075180053711e+00 -1.350280523300170898e+00 -5.162552261352539062e+01 -1.539816021919250488e+00 -5.172562599182128906e+00 -5.095589828491210938e+01 -4.058364331722259521e-01 -4.208387851715087891e+00 -4.979611206054687500e+01 4.027129650115966797e+00 3.858734369277954102e-01 -4.382255172729492188e+01 1.685129880905151367e+00 1.286377072334289551e+00 -4.551976776123046875e+01 -1.021813601255416870e-01 9.453141093254089355e-01 -4.773362350463867188e+01 2.788228034973144531e+00 -1.490731716156005859e+00 -4.538248825073242188e+01 2.604980230331420898e+00 5.600029230117797852e-01 -4.471144866943359375e+01 2.212562561035156250e+00 1.170766830444335938e+00 -4.513624191284179688e+01 -1.985445737838745117e+00 -4.936001777648925781e+00 -5.181021499633789062e+01 -1.385213851928710938e+00 6.879717111587524414e-01 -4.893061447143554688e+01 -2.676968812942504883e+00 -3.004099845886230469e+00 -5.210202026367187500e+01 1.544138193130493164e+00 -2.619466781616210938e+00 -4.709844589233398438e+01 -2.454475641250610352e+00 -3.911363601684570312e+00 -5.189794540405273438e+01 3.409224510192871094e+00 -5.737732648849487305e-01 -4.441934204101562500e+01 3.081627368927001953e+00 -1.306184411048889160e+00 -4.535430145263671875e+01 -3.015753746032714844e+00 -8.861754834651947021e-02 -5.081326293945312500e+01 -7.095835208892822266e-01 -4.395556926727294922e+00 -5.016732025146484375e+01 -2.904232978820800781e+00 -9.530815482139587402e-01 -5.131887435913085938e+01 6.971210241317749023e-01 -2.766841888427734375e+00 -4.858016967773437500e+01 1.882144927978515625e+00 -1.936850666999816895e+00 -4.627930450439453125e+01 3.677363872528076172e+00 -4.548156857490539551e-01 -4.467052459716796875e+01 -1.229794859886169434e+00 -4.326812744140625000e+00 -5.083335113525390625e+01 -1.744958400726318359e+00 2.598385214805603027e-01 -4.954135513305664062e+01 -4.593302607536315918e-01 -3.840168714523315430e+00 -4.918476486206054688e+01 -8.079633116722106934e-02 4.456028640270233154e-01 -4.840789413452148438e+01 -2.580617904663085938e+00 -2.212550640106201172e+00 -5.147629165649414062e+01 -2.822309017181396484e+00 -1.316395401954650879e+00 -5.173396682739257812e+01 1.794266581535339355e+00 9.732501506805419922e-01 -4.547403717041015625e+01 7.500001788139343262e-01 4.672225117683410645e-01 -4.766603851318359375e+01 2.081857204437255859e+00 -9.001923203468322754e-01 -4.620301055908203125e+01 -2.061116695404052734e+00 -3.607318162918090820e+00 -5.130887222290039062e+01 2.299602985382080078e+00 3.436007499694824219e-01 -4.544820785522460938e+01 -1.484795093536376953e+00 -3.486660957336425781e+00 -5.086566925048828125e+01 2.017091512680053711e+00 1.235236406326293945e+00 -4.607733917236328125e+01 9.933795332908630371e-01 7.468434572219848633e-01 -4.683119964599609375e+01 -8.097912073135375977e-01 1.345145553350448608e-01 -4.903258895874023438e+01 -2.778924942016601562e+00 -1.205954670906066895e+00 -5.129355239868164062e+01 1.714317679405212402e+00 -1.434180736541748047e+00 -4.649615097045898438e+01 2.515951395034790039e+00 -6.509271264076232910e-01 -4.568982315063476562e+01 -1.284006714820861816e+00 -3.789699077606201172e+00 -5.069761276245117188e+01 -1.531721949577331543e+00 -2.871225833892822266e+00 -5.157818984985351562e+01 -2.087830781936645508e+00 -2.739247679710388184e-01 -5.030059814453125000e+01 1.429991364479064941e+00 -2.308069467544555664e+00 -4.741895675659179688e+01 -2.531982958316802979e-01 -3.326691865921020508e+00 -5.013605880737304688e+01 8.146785497665405273e-01 -2.046212673187255859e+00 -4.822032546997070312e+01 2.500210523605346680e+00 -2.744081318378448486e-01 -4.610569763183593750e+01 2.015962123870849609e+00 1.513331681489944458e-01 -4.622091293334960938e+01 -1.805199623107910156e+00 -2.233595371246337891e+00 -5.105661010742187500e+01 -2.115688800811767578e+00 -1.507898449897766113e+00 -5.079090881347656250e+01 1.588058710098266602e+00 -1.039011836051940918e+00 -4.667497253417968750e+01 -1.297419309616088867e+00 -4.084015786647796631e-01 -4.975175094604492188e+01 -5.744230747222900391e-02 3.352503180503845215e-01 -4.844046783447265625e+01 1.441538214683532715e+00 1.466705948114395142e-01 -4.712272644042968750e+01 -1.973490953445434570e+00 -1.330531477928161621e+00 -5.059495162963867188e+01 2.152844965457916260e-01 -2.827242612838745117e+00 -4.919665527343750000e+01 -1.035834103822708130e-01 -2.672038316726684570e+00 -4.969751739501953125e+01 -1.590529203414916992e+00 -2.362541913986206055e+00 -5.102154159545898438e+01 -2.678260803222656250e-01 -2.909769535064697266e+00 -5.014401626586914062e+01 1.384850621223449707e+00 -1.084193587303161621e+00 -4.737458419799804688e+01 1.214806437492370605e+00 -2.697144746780395508e-01 -4.690071105957031250e+01 -6.815878152847290039e-01 -6.892275810241699219e-01 -4.937848281860351562e+01 5.182943940162658691e-01 -2.002462387084960938e+00 -4.864126968383789062e+01 1.077377080917358398e+00 -7.404918074607849121e-01 -4.790529251098632812e+01 4.442534446716308594e-01 -5.725285410881042480e-02 -4.831241607666015625e+01 -1.553427338600158691e+00 -1.176010251045227051e+00 -5.032102203369140625e+01 2.587205171585083008e-01 -7.574235796928405762e-01 -4.911101913452148438e+01 -6.651669740676879883e-01 -2.429041147232055664e+00 -5.019770050048828125e+01 7.248234152793884277e-01 -6.325791478157043457e-01 -4.815918731689453125e+01 7.344313859939575195e-01 -1.717264771461486816e+00 -4.880731964111328125e+01 -9.849096536636352539e-01 -1.759524822235107422e+00 -5.017433166503906250e+01 -2.385196276009082794e-02 -1.882895112037658691e+00 -4.939718627929687500e+01
